{"learner":{"attributes":{"best_iteration":"36","best_score":"10.986337423175804","scikit_learn":"{\"_estimator_type\": \"regressor\"}"},"feature_names":["air_temp_c_min","air_temp_c_mean","air_temp_c_max","dew_point_c_mean","rh_pct_mean","wind_ms_mean","shortwave_w_m2_mean","precip_mm_sum","pressure_hpa_mean","cloud_pct_mean","water_temp_c","streamflow_cfs","water_site_id","wet_bulb_c","heat_index_c","water_thermal_stress","heat_dose_7d","heat_dose_14d","air_temp_c_max_lag1","air_temp_c_max_lag3","air_temp_c_max_lag7","air_temp_c_max_lag14","air_temp_c_mean_lag1","air_temp_c_mean_lag3","air_temp_c_mean_lag7","air_temp_c_mean_lag14","rh_pct_mean_lag1","rh_pct_mean_lag3","rh_pct_mean_lag7","rh_pct_mean_lag14","wet_bulb_c_lag1","wet_bulb_c_lag3","wet_bulb_c_lag7","wet_bulb_c_lag14","heat_index_c_lag1","heat_index_c_lag3","heat_index_c_lag7","heat_index_c_lag14","water_temp_c_lag1","water_temp_c_lag3","water_temp_c_lag7","water_temp_c_lag14","streamflow_cfs_lag1","streamflow_cfs_lag3","streamflow_cfs_lag7","streamflow_cfs_lag14","water_thermal_stress_lag1","water_thermal_stress_lag3","water_thermal_stress_lag7","water_thermal_stress_lag14","air_temp_c_max_roll7_mean","air_temp_c_max_roll7_max","air_temp_c_max_roll14_mean","air_temp_c_max_roll14_max","air_temp_c_max_roll30_mean","air_temp_c_max_roll30_max","wet_bulb_c_roll7_mean","wet_bulb_c_roll7_max","wet_bulb_c_roll14_mean","wet_bulb_c_roll14_max","wet_bulb_c_roll30_mean","wet_bulb_c_roll30_max","water_temp_c_roll7_mean","water_temp_c_roll7_max","water_temp_c_roll14_mean","water_temp_c_roll14_max","water_temp_c_roll30_mean","water_temp_c_roll30_max","streamflow_cfs_roll7_mean","streamflow_cfs_roll7_max","streamflow_cfs_roll14_mean","streamflow_cfs_roll14_max","streamflow_cfs_roll30_mean","streamflow_cfs_roll30_max","water_thermal_stress_roll7_mean","water_thermal_stress_roll7_max","water_thermal_stress_roll14_mean","water_thermal_stress_roll14_max","water_thermal_stress_roll30_mean","water_thermal_stress_roll30_max","doy_sin","doy_cos"],"feature_types":["float","float","float","float","float","float","float","float","float","float","float","float","c","float","float","float","float","float","float","float","float","float","float","float","float","float","float","float","float","float","float","float","float","float","float","float","float","float","float","float","float","float","float","float","float","float","float","float","float","float","float","float","float","float","float","float","float","float","float","float","float","float","float","float","float","float","float","float","float","float","float","float","float","float","float","float","float","float","float","float","float","float"],"gradient_booster":{"model":{"cats":{"enc":[{"offsets":[],"values":[]},{"offsets":[],"values":[]},{"offsets":[],"values":[]},{"offsets":[],"values":[]},{"offsets":[],"values":[]},{"offsets":[],"values":[]},{"offsets":[],"values":[]},{"offsets":[],"values":[]},{"offsets":[],"values":[]},{"offsets":[],"values":[]},{"offsets":[],"values":[]},{"offsets":[],"values":[]},{"offsets":[0,8,16],"values":[48,53,52,50,48,52,48,48,48,53,52,50,48,53,48,48]},{"offsets":[],"values":[]},{"offsets":[],"values":[]},{"offsets":[],"values":[]},{"offsets":[],"values":[]},{"offsets":[],"values":[]},{"offsets":[],"values":[]},{"offsets":[],"values":[]},{"offsets":[],"values":[]},{"offsets":[],"values":[]},{"offsets":[],"values":[]},{"offsets":[],"values":[]},{"offsets":[],"values":[]},{"offsets":[],"values":[]},{"offsets":[],"values":[]},{"offsets":[],"values":[]},{"offsets":[],"values":[]},{"offsets":[],"values":[]},{"offsets":[],"values":[]},{"offsets":[],"values":[]},{"offsets":[],"values":[]},{"offsets":[],"values":[]},{"offsets":[],"values":[]},{"offsets":[],"values":[]},{"offsets":[],"values":[]},{"offsets":[],"values":[]},{"offsets":[],"values":[]},{"offsets":[],"values":[]},{"offsets":[],"values":[]},{"offsets":[],"values":[]},{"offsets":[],"values":[]},{"offsets":[],"values":[]},{"offsets":[],"values":[]},{"offsets":[],"values":[]},{"offsets":[],"values":[]},{"offsets":[],"values":[]},{"offsets":[],"values":[]},{"offsets":[],"values":[]},{"offsets":[],"values":[]},{"offsets":[],"values":[]},{"offsets":[],"values":[]},{"offsets":[],"values":[]},{"offsets":[],"values":[]},{"offsets":[],"values":[]},{"offsets":[],"values":[]},{"offsets":[],"values":[]},{"offsets":[],"values":[]},{"offsets":[],"values":[]},{"offsets":[],"values":[]},{"offsets":[],"values":[]},{"offsets":[],"values":[]},{"offsets":[],"values":[]},{"offsets":[],"values":[]},{"offsets":[],"values":[]},{"offsets":[],"values":[]},{"offsets":[],"values":[]},{"offsets":[],"values":[]},{"offsets":[],"values":[]},{"offsets":[],"values":[]},{"offsets":[],"values":[]},{"offsets":[],"values":[]},{"offsets":[],"values":[]},{"offsets":[],"values":[]},{"offsets":[],"values":[]},{"offsets":[],"values":[]},{"offsets":[],"values":[]},{"offsets":[],"values":[]},{"offsets":[],"values":[]},{"offsets":[],"values":[]},{"offsets":[],"values":[]}],"feature_segments":[0,0,0,0,0,0,0,0,0,0,0,0,0,2,2,2,2,2,2,2,2,2,2,2,2,2,2,2,2,2,2,2,2,2,2,2,2,2,2,2,2,2,2,2,2,2,2,2,2,2,2,2,2,2,2,2,2,2,2,2,2,2,2,2,2,2,2,2,2,2,2,2,2,2,2,2,2,2,2,2,2,2,2],"sorted_idx":[0,1]},"gbtree_model_param":{"num_parallel_tree":"1","num_trees":"87"},"iteration_indptr":[0,1,2,3,4,5,6,7,8,9,10,11,12,13,14,15,16,17,18,19,20,21,22,23,24,25,26,27,28,29,30,31,32,33,34,35,36,37,38,39,40,41,42,43,44,45,46,47,48,49,50,51,52,53,54,55,56,57,58,59,60,61,62,63,64,65,66,67,68,69,70,71,72,73,74,75,76,77,78,79,80,81,82,83,84,85,86,87],"tree_info":[0,0,0,0,0,0,0,0,0,0,0,0,0,0,0,0,0,0,0,0,0,0,0,0,0,0,0,0,0,0,0,0,0,0,0,0,0,0,0,0,0,0,0,0,0,0,0,0,0,0,0,0,0,0,0,0,0,0,0,0,0,0,0,0,0,0,0,0,0,0,0,0,0,0,0,0,0,0,0,0,0,0,0,0,0,0,0],"trees":[{"base_weights":[1.0579256E0,2.9392316E0,-1.3696759E1,4.1610775E0,-2.31752E1,-4.0510468E1,6.2463684E0,4.6400547E0,-1.5653408E1,4.8377642E-1,-3.7382195E1,6.7088046E0,-5.568046E1,-3.2191937E0,8.007585E0,5.337052E0,-9.251926E0,-6.291379E1,4.9389544E0,6.1117907E0,-5.791791E1,-3.738921E-1,4.0204868E-1,-6.4231735E1,8.9421425E0,2.4537253E-1,-2.354037E-1,-8.657299E0,9.11464E0,8.348233E0,3.2177787E0,-6.605492E1,5.616905E-1,4.2318732E-1,-4.2968197E0,-2.2949848E0,7.624256E0,-3.0114282E-2,7.467053E0,-4.229124E0,-1.3029777E1,-7.681268E1,-1.3295845E1,2.4456255E-1,4.7965547E-1,4.062964E-1,-2.9520588E0,3.8844684E-1,-1.1491994E0,1.637943E-1,9.284795E0,2.8161824E-1,4.3847284E-1,-3.0471618E0,1.7693317E-1,-4.2968197E0,4.3531758E-1,1.6527042E-1,-2.515448E0,-4.6275917E-1,4.2318732E-1,4.5087123E-1,1.3538061E-1,4.181803E-1,6.162125E-2,2.4016412E-1,-2.1619718E0,3.286675E-1,-4.1649113E0,3.9545923E-1,-3.1429164E0,-2.5653455E-1,-3.635835E-2,4.0098816E-1,5.0443894E-1],"categories":[],"categories_nodes":[],"categories_segments":[],"categories_sizes":[],"default_left":[1,1,0,1,0,0,0,0,0,0,0,0,0,0,0,0,0,0,1,0,0,0,0,0,0,0,0,0,0,0,0,0,0,0,0,0,0,0,0,0,0,0,0,0,0,0,0,0,0,0,0,0,0,0,0,0,0,0,0,0,0,0,0,0,0,0,0,0,0,0,0,0,0,0,0],"id":0,"left_children":[1,3,5,7,9,11,13,15,17,-1,19,21,23,25,27,29,31,33,35,37,39,-1,-1,41,43,45,-1,47,49,51,53,55,57,-1,-1,59,61,-1,63,-1,65,67,69,-1,-1,-1,71,-1,-1,-1,73,-1,-1,-1,-1,-1,-1,-1,-1,-1,-1,-1,-1,-1,-1,-1,-1,-1,-1,-1,-1,-1,-1,-1,-1],"loss_changes":[1.3792017E5,1.4069183E5,3.0072862E5,4.0030297E4,9.235025E4,1.7214612E5,5.4121426E3,3.9860664E4,9.724174E4,0E0,1.234342E5,1.1789507E3,1.00927625E5,2.6629315E2,5.1099434E3,2.4961875E4,1.0974184E5,5.0519227E4,1.3830966E3,4.1487708E2,1.1104956E5,0E0,0E0,1.01830625E5,1.1355469E1,4.3722778E2,0E0,4.296898E3,2.2411719E2,1.8003203E3,4.7566695E4,4.3852758E4,2.3726502E4,0E0,0E0,1.5610148E3,3.2834473E2,0E0,1.9986401E2,0E0,1.9655867E4,7.004075E4,3.5179297E4,0E0,0E0,0E0,5.637465E1,0E0,0E0,0E0,1.7172852E2,0E0,0E0,0E0,0E0,0E0,0E0,0E0,0E0,0E0,0E0,0E0,0E0,0E0,0E0,0E0,0E0,0E0,0E0,0E0,0E0,0E0,0E0,0E0,0E0],"parents":[2147483647,0,0,1,1,2,2,3,3,4,4,5,5,6,6,7,7,8,8,10,10,11,11,12,12,13,13,14,14,15,15,16,16,17,17,18,18,19,19,20,20,23,23,24,24,25,25,27,27,28,28,29,29,30,30,31,31,32,32,35,35,36,36,38,38,40,40,41,41,42,42,46,46,50,50],"right_children":[2,4,6,8,10,12,14,16,18,-1,20,22,24,26,28,30,32,34,36,38,40,-1,-1,42,44,46,-1,48,50,52,54,56,58,-1,-1,60,62,-1,64,-1,66,68,70,-1,-1,-1,72,-1,-1,-1,74,-1,-1,-1,-1,-1,-1,-1,-1,-1,-1,-1,-1,-1,-1,-1,-1,-1,-1,-1,-1,-1,-1,-1,-1],"split_conditions":[2.857E1,9.0875E1,3.24E1,9.2583336E1,2.46E1,4.855E4,2.263371E1,9.897936E-1,9.3E1,4.8377642E-1,4.15E4,1.81E4,8.65E4,3.47E4,2.2314285E4,2.5029447E0,1.6E0,9.9612085E2,4.4543834E0,2.71E4,4.76E4,-3.738921E-1,4.0204868E-1,2.35E1,7.635714E4,4.12E1,-2.354037E-1,4.21E1,2.1874542E0,-9.3507487E-1,2.5071576E0,1.6570833E2,1.00450415E3,4.2318732E-1,-4.2968197E0,5.9166668E1,6.616667E0,-3.0114282E-2,3.78E4,-4.229124E0,1.5585714E1,3.79E1,3.105E2,2.4456255E-1,4.7965547E-1,4.062964E-1,2.06E1,3.8844684E-1,-1.1491994E0,1.637943E-1,7.89E4,2.8161824E-1,4.3847284E-1,-3.0471618E0,1.7693317E-1,-4.2968197E0,4.3531758E-1,1.6527042E-1,-2.515448E0,-4.6275917E-1,4.2318732E-1,4.5087123E-1,1.3538061E-1,4.181803E-1,6.162125E-2,2.4016412E-1,-2.1619718E0,3.286675E-1,-4.1649113E0,3.9545923E-1,-3.1429164E0,-2.5653455E-1,-3.635835E-2,4.0098816E-1,5.0443894E-1],"split_indices":[54,29,53,27,10,70,61,80,27,0,11,43,11,11,68,79,40,8,61,11,11,0,0,16,70,16,0,16,46,80,79,6,8,0,0,9,22,0,11,0,50,17,6,0,0,0,0,0,0,0,73,0,0,0,0,0,0,0,0,0,0,0,0,0,0,0,0,0,0,0,0,0,0,0,0],"split_type":[0,0,0,0,0,0,0,0,0,0,0,0,0,0,0,0,0,0,0,0,0,0,0,0,0,0,0,0,0,0,0,0,0,0,0,0,0,0,0,0,0,0,0,0,0,0,0,0,0,0,0,0,0,0,0,0,0,0,0,0,0,0,0,0,0,0,0,0,0,0,0,0,0,0,0],"sum_hessian":[4.9662E3,4.4053E3,5.609E2,4.2092E3,1.961E2,2.388E2,3.221E2,4.1106E3,9.86E1,5.93E1,1.368E2,5.82E1,1.806E2,5.04E1,2.717E2,3.9148E3,1.958E2,2.93E1,6.93E1,4.41E1,9.27E1,4.6E0,5.3600002E1,1.595E2,2.11E1,1.54E1,3.5E1,1.65E1,2.552E2,1.6159E3,2.2989E3,2.8E1,1.678E2,7.3E0,2.2E1,1.88E1,5.05E1,7.5E0,3.66E1,5.76E1,3.51E1,1.275E2,3.2E1,4.1000004E0,1.7E1,4E0,1.14E1,7.9E0,8.6E0,7.8E0,2.4740001E2,2.189E2,1.397E3,1.05E1,2.2884E3,2.2E1,6E0,1.601E2,7.7E0,1.15E1,7.3E0,3.87E1,1.18E1,3.1699999E1,4.9E0,2.26E1,1.25E1,9.2E0,1.183E2,2.3E1,9E0,5.1E0,6.2999997E0,1.004E2,1.47E2],"tree_param":{"num_deleted":"0","num_feature":"82","num_nodes":"75","size_leaf_vector":"1"}},{"base_weights":[4.2006403E-1,1.1299106E0,-4.4162777E1,1.8365793E0,-2.700032E1,4.768129E-1,-3.9892094E0,2.7304995E0,-1.4396721E1,6.560027E0,-6.8202156E1,8.538468E-1,5.959552E0,2.8461236E-1,-5.384752E1,8.889738E0,-9.797661E-1,-4.1886864E0,4.3450758E-1,1.9852127E0,-7.8139366E1,7.8921695E0,-6.9668555E0,6.042232E0,-3.7713916E0,6.500993E0,-7.534091E1,4.6761265E-1,2.1977551E-1,3.362645E-1,-1.0293007E-2,-1.9503406E0,-4.2236667E0,4.2604277E-1,3.492269E-1,-1.9524702E0,4.2828122E-1,3.6271504E-1,-8.7698504E-2,4.757723E-2,4.2560348E-1,4.0344545E-1,-4.239399E0],"categories":[],"categories_nodes":[],"categories_segments":[],"categories_sizes":[],"default_left":[1,1,0,1,0,0,0,1,0,0,0,1,0,0,0,0,0,0,0,0,0,0,0,0,0,0,0,0,0,0,0,0,0,0,0,0,0,0,0,0,0,0,0],"id":1,"left_children":[1,3,5,7,9,-1,-1,11,13,15,17,19,21,23,25,27,-1,-1,-1,29,31,33,35,37,-1,39,41,-1,-1,-1,-1,-1,-1,-1,-1,-1,-1,-1,-1,-1,-1,-1,-1],"loss_changes":[1.5750312E5,9.742168E4,1.4996203E5,6.93916E4,1.6651544E5,0E0,0E0,2.7449488E4,1.4458123E5,4.2628955E3,6.538408E4,2.563349E5,4.1652188E4,8.018616E4,8.830306E4,8.839209E1,0E0,0E0,0E0,2.9362191E4,6.7434688E3,7.673125E2,1.0852008E5,1.6276484E3,0E0,2.0059924E2,4.0083062E4,0E0,0E0,0E0,0E0,0E0,0E0,0E0,0E0,0E0,0E0,0E0,0E0,0E0,0E0,0E0,0E0],"parents":[2147483647,0,0,1,1,2,2,3,3,4,4,7,7,8,8,9,9,10,10,11,11,12,12,13,13,14,14,15,15,19,19,20,20,21,21,22,22,23,23,25,25,26,26],"right_children":[2,4,6,8,10,-1,-1,12,14,16,18,20,22,24,26,28,-1,-1,-1,30,32,34,36,38,-1,40,42,-1,-1,-1,-1,-1,-1,-1,-1,-1,-1,-1,-1,-1,-1,-1,-1],"split_conditions":[2.88E1,2.1633837E1,-7.105196E-1,8.9458336E1,1.0268571E5,4.768129E-1,-3.9892094E0,5.7E0,8.4875E1,1.1E5,8.59E4,5.65E0,2.4220833E1,2.78E1,5.9166664E-1,2.5032927E1,-9.797661E-1,-4.1886864E0,4.3450758E-1,3.33E4,-3.7E0,1.07E5,3.21E1,8.5666664E1,-3.7713916E0,-6.3E0,1.4E1,4.6761265E-1,2.1977551E-1,3.362645E-1,-1.0293007E-2,-1.9503406E0,-4.2236667E0,4.2604277E-1,3.492269E-1,-1.9524702E0,4.2828122E-1,3.6271504E-1,-8.7698504E-2,4.757723E-2,4.2560348E-1,4.0344545E-1,-4.239399E0],"split_indices":[67,60,81,29,68,0,0,67,27,44,11,67,25,21,1,32,0,0,0,44,0,71,55,4,0,18,10,0,0,0,0,0,0,0,0,0,0,0,0,0,0,0,0],"split_type":[0,0,0,0,0,0,0,0,0,0,0,0,0,0,0,0,0,0,0,0,0,0,0,0,0,0,0,0,0,0,0,0,0,0,0,0,0,0,0,0,0,0,0],"sum_hessian":[4.9743E3,4.8973E3,7.7E1,4.7782E3,1.191E2,3.1E1,4.6E1,4.5296E3,2.486E2,6.61E1,5.3E1,2.8655E3,1.6641E3,1.819E2,6.67E1,6.13E1,4.8E0,4.4E1,9E0,2.826E3,3.95E1,1.448E3,2.161E2,1.699E2,1.2E1,1.77E1,4.9E1,5.46E1,6.7E0,8.927E2,1.9333E3,6.5E0,3.3E1,8.505E2,5.975E2,7E1,1.461E2,1.471E2,2.28E1,5.1E0,1.26E1,5E0,4.4E1],"tree_param":{"num_deleted":"0","num_feature":"82","num_nodes":"43","size_leaf_vector":"1"}},{"base_weights":[-2.0978013E-1,1.4364864E0,-1.3348437E1,-5.231358E0,3.8459258E0,-4.053466E1,3.567774E0,2.2761764E-1,-6.273548E1,-8.501747E0,4.9086757E0,2.0161965E0,-5.9523197E1,-1.777489E1,5.7116904E0,2.634575E0,-3.2008244E1,-7.31943E1,5.138943E0,7.6187825E0,-3.8065823E1,6.4213967E0,1.4933678E0,-1.791962E0,8.087682E0,-7.108054E1,6.8311934E0,1.449147E0,-3.0010223E0,-7.4625263E0,6.5233765E0,3.8302054E0,-1.5536406E1,-7.642164E1,6.3271403E0,-4.087856E0,-1.9457685E1,-1.1002547E-2,4.1371393E-1,7.986471E0,-1.685799E-1,-7.697124E1,6.013848E0,6.6530633E0,-2.3596073E1,2.5513644E0,-5.2952534E1,3.731975E-2,4.362619E-1,3.579993E-1,-7.557011E1,-1.4109305E-1,4.5059672E-1,3.4528098E-1,-3.2746822E-1,-1.1127867E0,3.596056E-1,6.9785433E0,-4.6166235E-1,-2.2751994E-1,2.5358996E-1,-2.3851361E0,2.0199518E-1,-4.208347E0,-2.849466E0,-6.1120223E-2,4.5281526E-1,-1.8658259E0,1.07389785E-1,4.345295E-1,2.0882557E-1,2.2937052E-1,-4.225204E0,-1.47245E-1,4.0072417E-1,2.2250345E-1,3.744495E-1,-2.5316987E0,3.930141E-1,3.778601E-1,-7.8085035E-2,-4.125423E0,3.496063E-1,-3.0030563E0,-4.022608E0,8.9415185E-2,4.2518902E-1],"categories":[],"categories_nodes":[],"categories_segments":[],"categories_sizes":[],"default_left":[1,1,0,1,0,0,0,1,0,0,0,0,0,0,0,0,0,0,0,0,0,0,0,0,0,0,0,0,0,0,0,1,0,0,0,0,0,0,0,0,0,0,0,0,0,0,0,0,0,0,0,0,0,0,0,0,0,0,0,0,0,0,0,0,0,0,0,0,0,0,0,0,0,0,0,0,0,0,0,0,0,0,0,0,0,0,0],"id":2,"left_children":[1,3,5,7,9,11,13,15,17,19,21,23,25,27,29,31,33,35,37,39,41,43,45,-1,47,49,51,53,-1,55,57,59,61,63,65,-1,67,-1,-1,69,-1,71,73,75,77,79,81,-1,-1,-1,83,-1,-1,-1,-1,-1,-1,85,-1,-1,-1,-1,-1,-1,-1,-1,-1,-1,-1,-1,-1,-1,-1,-1,-1,-1,-1,-1,-1,-1,-1,-1,-1,-1,-1,-1,-1],"loss_changes":[1.0899625E5,7.196584E4,2.5818769E5,3.732889E5,4.3216027E4,1.7407784E5,1.5970016E4,8.442503E4,7.356547E4,1.2472728E5,1.5644617E4,1.5780988E4,1.14674125E5,2.5993928E4,3.4267021E3,2.2054684E4,1.2920047E5,3.9545312E4,2.4881372E2,7.130957E2,1.5875167E5,1.4757727E4,5.3787074E4,0E0,2.6916797E2,4.5116625E4,5.0959912E2,1.0446671E3,0E0,4.2357E3,2.202376E3,9.915399E3,3.9674766E4,4.8623438E2,8.661344E2,0E0,5.32769E3,0E0,0E0,4.052705E2,0E0,3.0553125E4,8.1580664E2,3.805E3,1.4261373E4,1.8842807E4,3.2113527E4,0E0,0E0,0E0,4.261375E3,0E0,0E0,0E0,0E0,0E0,0E0,2.2829072E3,0E0,0E0,0E0,0E0,0E0,0E0,0E0,0E0,0E0,0E0,0E0,0E0,0E0,0E0,0E0,0E0,0E0,0E0,0E0,0E0,0E0,0E0,0E0,0E0,0E0,0E0,0E0,0E0,0E0],"parents":[2147483647,0,0,1,1,2,2,3,3,4,4,5,5,6,6,7,7,8,8,9,9,10,10,11,11,12,12,13,13,14,14,15,15,16,16,17,17,18,18,19,19,20,20,21,21,22,22,24,24,25,25,26,26,27,27,29,29,30,30,31,31,32,32,33,33,34,34,36,36,39,39,41,41,42,42,43,43,44,44,45,45,46,46,50,50,57,57],"right_children":[2,4,6,8,10,12,14,16,18,20,22,24,26,28,30,32,34,36,38,40,42,44,46,-1,48,50,52,54,-1,56,58,60,62,64,66,-1,68,-1,-1,70,-1,72,74,76,78,80,82,-1,-1,-1,84,-1,-1,-1,-1,-1,-1,86,-1,-1,-1,-1,-1,-1,-1,-1,-1,-1,-1,-1,-1,-1,-1,-1,-1,-1,-1,-1,-1,-1,-1,-1,-1,-1,-1,-1,-1],"split_conditions":[2.857E1,-2.1701407E0,2.24E1,2.1783492E-1,6.9791665E0,1.9102081E1,2.1001434E1,-2.57191E0,5.2105274E0,1.9493141E1,3.953118E-1,8.3333336E-2,8.59E4,2.0995346E1,2.2314285E4,9.99251E-1,-3.7141979E0,-3.1030178E0,6.12E4,2.1600069E1,2.5542856E1,1.8E5,2.6341667E1,-1.791962E0,-9.753364E-1,5.23E4,7.06E4,2.3895834E1,-3.0010223E0,2.1958334E1,8.8458336E1,5.375E1,-7.9736676E0,5.8166668E1,4.3583332E1,-4.087856E0,-3.5833332E-1,-1.1002547E-2,4.1371393E-1,6.350683E-1,-1.685799E-1,2.4E1,6.4541664E1,-9.223291E-1,1.37625E1,2.57E1,2.6454166E1,3.731975E-2,4.362619E-1,3.579993E-1,2.825E1,-1.4109305E-1,4.5059672E-1,3.4528098E-1,-3.2746822E-1,-1.1127867E0,3.596056E-1,2.263371E1,-4.6166235E-1,-2.2751994E-1,2.5358996E-1,-2.3851361E0,2.0199518E-1,-4.208347E0,-2.849466E0,-6.1120223E-2,4.5281526E-1,-1.8658259E0,1.07389785E-1,4.345295E-1,2.0882557E-1,2.2937052E-1,-4.225204E0,-1.47245E-1,4.0072417E-1,2.2250345E-1,3.744495E-1,-2.5316987E0,3.930141E-1,3.778601E-1,-7.8085035E-2,-4.125423E0,3.496063E-1,-3.0030563E0,-4.022608E0,8.9415185E-2,4.2518902E-1],"split_indices":[54,60,16,58,5,56,59,60,57,33,80,9,11,30,68,81,57,60,71,56,52,11,1,0,80,11,70,24,0,1,26,27,60,4,28,0,1,0,0,80,0,10,4,80,1,10,1,0,0,0,67,0,0,0,0,0,0,59,0,0,0,0,0,0,0,0,0,0,0,0,0,0,0,0,0,0,0,0,0,0,0,0,0,0,0,0,0],"split_type":[0,0,0,0,0,0,0,0,0,0,0,0,0,0,0,0,0,0,0,0,0,0,0,0,0,0,0,0,0,0,0,0,0,0,0,0,0,0,0,0,0,0,0,0,0,0,0,0,0,0,0,0,0,0,0,0,0,0,0,0,0,0,0,0,0,0,0,0,0,0,0,0,0,0,0,0,0,0,0,0,0,0,0,0,0,0,0],"sum_hessian":[5.0373E3,4.4772E3,5.601E2,1.1881E3,3.2891E3,2.143E2,3.458E2,1.086E3,1.021E2,2.601E2,3.029E3,6.64E1,1.479E2,3.09E1,3.149E2,1.01139996E3,7.46E1,8.84E1,1.37E1,1.688E2,9.13E1,2.0986E3,9.304E2,8.5E0,5.79E1,1.259E2,2.2E1,2.19E1,9E0,1.7800001E1,2.971E2,9.497E2,6.17E1,3.41E1,4.05E1,7.58E1,1.26E1,5.4E0,8.3E0,1.636E2,5.2E0,4.81E1,4.32E1,2.0833E3,1.53E1,9.136E2,1.68E1,4.8E0,5.3100002E1,6.8E0,1.191E2,4E0,1.8E1,1.31E1,8.8E0,8.6E0,9.2E0,2.893E2,7.8E0,1.222E2,8.275E2,2.28E1,3.89E1,2.2E1,1.21E1,1.09E1,2.96E1,6.5E0,6.1E0,1.37E2,2.66E1,4.1E0,4.4E1,7.8E0,3.54E1,5.748E2,1.5085E3,7.9E0,7.4E0,4.117E2,5.019E2,1.1E1,5.8E0,3.17E1,8.74E1,6.62E1,2.231E2],"tree_param":{"num_deleted":"0","num_feature":"82","num_nodes":"87","size_leaf_vector":"1"}},{"base_weights":[-7.4480206E-2,8.1951207E-1,-2.815591E1,2.0174406E0,-1.8211422E1,-5.782639E1,4.1153938E-1,2.5405087E0,-3.2942425E1,5.8523192E0,-3.4140488E1,4.0319276E-1,-7.254161E1,-6.219157E0,3.8065126E0,-3.4203336E0,4.546282E-1,-2.2112925E-1,6.353191E0,-7.301549E1,-1.4494788E1,-3.817228E0,-2.6225336E0,-3.1732397E0,-5.5250084E1,6.5385094E0,1.8293066E0,7.8124685E0,2.3864815E0,-2.4233873E0,-3.96241E0,-3.806282E0,5.3149074E-1,-1.2278728E0,2.7742618E-1,-4.1913953E0,2.9647067E-1,3.4573227E-1,-2.0413211E-1,-2.9249434E0,1.0509995E-1,4.0980282E-1,5.2833002E-2,-2.0215277E-1,2.789933E-1,-2.4193366E0,2.7533922E-1],"categories":[],"categories_nodes":[],"categories_segments":[],"categories_sizes":[],"default_left":[1,1,0,1,0,0,0,1,0,0,0,0,0,0,0,0,0,0,0,0,0,0,0,0,0,0,0,0,0,0,0,0,0,0,0,0,0,0,0,0,0,0,0,0,0,0,0],"id":3,"left_children":[1,3,5,7,9,11,-1,13,15,17,19,-1,21,23,25,-1,-1,-1,27,29,31,-1,-1,33,35,37,39,41,43,-1,-1,-1,45,-1,-1,-1,-1,-1,-1,-1,-1,-1,-1,-1,-1,-1,-1],"loss_changes":[1.2685143E5,1.1167934E5,1.6878725E5,8.434741E4,1.113989E5,8.396969E4,0E0,5.038232E4,1.0199226E5,6.2713916E2,1.3236467E5,0E0,1.3745625E3,8.551835E4,2.1423145E4,0E0,0E0,0E0,6.2619824E2,5.0941875E3,1.08669914E5,0E0,0E0,1.0109308E5,5.9067664E4,6.6826875E3,3.801792E4,2.0124658E2,6.6726404E2,0E0,0E0,0E0,2.3460812E4,0E0,0E0,0E0,0E0,0E0,0E0,0E0,0E0,0E0,0E0,0E0,0E0,0E0,0E0],"parents":[2147483647,0,0,1,1,2,2,3,3,4,4,5,5,7,7,8,8,9,9,10,10,12,12,13,13,14,14,18,18,19,19,20,20,23,23,24,24,25,25,26,26,27,27,28,28,32,32],"right_children":[2,4,6,8,10,12,-1,14,16,18,20,-1,22,24,26,-1,-1,-1,28,30,32,-1,-1,34,36,38,40,42,44,-1,-1,-1,46,-1,-1,-1,-1,-1,-1,-1,-1,-1,-1,-1,-1,-1,-1],"split_conditions":[2.1506556E1,8.8958336E1,5.62E1,2.88E1,-3.3833334E0,9.17E4,4.1153938E-1,5.5041668E1,6.0541668E1,-1.54875E1,5E-1,4.0319276E-1,2.7179166E2,1.9470833E1,2.433536E0,-3.4203336E0,4.546282E-1,-2.2112925E-1,5.071429E0,-2.4966948E0,6.695833E0,-3.817228E0,-2.6225336E0,-2.3461692E0,3.15E1,2.2442225E1,2.4440434E0,1.00985834E3,3.809405E0,-2.4233873E0,-3.96241E0,-3.806282E0,8.3333336E-2,-1.2278728E0,2.7742618E-1,-4.1913953E0,2.9647067E-1,3.4573227E-1,-2.0413211E-1,-2.9249434E0,1.0509995E-1,4.0980282E-1,5.2833002E-2,-2.0215277E-1,2.789933E-1,-2.4193366E0,2.7533922E-1],"split_indices":[60,29,17,67,3,44,0,28,29,24,54,0,6,3,49,0,0,0,50,31,5,0,0,60,17,33,79,8,57,0,0,0,9,0,0,0,0,0,0,0,0,0,0,0,0,0,0],"split_type":[0,0,0,0,0,0,0,0,0,0,0,0,0,0,0,0,0,0,0,0,0,0,0,0,0,0,0,0,0,0,0,0,0,0,0,0,0,0,0,0,0,0,0,0,0,0,0],"sum_hessian":[5.051E3,4.8961E3,1.549E2,4.607E3,2.891E2,8.5E1,6.99E1,4.54E3,6.7E1,1.154E2,1.737E2,1.56E1,6.94E1,5.728E2,3.9672E3,3.6E1,3.1E1,5E0,1.104E2,5.74E1,1.163E2,5.6E1,1.34E1,5.403E2,3.25E1,1.6647E3,2.3025E3,8E1,3.04E1,1.34E1,4.4E1,2.2E1,9.43E1,1.56E2,3.843E2,2.19E1,1.06E1,1.6081E3,5.66E1,9.4E0,2.2931E3,7.55E1,4.5E0,1E1,2.04E1,7.9E0,8.64E1],"tree_param":{"num_deleted":"0","num_feature":"82","num_nodes":"47","size_leaf_vector":"1"}},{"base_weights":[4.353183E-1,6.191003E0,-3.0978584E0,6.8585777E0,-8.855904E0,-3.1846125E1,-1.1725951E0,-8.544978E-1,7.089991E0,-3.483626E0,1.6512831E0,-4.9608902E1,7.310666E0,3.4723306E-1,-2.9410988E1,4.308245E-1,-2.2498448E0,5.7278023E0,7.672051E0,5.9114676E0,-1.158724E0,-6.28273E1,6.9100637E0,8.050364E0,-5.968643E-2,5.4483967E0,-2.2340066E0,6.448573E0,-5.0512894E1,-8.755943E0,6.0577335E0,3.5616982E0,7.9580455E0,7.5305634E0,-3.7776473E-1,-7.088856E1,4.020176E-1,3.7789807E-2,4.405434E-1,8.366216E0,1.6536255E-1,5.6609864E0,-1.0567737E1,-2.211751E1,-3.1823662E-1,1.9536905E0,3.7286142E-1,-3.8355153E0,-1.1197661E1,6.880133E-2,-7.1869403E-1,3.2286832E-1,1.5173062E-3,3.5313258E-1,-8.976771E-1,8.474337E-2,4.0152845E-1,4.3468043E-1,1.03124455E-1,1.393919E-1,-1.541595E-1,-2.2712674E0,-3.6862905E0,1.9158731E-1,4.3352684E-1,3.2489344E-1,1.7142665E-1,-1.350927E0,2.874785E-1,5.832948E-2,-3.5016658E0,-2.3928552E0,1.1527917E-2,-1.7024755E-1,3.2645845E-1,1.6998892E-1,-1.9294962E0],"categories":[],"categories_nodes":[],"categories_segments":[],"categories_sizes":[],"default_left":[0,0,0,0,0,0,1,0,0,0,0,0,0,0,0,0,0,0,0,0,0,0,0,0,0,0,0,0,0,0,0,0,0,0,0,0,0,0,0,0,0,0,0,0,0,0,0,0,0,0,0,0,0,0,0,0,0,0,0,0,0,0,0,0,0,0,0,0,0,0,0,0,0,0,0,0,0],"id":4,"left_children":[1,3,5,7,9,11,13,15,17,-1,19,21,23,25,27,-1,-1,29,31,33,-1,35,37,39,-1,41,43,45,47,49,51,53,55,57,59,61,-1,-1,-1,63,-1,65,67,69,71,73,-1,-1,75,-1,-1,-1,-1,-1,-1,-1,-1,-1,-1,-1,-1,-1,-1,-1,-1,-1,-1,-1,-1,-1,-1,-1,-1,-1,-1,-1,-1],"loss_changes":[1.0176962E5,1.9181273E4,1.7159673E5,3.2602969E3,5.2066688E4,1.3571345E5,1.2478856E5,2.2963605E4,1.3596016E3,0E0,7.572086E3,1.0054428E5,3.9711597E2,3.6352676E4,1.1269646E5,0E0,0E0,2.6043613E3,1.4261484E3,6.219634E2,0E0,6.2668312E4,3.0099963E2,5.7424316E1,0E0,3.2181758E3,6.982742E4,2.3886963E2,9.554505E4,7.199043E2,1.2586113E3,6.3259526E3,5.1148438E2,2.89875E2,1.2335708E2,3.709375E3,0E0,0E0,0E0,3.9361084E1,0E0,1.6892695E3,3.5107544E3,1.7981717E5,4.3663293E4,3.0664438E2,0E0,0E0,1.5565672E4,0E0,0E0,0E0,0E0,0E0,0E0,0E0,0E0,0E0,0E0,0E0,0E0,0E0,0E0,0E0,0E0,0E0,0E0,0E0,0E0,0E0,0E0,0E0,0E0,0E0,0E0,0E0,0E0],"parents":[2147483647,0,0,1,1,2,2,3,3,4,4,5,5,6,6,7,7,8,8,10,10,11,11,12,12,13,13,14,14,17,17,18,18,19,19,21,21,22,22,23,23,25,25,26,26,27,27,28,28,29,29,30,30,31,31,32,32,33,33,34,34,35,35,39,39,41,41,42,42,43,43,44,44,45,45,48,48],"right_children":[2,4,6,8,10,12,14,16,18,-1,20,22,24,26,28,-1,-1,30,32,34,-1,36,38,40,-1,42,44,46,48,50,52,54,56,58,60,62,-1,-1,-1,64,-1,66,68,70,72,74,-1,-1,76,-1,-1,-1,-1,-1,-1,-1,-1,-1,-1,-1,-1,-1,-1,-1,-1,-1,-1,-1,-1,-1,-1,-1,-1,-1,-1,-1,-1],"split_conditions":[2.76E1,9.897936E-1,2.3052483E0,-1.2252867E1,2.82E4,9.93175E2,9.0541664E1,-1E-1,-7.1579534E-1,-3.483626E0,1.83E1,1.11625E1,2.7875E1,3.44E4,4.04E4,4.308245E-1,-2.2498448E0,-8E-1,9.8235834E2,5.385934E-1,-1.158724E0,-7.0214796E-1,5.1E0,2.2905226E0,-5.968643E-2,2.401079E1,8.7E0,2.71E4,4.74E4,-7.9E0,2.1566174E1,2.0239922E1,3.790308E-2,8.1875E1,2.5E0,2.69E1,4.020176E-1,3.7789807E-2,4.405434E-1,2.1919785E0,1.6536255E-1,3.7945285E-1,1.63E1,-1.1458334E0,3.53E4,-1.4291667E0,3.7286142E-1,-3.8355153E0,6.56E4,6.880133E-2,-7.1869403E-1,3.2286832E-1,1.5173062E-3,3.5313258E-1,-8.976771E-1,8.474337E-2,4.0152845E-1,4.3468043E-1,1.03124455E-1,1.393919E-1,-1.541595E-1,-2.2712674E0,-3.6862905E0,1.9158731E-1,4.3352684E-1,3.2489344E-1,1.7142665E-1,-1.350927E0,2.874785E-1,5.832948E-2,-3.5016658E0,-2.3928552E0,1.1527917E-2,-1.7024755E-1,3.2645845E-1,1.6998892E-1,-1.9294962E0],"split_indices":[67,80,47,58,45,8,29,0,80,0,21,5,25,44,11,0,0,2,8,78,0,80,16,47,0,31,53,11,71,0,32,30,75,4,0,2,0,0,0,77,0,80,0,25,73,24,0,0,45,0,0,0,0,0,0,0,0,0,0,0,0,0,0,0,0,0,0,0,0,0,0,0,0,0,0,0,0],"split_type":[0,0,0,0,0,0,0,0,0,0,0,0,0,0,0,0,0,0,0,0,0,0,0,0,0,0,0,0,0,0,0,0,0,0,0,0,0,0,0,0,0,0,0,0,0,0,0,0,0,0,0,0,0,0,0,0,0,0,0,0,0,0,0,0,0,0,0,0,0,0,0,0,0,0,0,0,0],"sum_hessian":[5.0025E3,1.9025E3,3.1E3,1.8222E3,8.03E1,1.936E2,2.9064E3,5.3E1,1.7692E3,1.1E1,6.93E1,1.33E2,6.06E1,2.7589E3,1.475E2,4.43E1,8.7E0,5.329E2,1.2363E3,5.98E1,9.5E0,1.077E2,2.53E1,5.58E1,4.8E0,9.266E2,1.8323E3,5.4899998E1,9.26E1,1.13E1,5.216E2,8.13E1,1.155E3,4.74E1,1.24E1,9.67E1,1.1E1,6.3E0,1.9E1,5.16E1,4.2E0,9.151E2,1.15E1,1.601E2,1.6722E3,1.06E1,4.43E1,5.5E1,3.76E1,4.3E0,7E0,4.891E2,3.25E1,7.05E1,1.08E1,1.35E1,1.1415E3,3.86E1,8.8E0,5.7E0,6.7E0,1.14E1,8.53E1,4.1E0,4.75E1,6.642E2,2.509E2,5.4E0,6.1000004E0,1.084E2,5.17E1,1.81E1,1.6541E3,5E0,5.6E0,2.51E1,1.25E1],"tree_param":{"num_deleted":"0","num_feature":"82","num_nodes":"77","size_leaf_vector":"1"}},{"base_weights":[-2.2874601E-2,-1.4296369E1,1.549115E0,4.5638647E0,-2.9371136E1,5.6095676E0,-1.2540537E0,5.433636E0,-1.0412567E0,-5.392311E1,-6.6240883E0,6.7534747E0,-1.6374363E1,-3.7255135E1,-5.133714E-1,-2.1054802E0,6.0780935E0,-6.142259E0,-6.410918E1,6.296677E0,-4.513548E1,5.442571E0,7.3313236E0,-3.5542495E0,1.8099269E0,-3.3248022E0,5.931735E0,5.361844E-1,-2.3695604E1,-2.6780644E-1,3.285867E-1,6.324366E0,-1.24492384E-1,3.8082352E-1,-1.8664572E0,-6.910182E1,4.123601E-1,-4.033066E0,7.9719057E0,5.4142356E0,-3.6217334E0,-8.397882E0,5.7519875E0,7.4774E0,2.0543175E0,6.0596833E0,-1.4850607E0,3.9661372E-1,-6.49774E-2,1.282946E0,-2.4472353E1,4.3882914E0,-4.2564472E1,3.8189152E-1,2.3391254E-1,-2.4823635E0,-3.7460048E0,6.0013127E-2,-3.0926305E-1,3.7857216E-2,4.1739312E-1,3.031124E-2,3.955575E-1,6.28888E-2,-6.8725103E-1,3.272998E-1,1.6059361E-1,3.914436E-1,3.010243E-1,3.4722778E-1,-1.1586318E0,3.9531776E-1,5.2239966E-2,-9.46572E-1,9.6278206E-2,-3.5466936E0,-3.921137E-3,-6.45345E-2,2.9539412E-1,-3.6601245E0,-5.96787E-1],"categories":[],"categories_nodes":[],"categories_segments":[],"categories_sizes":[],"default_left":[0,0,0,0,0,0,0,1,0,0,0,0,0,0,1,1,0,0,0,0,0,0,0,0,0,0,0,1,0,0,0,0,0,0,0,0,0,0,0,0,0,0,0,0,0,0,0,0,0,0,0,0,0,0,0,0,0,0,0,0,0,0,0,0,0,0,0,0,0,0,0,0,0,0,0,0,0,0,0,0,0],"id":5,"left_children":[1,3,5,7,9,11,13,15,-1,17,19,21,23,25,27,29,31,33,35,37,39,41,43,-1,45,-1,47,49,51,-1,-1,53,-1,-1,-1,55,-1,57,59,61,-1,63,65,67,69,71,-1,-1,-1,73,75,77,79,-1,-1,-1,-1,-1,-1,-1,-1,-1,-1,-1,-1,-1,-1,-1,-1,-1,-1,-1,-1,-1,-1,-1,-1,-1,-1,-1,-1],"loss_changes":[1.1319832E5,1.4243303E5,5.173314E4,5.0419985E3,1.5506914E5,4.6789523E4,7.169203E4,1.0651792E3,0E0,6.4677875E4,7.2734266E4,1.2971641E3,9.175654E4,6.8839445E4,6.4151777E4,5.3727606E2,4.373335E2,1.0839976E4,4.03435E4,1.933936E3,5.103693E4,2.3775352E3,9.267656E2,0E0,9.567399E3,0E0,3.401438E2,4.7147605E4,6.0702652E4,0E0,0E0,3.8479932E2,0E0,0E0,0E0,7.9505E3,0E0,1.8763419E2,2.5108936E2,1.6087567E2,0E0,6.52339E2,1.0531621E3,5.6166406E2,4.3923706E3,5.714685E2,0E0,0E0,0E0,3.1871363E4,8.295778E4,4.1149646E2,6.331311E4,0E0,0E0,0E0,0E0,0E0,0E0,0E0,0E0,0E0,0E0,0E0,0E0,0E0,0E0,0E0,0E0,0E0,0E0,0E0,0E0,0E0,0E0,0E0,0E0,0E0,0E0,0E0,0E0],"parents":[2147483647,0,0,1,1,2,2,3,3,4,4,5,5,6,6,7,7,9,9,10,10,11,11,12,12,13,13,14,14,15,15,16,16,17,17,18,18,19,19,20,20,21,21,22,22,24,24,26,26,27,27,28,28,31,31,35,35,37,37,38,38,39,39,41,41,42,42,43,43,44,44,45,45,49,49,50,50,51,51,52,52],"right_children":[2,4,6,8,10,12,14,16,-1,18,20,22,24,26,28,30,32,34,36,38,40,42,44,-1,46,-1,48,50,52,-1,-1,54,-1,-1,-1,56,-1,58,60,62,-1,64,66,68,70,72,-1,-1,-1,74,76,78,80,-1,-1,-1,-1,-1,-1,-1,-1,-1,-1,-1,-1,-1,-1,-1,-1,-1,-1,-1,-1,-1,-1,-1,-1,-1,-1,-1,-1],"split_conditions":[7.025E0,5.64E4,2.6153334E1,2.1922361E1,-7.142921E-1,9.897936E-1,2.3391945E0,-1.4970834E1,-1.0412567E0,1.8052032E1,8.1875E1,-7.1579534E-1,3.38E4,6.67E4,9.0875E1,6.6958336E1,9E1,1.8E5,2.2508831E1,7.89E4,3.23E1,-3.4958334E0,3.35E1,-3.5542495E0,1.83E1,-3.3248022E0,2.288933E0,9.2583336E1,4.15E4,-2.6780644E-1,3.285867E-1,3.922143E4,-1.24492384E-1,3.8082352E-1,-1.8664572E0,7.25E1,4.123601E-1,6.3541668E1,5.2125E1,6.025E1,-3.6217334E0,-7.9E0,1.04E5,8.073707E-1,8.325E1,4E0,-1.4850607E0,3.9661372E-1,-6.49774E-2,4.525E1,9.3E1,2.71E4,4.38E4,3.8189152E-1,2.3391254E-1,-2.4823635E0,-3.7460048E0,6.0013127E-2,-3.0926305E-1,3.7857216E-2,4.1739312E-1,3.031124E-2,3.955575E-1,6.28888E-2,-6.8725103E-1,3.272998E-1,1.6059361E-1,3.914436E-1,3.010243E-1,3.4722778E-1,-1.1586318E0,3.9531776E-1,5.2239966E-2,-9.46572E-1,9.6278206E-2,-3.5466936E0,-3.921137E-3,-6.45345E-2,2.9539412E-1,-3.6601245E0,-5.96787E-1],"split_indices":[5,43,66,58,80,80,74,25,0,60,9,80,45,11,29,29,27,11,57,73,55,1,51,0,21,0,74,27,11,0,0,70,0,0,0,28,0,27,4,29,0,0,42,80,26,7,0,0,0,28,27,11,68,0,0,0,0,0,0,0,0,0,0,0,0,0,0,0,0,0,0,0,0,0,0,0,0,0,0,0,0],"split_type":[0,0,0,0,0,0,0,0,0,0,0,0,0,0,0,0,0,0,0,0,0,0,0,0,0,0,0,0,0,0,0,0,0,0,0,0,0,0,0,0,0,0,0,0,0,0,0,0,0,0,0,0,0,0,0,0,0,0,0,0,0,0,0,0,0,0,0,0,0,0,0,0,0,0,0,0,0,0,0,0,0],"sum_hessian":[5.043E3,4.995E2,4.5435E3,2.222E2,2.773E2,1.8552E3,2.6883E3,2.156E2,6.6000004E0,1.327E2,1.446E2,1.7641E3,9.11E1,5.32E1,2.6351E3,1.68E1,1.988E2,2.36E1,1.091E2,1.089E2,3.57E1,5.429E2,1.2212E3,2.2E1,6.91E1,3.14E1,2.18E1,2.5219E3,1.132E2,1.25E1,4.3E0,1.935E2,5.3E0,1.69E1,6.7E0,1.021E2,7E0,1.5E1,9.39E1,1.28E1,2.29E1,1.13E1,5.316E2,1.1879E3,3.33E1,6.16E1,7.5E0,1.7E1,4.8E0,2.4497E3,7.22E1,4.58E1,6.74E1,1.056E2,8.79E1,2.57E1,7.64E1,4.5E0,1.05E1,4.8E0,8.91E1,4.8E0,8E0,4.3E0,7E0,4.038E2,1.278E2,9.535E2,2.344E2,2.85E1,4.8E0,4.46E1,1.7E1,7.46E1,2.3751E3,2.42E1,4.8E1,9.7E0,3.61E1,3.3E1,3.44E1],"tree_param":{"num_deleted":"0","num_feature":"82","num_nodes":"81","size_leaf_vector":"1"}},{"base_weights":[-2.6751012E-1,-1.294748E1,1.1015007E0,-1.5303397E0,-4.250279E1,1.9500082E0,-1.7514269E1,-2.0719147E1,5.8114457E0,-6.496396E1,5.843624E0,2.6694996E0,-1.1692062E1,-4.0141953E1,2.464713E0,5.6927447E0,-3.5828679E0,4.5611033E0,4.0325078E-1,-6.856314E1,2.9265314E-1,-1.11298025E-1,3.8937715E-1,6.299474E0,1.1396843E-1,-6.032563E1,-6.7529345E-1,6.4504175E0,-6.339158E1,-2.19984E0,6.684865E0,6.6171274E0,-3.1228665E-1,2.875151E0,7.4523487E0,-2.651386E0,-3.6213396E0,-2.604175E-1,6.536268E0,-3.3727192E1,9.1184306E-1,3.1921554E-1,-3.604477E0,1.767645E0,-2.409643E0,3.648574E-1,8.572763E-2,-3.504319E0,1.5087867E-1,-1.98912E-1,7.3049273E0,3.7921438E-1,-1.3294761E-1,2.5894377E-1,1.1683325E-2,4.0054384E-1,1.2455463E-2,3.952175E-1,-2.166504E0,2.6503208E-1,3.562566E-1,-2.7714732E0,3.7286487E-1,-3.0653274E-1,1.467556E-1,-8.871935E-1,2.0366792E-1,1.13982856E-1,3.7771305E-1],"categories":[],"categories_nodes":[],"categories_segments":[],"categories_sizes":[],"default_left":[0,0,1,0,0,0,0,0,0,0,0,0,0,0,0,0,0,1,0,0,0,0,0,0,0,1,0,0,0,0,0,0,0,0,0,0,0,0,0,0,1,0,0,0,0,0,0,0,0,0,0,0,0,0,0,0,0,0,0,0,0,0,0,0,0,0,0,0,0],"id":6,"left_children":[1,3,5,7,9,11,13,15,17,19,21,23,25,27,29,31,-1,33,-1,35,-1,-1,-1,37,39,41,43,45,47,-1,49,51,-1,53,55,-1,-1,57,59,61,63,-1,-1,65,-1,-1,-1,-1,-1,-1,67,-1,-1,-1,-1,-1,-1,-1,-1,-1,-1,-1,-1,-1,-1,-1,-1,-1,-1],"loss_changes":[8.664791E4,1.6406436E5,7.119816E4,4.9696117E4,1.4752142E5,4.2333414E4,8.893228E4,1.3171647E5,6.8258203E2,2.4003531E4,7.059774E2,3.798382E4,1.1574236E5,1.00285016E5,2.0940773E4,7.6085767E2,0E0,7.901782E2,0E0,1.453375E3,0E0,0E0,0E0,2.6294922E3,6.4941164E4,3.1772547E4,2.0655006E4,1.1420471E2,2.759861E4,0E0,6.730488E2,5.6742505E2,0E0,6.4869476E2,2.4221362E2,0E0,0E0,2.1406557E4,1.1502812E3,4.9929695E4,3.3497133E4,0E0,0E0,7.6977373E3,0E0,0E0,0E0,0E0,0E0,0E0,9.855322E1,0E0,0E0,0E0,0E0,0E0,0E0,0E0,0E0,0E0,0E0,0E0,0E0,0E0,0E0,0E0,0E0,0E0,0E0],"parents":[2147483647,0,0,1,1,2,2,3,3,4,4,5,5,6,6,7,7,8,8,9,9,10,10,11,11,12,12,13,13,14,14,15,15,17,17,19,19,23,23,24,24,25,25,26,26,27,27,28,28,30,30,31,31,33,33,34,34,37,37,38,38,39,39,40,40,43,43,50,50],"right_children":[2,4,6,8,10,12,14,16,18,20,22,24,26,28,30,32,-1,34,-1,36,-1,-1,-1,38,40,42,44,46,48,-1,50,52,-1,54,56,-1,-1,58,60,62,64,-1,-1,66,-1,-1,-1,-1,-1,-1,68,-1,-1,-1,-1,-1,-1,-1,-1,-1,-1,-1,-1,-1,-1,-1,-1,-1,-1],"split_conditions":[7.025E0,2.1215092E1,9.0541664E1,-8.528367E-1,2.3845833E1,9.897936E-1,8.9E0,-8.702939E-1,2.2648964E1,9.9211664E2,6.2583332E1,2.6046667E1,4.1676668E4,1.5571429E0,8.3333336E-2,2.0782648E1,-3.5828679E0,8.2166666E-1,4.0325078E-1,2.4440434E0,2.9265314E-1,-1.11298025E-1,3.8937715E-1,-1.2252867E1,2.3391945E0,5E0,1.00450415E3,9.5791664E1,4.38E4,-2.19984E0,4.376347E0,2.09875E1,-3.1228665E-1,4.72E4,2.2465827E0,-2.651386E0,-3.6213396E0,-1E-1,-7.1579534E-1,6.67E4,5.9125E1,3.1921554E-1,-3.604477E0,-3.5469012E0,-2.409643E0,3.648574E-1,8.572763E-2,-3.504319E0,1.5087867E-1,-1.98912E-1,4.068794E0,3.7921438E-1,-1.3294761E-1,2.5894377E-1,1.1683325E-2,4.0054384E-1,1.2455463E-2,3.952175E-1,-2.166504E0,2.6503208E-1,3.562566E-1,-2.7714732E0,3.7286487E-1,-3.0653274E-1,1.467556E-1,-8.871935E-1,2.0366792E-1,1.13982856E-1,3.7771305E-1],"split_indices":[5,13,29,80,23,80,53,80,61,8,26,66,72,50,9,56,0,66,0,79,0,0,0,58,74,10,8,29,68,0,61,1,0,45,49,0,0,0,80,11,26,0,0,13,0,0,0,0,0,0,59,0,0,0,0,0,0,0,0,0,0,0,0,0,0,0,0,0,0],"split_type":[0,0,0,0,0,0,0,0,0,0,0,0,0,0,0,0,0,0,0,0,0,0,0,0,0,0,0,0,0,0,0,0,0,0,0,0,0,0,0,0,0,0,0,0,0,0,0,0,0,0,0,0,0,0,0,0,0,0,0,0,0,0,0,0,0,0,0,0,0],"sum_hessian":[4.9897E3,4.854E2,4.5043E3,3.509E2,1.345E2,4.3088E3,1.955E2,9.66E1,2.543E2,9.16E1,4.29E1,4.0937E3,2.151E2,9.12E1,1.043E2,6.42E1,3.24E1,1.655E2,8.88E1,8.72E1,4.4E0,8.3E0,3.46E1,1.6907E3,2.403E3,3.89E1,1.762E2,3.06E1,6.06E1,7.9E0,9.64E1,6E1,4.2E0,1.058E2,5.97E1,2.03E1,6.69E1,5.89E1,1.6318E3,5.44E1,2.3486E3,5.8999996E0,3.3E1,1.685E2,7.7E0,2.55E1,5.1E0,5.5E1,5.6E0,5E0,9.14E1,5.45E1,5.5E0,5.6E1,4.98E1,5.53E1,4.4E0,5.02E1,8.7E0,5.299E2,1.1019E3,3.54E1,1.9E1,5.237E2,1.8249E3,1.71E1,1.514E2,4.8E0,8.66E1],"tree_param":{"num_deleted":"0","num_feature":"82","num_nodes":"69","size_leaf_vector":"1"}},{"base_weights":[-6.33893E-2,-1.3396656E1,1.1043789E0,-5.8540807E0,-4.2880962E1,1.7680203E0,-1.1343909E1,-3.116512E1,5.03157E0,4.3381805E0,-5.937853E1,5.444182E0,-8.2571167E-1,-4.078301E1,3.0875695E0,6.3437085E0,-5.1906513E1,-7.3993673E0,5.952748E0,-3.0769652E-1,3.6515465E-1,-6.571375E1,4.016572E-1,5.7484946E0,-2.2654655E0,-3.834486E1,7.378699E-2,3.7593228E-1,-5.7680794E1,9.549893E-1,4.4874546E-1,3.47048E-1,9.755664E-2,-3.4008374E0,-1.2270447E1,3.8136427E0,-1.2670187E0,2.8950024E0,7.2367005E0,-2.1487174E0,-3.5341032E0,-1.1619028E0,5.9627047E0,-3.2017953E0,4.202145E-1,-2.9652736E0,3.7948272E-1,-9.840329E0,1.9742634E0,-1.1990484E0,-6.2993904E1,2.0131178E0,-1.036856E0,-1.8017524E0,1.4329116E-1,3.4372547E-1,2.7258517E-3,3.9646542E-1,7.065625E-3,-6.9122374E-2,3.780528E-1,3.7385255E-1,-2.0693462E0,2.4322759E-1,3.2336953E-1,6.460237E-2,-2.3309402E0,1.5371735E-1,-5.864156E-1,-3.4295537E0,-2.377446E0,3.213902E-1,-5.5839837E-2],"categories":[],"categories_nodes":[],"categories_segments":[],"categories_sizes":[],"default_left":[0,0,0,0,0,0,0,0,0,0,0,0,0,0,0,0,0,0,0,0,0,0,0,0,0,0,1,0,0,0,0,0,0,0,0,0,0,0,0,0,0,0,0,0,0,0,0,1,0,0,0,0,0,0,0,0,0,0,0,0,0,0,0,0,0,0,0,0,0,0,0,0,0],"id":7,"left_children":[1,3,5,7,9,11,13,15,17,19,21,23,25,27,29,31,33,35,37,-1,-1,39,-1,41,43,45,47,-1,49,51,-1,-1,-1,-1,53,55,-1,57,59,-1,-1,61,63,-1,-1,-1,-1,65,67,-1,69,71,-1,-1,-1,-1,-1,-1,-1,-1,-1,-1,-1,-1,-1,-1,-1,-1,-1,-1,-1,-1,-1],"loss_changes":[7.921399E4,9.086117E4,3.8665125E4,9.036438E4,6.5148375E4,4.2358867E4,1.0077281E5,7.703865E4,2.6755107E3,7.448771E2,2.6920719E4,4.3245273E3,8.79276E4,6.409658E4,1.9990093E3,8.0902466E1,3.977692E4,3.3757534E3,8.2117725E2,0E0,0E0,3.3569219E3,0E0,2.6243555E3,4.7003E4,5.918186E4,4.797681E4,0E0,8.856391E3,2.761682E3,0E0,0E0,0E0,0E0,7.153536E3,1.250426E2,0E0,9.0135535E2,4.3091943E2,0E0,0E0,1.9074566E4,9.1914453E2,0E0,0E0,0E0,0E0,1.6776353E5,3.2244625E4,0E0,1.009125E3,1.5810021E3,0E0,0E0,0E0,0E0,0E0,0E0,0E0,0E0,0E0,0E0,0E0,0E0,0E0,0E0,0E0,0E0,0E0,0E0,0E0,0E0,0E0],"parents":[2147483647,0,0,1,1,2,2,3,3,4,4,5,5,6,6,7,7,8,8,9,9,10,10,11,11,12,12,13,13,14,14,15,15,16,16,17,17,18,18,21,21,23,23,24,24,25,25,26,26,28,28,29,29,34,34,35,35,37,37,38,38,41,41,42,42,47,47,48,48,50,50,51,51],"right_children":[2,4,6,8,10,12,14,16,18,20,22,24,26,28,30,32,34,36,38,-1,-1,40,-1,42,44,46,48,-1,50,52,-1,-1,-1,-1,54,56,-1,58,60,-1,-1,62,64,-1,-1,-1,-1,66,68,-1,70,72,-1,-1,-1,-1,-1,-1,-1,-1,-1,-1,-1,-1,-1,-1,-1,-1,-1,-1,-1,-1,-1],"split_conditions":[6.7458334E0,2E0,9.897936E-1,-8.528367E-1,2.76E1,2.6116667E1,-1.1805105E0,1.8790047E1,2.72E4,-9.3507487E-1,3.44E1,2.2442225E1,2.4241211E0,9.9767125E-1,2.21E1,1.8429403E1,2.79E1,2.1758333E2,6.55E1,-3.0769652E-1,3.6515465E-1,3.23E1,4.016572E-1,-1.2252867E1,1.8525248E0,7.43E4,8.9E0,3.7593228E-1,6.0916668E1,6.8549232E0,4.4874546E-1,3.47048E-1,9.755664E-2,-3.4008374E0,6.6E0,9.6E0,-1.2670187E0,2.88E1,5.025E1,-2.1487174E0,-3.5341032E0,-1E-1,-7.277015E-1,-3.2017953E0,4.202145E-1,-2.9652736E0,3.7948272E-1,7.8E0,1.19E5,-1.1990484E0,9.2E0,2.06E1,-1.036856E0,-1.8017524E0,1.4329116E-1,3.4372547E-1,2.7258517E-3,3.9646542E-1,7.065625E-3,-6.9122374E-2,3.780528E-1,3.7385255E-1,-2.0693462E0,2.4322759E-1,3.2336953E-1,6.460237E-2,-2.3309402E0,1.5371735E-1,-5.864156E-1,-3.4295537E0,-2.377446E0,3.213902E-1,-5.5839837E-2],"split_indices":[5,7,80,80,2,66,60,33,71,80,55,33,75,58,55,60,21,6,4,0,0,55,0,58,48,44,53,0,9,56,0,0,0,0,0,10,0,10,28,0,0,0,80,0,0,0,0,53,69,0,2,55,0,0,0,0,0,0,0,0,0,0,0,0,0,0,0,0,0,0,0,0,0],"split_type":[0,0,0,0,0,0,0,0,0,0,0,0,0,0,0,0,0,0,0,0,0,0,0,0,0,0,0,0,0,0,0,0,0,0,0,0,0,0,0,0,0,0,0,0,0,0,0,0,0,0,0,0,0,0,0,0,0,0,0,0,0,0,0,0,0,0,0,0,0,0,0,0,0],"sum_hessian":[5.0856E3,4.087E2,4.6769E3,3.264E2,8.23E1,4.441E3,2.359E2,9.76E1,2.288E2,2.15E1,6.08E1,1.8367E3,2.6043E3,7.7E1,1.589E2,3.5E1,6.26E1,1.53E1,2.135E2,4.5E0,1.7E1,5.56E1,5.2E0,1.7672E3,6.95E1,6E1,2.5443E3,2.01E1,5.69E1,1.175E2,4.14E1,3.03E1,4.7E0,4.4E1,1.86E1,9.9E0,5.4E0,6.41E1,1.494E2,1.17E1,4.39E1,5.3E1,1.7142E3,9.5E0,6E1,4.1E1,1.9E1,4.086E2,2.1357E3,8.5E0,4.84E1,1.129E2,4.6E0,6.7E0,1.19E1,5E0,4.9E0,2.2E1,4.21E1,5.3E0,1.441E2,4.43E1,8.7E0,5.431E2,1.1711E3,3.144E2,9.42E1,1.9777E3,1.58E2,3.3E1,1.54E1,4.64E1,6.65E1],"tree_param":{"num_deleted":"0","num_feature":"82","num_nodes":"73","size_leaf_vector":"1"}},{"base_weights":[-6.3498485E-1,-1.2116874E1,6.5479106E-1,-1.3514447E0,-3.4598255E1,-7.6495657E0,1.9281421E0,-1.8739239E1,5.543725E0,-5.3106445E1,6.158095E0,-6.2568396E-1,-4.463797E1,2.760346E0,-1.1349126E1,5.062451E0,-3.2855153E0,2.5395794E0,6.470273E0,3.499825E-1,-5.9697414E1,-4.8392293E-1,7.740491E0,3.7165496E0,-2.124428E1,3.566017E0,-5.865942E1,3.107473E0,-1.9668633E1,-4.92552E1,-1.3793187E0,3.5249123E-1,-2.3831246E0,-2.6050547E-1,3.7322872E0,6.900746E0,3.8350298E0,-6.32248E1,3.9918527E-1,-2.0915286E-1,1.6169508E-1,2.2748993E-1,4.0308028E-1,4.687028E0,-2.78035E1,-6.7985725E0,-2.8433633E0,3.5480928E-1,-1.7280538E-1,6.0347777E-2,-6.59042E1,5.901151E0,1.2179192E0,-2.7430713E0,3.7942967E-1,3.2304987E-1,-6.069554E1,7.024083E-1,-2.1978002E0,3.1222543E-1,-3.1953627E-1,3.5089982E-1,6.0981043E-2,3.5450986E-1,1.368316E-1,-1.2209951E-1,3.6593112E-1,-3.3214283E0,-2.4269722E0,-6.515602E-2,2.765723E-1,-2.2805645E0,3.0010542E-1,-1.666337E0,-3.6629584E-2,-2.4688964E0,-3.4572685E0,2.4165574E-1,3.1772953E-1,-2.7430756E0,7.563933E-2,-1.5949873E0,-3.2631195E0,1.4212303E-1,-1.7454054E0],"categories":[],"categories_nodes":[],"categories_segments":[],"categories_sizes":[],"default_left":[0,0,1,0,0,1,0,0,1,0,0,0,0,1,0,0,0,1,0,0,0,0,0,1,1,0,0,0,0,1,0,0,0,0,0,0,0,0,0,0,0,0,0,1,0,0,0,0,0,0,0,0,0,0,0,0,0,0,0,0,0,0,0,0,0,0,0,0,0,0,0,0,0,0,0,0,0,0,0,0,0,0,0,0,0],"id":8,"left_children":[1,3,5,7,9,11,13,15,17,19,21,23,25,27,29,31,-1,33,35,-1,37,39,41,43,45,47,49,51,53,55,57,-1,59,-1,61,63,65,67,-1,-1,-1,-1,-1,69,71,73,-1,-1,-1,-1,75,77,79,-1,-1,-1,81,83,-1,-1,-1,-1,-1,-1,-1,-1,-1,-1,-1,-1,-1,-1,-1,-1,-1,-1,-1,-1,-1,-1,-1,-1,-1,-1,-1],"loss_changes":[7.528684E4,1.24207195E5,4.8349094E4,4.1850207E4,1.2569605E5,1.5790583E5,4.383112E4,1.1112554E5,6.7971826E2,4.573828E4,5.586896E2,4.590975E4,6.5770516E4,2.910958E4,8.836446E4,1.00377E3,0E0,5.7957825E2,1.8963867E2,0E0,2.5142469E4,1.661829E2,7.071045E0,1.3091098E4,4.551563E4,5.897209E2,3.2695156E4,1.9392426E4,5.5094023E4,3.1434125E4,1.6543209E4,0E0,5.516333E2,0E0,4.298285E2,1.08791504E2,6.5200275E2,1.39575E3,0E0,0E0,0E0,0E0,0E0,2.0906758E3,7.9794043E3,1.0370975E4,0E0,0E0,0E0,0E0,1.7990625E2,6.872461E2,3.63547E4,0E0,0E0,0E0,3.2441562E3,1.3710039E4,0E0,0E0,0E0,0E0,0E0,0E0,0E0,0E0,0E0,0E0,0E0,0E0,0E0,0E0,0E0,0E0,0E0,0E0,0E0,0E0,0E0,0E0,0E0,0E0,0E0,0E0,0E0],"parents":[2147483647,0,0,1,1,2,2,3,3,4,4,5,5,6,6,7,7,8,8,9,9,10,10,11,11,12,12,13,13,14,14,15,15,17,17,18,18,20,20,21,21,22,22,23,23,24,24,25,25,26,26,27,27,28,28,29,29,30,30,32,32,34,34,35,35,36,36,37,37,43,43,44,44,45,45,50,50,51,51,52,52,56,56,57,57],"right_children":[2,4,6,8,10,12,14,16,18,20,22,24,26,28,30,32,-1,34,36,-1,38,40,42,44,46,48,50,52,54,56,58,-1,60,-1,62,64,66,68,-1,-1,-1,-1,-1,70,72,74,-1,-1,-1,-1,76,78,80,-1,-1,-1,82,84,-1,-1,-1,-1,-1,-1,-1,-1,-1,-1,-1,-1,-1,-1,-1,-1,-1,-1,-1,-1,-1,-1,-1,-1,-1,-1,-1],"split_conditions":[7.025E0,2.0145542E1,8.9E0,-8.528367E-1,2.0616667E2,2.9285715E0,9.897936E-1,-8.776087E-1,6.2875E1,5.97E4,6.2583332E1,-6E-1,-1.5483177E0,2.88E1,4.2606668E4,2.0579166E1,-3.2855153E0,-1.32E1,8.009803E-1,3.499825E-1,2.94E1,3.09E1,7.25E0,6.7E0,9.0541664E1,8.6541664E1,1.2558333E1,2.5029447E0,-7.0214796E-1,5E0,1.00450415E3,3.5249123E-1,6.8791664E1,-2.6050547E-1,4.89E4,8.6791664E1,8.4945047E-1,9.913E2,3.9918527E-1,-2.0915286E-1,1.6169508E-1,2.2748993E-1,4.0308028E-1,2.3614285E4,9.483334E0,7.3458336E1,-2.8433633E0,3.5480928E-1,-1.7280538E-1,6.0347777E-2,9.8204584E2,-7.1579534E-1,2.5071576E0,-2.7430713E0,3.7942967E-1,3.2304987E-1,-3.7E0,8.75E1,-2.1978002E0,3.1222543E-1,-3.1953627E-1,3.5089982E-1,6.0981043E-2,3.5450986E-1,1.368316E-1,-1.2209951E-1,3.6593112E-1,-3.3214283E0,-2.4269722E0,-6.515602E-2,2.765723E-1,-2.2805645E0,3.0010542E-1,-1.666337E0,-3.6629584E-2,-2.4688964E0,-3.4572685E0,2.4165574E-1,3.1772953E-1,-2.7430756E0,7.563933E-2,-1.5949873E0,-3.2631195E0,1.4212303E-1,-1.7454054E0],"split_indices":[5,13,53,80,6,52,80,80,29,11,26,0,33,67,72,22,0,25,80,0,16,20,9,20,29,26,5,79,80,10,8,0,28,0,11,26,80,8,0,0,0,0,0,68,5,4,0,0,0,0,8,80,79,0,0,0,0,27,0,0,0,0,0,0,0,0,0,0,0,0,0,0,0,0,0,0,0,0,0,0,0,0,0,0,0],"split_type":[0,0,0,0,0,0,0,0,0,0,0,0,0,0,0,0,0,0,0,0,0,0,0,0,0,0,0,0,0,0,0,0,0,0,0,0,0,0,0,0,0,0,0,0,0,0,0,0,0,0,0,0,0,0,0,0,0,0,0,0,0,0,0,0,0,0,0,0,0,0,0,0,0,0,0,0,0,0,0,0,0,0,0,0,0],"sum_hessian":[5.0823E3,5.124E2,4.5699E3,3.472E2,1.652E2,6.069E2,3.963E3,9.81E1,2.491E2,1.134E2,5.18E1,5.109E2,9.6E1,3.73E3,2.33E2,6.57E1,3.24E1,5.96E1,1.895E2,1.12E1,1.022E2,1.01E1,4.17E1,4.2269998E2,8.82E1,2.18E1,7.42E1,3.674E3,5.6E1,4.77E1,1.853E2,5.19E1,1.38E1,7.5E0,5.21E1,1.615E2,2.8E1,9.72E1,5E0,5E0,5.1E0,5.2E0,3.65E1,4.109E2,1.18E1,6.36E1,2.46E1,1.45E1,7.3E0,8.1E0,6.61E1,1.4815E3,2.1925E3,2.4E1,3.2E1,8.2E0,3.95E1,1.776E2,7.7E0,4.2E0,9.6E0,2.18E1,3.03E1,1.538E2,7.7E0,1.01E1,1.79E1,7.69E1,2.03E1,5.07E1,3.6019998E2,7.5E0,4.3E0,1.1E1,5.26E1,1.35E1,5.26E1,4.45E2,1.0365E3,1.05E1,2.182E3,6.5E0,3.3E1,1.684E2,9.2E0],"tree_param":{"num_deleted":"0","num_feature":"82","num_nodes":"85","size_leaf_vector":"1"}},{"base_weights":[-1.5316367E-1,4.752422E0,-3.1028829E0,5.590144E0,-1.1457354E1,3.6222928E0,-7.5887246E0,6.7262597E0,5.116262E0,4.739493E0,-5.362685E1,-1.1704938E1,4.303127E0,-3.3286755E1,-4.9698777E0,1.9650921E0,6.8220477E0,-2.8941627E0,5.235165E0,6.5221148E0,3.4646782E-1,-2.0442789E0,-3.2542267E0,-2.4011147E0,3.666567E0,1.3019572E0,5.234268E0,-1.6241362E1,-5.7754463E1,-1.8102549E1,-1.2503046E-1,3.4236526E-1,-2.1330217E-1,6.936984E0,2.9918334E0,-6.917457E-1,4.4570704E0,5.37696E0,-1.2288498E0,2.4306107E0,3.869582E-1,-1.4505857E0,2.8046435E-1,4.757229E0,-1.5442944E-1,2.9072297E0,-1.2166227E1,6.0774403E0,3.0179515E0,-5.4335903E1,-3.02894E0,4.891566E-2,-3.1339304E0,-3.66315E1,1.6316162E-1,1.4887131E0,-1.0030632E1,2.594653E-1,3.55929E-1,3.452927E-1,-2.8109863E-1,7.206791E-3,3.378628E-1,1.5313916E-1,2.888405E-1,-1.1519582E0,2.1622853E-1,-1.1064767E-1,3.230799E-1,7.3530905E-2,-1.3623935E-1,2.8645423E-1,-2.97573E-2,1.8209784E-1,-9.5265335E-1,-2.5112154E0,1.2329578E-1,3.1354937E-1,-4.8238388E-1,2.784868E-1,-1.1507739E-1,-1.7217064E-1,-3.292527E0,2.899524E-1,-2.4347973E-1,-2.2491372E0,3.674339E-1,-3.0277898E0,1.7156418E-1,-9.2265986E-2,3.0653095E-1,-3.1320455E0,-3.8822122E-2],"categories":[],"categories_nodes":[],"categories_segments":[],"categories_sizes":[],"default_left":[0,0,0,0,0,0,0,0,0,0,0,0,0,0,0,0,0,0,0,0,0,0,0,0,0,0,0,0,0,0,0,0,0,0,0,0,0,0,0,0,0,0,0,0,0,0,0,0,0,0,0,0,0,0,0,1,0,0,0,0,0,0,0,0,0,0,0,0,0,0,0,0,0,0,0,0,0,0,0,0,0,0,0,0,0,0,0,0,0,0,0,0,0],"id":9,"left_children":[1,3,5,7,9,11,13,15,17,19,21,23,25,27,29,31,33,35,37,39,41,-1,-1,-1,43,45,47,49,51,53,55,-1,-1,57,59,-1,61,63,65,67,-1,69,-1,71,-1,73,75,77,79,81,83,-1,-1,85,87,89,91,-1,-1,-1,-1,-1,-1,-1,-1,-1,-1,-1,-1,-1,-1,-1,-1,-1,-1,-1,-1,-1,-1,-1,-1,-1,-1,-1,-1,-1,-1,-1,-1,-1,-1,-1,-1],"loss_changes":[7.298456E4,2.5783223E4,9.5050875E4,9.3553906E2,6.404756E4,1.3209277E4,1.27016586E5,2.2698633E2,1.2300195E3,5.3338794E2,1.1346016E3,3.0265885E4,3.3692383E3,7.188097E4,1.09192305E5,3.8818735E2,2.0653711E2,1.6139236E3,1.1589141E3,2.2319556E2,2.0485417E2,0E0,0E0,0E0,3.0055554E2,6.2489883E3,1.7040723E3,5.233182E4,2.068189E4,1.5653652E5,2.007144E4,0E0,0E0,1.2190234E2,6.052301E2,0E0,1.210488E2,1.1208242E3,3.4668218E3,2.5014786E2,0E0,6.467901E1,0E0,1.7922833E2,0E0,4.2257227E3,1.727548E4,2.0896309E3,3.4878171E3,1.5478273E4,1.3038074E3,0E0,0E0,8.466019E4,4.6622184E4,1.6722584E4,8.5591E4,0E0,0E0,0E0,0E0,0E0,0E0,0E0,0E0,0E0,0E0,0E0,0E0,0E0,0E0,0E0,0E0,0E0,0E0,0E0,0E0,0E0,0E0,0E0,0E0,0E0,0E0,0E0,0E0,0E0,0E0,0E0,0E0,0E0,0E0,0E0,0E0],"parents":[2147483647,0,0,1,1,2,2,3,3,4,4,5,5,6,6,7,7,8,8,9,9,10,10,11,11,12,12,13,13,14,14,15,15,16,16,17,17,18,18,19,19,20,20,24,24,25,25,26,26,27,27,28,28,29,29,30,30,33,33,34,34,36,36,37,37,38,38,39,39,41,41,43,43,45,45,46,46,47,47,48,48,49,49,50,50,53,53,54,54,55,55,56,56],"right_children":[2,4,6,8,10,12,14,16,18,20,22,24,26,28,30,32,34,36,38,40,42,-1,-1,-1,44,46,48,50,52,54,56,-1,-1,58,60,-1,62,64,66,68,-1,70,-1,72,-1,74,76,78,80,82,84,-1,-1,86,88,90,92,-1,-1,-1,-1,-1,-1,-1,-1,-1,-1,-1,-1,-1,-1,-1,-1,-1,-1,-1,-1,-1,-1,-1,-1,-1,-1,-1,-1,-1,-1,-1,-1,-1,-1,-1,-1],"split_conditions":[2.76E1,9.897936E-1,3.967143E4,4.34E4,2.29E1,-9.9E0,4.76E4,3E-1,4.4E4,6.2E0,2.7583334E0,5.3166668E1,6.0791668E1,8.6875E1,-7.0214796E-1,7.9E0,9.9708336E1,-3.4958334E0,3.19E1,6.3E4,1.28E5,-2.0442789E0,-3.2542267E0,-2.4011147E0,1.01331665E3,6E1,3.149416E-1,-3.7141979E0,5.6291668E1,-4.7370636E-1,3.09E1,3.4236526E-1,-2.1330217E-1,5.0208332E1,1.04E1,-6.917457E-1,2.95E4,-9.3507487E-1,9.817125E2,1.27E2,3.869582E-1,5.4E1,2.8046435E-1,1.6358333E2,-1.5442944E-1,2.307139E1,5.4416668E1,3.2E1,4.33E4,4.7E0,-1.7752916E-1,4.891566E-2,-3.1339304E0,2.18E1,2.2442858E1,1.7135464E1,2.3293333E1,2.594653E-1,3.55929E-1,3.452927E-1,-2.8109863E-1,7.206791E-3,3.378628E-1,1.5313916E-1,2.888405E-1,-1.1519582E0,2.1622853E-1,-1.1064767E-1,3.230799E-1,7.3530905E-2,-1.3623935E-1,2.8645423E-1,-2.97573E-2,1.8209784E-1,-9.5265335E-1,-2.5112154E0,1.2329578E-1,3.1354937E-1,-4.8238388E-1,2.784868E-1,-1.1507739E-1,-1.7217064E-1,-3.292527E0,2.899524E-1,-2.4347973E-1,-2.2491372E0,3.674339E-1,-3.0277898E0,1.7156418E-1,-9.2265986E-2,3.0653095E-1,-3.1320455E0,-3.8822122E-2],"split_indices":[67,80,68,11,53,2,73,39,71,41,22,27,29,29,80,2,9,1,19,73,11,0,0,0,8,29,80,57,9,81,18,0,0,27,10,0,44,80,8,6,0,9,0,6,0,31,6,7,73,2,80,0,0,16,64,61,54,0,0,0,0,0,0,0,0,0,0,0,0,0,0,0,0,0,0,0,0,0,0,0,0,0,0,0,0,0,0,0,0,0,0,0,0],"split_type":[0,0,0,0,0,0,0,0,0,0,0,0,0,0,0,0,0,0,0,0,0,0,0,0,0,0,0,0,0,0,0,0,0,0,0,0,0,0,0,0,0,0,0,0,0,0,0,0,0,0,0,0,0,0,0,0,0,0,0,0,0,0,0,0,0,0,0,0,0,0,0,0,0,0,0,0,0,0,0,0,0,0,0,0,0,0,0,0,0,0,0,0,0],"sum_hessian":[5.0418E3,1.893E3,3.1488E3,1.8006E3,9.24E1,1.26E3,1.8888E3,5.261E2,1.2745E3,6.74E1,2.5E1,5.2899998E1,1.2071E3,1.736E2,1.7152E3,1.08E1,5.153E2,1.83E1,1.2562E3,4.76E1,1.98E1,1.4E1,1.1E1,1.51E1,3.78E1,2.864E2,9.207E2,1.033E2,7.03E1,4.615E2,1.2537E3,6E0,4.8E0,4.995E2,1.58E1,7E0,1.13E1,1.2294E3,2.68E1,1.16E1,3.6E1,1.53E1,4.5E0,3.28E1,5E0,2.566E2,2.98E1,6.657E2,2.55E2,2.58E1,7.75E1,5.5E0,6.48E1,2.286E2,2.329E2,1.0788E3,1.749E2,4.98E1,4.497E2,1.1E1,4.8E0,4.3E0,7E0,1.824E2,1.047E3,4.8E0,2.2E1,5.6E0,6E0,4.6E0,1.07E1,2.7699999E1,5.1E0,2.4909999E2,7.5E0,7.6E0,2.2199999E1,6.582E2,7.5E0,1.723E2,8.27E1,5E0,2.08E1,1.3E1,6.45E1,1.921E2,3.65E1,1.1E1,2.219E2,6.282E2,4.506E2,2.53E1,1.496E2],"tree_param":{"num_deleted":"0","num_feature":"82","num_nodes":"93","size_leaf_vector":"1"}},{"base_weights":[-7.5591564E-1,3.6014087E0,-3.3811278E0,4.838614E0,-1.8593327E1,4.39447E0,-6.6561775E0,5.174518E0,-5.973591E0,-5.0913036E1,5.967031E0,4.5749416E0,-8.074534E0,-2.5192856E1,-4.4484553E0,-2.7633667E-1,5.376002E0,-2.9397883E0,6.429206E0,-8.773778E-1,-2.9859822E0,3.760589E-1,-6.8568677E-1,-4.8329635E0,4.781394E0,-1.1881797E0,2.4979448E-1,-2.7579796E-2,-4.5904404E1,-2.2715425E1,-1.6101261E0,3.3407912E-1,-1.9670657E0,4.1988025E0,5.863077E0,-4.5682535E-2,7.283659E0,6.382265E-2,-1.0484802E-1,3.1677723E0,-8.390975E-1,2.539073E0,5.4389043E0,4.244993E0,-5.681058E0,3.859602E0,-5.2859783E1,-3.684006E1,3.370087E0,-1.7632215E1,4.7069225E-3,-2.8703555E-1,2.184613E-1,3.0113503E-1,1.3880733E-1,3.779953E-1,2.1035658E-1,-1.894265E-2,2.752661E-1,1.5356481E-1,-4.886434E-1,1.1747348E-1,2.8303075E-1,-2.728432E-1,3.1116417E-1,-1.5693016E-1,-1.1044222E0,4.1415635E-1,-3.3673772E-1,1.4553228E-1,-2.7943711E0,-2.1958852E0,3.5242355E-1,-3.324927E-2,3.03949E-1,-2.1992369E0,2.3071454E-1,-8.1396115E-1,4.5440827E-2],"categories":[],"categories_nodes":[],"categories_segments":[],"categories_sizes":[],"default_left":[0,0,0,0,0,0,0,0,0,0,0,0,0,0,0,0,0,0,0,0,0,0,0,0,0,0,0,0,0,0,0,0,0,0,0,0,0,0,0,0,0,0,0,0,0,0,0,0,0,0,0,0,0,0,0,0,0,0,0,0,0,0,0,0,0,0,0,0,0,0,0,0,0,0,0,0,0,0,0],"id":10,"left_children":[1,3,5,7,9,11,13,15,17,19,21,23,25,27,29,31,33,-1,35,-1,-1,-1,37,39,41,-1,-1,43,45,47,49,-1,-1,51,53,-1,55,-1,-1,57,-1,59,61,63,65,67,69,71,73,75,77,-1,-1,-1,-1,-1,-1,-1,-1,-1,-1,-1,-1,-1,-1,-1,-1,-1,-1,-1,-1,-1,-1,-1,-1,-1,-1,-1,-1],"loss_changes":[5.7790066E4,5.224918E4,8.030915E4,6.5682617E3,8.0079055E4,2.140746E3,9.068156E4,1.919375E3,3.6214316E4,1.1733961E4,6.048367E2,1.8142812E3,2.9280786E3,1.2295264E5,1.0281364E5,1.7441312E4,9.4102344E2,0E0,2.9024524E2,0E0,0E0,0E0,3.562915E1,1.9938552E3,1.3173809E3,0E0,0E0,2.6207673E3,4.4992875E4,9.838933E4,4.44499E4,0E0,0E0,8.6594727E2,5.690039E2,0E0,2.699707E0,0E0,0E0,1.0986107E2,0E0,1.3838037E3,4.643203E2,1.2200924E3,1.8787653E3,8.4310675E2,1.9344281E4,5.407917E4,1.0380753E3,9.242032E4,2.3006855E4,0E0,0E0,0E0,0E0,0E0,0E0,0E0,0E0,0E0,0E0,0E0,0E0,0E0,0E0,0E0,0E0,0E0,0E0,0E0,0E0,0E0,0E0,0E0,0E0,0E0,0E0,0E0,0E0],"parents":[2147483647,0,0,1,1,2,2,3,3,4,4,5,5,6,6,7,7,8,8,9,9,10,10,11,11,12,12,13,13,14,14,15,15,16,16,18,18,22,22,23,23,24,24,27,27,28,28,29,29,30,30,33,33,34,34,36,36,39,39,41,41,42,42,43,43,44,44,45,45,46,46,47,47,48,48,49,49,50,50],"right_children":[2,4,6,8,10,12,14,16,18,20,22,24,26,28,30,32,34,-1,36,-1,-1,-1,38,40,42,-1,-1,44,46,48,50,-1,-1,52,54,-1,56,-1,-1,58,-1,60,62,64,66,68,70,72,74,76,78,-1,-1,-1,-1,-1,-1,-1,-1,-1,-1,-1,-1,-1,-1,-1,-1,-1,-1,-1,-1,-1,-1,-1,-1,-1,-1,-1,-1],"split_conditions":[2.76E1,9.897936E-1,3.42E4,2.2442225E1,4.2606668E4,2.401079E1,8.9E0,-4.8714285E0,1.8525248E0,-1.6666667E-1,1.2655258E1,2.2041666E1,1.63E1,-3.5938501E0,7.025E0,1.2166667E0,-7.277015E-1,-2.9397883E0,3.02E1,-8.773778E-1,-2.9859822E0,3.760589E-1,4.3416667E0,1.28E1,1.6290263E0,-1.1881797E0,2.4979448E-1,1.4E0,1.8E0,-5.2675474E-1,3.14E4,3.3407912E-1,-1.9670657E0,-8E-1,9.6550715E-1,-4.5682535E-2,2.14E1,6.382265E-2,-1.0484802E-1,2.54E4,-8.390975E-1,1.2833333E0,2.1871428E4,2.38E4,1.8333334E0,-1.5208334E0,3.48E4,3.24E1,6.55E1,-8.3437014E-1,2.765E1,-2.8703555E-1,2.184613E-1,3.0113503E-1,1.3880733E-1,3.779953E-1,2.1035658E-1,-1.894265E-2,2.752661E-1,1.5356481E-1,-4.886434E-1,1.1747348E-1,2.8303075E-1,-2.728432E-1,3.1116417E-1,-1.5693016E-1,-1.1044222E0,4.1415635E-1,-3.3673772E-1,1.4553228E-1,-2.7943711E0,-2.1958852E0,3.5242355E-1,-3.324927E-2,3.03949E-1,-2.1992369E0,2.3071454E-1,-8.1396115E-1,4.5440827E-2],"split_indices":[67,80,44,33,72,31,53,52,48,23,57,6,0,33,5,34,80,0,53,0,0,0,25,20,59,0,0,2,51,80,45,0,0,2,80,0,0,0,0,45,0,23,68,11,24,24,45,53,4,80,65,0,0,0,0,0,0,0,0,0,0,0,0,0,0,0,0,0,0,0,0,0,0,0,0,0,0,0,0],"split_type":[0,0,0,0,0,0,0,0,0,0,0,0,0,0,0,0,0,0,0,0,0,0,0,0,0,0,0,0,0,0,0,0,0,0,0,0,0,0,0,0,0,0,0,0,0,0,0,0,0,0,0,0,0,0,0,0,0,0,0,0,0,0,0,0,0,0,0,0,0,0,0,0,0,0,0,0,0,0,0],"sum_hessian":[5.05E3,1.8985E3,3.1515E3,1.799E3,9.95E1,9.3389996E2,2.2176E3,1.7453E3,5.37E1,4.25E1,5.7E1,9.212E2,1.2700001E1,2.349E2,1.9827E3,6.22E1,1.6831E3,9.5E0,4.42E1,9.5E0,3.3E1,4.61E1,1.09E1,1.93E1,9.0189996E2,5.4E0,7.3E0,1.065E2,1.284E2,2.657E2,1.717E3,5.35E1,8.7E0,4.954E2,1.1877E3,4.6E0,3.96E1,4.6E0,6.3E0,1.2E1,7.3E0,2.0559999E2,6.963E2,6.08E1,4.57E1,1.58E1,1.126E2,1.721E2,9.36E1,1.563E2,1.5607E3,7.8E0,4.876E2,1.1284E3,5.93E1,3.5E1,4.6E0,5.1E0,6.8999996E0,1.978E2,7.8E0,4.74E1,6.489E2,1E1,5.08E1,4.06E1,5.1E0,1.13E1,4.5E0,5.8E0,1.068E2,1.482E2,2.39E1,3.79E1,5.57E1,7.11E1,8.52E1,8.12E1,1.4795E3],"tree_param":{"num_deleted":"0","num_feature":"82","num_nodes":"79","size_leaf_vector":"1"}},{"base_weights":[-3.8114306E-1,-1.084695E1,7.730524E-1,3.9259923E0,-2.1713234E1,-3.5945263E0,2.1123965E0,-2.057844E0,4.4836197E0,-3.7022972E1,-1.5505347E0,5.9008174E-2,-4.1709774E1,2.9020467E0,-6.6724596E0,-2.7545804E-1,2.8322384E-1,4.824497E0,-1.0592477E0,3.6970767E-1,-4.3508827E1,4.7685986E0,-2.566345E0,1.3757328E0,-2.9924479E1,-5.219503E1,-7.913828E0,3.1689656E0,-1.5160465E1,-4.2220406E1,-5.5628407E-1,5.4200497E0,1.4073414E0,-3.4704003E-1,2.4468414E-1,5.9046526E0,-4.870965E1,-2.2052255E0,6.1260276E0,2.9539948E0,-8.01242E0,3.877064E0,-2.7186682E0,3.2839662E-1,-2.838006E0,-1.3468349E0,1.1032588E0,2.602723E0,6.999006E0,4.315863E0,-3.2840729E0,3.024776E-1,-6.1058956E1,-2.836442E1,4.905353E0,-4.998341E-2,2.9239216E-1,-2.8771982E-1,2.5782448E-1,3.6923262E-1,1.0700854E-1,-2.6717882E0,3.5091594E-1,3.5331294E-1,-3.0106014E-1,6.73719E-2,3.4007132E-1,-2.4121411E-1,1.9673635E-1,-2.5240505E0,-1.6777995E-1,-2.4902713E-1,3.4558877E-1,-2.2292958E-1,3.0610028E-1,1.383274E-1,-1.2354009E0,3.5982457E-1,-2.349854E-1,-1.4074071E-1,3.133162E-1,-1.8591226E0,-3.3510263E0,1.1088293E-1,-2.836102E0,-1.9724652E-1,2.9081053E-1],"categories":[],"categories_nodes":[],"categories_segments":[],"categories_sizes":[],"default_left":[0,0,1,1,0,1,0,1,0,0,0,1,0,0,0,0,0,0,0,0,0,0,0,0,0,0,0,0,0,0,0,0,0,0,0,0,0,0,0,1,0,0,0,0,0,0,0,1,0,0,0,0,0,0,0,0,0,0,0,0,0,0,0,0,0,0,0,0,0,0,0,0,0,0,0,0,0,0,0,0,0,0,0,0,0,0,0],"id":11,"left_children":[1,3,5,7,9,11,13,15,17,19,21,23,25,27,29,-1,-1,31,33,-1,35,37,-1,39,41,43,45,47,49,51,53,55,57,-1,-1,59,61,63,65,67,69,71,-1,-1,-1,-1,73,75,77,79,-1,-1,81,83,85,-1,-1,-1,-1,-1,-1,-1,-1,-1,-1,-1,-1,-1,-1,-1,-1,-1,-1,-1,-1,-1,-1,-1,-1,-1,-1,-1,-1,-1,-1,-1,-1],"loss_changes":[6.0733676E4,8.025242E4,2.6499088E4,7.182866E2,8.881316E4,1.4805877E5,2.4066342E4,5.3226733E2,3.729839E2,4.7452094E4,3.9657055E4,3.8384137E4,3.2542328E4,1.5385816E4,6.22014E4,0E0,0E0,3.6601562E2,4.5761703E2,0E0,3.7011625E4,1.0747007E3,0E0,1.3822708E4,3.401098E4,1.9365469E4,4.0092344E3,6.782496E3,4.603777E4,3.8561492E4,3.737961E4,4.34271E2,7.9759436E2,0E0,0E0,6.4981384E1,3.4455938E4,7.1476306E2,2.9453906E2,6.106451E3,2.6390936E4,5.209574E2,0E0,0E0,0E0,0E0,4.9345117E2,1.2298553E4,9.6557227E2,4.9746814E2,0E0,0E0,1.8209453E3,3.516208E4,1.6819692E3,0E0,0E0,0E0,0E0,0E0,0E0,0E0,0E0,0E0,0E0,0E0,0E0,0E0,0E0,0E0,0E0,0E0,0E0,0E0,0E0,0E0,0E0,0E0,0E0,0E0,0E0,0E0,0E0,0E0,0E0,0E0,0E0],"parents":[2147483647,0,0,1,1,2,2,3,3,4,4,5,5,6,6,7,7,8,8,9,9,10,10,11,11,12,12,13,13,14,14,17,17,18,18,20,20,21,21,23,23,24,24,25,25,26,26,27,27,28,28,29,29,30,30,31,31,32,32,35,35,36,36,37,37,38,38,39,39,40,40,41,41,46,46,47,47,48,48,49,49,52,52,53,53,54,54],"right_children":[2,4,6,8,10,12,14,16,18,20,22,24,26,28,30,-1,-1,32,34,-1,36,38,-1,40,42,44,46,48,50,52,54,56,58,-1,-1,60,62,64,66,68,70,72,-1,-1,-1,-1,74,76,78,80,-1,-1,82,84,86,-1,-1,-1,-1,-1,-1,-1,-1,-1,-1,-1,-1,-1,-1,-1,-1,-1,-1,-1,-1,-1,-1,-1,-1,-1,-1,-1,-1,-1,-1,-1,-1],"split_conditions":[7.025E0,5.64E4,-2.3461692E0,-1.627471E1,-5.285813E-1,2.1783492E-1,2.903E1,6.6958336E1,8.6125E1,7.0916664E1,9.4458336E1,-2.57191E0,-3.1030178E0,9.2583336E1,-8.3437014E-1,-2.7545804E-1,2.8322384E-1,3.02E1,6.4541664E1,3.6970767E-1,2.0535128E0,7.89E4,-2.566345E0,1E-1,1.3429167E2,2.7E0,5.0916668E1,2.2981468E1,1.5395833E1,3.1E4,1.6814991E1,-1.2691667E1,2.49E1,-3.4704003E-1,2.4468414E-1,2.76E1,2.8342857E1,2.4016667E2,1.19E1,5.3375E1,2E-1,6.625E1,-2.7186682E0,3.2839662E-1,-2.838006E0,-1.3468349E0,4.45E4,2.74E1,9.0416664E1,5.3333332E1,-3.2840729E0,3.024776E-1,1.52E1,2.8E1,2.263371E1,-4.998341E-2,2.9239216E-1,-2.8771982E-1,2.5782448E-1,3.6923262E-1,1.0700854E-1,-2.6717882E0,3.5091594E-1,3.5331294E-1,-3.0106014E-1,6.73719E-2,3.4007132E-1,-2.4121411E-1,1.9673635E-1,-2.5240505E0,-1.6777995E-1,-2.4902713E-1,3.4558877E-1,-2.2292958E-1,3.0610028E-1,1.383274E-1,-1.2354009E0,3.5982457E-1,-2.349854E-1,-1.4074071E-1,3.133162E-1,-1.8591226E0,-3.3510263E0,1.1088293E-1,-2.836102E0,-1.9724652E-1,2.9081053E-1],"split_indices":[5,43,60,33,80,58,54,29,27,4,9,60,60,27,80,0,0,20,4,0,15,73,0,0,6,10,4,59,22,11,33,23,21,0,0,2,50,6,18,27,0,4,0,0,0,0,11,41,4,29,0,0,0,21,61,0,0,0,0,0,0,0,0,0,0,0,0,0,0,0,0,0,0,0,0,0,0,0,0,0,0,0,0,0,0,0,0],"split_type":[0,0,0,0,0,0,0,0,0,0,0,0,0,0,0,0,0,0,0,0,0,0,0,0,0,0,0,0,0,0,0,0,0,0,0,0,0,0,0,0,0,0,0,0,0,0,0,0,0,0,0,0,0,0,0,0,0,0,0,0,0,0,0,0,0,0,0,0,0,0,0,0,0,0,0,0,0,0,0,0,0,0,0,0,0,0,0],"sum_hessian":[5.0261E3,4.984E2,4.5277E3,2.115E2,2.869E2,1.0622E3,3.4655E3,1.78E1,1.937E2,1.626E2,1.243E2,9.702E2,9.2E1,3.1803E3,2.852E2,1.25E1,5.3E0,1.826E2,1.11E1,2.07E1,1.419E2,1.111E2,1.32E1,9.303E2,3.99E1,6.98E1,2.22E1,3.1348E3,4.55E1,4.1E1,2.442E2,1.55E2,2.76E1,5.5E0,5.6E0,1.35E1,1.284E2,1.8E1,9.31E1,7.97E2,1.333E2,1.71E1,2.28E1,5E0,6.48E1,6.5E0,1.57E1,2.7325E3,4.023E2,3.35E1,1.2E1,1.17E1,2.93E1,3.94E1,2.048E2,9.6E0,1.454E2,9.3E0,1.83E1,9E0,4.5E0,1.184E2,1E1,5E0,1.3E1,1.19E1,8.12E1,8.88E1,7.082E2,1.22E1,1.211E2,4.2E0,1.29E1,7.5E0,8.2E0,2.7171E3,1.54E1,3.96E2,6.3E0,7.1E0,2.64E1,7.3E0,2.2E1,1.94E1,2E1,1.88E1,1.86E2],"tree_param":{"num_deleted":"0","num_feature":"82","num_nodes":"87","size_leaf_vector":"1"}},{"base_weights":[-7.569805E-1,-9.264484E-2,-2.250299E1,7.977086E-1,-1.2945491E1,-4.5784184E1,6.7591877E0,1.3441714E0,-1.0791511E1,5.2856474E0,-2.2124481E1,7.181552E0,-5.7030315E1,2.2178987E-1,7.1276035E0,2.9203634E0,-2.8494327E0,-3.286337E1,2.5342982E0,-4.621635E-2,5.8333297E0,-5.062285E1,-7.9098806E0,4.5697132E-1,1.36953E-1,-1.8360262E0,-3.0617216E0,1.9359812E-1,3.6737013E-1,-1.1961045E0,4.010714E0,-3.4946733E0,-9.710045E-1,7.1802654E0,-4.6174522E1,-2.0250123E0,5.2203155E0,5.999413E0,9.565361E-2,1.0951849E-1,-2.7254388E0,3.4027023E0,-3.9400288E1,4.7012143E-2,-9.2672175E-1,2.532953E-1,1.0484155E-1,-1.5463456E0,1.4555164E-2,4.379033E-1,2.5831908E-1,-7.89617E-1,-2.5848782E0,-2.2459956E-1,2.1463351E-1,3.1039083E-1,-2.644724E-2,1.8073733E-1,3.0888796E-1,-9.020297E-1,2.2755626E-1,-2.5280612E0,4.3169305E-1],"categories":[],"categories_nodes":[],"categories_segments":[],"categories_sizes":[],"default_left":[1,1,0,0,0,0,0,0,0,0,0,0,0,0,0,1,0,0,0,0,0,0,0,0,0,0,0,0,0,1,0,0,0,0,0,1,1,0,0,0,0,0,0,0,0,0,0,0,0,0,0,0,0,0,0,0,0,0,0,0,0,0,0],"id":12,"left_children":[1,3,5,7,9,11,13,15,17,19,21,23,25,-1,27,29,31,33,35,-1,37,39,41,-1,-1,-1,-1,-1,-1,43,45,-1,47,49,51,53,55,57,-1,-1,-1,59,61,-1,-1,-1,-1,-1,-1,-1,-1,-1,-1,-1,-1,-1,-1,-1,-1,-1,-1,-1,-1],"loss_changes":[7.339267E4,5.643631E4,1.02907E5,2.922456E4,5.3583176E4,5.0444953E4,2.624707E1,2.9128348E4,6.120253E4,3.7203003E2,8.576284E4,1.10652954E2,3.6771406E3,0E0,1.2125E1,1.4378875E4,1.5156075E5,4.2067547E4,1.6087246E3,0E0,5.3110596E1,1.46085E4,5.1111703E4,0E0,0E0,0E0,0E0,0E0,0E0,2.4886553E4,5.102996E3,0E0,4.432705E4,1.9573608E1,9.067125E3,7.8453516E2,4.7110132E2,1.7944336E1,0E0,0E0,0E0,2.6973828E3,2.0754965E4,0E0,0E0,0E0,0E0,0E0,0E0,0E0,0E0,0E0,0E0,0E0,0E0,0E0,0E0,0E0,0E0,0E0,0E0,0E0,0E0],"parents":[2147483647,0,0,1,1,2,2,3,3,4,4,5,5,6,6,7,7,8,8,9,9,10,10,11,11,12,12,14,14,15,15,16,16,17,17,18,18,20,20,21,21,22,22,29,29,30,30,32,32,33,33,34,34,35,35,36,36,37,37,41,41,42,42],"right_children":[2,4,6,8,10,12,14,16,18,20,22,24,26,-1,28,30,32,34,36,-1,38,40,42,-1,-1,-1,-1,-1,-1,44,46,-1,48,50,52,54,56,58,-1,-1,-1,60,62,-1,-1,-1,-1,-1,-1,-1,-1,-1,-1,-1,-1,-1,-1,-1,-1,-1,-1,-1,-1],"split_conditions":[2.1506556E1,8.8958336E1,5.62E1,9.897936E-1,4.1E4,9.26E4,3.54E4,2.0644121E1,-1.1805105E0,-1.54875E1,4.76E4,2.42E1,2.1566174E1,2.2178987E-1,1.8277494E1,6.5173845E0,6.5E0,4.1029477E0,5.35E4,-4.621635E-2,8.6333336E1,-5.802557E-2,2.42E1,4.5697132E-1,1.36953E-1,-1.8360262E0,-3.0617216E0,1.9359812E-1,3.6737013E-1,2.1833334E0,1.1499899E1,-3.4946733E0,1.3656142E1,6.25E0,5.9041668E1,5.416637E-1,6.046636E-1,1.4416667E1,9.565361E-2,1.0951849E-1,-2.7254388E0,9.774583E2,2.5364286E1,4.7012143E-2,-9.2672175E-1,2.532953E-1,1.0484155E-1,-1.5463456E0,1.4555164E-2,4.379033E-1,2.5831908E-1,-7.89617E-1,-2.5848782E0,-2.2459956E-1,2.1463351E-1,3.1039083E-1,-2.644724E-2,1.8073733E-1,3.0888796E-1,-9.020297E-1,2.2755626E-1,-2.5280612E0,4.3169305E-1],"split_indices":[60,29,17,80,11,44,44,57,60,24,73,16,32,0,33,61,17,57,44,0,26,80,21,0,0,0,0,0,0,25,33,0,60,10,26,47,76,9,0,0,0,8,52,0,0,0,0,0,0,0,0,0,0,0,0,0,0,0,0,0,0,0,0],"split_type":[0,0,0,0,0,0,0,0,0,0,0,0,0,0,0,0,0,0,0,0,0,0,0,0,0,0,0,0,0,0,0,0,0,0,0,0,0,0,0,0,0,0,0,0,0,0,0,0,0,0,0,0,0,0,0,0,0,0,0,0,0,0,0],"sum_hessian":[5.0794E3,4.9298E3,1.496E2,4.6113E3,3.185E2,8.3E1,6.66E1,4.4045E3,2.068E2,1.06799995E2,2.117E2,1.46E1,6.84E1,1.0900001E1,5.57E1,3.2015E3,1.203E3,7.73E1,1.295E2,8.6E0,9.82E1,6.96E1,1.421E2,9.4E0,5.2E0,1.34E1,5.5E1,4.7E0,5.1E1,6.704E2,2.5311E3,3.18E1,1.1712E3,1.94E1,5.79E1,4.81E1,8.14E1,9.37E1,4.5E0,4.8E0,6.48E1,1.052E2,3.69E1,5.977E2,7.27E1,1.6305E3,9.006E2,4.64E1,1.1248E3,9E0,1.04E1,9.5E0,4.84E1,3.48E1,1.33E1,6.94E1,1.2E1,8E0,8.57E1,4.6E0,1.006E2,2.99E1,7E0],"tree_param":{"num_deleted":"0","num_feature":"82","num_nodes":"63","size_leaf_vector":"1"}},{"base_weights":[-1.9270575E-1,8.981707E-1,-1.1294035E1,2.012399E0,-7.541248E0,3.3191857E0,-1.896174E1,1.0724384E0,5.536403E0,-2.3689417E1,4.191192E0,4.2992516E0,-5.185806E0,-4.826641E1,-7.3108087E0,1.9545183E0,-4.0476E1,-9.518427E-1,5.6839447E0,4.913074E0,-3.298257E1,-3.6817307E0,5.4342628E0,5.266215E0,-5.537455E0,1.5427662E-3,-3.6960277E-1,-2.5641394E0,2.9861507E-1,2.7020898E0,-3.516663E1,2.3924825E0,-1.1386037E1,3.2769992E0,-5.72251E1,4.361124E0,6.8228545E0,-3.2601483E-2,2.7423057E-1,-4.029774E1,8.012402E0,1.2122769E0,-2.5382766E-1,-5.3825235E0,6.319922E0,-2.9900977E-1,5.7207427E0,-9.6719916E-4,-4.2282662E-1,-4.439719E0,5.144896E0,-4.356879E1,3.9620999E-1,-4.65224E-2,1.6492525E-1,-2.2092438E0,2.7900127E-1,3.449638E-1,-3.7965146E-1,-3.2005727E0,-2.019493E0,3.206136E-1,8.852859E-2,3.969322E-2,3.5668012E-1,-2.30959E0,4.3561465E-1,1.2235689E-1,4.4608983E-1,1.6776691E-1,-7.674146E-2,2.9402718E-1,-9.5676625E-1,2.4982686E-1,3.5971478E-1,-2.3930025E-1,2.2809398E-1,1.0772492E-1,2.95449E-1,1.6881947E-1,-2.7552608E-1,-8.6498207E-1,3.1072506E-1,-1.4803854E0,-2.4965007E0],"categories":[],"categories_nodes":[],"categories_segments":[],"categories_sizes":[],"default_left":[0,0,0,0,0,0,0,0,0,0,0,0,0,0,1,0,0,0,0,0,0,0,0,0,0,0,0,0,0,1,1,0,0,0,0,0,0,0,0,0,0,0,0,0,0,0,0,0,0,0,0,0,0,0,0,0,0,0,0,0,0,0,0,0,0,0,0,0,0,0,0,0,0,0,0,0,0,0,0,0,0,0,0,0,0],"id":13,"left_children":[1,3,5,7,9,11,13,15,17,19,21,23,25,27,29,31,33,-1,35,37,39,41,43,45,47,-1,-1,-1,-1,49,51,53,55,57,59,61,63,-1,-1,65,67,69,-1,71,73,75,77,-1,-1,79,81,83,-1,-1,-1,-1,-1,-1,-1,-1,-1,-1,-1,-1,-1,-1,-1,-1,-1,-1,-1,-1,-1,-1,-1,-1,-1,-1,-1,-1,-1,-1,-1,-1,-1],"loss_changes":[6.0745113E4,4.2964438E4,5.035091E4,1.3361354E4,1.0106115E5,1.3167904E3,1.00197305E5,1.1687962E5,3.188123E3,5.980922E4,3.048959E3,1.3589021E3,1.901308E2,1.3983594E4,5.919765E4,1.8266348E4,4.877371E4,0E0,1.2436016E3,1.8137512E2,5.1153406E4,2.983186E2,2.5985781E3,3.2498682E2,2.092377E2,0E0,0E0,0E0,0E0,2.7583833E3,2.0656594E4,9.105162E3,5.555939E4,8.123094E2,2.8985625E3,2.0811436E3,8.419043E2,0E0,0E0,4.199947E4,1.122843E2,6.578821E1,0E0,3.3344197E3,2.509082E2,2.5302754E2,6.661694E1,0E0,0E0,3.5757062E2,2.923506E3,2.7046094E3,0E0,0E0,0E0,0E0,0E0,0E0,0E0,0E0,0E0,0E0,0E0,0E0,0E0,0E0,0E0,0E0,0E0,0E0,0E0,0E0,0E0,0E0,0E0,0E0,0E0,0E0,0E0,0E0,0E0,0E0,0E0,0E0,0E0],"parents":[2147483647,0,0,1,1,2,2,3,3,4,4,5,5,6,6,7,7,8,8,9,9,10,10,11,11,12,12,13,13,14,14,15,15,16,16,18,18,19,19,20,20,21,21,22,22,23,23,24,24,29,29,30,30,31,31,32,32,33,33,34,34,35,35,36,36,39,39,40,40,41,41,43,43,44,44,45,45,46,46,49,49,50,50,51,51],"right_children":[2,4,6,8,10,12,14,16,18,20,22,24,26,28,30,32,34,-1,36,38,40,42,44,46,48,-1,-1,-1,-1,50,52,54,56,58,60,62,64,-1,-1,66,68,70,-1,72,74,76,78,-1,-1,80,82,84,-1,-1,-1,-1,-1,-1,-1,-1,-1,-1,-1,-1,-1,-1,-1,-1,-1,-1,-1,-1,-1,-1,-1,-1,-1,-1,-1,-1,-1,-1,-1,-1,-1],"split_conditions":[8.7166664E1,2.859E1,4.1E4,2.565E1,3.24E1,2.5833334E1,4.76E4,2.76E1,2.2041666E1,6.79E4,2.263371E1,1.0088875E3,7.9666664E1,8.9E0,1.9891241E1,2.3511871E1,2.415E1,-9.518427E-1,2.302439E1,1.8816668E1,8.65E4,3.47E4,2.2314285E4,-1.54875E1,-6.9E0,1.5427662E-3,-3.6960277E-1,-2.5641394E0,2.9861507E-1,5.44E4,2.24E1,5.9083332E1,6.5E0,1.9079166E1,2.5616667E1,3.22E1,3.03E1,-3.2601483E-2,2.7423057E-1,1.15E5,8.17E4,3.37E1,-2.5382766E-1,2.6991667E1,7.89E4,4.8583332E1,2.24E4,-9.6719916E-4,-4.2282662E-1,1.6433333E0,9.774583E2,7.9E4,3.9620999E-1,-4.65224E-2,1.6492525E-1,-2.2092438E0,2.7900127E-1,3.449638E-1,-3.7965146E-1,-3.2005727E0,-2.019493E0,3.206136E-1,8.852859E-2,3.969322E-2,3.5668012E-1,-2.30959E0,4.3561465E-1,1.2235689E-1,4.4608983E-1,1.6776691E-1,-7.674146E-2,2.9402718E-1,-9.5676625E-1,2.4982686E-1,3.5971478E-1,-2.3930025E-1,2.2809398E-1,1.0772492E-1,2.95449E-1,1.6881947E-1,-2.7552608E-1,-8.6498207E-1,3.1072506E-1,-1.4803854E0,-2.4965007E0],"split_indices":[29,54,11,52,53,54,73,50,6,71,61,8,4,53,33,61,22,0,61,24,11,11,68,24,2,0,0,0,0,73,39,4,17,3,22,53,55,0,0,45,43,2,0,24,73,9,44,0,0,54,8,43,0,0,0,0,0,0,0,0,0,0,0,0,0,0,0,0,0,0,0,0,0,0,0,0,0,0,0,0,0,0,0,0,0],"split_type":[0,0,0,0,0,0,0,0,0,0,0,0,0,0,0,0,0,0,0,0,0,0,0,0,0,0,0,0,0,0,0,0,0,0,0,0,0,0,0,0,0,0,0,0,0,0,0,0,0,0,0,0,0,0,0,0,0,0,0,0,0,0,0,0,0,0,0,0,0,0,0,0,0,0,0,0,0,0,0,0,0,0,0,0,0],"sum_hessian":[5.0142E3,4.5664E3,4.478E2,4.0345E3,5.319E2,1.543E2,2.935E2,3.186E3,8.485E2,2.234E2,3.085E2,1.388E2,1.55E1,8.26E1,2.109E2,3.1207E3,6.53E1,4.3E0,8.442E2,5.49E1,1.685E2,4.18E1,2.667E2,1.26799995E2,1.2E1,4.9E0,1.06E1,7.83E1,4.3E0,1.558E2,5.51E1,3.0223E3,9.84E1,1.83E1,4.7E1,3.928E2,4.514E2,5.1E0,4.98E1,1.43E2,2.55E1,9.299999E0,3.25E1,1.9800001E1,2.4690001E2,9.6E0,1.172E2,4.5E0,7.5E0,3.95E1,1.163E2,4.61E1,9E0,6.475E2,2.3748E3,3.3E1,6.54E1,1.4E1,4.3E0,3.15E1,1.55E1,2.1840001E2,1.744E2,2.2300001E1,4.291E2,1.277E2,1.53E1,4.1000004E0,2.14E1,5.1E0,4.2E0,1.12E1,8.6E0,1.009E2,1.46E2,5E0,4.6E0,6.5E0,1.107E2,4.5E0,3.5E1,4.6E0,1.117E2,1.62E1,2.99E1],"tree_param":{"num_deleted":"0","num_feature":"82","num_nodes":"85","size_leaf_vector":"1"}},{"base_weights":[-1.9121529E-1,3.446485E0,-2.6442468E0,3.9858508E0,-8.301177E0,-3.0448689E1,-1.7756712E0,4.399184E0,-4.653252E0,-2.4487503E0,6.1066136E0,-2.3573995E0,5.708854E0,3.0056593E0,-5.334025E0,-8.329702E-1,4.573655E0,4.0730376E0,-3.618727E1,6.6895304E0,-7.500126E-2,7.204225E0,-8.604973E-2,-1.840346E1,3.322375E0,-2.9322958E1,-2.763993E0,2.935003E-1,-1.6414589E0,5.634694E0,4.1433525E0,5.148769E0,-2.4704525E0,-1.0202193E0,-2.2175605E0,3.64416E-1,2.6536167E-1,4.140441E-1,2.540564E-1,2.3891766E0,-2.1187603E0,4.013163E0,-1.1786711E0,-4.067352E1,-1.3761209E0,-1.8887646E1,-1.8018161E-1,2.9156512E-1,1.1726499E-2,-8.7832145E-2,2.1549657E-1,3.379543E-1,4.8197314E-2,-2.5300344E-3,-2.2921263E-1,2.225441E-1,-3.8736959E-3,2.128341E-1,-2.7055103E-1,-2.318328E0,6.488935E-2,-3.148914E-1,-2.6056144E0,-2.1784838E-1,2.6397386E-1,1.9105212E-1,-2.6084635E0,3.2462522E-2,-1.0776924E0],"categories":[],"categories_nodes":[],"categories_segments":[],"categories_sizes":[],"default_left":[0,0,0,0,0,0,0,0,0,0,0,0,0,0,0,0,0,0,0,0,0,0,0,0,0,0,0,0,0,0,0,0,0,0,0,0,0,0,0,0,0,0,0,0,0,1,0,0,0,0,0,0,0,0,0,0,0,0,0,0,0,0,0,0,0,0,0,0,0],"id":14,"left_children":[1,3,5,7,9,11,13,15,17,-1,19,-1,21,23,25,27,29,31,33,35,-1,37,-1,39,41,43,45,-1,-1,47,49,51,53,-1,-1,-1,-1,-1,-1,55,-1,57,59,61,63,65,67,-1,-1,-1,-1,-1,-1,-1,-1,-1,-1,-1,-1,-1,-1,-1,-1,-1,-1,-1,-1,-1,-1],"loss_changes":[4.516059E4,1.2948344E4,7.2942516E4,6.9818066E3,5.2923668E4,5.5517375E4,4.99018E4,1.7026328E3,2.4775555E4,0E0,3.0800122E2,0E0,3.4348767E2,8.548422E3,1.0358116E5,1.3253919E4,7.9898047E2,5.1249133E2,1.607623E3,1.3133789E1,0E0,1.5070068E1,0E0,9.272459E3,3.842498E3,5.152275E4,6.3312195E4,0E0,0E0,5.474336E2,1.2706797E3,4.0657874E2,5.449942E1,0E0,0E0,0E0,0E0,0E0,0E0,5.526831E1,0E0,2.479338E3,1.852465E4,4.5127516E4,9.752896E2,1.58838E5,2.3253635E4,0E0,0E0,0E0,0E0,0E0,0E0,0E0,0E0,0E0,0E0,0E0,0E0,0E0,0E0,0E0,0E0,0E0,0E0,0E0,0E0,0E0,0E0],"parents":[2147483647,0,0,1,1,2,2,3,3,4,4,5,5,6,6,7,7,8,8,10,10,12,12,13,13,14,14,15,15,16,16,17,17,18,18,19,19,21,21,23,23,24,24,25,25,26,26,29,29,30,30,31,31,32,32,39,39,41,41,42,42,43,43,44,44,45,45,46,46],"right_children":[2,4,6,8,10,12,14,16,18,-1,20,-1,22,24,26,28,30,32,34,36,-1,38,-1,40,42,44,46,-1,-1,48,50,52,54,-1,-1,-1,-1,-1,-1,56,-1,58,60,62,64,66,68,-1,-1,-1,-1,-1,-1,-1,-1,-1,-1,-1,-1,-1,-1,-1,-1,-1,-1,-1,-1,-1,-1],"split_conditions":[2.6153334E1,2.2442225E1,2.3391945E0,9.897936E-1,1.8525248E0,6.941429E4,3.967143E4,-1.2252867E1,2.29E1,-2.4487503E0,2.6046667E1,-2.3573995E0,2.392075E1,-1.968499E1,4.76E4,2.6708333E0,4.37E4,8.5E0,-9.4375E0,2.4181745E0,-7.500126E-2,2.3197824E1,-8.604973E-2,-1.5404166E1,5.9E0,8.7E0,3.84E4,2.935003E-1,-1.6414589E0,2.595E1,3.8835715E4,6.2344944E-1,5.7833332E1,-1.0202193E0,-2.2175605E0,3.64416E-1,2.6536167E-1,4.140441E-1,2.540564E-1,2.5189598E0,-2.1187603E0,4.99E1,6E0,-6.5170794E0,5.3166666E0,2.3590227E1,2.2766666E1,2.9156512E-1,1.1726499E-2,-8.7832145E-2,2.1549657E-1,3.379543E-1,4.8197314E-2,-2.5300344E-3,-2.2921263E-1,2.225441E-1,-3.8736959E-3,2.128341E-1,-2.7055103E-1,-2.318328E0,6.488935E-2,-3.148914E-1,-2.6056144E0,-2.1784838E-1,2.6397386E-1,1.9105212E-1,-2.6084635E0,3.2462522E-2,-1.0776924E0],"split_indices":[66,33,74,80,48,68,68,58,53,0,66,0,33,13,73,14,11,7,3,75,0,59,0,22,7,53,45,0,0,38,70,46,27,0,0,0,0,0,0,61,0,16,7,33,54,61,3,0,0,0,0,0,0,0,0,0,0,0,0,0,0,0,0,0,0,0,0,0,0],"split_type":[0,0,0,0,0,0,0,0,0,0,0,0,0,0,0,0,0,0,0,0,0,0,0,0,0,0,0,0,0,0,0,0,0,0,0,0,0,0,0,0,0,0,0,0,0,0,0,0,0,0,0,0,0,0,0,0,0,0,0,0,0,0,0,0,0,0,0,0,0],"sum_hessian":[5.0589E3,2.0373E3,3.0216E3,1.9485E3,8.88E1,9.05E1,2.9311E3,1.86E3,8.85E1,2.26E1,6.62E1,6.17E1,2.88E1,1.2507E3,1.6804E3,5.99E1,1.8001E3,7E1,1.85E1,6.16E1,4.6E0,2.4E1,4.8E0,1.74E1,1.2333E3,1.616E2,1.5188E3,5.02E1,9.7E0,5.159E2,1.2842E3,6.03E1,9.7E0,7.5E0,1.1E1,4E1,2.16E1,1.4E1,1E1,9.799999E0,7.6E0,1.0693E3,1.64E2,1.146E2,4.7E1,2.089E2,1.3099E3,4.977E2,1.82E1,3.5E1,1.2492E3,4.31E1,1.72E1,5E0,4.7E0,4.8999996E0,4.8999996E0,1.0429E3,2.64E1,7.6E0,1.564E2,2.9E1,8.56E1,3.27E1,1.4299999E1,1.247E2,8.42E1,1.2619E3,4.8E1],"tree_param":{"num_deleted":"0","num_feature":"82","num_nodes":"69","size_leaf_vector":"1"}},{"base_weights":[-2.7757496E-1,3.254063E0,-2.584464E0,3.9229913E0,-9.809798E0,-2.8747042E1,-1.7608479E0,4.4639945E0,-7.6005073E0,3.8377676E0,-3.8309902E1,-2.2877975E0,3.2910833E-1,3.9194334E0,-4.3500834E0,2.9937997E0,4.802817E0,-2.4841769E0,6.5231094E0,5.6798415E0,-4.530655E-1,-7.9823697E-1,-2.293689E0,4.0325813E0,-4.2207727E-1,-7.5311847E0,5.4785275E0,3.47567E0,-6.6265664E0,4.9272294E0,-3.0367932E-1,4.0686724E-1,2.887822E-1,7.5486076E-1,3.4686363E-1,1.7501959E0,-3.17747E0,-8.6043173E-1,4.250621E0,-5.8782425E0,-3.3282696E1,7.112919E0,1.2823615E0,2.6037312E-1,1.1727487E-1,2.638911E-1,-7.0225495E-1,5.8395425E-3,2.501654E-1,-1.1356586E0,1.9494304E-1,6.454128E-2,-1.232804E-3,2.0638292E-1,-4.462238E-2,-2.1158306E-1,-6.700989E-2,-5.1557314E-1,1.7870572E-1,1.2054085E-1,2.4649183E-1,-6.508244E-1,-6.972368E-2,-2.596523E0,-4.2815337E-1,-2.2997712E-1,3.6888614E-1,-2.1676143E-1,3.9808437E-1],"categories":[],"categories_nodes":[],"categories_segments":[],"categories_sizes":[],"default_left":[0,0,0,0,0,0,0,0,0,0,0,0,0,0,1,0,0,0,0,0,0,0,0,0,0,1,0,0,0,0,0,0,0,0,0,0,0,0,0,0,0,0,0,0,0,0,0,0,0,0,0,0,0,0,0,0,0,0,0,0,0,0,0,0,0,0,0,0,0],"id":15,"left_children":[1,3,5,7,9,11,13,15,17,19,21,-1,-1,23,25,27,29,-1,31,33,35,-1,-1,37,-1,39,41,43,45,47,49,-1,-1,51,-1,53,55,57,59,61,63,65,67,-1,-1,-1,-1,-1,-1,-1,-1,-1,-1,-1,-1,-1,-1,-1,-1,-1,-1,-1,-1,-1,-1,-1,-1,-1,-1],"loss_changes":[4.093942E4,1.738935E4,6.5444273E4,1.1813537E4,3.787586E4,5.600565E4,4.337207E4,8.8495703E2,5.0904516E4,5.281916E2,4.5916406E3,0E0,0E0,1.325668E3,6.336389E4,1.6029021E3,9.3260547E2,0E0,3.0946777E1,2.8334888E2,1.3101503E2,0E0,0E0,9.806963E2,0E0,6.495125E4,3.391162E3,6.2427515E2,1.5401248E3,5.230469E2,3.4600847E3,0E0,0E0,4.4604387E0,0E0,8.033371E1,1.3116051E1,1.7091044E3,1.0839102E3,4.6051633E4,4.2010258E4,1.1399316E3,5.295059E3,0E0,0E0,0E0,0E0,0E0,0E0,0E0,0E0,0E0,0E0,0E0,0E0,0E0,0E0,0E0,0E0,0E0,0E0,0E0,0E0,0E0,0E0,0E0,0E0,0E0,0E0],"parents":[2147483647,0,0,1,1,2,2,3,3,4,4,5,5,6,6,7,7,8,8,9,9,10,10,13,13,14,14,15,15,16,16,18,18,19,19,20,20,23,23,25,25,26,26,27,27,28,28,29,29,30,30,33,33,35,35,36,36,37,37,38,38,39,39,40,40,41,41,42,42],"right_children":[2,4,6,8,10,12,14,16,18,20,22,-1,-1,24,26,28,30,-1,32,34,36,-1,-1,38,-1,40,42,44,46,48,50,-1,-1,52,-1,54,56,58,60,62,64,66,68,-1,-1,-1,-1,-1,-1,-1,-1,-1,-1,-1,-1,-1,-1,-1,-1,-1,-1,-1,-1,-1,-1,-1,-1,-1,-1],"split_conditions":[2.6116667E1,9.897936E-1,2.4241211E0,2.2442225E1,2.29E1,7.43E4,3.42E4,5.9083332E1,1.8525248E0,1.2728118E1,5.275E1,-2.2877975E0,3.2910833E-1,3.2E1,7.79E4,9.0708336E1,3.19E1,-2.4841769E0,2.64E1,6.3E4,3.1E0,-7.9823697E-1,-2.293689E0,4.9708332E1,-4.2207727E-1,1.19E5,6.990793E-1,4.39E4,8.116667E0,-9.994446E-1,9.817125E2,4.0686724E-1,2.887822E-1,6.45E0,3.4686363E-1,7.5E0,8.0333336E1,5.6625E1,-2.5666666E0,4.1876668E4,8.65E4,7.89E4,1.21E5,2.6037312E-1,1.1727487E-1,2.638911E-1,-7.0225495E-1,5.8395425E-3,2.501654E-1,-1.1356586E0,1.9494304E-1,6.454128E-2,-1.232804E-3,2.0638292E-1,-4.462238E-2,-2.1158306E-1,-6.700989E-2,-5.1557314E-1,1.7870572E-1,1.2054085E-1,2.4649183E-1,-6.508244E-1,-6.972368E-2,-2.596523E0,-4.2815337E-1,-2.2997712E-1,3.6888614E-1,-2.1676143E-1,3.9808437E-1],"split_indices":[66,80,75,33,53,44,44,4,48,61,4,0,0,7,45,28,19,0,65,73,7,0,0,28,0,69,80,11,1,80,8,0,0,10,0,38,9,26,25,72,11,73,73,0,0,0,0,0,0,0,0,0,0,0,0,0,0,0,0,0,0,0,0,0,0,0,0,0,0],"split_type":[0,0,0,0,0,0,0,0,0,0,0,0,0,0,0,0,0,0,0,0,0,0,0,0,0,0,0,0,0,0,0,0,0,0,0,0,0,0,0,0,0,0,0,0,0,0,0,0,0,0,0,0,0,0,0,0,0,0,0,0,0,0,0,0,0,0,0,0,0],"sum_hessian":[5.023E3,1.9845E3,3.0385E3,1.8885E3,9.6E1,9.17E1,2.9468E3,1.8044E3,8.41E1,6.55E1,3.05E1,6.17E1,3E1,9.225E2,2.0243E3,3.398E2,1.4646E3,2.05E1,6.36E1,4.56E1,1.99E1,8.5E0,2.2E1,9.148E2,7.7000003E0,1.5295E3,4.948E2,3.242E2,1.56E1,1.4298E3,3.48E1,1.7E1,4.66E1,9.6E0,3.6E1,1.12E1,8.7E0,3.8899998E1,8.759E2,1.4384E3,9.11E1,3.556E2,1.392E2,1.266E2,1.976E2,6.1E0,9.5E0,2.23E1,1.4075E3,4.8E0,3E1,5.3E0,4.3E0,5.6E0,5.6E0,4.7E0,4E0,1.2E1,2.69E1,2.374E2,6.385E2,5.542E2,8.842E2,5.13E1,3.98E1,7.5E0,3.481E2,7.58E1,6.3399998E1],"tree_param":{"num_deleted":"0","num_feature":"82","num_nodes":"69","size_leaf_vector":"1"}},{"base_weights":[-8.2676184E-1,-1.0574058E1,2.536521E-1,2.9807663E0,-1.961894E1,8.491644E-1,-1.2902821E1,4.2703333E0,-1.1598817E0,-3.3591618E1,-3.4271903E0,-3.632767E-1,4.0863137E0,-2.7436367E1,-6.522618E-1,-2.4838858E0,4.8076696E0,5.1138606E0,-4.006068E1,-3.2409798E1,3.4899871E0,-3.5067121E-3,-2.6592855E0,4.334914E0,-3.1512403E0,3.4231262E0,-4.31289E1,-1.8547461E0,2.5847096E0,2.5203642E-1,-2.8391787E-1,5.7469525E0,2.8812425E0,6.414726E-2,2.9619095E-1,-4.2705257E1,4.072568E-1,3.7707788E-1,-2.0832093E0,-9.698827E0,5.1159754E0,1.4493102E0,-5.3091717E0,2.8384597E0,5.45419E0,-1.9274315E0,4.7149887E0,-1.8853188E-1,4.9284086E0,-2.3364289E0,2.9066536E-1,-6.476094E-1,3.6391275E0,3.020601E-1,1.1693155E-1,2.0420308E-1,-4.028016E-1,3.249216E-1,-2.240325E0,-1.1081661E0,1.0368756E-1,3.957028E-2,2.9410034E-1,-1.5190629E0,8.2377926E-2,2.3906198E-1,-5.643327E-1,1.8607582E-1,-5.0997015E-2,5.2812416E-2,2.8543884E-1,2.6980934E-1,-8.156936E-3,2.7714422E-1,1.0161968E-1,-8.193132E-2,2.2985111E-1],"categories":[],"categories_nodes":[],"categories_segments":[],"categories_sizes":[],"default_left":[0,0,1,0,0,0,0,0,0,0,0,1,0,0,0,0,0,0,0,0,0,0,0,0,0,0,0,0,0,0,0,0,0,0,0,0,0,0,0,0,0,0,0,0,0,0,0,0,0,0,0,0,0,0,0,0,0,0,0,0,0,0,0,0,0,0,0,0,0,0,0,0,0,0,0,0,0],"id":16,"left_children":[1,3,5,7,9,11,13,15,-1,17,19,21,23,25,27,29,31,33,35,37,39,41,-1,43,45,47,49,-1,51,-1,-1,53,55,-1,-1,57,-1,-1,-1,59,61,63,65,67,69,-1,71,-1,73,-1,-1,-1,75,-1,-1,-1,-1,-1,-1,-1,-1,-1,-1,-1,-1,-1,-1,-1,-1,-1,-1,-1,-1,-1,-1,-1,-1],"loss_changes":[5.3382793E4,6.207046E4,3.5769176E4,6.962225E3,6.854936E4,1.7142494E4,3.5181418E4,7.182009E2,0E0,4.0968047E4,2.8520818E4,6.039809E4,2.154961E3,4.3925062E4,1.2871365E4,3.8918057E2,3.1022998E2,6.748987E1,1.814461E4,1.0444686E4,2.5222112E3,2.4347752E4,0E0,1.9123809E3,1.1347359E4,3.5860278E2,1.0842227E4,0E0,1.6919257E3,0E0,0E0,1.06620605E2,8.3802185E2,0E0,0E0,1.3990203E4,0E0,0E0,0E0,1.9535714E3,3.375525E2,1.569784E4,4.1008023E4,1.6889895E3,7.3003125E2,0E0,1.128645E2,0E0,3.5714233E1,0E0,0E0,0E0,4.8679736E2,0E0,0E0,0E0,0E0,0E0,0E0,0E0,0E0,0E0,0E0,0E0,0E0,0E0,0E0,0E0,0E0,0E0,0E0,0E0,0E0,0E0,0E0,0E0,0E0],"parents":[2147483647,0,0,1,1,2,2,3,3,4,4,5,5,6,6,7,7,9,9,10,10,11,11,12,12,13,13,14,14,15,15,16,16,17,17,18,18,19,19,20,20,21,21,23,23,24,24,25,25,26,26,28,28,31,31,32,32,35,35,39,39,40,40,41,41,42,42,43,43,44,44,46,46,48,48,52,52],"right_children":[2,4,6,8,10,12,14,16,-1,18,20,22,24,26,28,30,32,34,36,38,40,42,-1,44,46,48,50,-1,52,-1,-1,54,56,-1,-1,58,-1,-1,-1,60,62,64,66,68,70,-1,72,-1,74,-1,-1,-1,76,-1,-1,-1,-1,-1,-1,-1,-1,-1,-1,-1,-1,-1,-1,-1,-1,-1,-1,-1,-1,-1,-1,-1,-1],"split_conditions":[7.025E0,2.0275188E1,9.0541664E1,1.8E5,2.4320833E2,7.52E4,8.9E0,-1.4970834E1,-1.1598817E0,5.54E4,-8.528367E-1,1.05E5,1.9E5,7.8E0,8.3333336E-2,1.01E1,7.6791664E1,6.2166668E1,9.6E4,1.36E1,5.3333332E1,5.54E4,-2.6592855E0,2.34E1,1.87E5,2.46E4,9.953375E2,-1.8547461E0,9.774583E2,2.5203642E-1,-2.8391787E-1,3.21E2,2.1145834E1,6.414726E-2,2.9619095E-1,3.17E1,4.072568E-1,3.7707788E-1,-2.0832093E0,2.71E1,5.95E1,3.575E1,1.6275E2,3.01E1,7.89E4,-1.9274315E0,9.8625E1,-1.8853188E-1,7.4E0,-2.3364289E0,2.9066536E-1,-6.476094E-1,5.3362293E0,3.020601E-1,1.1693155E-1,2.0420308E-1,-4.028016E-1,3.249216E-1,-2.240325E0,-1.1081661E0,1.0368756E-1,3.957028E-2,2.9410034E-1,-1.5190629E0,8.2377926E-2,2.3906198E-1,-5.643327E-1,1.8607582E-1,-5.0997015E-2,5.2812416E-2,2.8543884E-1,2.6980934E-1,-8.156936E-3,2.7714422E-1,1.0161968E-1,-8.193132E-2,2.2985111E-1],"split_indices":[5,57,29,11,6,11,53,25,0,43,80,43,42,53,9,55,28,28,11,0,29,42,0,65,11,11,8,0,8,0,0,6,24,0,0,55,0,0,0,2,28,28,6,55,73,0,9,0,53,0,0,0,59,0,0,0,0,0,0,0,0,0,0,0,0,0,0,0,0,0,0,0,0,0,0,0,0],"split_type":[0,0,0,0,0,0,0,0,0,0,0,0,0,0,0,0,0,0,0,0,0,0,0,0,0,0,0,0,0,0,0,0,0,0,0,0,0,0,0,0,0,0,0,0,0,0,0,0,0,0,0,0,0,0,0,0,0,0,0,0,0,0,0,0,0,0,0,0,0,0,0,0,0,0,0,0,0],"sum_hessian":[5.0678E3,5.048E2,4.563E3,2.023E2,3.025E2,4.3663E3,1.967E2,1.936E2,8.7E0,1.618E2,1.407E2,3.1772E3,1.1891E3,8.94E1,1.073E2,1.4E1,1.796E2,2.32E1,1.386E2,2.64E1,1.143E2,3.1567E3,2.05E1,1.15E3,3.91E1,3.04E1,5.9E1,7.9E0,9.94E1,4E0,1E1,1.194E2,6.02E1,4.5E0,1.87E1,1.315E2,7.1E0,5E0,2.14E1,1.2E1,1.023E2,2.4787E3,6.78E2,4.936E2,6.564E2,6.4E0,3.27E1,5E0,2.54E1,5.5E1,4E0,5.6E0,9.38E1,1.092E2,1.02E1,5.48E1,5.4E0,5.3E0,1.262E2,5.4E0,6.6E0,1.57E1,8.66E1,1.44E1,2.4643E3,2.523E2,4.257E2,4.017E2,9.19E1,3.62E1,6.202E2,2.86E1,4.1E0,2.02E1,5.2E0,1.43E1,7.95E1],"tree_param":{"num_deleted":"0","num_feature":"82","num_nodes":"77","size_leaf_vector":"1"}},{"base_weights":[-2.1250917E-1,6.140535E-1,-1.0312295E1,1.2999587E0,-1.0280622E1,3.4464955E0,-1.7129276E1,1.793139E0,-4.418703E0,-2.7839384E1,6.43133E0,5.1990237E0,-1.4640152E0,-3.975244E1,-7.9131546E0,-2.2051477E1,1.9061958E0,-4.929229E1,-3.5872617E-1,8.44543E0,-3.8084034E1,2.4445448E0,6.7131004E0,5.466906E0,3.42259E0,-5.8716497E0,2.8319982E-1,1.1180861E-1,-4.306772E1,-3.6545963E1,1.3946986E-1,-2.2694163E0,3.870426E-1,2.6740088E0,-1.4862015E0,3.3977157E-1,-3.189733E0,-2.559619E1,3.102816E0,1.0155489E1,-5.559172E-2,-4.2776062E1,2.8647882E-1,-1.7645875E-2,2.3939793E-1,2.6354742E-1,7.1431823E0,6.30516E0,4.634001E0,1.2754905E-1,2.2417863E-1,-2.3615909E-1,-3.8976583E-1,-2.2572749E0,-1.541818E0,5.8995754E-2,-2.1508129E0,2.4727464E0,-1.5681034E0,-7.448333E-1,1.3865189E-1,5.8608195E-3,-1.425516E0,-2.2697616E0,1.9261129E-1,2.2708392E-1,-1.6821413E0,3.458327E-1,5.611285E-1,4.308469E-1,-2.2629554E0,2.1179362E-1,3.7048924E-1,2.6209852E-1,4.0814772E-1,2.486054E-1,1.4484972E-1,-8.013274E-1,1.6283241E-1],"categories":[],"categories_nodes":[],"categories_segments":[],"categories_sizes":[],"default_left":[0,0,1,0,0,0,0,0,0,0,0,0,1,0,0,0,0,0,0,0,0,0,0,0,0,0,0,0,0,0,0,0,0,0,0,0,0,0,0,0,0,0,0,0,0,0,0,0,0,0,0,0,0,0,0,0,0,0,0,0,0,0,0,0,0,0,0,0,0,0,0,0,0,0,0,0,0,0,0],"id":17,"left_children":[1,3,5,7,9,11,13,15,17,19,21,23,25,27,29,31,33,35,37,39,41,43,45,47,49,51,-1,-1,53,55,57,-1,-1,59,61,-1,-1,63,65,67,-1,69,-1,-1,-1,-1,71,73,75,-1,-1,-1,-1,-1,-1,-1,-1,77,-1,-1,-1,-1,-1,-1,-1,-1,-1,-1,-1,-1,-1,-1,-1,-1,-1,-1,-1,-1,-1],"loss_changes":[4.1791105E4,3.4594098E4,3.5578605E4,1.2288773E4,8.0640625E4,1.0945249E3,5.251878E4,1.0850551E4,6.3018574E4,5.009564E4,1.423208E2,2.5688232E1,1.1014578E3,1.0272094E4,4.1807305E4,1.3561266E4,1.040048E4,2.3778234E4,2.7886281E4,5.0649902E2,2.1748203E4,7.314591E1,4.3848145E1,2.6218018E1,2.3414307E0,1.0680603E1,0E0,0E0,3.3096875E2,9.76584E3,1.0551558E4,0E0,0E0,5.705209E3,3.1951256E4,0E0,0E0,2.2622307E4,1.4999229E4,1.1544678E1,0E0,1.2462016E4,0E0,0E0,0E0,0E0,4.4882812E1,2.989685E1,1.1201904E1,0E0,0E0,0E0,0E0,0E0,0E0,0E0,0E0,1.9896101E3,0E0,0E0,0E0,0E0,0E0,0E0,0E0,0E0,0E0,0E0,0E0,0E0,0E0,0E0,0E0,0E0,0E0,0E0,0E0,0E0,0E0],"parents":[2147483647,0,0,1,1,2,2,3,3,4,4,5,5,6,6,7,7,8,8,9,9,10,10,11,11,12,12,13,13,14,14,15,15,16,16,17,17,18,18,19,19,20,20,21,21,22,22,23,23,24,24,25,25,28,28,29,29,30,30,33,33,34,34,37,37,38,38,39,39,41,41,46,46,47,47,48,48,57,57],"right_children":[2,4,6,8,10,12,14,16,18,20,22,24,26,28,30,32,34,36,38,40,42,44,46,48,50,52,-1,-1,54,56,58,-1,-1,60,62,-1,-1,64,66,68,-1,70,-1,-1,-1,-1,72,74,76,-1,-1,-1,-1,-1,-1,-1,-1,78,-1,-1,-1,-1,-1,-1,-1,-1,-1,-1,-1,-1,-1,-1,-1,-1,-1,-1,-1,-1,-1],"split_conditions":[8.8291664E1,2.5237722E1,3.93E4,2.1317919E1,2.18E1,3.9E4,4.76E4,3.575E1,2.3293333E1,1.9022308E1,2.1579166E1,1.8070833E2,-9.3333334E-1,3.8206668E4,6.695833E0,-6.437102E0,9.9937915E2,1.78E1,2.1435093E1,1.19033336E5,1.38E5,9.25E4,2.3063545E0,1.29E1,7.4041664E1,1.22833336E2,2.8319982E-1,1.1180861E-1,1.7166667E0,6.3E0,1.75E5,-2.2694163E0,3.870426E-1,-9.9E0,2.3511871E1,3.3977157E-1,-3.189733E0,7.820833E0,9.0041664E1,2.1375E1,-5.559172E-2,6.8375E1,2.8647882E-1,-1.7645875E-2,2.3939793E-1,2.6354742E-1,2.8214285E4,-3.5833332E-1,9.5208336E1,1.2754905E-1,2.2417863E-1,-2.3615909E-1,-3.8976583E-1,-2.2572749E0,-1.541818E0,5.8995754E-2,-2.1508129E0,9.774583E2,-1.5681034E0,-7.448333E-1,1.3865189E-1,5.8608195E-3,-1.425516E0,-2.2697616E0,1.9261129E-1,2.2708392E-1,-1.6821413E0,3.458327E-1,5.611285E-1,4.308469E-1,-2.2629554E0,2.1179362E-1,3.7048924E-1,2.6209852E-1,4.0814772E-1,2.486054E-1,1.4484972E-1,-8.013274E-1,1.6283241E-1],"split_indices":[29,61,42,13,16,45,73,28,54,56,23,6,54,72,5,30,8,16,13,72,73,42,78,55,4,6,0,0,23,5,42,0,0,2,61,0,0,5,4,1,0,4,0,0,0,0,68,1,29,0,0,0,0,0,0,0,0,8,0,0,0,0,0,0,0,0,0,0,0,0,0,0,0,0,0,0,0,0,0],"split_type":[0,0,0,0,0,0,0,0,0,0,0,0,0,0,0,0,0,0,0,0,0,0,0,0,0,0,0,0,0,0,0,0,0,0,0,0,0,0,0,0,0,0,0,0,0,0,0,0,0,0,0,0,0,0,0,0,0,0,0,0,0,0,0,0,0,0,0,0,0,0,0,0,0,0,0,0,0,0,0],"sum_hessian":[5.0043E3,4.6266E3,3.777E2,4.3534E3,2.732E2,1.25299995E2,2.524E2,4.0084E3,3.45E2,1.329E2,1.403E2,9.2299995E1,3.3E1,7.21E1,1.803E2,1.8E1,3.9904E3,2.77E1,3.173E2,2.93E1,1.036E2,9.9E0,1.304E2,7.84E1,1.39E1,2.05E1,1.25E1,5.3E0,6.68E1,3.88E1,1.415E2,9.8E0,8.2E0,3.2541E3,7.363E2,5.8E0,2.19E1,3.75E1,2.798E2,2.48E1,4.5E0,9.36E1,1E1,4.9E0,5E0,3.3E1,9.74E1,3.58E1,4.26E1,9.5E0,4.4E0,1.5E1,5.5E0,5.48E1,1.2E1,5.8E0,3.3E1,1.326E2,8.9E0,1.74E1,3.2367E3,6.96E2,4.03E1,2.21E1,1.54E1,2.701E2,9.7E0,8E0,1.68E1,4.2E0,8.94E1,9.6E0,8.78E1,2.52E1,1.06E1,3.41E1,8.5E0,4.6E0,1.28E2],"tree_param":{"num_deleted":"0","num_feature":"82","num_nodes":"79","size_leaf_vector":"1"}},{"base_weights":[-7.342308E-1,2.8296716E0,-3.098796E0,3.27293E0,-4.862914E0,2.0889E0,-6.836294E0,3.6631851E0,-6.525289E0,-2.0075138E0,5.280317E0,-1.19215355E1,2.60742E0,-1.8669064E1,-2.9996362E0,-1.9011235E0,3.829467E0,-3.0956194E1,3.3226688E0,-1.2522174E0,6.0238423E0,-2.076858E0,3.742987E0,-8.089741E-1,3.3924186E0,-1.1231526E1,-4.0718018E1,-2.885109E1,-1.3658626E0,2.6654056E-1,-1.8000453E0,3.9674783E0,6.092446E-1,-7.056931E-1,-2.1556776E0,5.141215E0,-2.6289136E0,2.3298156E-1,-3.0663696E-1,3.7104547E-1,2.804384E-1,2.4415326E-1,-8.7432876E-2,2.9679554E0,-2.5339205E1,3.5557058E0,-1.0309995E1,-3.082088E1,2.800234E0,-4.837935E1,8.166497E0,-1.9298289E0,5.1857843E0,-5.1822114E0,4.5624733E0,1.8134396E-1,2.5360915E-1,-5.820431E-1,1.9194362E-1,3.0004078E-1,-5.458768E-2,-5.9955467E-2,-2.1624747E-1,-3.749024E-1,1.9353637E-1,2.9195866E-1,-2.390343E0,8.4897876E-2,2.1459158E-1,-1.0672644E0,7.961698E-2,7.514381E-2,-2.0097914E0,-1.0899086E-1,3.5302052E-1,-2.702445E0,-1.73259E0,4.8027864E-1,2.6174504E-1,3.8209325E-1,-8.1839316E-2,-9.431603E-2,-1.0863149E0,2.5881147E-1,-1.8500788E0],"categories":[],"categories_nodes":[],"categories_segments":[],"categories_sizes":[],"default_left":[0,0,0,0,0,0,0,0,0,0,0,0,0,1,0,0,0,0,0,0,0,0,0,0,0,0,0,0,1,0,0,0,0,0,0,0,0,0,0,0,0,0,0,0,0,1,0,0,1,0,0,0,0,0,0,0,0,0,0,0,0,0,0,0,0,0,0,0,0,0,0,0,0,0,0,0,0,0,0,0,0,0,0,0,0],"id":18,"left_children":[1,3,5,7,9,11,13,15,17,-1,19,21,23,25,27,29,31,33,35,37,39,-1,41,43,45,47,49,51,53,-1,-1,55,57,-1,-1,59,61,-1,-1,-1,-1,-1,-1,63,65,67,69,71,73,75,77,-1,79,81,83,-1,-1,-1,-1,-1,-1,-1,-1,-1,-1,-1,-1,-1,-1,-1,-1,-1,-1,-1,-1,-1,-1,-1,-1,-1,-1,-1,-1,-1,-1],"loss_changes":[4.323716E4,6.994074E3,5.9813848E4,7.4252656E3,4.0264133E4,9.419242E3,8.13386E4,1.7301777E3,1.8027146E4,0E0,4.3399707E2,2.1634719E4,3.3470293E3,7.150145E4,5.719381E4,1.3681338E4,8.012832E2,3.7938027E3,5.979702E2,3.1133478E2,4.188965E0,0E0,2.0387903E2,2.173653E4,2.3058584E3,9.0657E4,4.1704703E4,2.6902484E4,2.8883582E4,0E0,0E0,6.340039E2,3.0317158E3,0E0,0E0,2.2997424E2,2.7066406E1,0E0,0E0,0E0,0E0,0E0,0E0,1.9517745E3,2.2204959E4,1.3643516E3,1.636407E3,4.175783E4,4.1079375E3,5.5597812E3,1.637268E1,0E0,3.2753555E2,4.229963E4,1.2949179E4,0E0,0E0,0E0,0E0,0E0,0E0,0E0,0E0,0E0,0E0,0E0,0E0,0E0,0E0,0E0,0E0,0E0,0E0,0E0,0E0,0E0,0E0,0E0,0E0,0E0,0E0,0E0,0E0,0E0,0E0],"parents":[2147483647,0,0,1,1,2,2,3,3,4,4,5,5,6,6,7,7,8,8,10,10,11,11,12,12,13,13,14,14,15,15,16,16,17,17,18,18,19,19,20,20,22,22,23,23,24,24,25,25,26,26,27,27,28,28,31,31,32,32,35,35,36,36,43,43,44,44,45,45,46,46,47,47,48,48,49,49,50,50,52,52,53,53,54,54],"right_children":[2,4,6,8,10,12,14,16,18,-1,20,22,24,26,28,30,32,34,36,38,40,-1,42,44,46,48,50,52,54,-1,-1,56,58,-1,-1,60,62,-1,-1,-1,-1,-1,-1,64,66,68,70,72,74,76,78,-1,80,82,84,-1,-1,-1,-1,-1,-1,-1,-1,-1,-1,-1,-1,-1,-1,-1,-1,-1,-1,-1,-1,-1,-1,-1,-1,-1,-1,-1,-1,-1,-1],"split_conditions":[2.6153334E1,2.52375E1,4E4,9.920985E-1,3.01E1,-9.9E0,4.3E4,-1.2252867E1,4.2606668E4,-2.0075138E0,1.1765927E1,5.3166668E1,5.9125E1,1.8000994E1,2.545E1,-6E-1,3.39E1,1.1E0,6.13E0,2.59E1,3.21E1,-2.076858E0,1.68875E2,5.8666668E1,2.401079E1,8.9E0,-8.3437014E-1,6.4833336E1,7.79E4,2.6654056E-1,-1.8000453E0,2.32E1,2.76E1,-7.056931E-1,-2.1556776E0,8.697723E-2,8E0,2.3298156E-1,-3.0663696E-1,3.7104547E-1,2.804384E-1,2.4415326E-1,-8.7432876E-2,4.9708332E1,9.0541664E1,6.910865E0,1.63E1,7.8E0,9.104192E0,1.8454773E1,2.09E1,-1.9298289E0,2.1662827E1,2.1317919E1,1.91E5,1.8134396E-1,2.5360915E-1,-5.820431E-1,1.9194362E-1,3.0004078E-1,-5.458768E-2,-5.9955467E-2,-2.1624747E-1,-3.749024E-1,1.9353637E-1,2.9195866E-1,-2.390343E0,8.4897876E-2,2.1459158E-1,-1.0672644E0,7.961698E-2,7.514381E-2,-2.0097914E0,-1.0899086E-1,3.5302052E-1,-2.702445E0,-1.73259E0,4.8027864E-1,2.6174504E-1,3.8209325E-1,-8.1839316E-2,-9.431603E-2,-1.0863149E0,2.5881147E-1,-1.8500788E0],"split_indices":[66,25,44,80,53,2,45,58,72,0,31,27,26,60,38,0,16,0,66,20,55,0,6,26,31,53,80,29,45,0,0,65,18,0,0,81,10,0,0,0,0,0,0,28,9,61,0,53,61,31,16,0,32,13,43,0,0,0,0,0,0,0,0,0,0,0,0,0,0,0,0,0,0,0,0,0,0,0,0,0,0,0,0,0,0],"split_type":[0,0,0,0,0,0,0,0,0,0,0,0,0,0,0,0,0,0,0,0,0,0,0,0,0,0,0,0,0,0,0,0,0,0,0,0,0,0,0,0,0,0,0,0,0,0,0,0,0,0,0,0,0,0,0,0,0,0,0,0,0,0,0,0,0,0,0,0,0,0,0,0,0,0,0,0,0,0,0,0,0,0,0,0,0],"sum_hessian":[5.1287E3,2.0455E3,3.0832E3,1.9346E3,1.109E2,1.2913E3,1.7919E3,1.8611E3,7.35E1,2.41E1,8.68E1,4.53E1,1.246E3,4.378E2,1.3541E3,5.37E1,1.8074E3,2.05E1,5.3E1,8.8E0,7.8E1,1.51E1,3.0199999E1,2.328E2,1.0132E3,3.285E2,1.093E2,7.95E1,1.2746E3,4.5E1,8.7E0,1.7329E3,7.45E1,9.5E0,1.1E1,4.07E1,1.23E1,4E0,4.8E0,1.4E1,6.4E1,2.5099998E1,5.1E0,2.025E2,3.03E1,1.002E3,1.12E1,1.366E2,1.919E2,9.45E1,1.48E1,6.17E1,1.78E1,7.755E2,4.991E2,1.3278E3,4.051E2,1.5E1,5.95E1,3.58E1,4.9E0,7.6E0,4.7E0,1.55E1,1.87E2,1.3E1,1.73E1,2.853E2,7.167E2,5.4E0,5.8E0,3.09E1,1.057E2,8.87E1,1.032E2,6.48E1,2.97E1,8.4E0,6.4E0,1.3E1,4.8E0,6.476E2,1.279E2,4.927E2,6.4E0],"tree_param":{"num_deleted":"0","num_feature":"82","num_nodes":"85","size_leaf_vector":"1"}},{"base_weights":[-1.577586E-2,8.2193357E-1,-8.352025E0,-4.993199E0,1.6597096E0,-2.3533901E1,2.3012865E0,-8.957715E-1,-3.4371655E1,1.9239802E0,-1.6235619E1,2.512034E0,-3.162837E1,-2.3214576E0,5.0074754E0,-2.0752668E0,-3.609292E-3,-3.848743E1,-5.6648254E-3,9.874999E-1,4.6836977E0,-3.1041054E1,4.716818E0,-2.6207182E-1,6.497066E0,-3.6975803E1,6.7379184E0,-1.0222393E0,-1.0694919E0,3.5575545E0,6.166576E0,-2.4113527E1,1.2393894E0,-2.088632E0,-6.539244E-1,1.532397E0,-3.0958067E1,-7.0310316E0,4.8553224E0,-1.7363539E0,-1.1479278E0,3.2899138E-1,-5.911509E-2,2.0962413E-1,5.100665E-1,-3.9149376E1,2.7993864E-1,1.9380698E-1,3.7314737E-1,-4.2447453E0,4.1847887E0,4.386455E0,-1.4703327E-1,2.3718353E-1,3.3099717E-1,2.9582632E-1,-1.9794649E0,-1.1453975E0,1.1042615E-1,9.021314E-2,-3.1693847E0,-2.1189687E0,2.89125E-1,2.6956105E-1,-8.62959E-1,1.7882812E-1,2.8069595E-1,-2.0731573E0,1.7576317E-1,-3.4805074E-2,-2.4077892E-1,2.8335056E-1,-2.8564197E-1,2.2600166E-1,1.3282354E-1],"categories":[],"categories_nodes":[],"categories_segments":[],"categories_sizes":[],"default_left":[0,0,0,0,1,0,1,0,0,0,0,0,0,0,0,0,0,0,0,0,0,0,0,0,0,1,0,0,1,0,0,0,0,0,0,0,0,0,0,0,0,0,0,0,0,0,0,0,0,0,0,0,0,0,0,0,0,0,0,0,0,0,0,0,0,0,0,0,0,0,0,0,0,0,0],"id":19,"left_children":[1,3,5,7,9,11,13,15,17,19,21,23,25,27,29,-1,31,33,-1,35,37,39,41,-1,43,45,47,-1,49,51,53,55,57,-1,-1,59,61,63,65,-1,-1,-1,-1,-1,-1,67,-1,-1,-1,69,71,73,-1,-1,-1,-1,-1,-1,-1,-1,-1,-1,-1,-1,-1,-1,-1,-1,-1,-1,-1,-1,-1,-1,-1],"loss_changes":[3.4850312E4,2.2100828E4,7.375783E4,6.874007E4,1.8780188E4,3.9715133E4,3.373066E3,1.8201963E4,9.851516E3,1.0094519E4,1.807655E4,1.439905E3,2.968975E4,2.2448442E3,2.634292E2,0E0,1.4792416E4,4.6624453E3,0E0,5.0856875E4,2.024166E3,2.156543E2,2.803343E2,0E0,2.1760303E2,1.1888359E4,9.250183E0,0E0,1.5943702E3,4.319593E2,2.8591064E1,1.1480899E4,1.1035492E4,0E0,0E0,5.078444E4,2.0806703E4,1.960781E3,9.267988E2,0E0,0E0,0E0,0E0,0E0,0E0,1.20015625E4,0E0,0E0,0E0,1.1697351E2,5.619791E2,4.0302734E0,0E0,0E0,0E0,0E0,0E0,0E0,0E0,0E0,0E0,0E0,0E0,0E0,0E0,0E0,0E0,0E0,0E0,0E0,0E0,0E0,0E0,0E0,0E0],"parents":[2147483647,0,0,1,1,2,2,3,3,4,4,5,5,6,6,7,7,8,8,9,9,10,10,11,11,12,12,13,13,14,14,16,16,17,17,19,19,20,20,21,21,22,22,24,24,25,25,26,26,28,28,29,29,30,30,31,31,32,32,35,35,36,36,37,37,38,38,45,45,49,49,50,50,51,51],"right_children":[2,4,6,8,10,12,14,16,18,20,22,24,26,28,30,-1,32,34,-1,36,38,40,42,-1,44,46,48,-1,50,52,54,56,58,-1,-1,60,62,64,66,-1,-1,-1,-1,-1,-1,68,-1,-1,-1,70,72,74,-1,-1,-1,-1,-1,-1,-1,-1,-1,-1,-1,-1,-1,-1,-1,-1,-1,-1,-1,-1,-1,-1,-1],"split_conditions":[2.9006666E1,8.7E0,3.24E1,-9.0201765E-1,2.73E1,3.16E1,2.0001898E1,3.575E1,8E-1,2.5492857E1,6.4708336E1,9E-1,5.86E1,2.04E4,7.89E4,-2.0752668E0,5.3166668E1,5E0,-5.6648254E-3,1.779822E1,9.8204584E2,2.75E1,2.72625E1,-2.6207182E-1,1.55E5,2.2982368E0,2.75E4,-1.0222393E0,2.2869316E1,4.51E4,2.4725363E0,1.39E1,9.7895E2,-2.088632E0,-6.539244E-1,3.2E1,1.8127369E1,2.97E1,7.89E4,-1.7363539E0,-1.1479278E0,3.2899138E-1,-5.911509E-2,2.0962413E-1,5.100665E-1,2.635E1,2.7993864E-1,1.9380698E-1,3.7314737E-1,3.47E4,7.6625E1,3.52E1,-1.4703327E-1,2.3718353E-1,3.3099717E-1,2.9582632E-1,-1.9794649E0,-1.1453975E0,1.1042615E-1,9.021314E-2,-3.1693847E0,-2.1189687E0,2.89125E-1,2.6956105E-1,-8.62959E-1,1.7882812E-1,2.8069595E-1,-2.0731573E0,1.7576317E-1,-3.4805074E-2,-2.4077892E-1,2.8335056E-1,-2.8564197E-1,2.2600166E-1,1.3282354E-1],"split_indices":[54,53,53,56,41,53,60,28,0,52,29,0,17,43,73,0,27,19,0,58,8,41,25,0,73,15,11,0,61,45,79,55,8,0,0,18,58,19,73,0,0,0,0,0,0,25,0,0,0,11,26,20,0,0,0,0,0,0,0,0,0,0,0,0,0,0,0,0,0,0,0,0,0,0,0],"split_type":[0,0,0,0,0,0,0,0,0,0,0,0,0,0,0,0,0,0,0,0,0,0,0,0,0,0,0,0,0,0,0,0,0,0,0,0,0,0,0,0,0,0,0,0,0,0,0,0,0,0,0,0,0,0,0,0,0,0,0,0,0,0,0,0,0,0,0,0,0,0,0,0,0,0,0],"sum_hessian":[4.9885E3,4.5338E3,4.547E2,5.703E2,3.9635E3,1.87E2,2.677E2,5.014E2,6.89E1,3.9067E3,5.68E1,4.45E1,1.425E2,9.89E1,1.688E2,9.8E0,4.916E2,6.14E1,7.5E0,2.9179E3,9.888E2,3.3E1,2.38E1,1.5E1,2.95E1,1.251E2,1.74E1,5.4E0,9.35E1,7.68E1,9.2E1,2.32E1,4.684E2,5.38E1,7.6E0,2.8699E3,4.8E1,1.3700001E1,9.751E2,2.04E1,1.26E1,1.8E1,5.8E0,1.95E1,1E1,1.191E2,6E0,4.8E0,1.26E1,5.84E1,3.5100002E1,6.84E1,8.4E0,2.5E1,6.7E1,8.1E0,1.51E1,1.72E1,4.5119998E2,2.8589E3,1.1E1,3.65E1,1.15E1,6.4E0,7.3E0,3.652E2,6.099E2,1.13E2,6.1000004E0,8.4E0,5E1,3.09E1,4.2E0,6.2E1,6.4E0],"tree_param":{"num_deleted":"0","num_feature":"82","num_nodes":"75","size_leaf_vector":"1"}},{"base_weights":[-3.4481162E-1,-7.670988E0,4.6955034E-1,3.2255242E0,-1.5567024E1,-4.9847827E0,1.2973195E0,-1.4166092E0,3.7475877E0,3.6489856E0,-2.2639612E1,-3.420907E-1,-2.9130905E1,1.7429236E0,-6.839514E0,2.2217071E-1,-2.3630205E-1,3.992888E0,-2.0778285E-1,-2.0725455E0,4.9646964E0,-3.0920973E1,-4.8490868E0,-2.3084307E1,7.971392E-1,-3.6825893E1,3.4191675E0,9.517515E-1,3.838274E0,-2.1563301E1,5.7630644E0,4.318818E0,3.006671E-1,3.1361812E-1,-5.6656737E0,5.4606784E-2,5.469269E0,2.4672297E-1,-3.5032837E1,-2.214373E1,5.8193765E0,-1.8866392E0,2.6844838E-1,2.901122E0,-1.0345195E1,-1.480395E0,-4.2914227E1,2.7009493E-1,1.3902207E-2,1.2338907E0,-2.9316023E1,-9.2366564E-1,3.9496143E0,-2.5156837E0,-3.9249023E1,-3.8310345E-2,6.0689435E0,2.382165E-1,4.022956E-2,-3.38098E-1,2.1591464E-1,-3.5143304E-1,-1.6224131E-1,2.181304E-1,3.1196594E-1,-1.8666077E0,2.6365587E-1,-1.7714704E0,3.7954956E-1,1.7284013E-1,3.6942872E-1,2.1184528E-1,1.1247235E-2,-1.3089111E0,9.982337E-2,-4.2495313E-1,2.3898025E-1,-1.2340103E0,-2.352315E0,-2.3039665E-2,1.6384654E-1,3.2264084E-1,-1.9673201E0,-1.914069E-1,2.0748797E-1,1.1870291E-1,-1.2800436E0,-1.2619466E0,-2.2146032E0,1.8413956E-1,3.167049E-1],"categories":[],"categories_nodes":[],"categories_segments":[],"categories_sizes":[],"default_left":[0,0,1,1,0,1,0,0,0,0,0,0,0,0,0,0,0,0,0,0,0,0,0,0,0,0,0,0,0,0,0,0,0,0,0,0,0,0,1,0,0,0,0,0,0,0,0,0,0,0,0,0,0,0,0,0,0,0,0,0,0,0,0,0,0,0,0,0,0,0,0,0,0,0,0,0,0,0,0,0,0,0,0,0,0,0,0,0,0,0,0],"id":20,"left_children":[1,3,5,7,9,11,13,15,17,19,21,23,25,27,29,-1,-1,31,-1,33,35,37,39,41,43,45,47,49,51,53,55,57,59,-1,61,-1,63,-1,65,67,69,-1,-1,71,73,75,77,-1,-1,79,81,-1,83,85,87,-1,89,-1,-1,-1,-1,-1,-1,-1,-1,-1,-1,-1,-1,-1,-1,-1,-1,-1,-1,-1,-1,-1,-1,-1,-1,-1,-1,-1,-1,-1,-1,-1,-1,-1,-1],"loss_changes":[3.0314674E4,4.3783973E4,2.065414E4,5.2490454E2,4.0161547E4,6.7565734E4,1.4411447E4,4.554107E2,3.9075586E2,6.140255E2,3.1629094E4,1.3143704E4,2.4471828E4,6.2395557E3,3.8423375E4,0E0,0E0,2.2458105E2,0E0,5.0629108E2,1.2201306E2,2.1845453E4,1.298902E4,1.0289076E4,1.1362495E4,1.6872344E4,1.1994406E2,2.3393178E4,2.6363848E3,3.2038742E4,2.2833276E2,2.660808E2,4.9171243E2,0E0,1.5138428E1,0E0,2.1951294E1,0E0,1.2430125E4,1.0856176E4,1.3721167E2,0E0,0E0,1.4554175E3,1.5098517E4,5.9422656E2,3.8944922E3,0E0,0E0,9.387131E3,9.330902E3,0E0,1.6155283E3,5.366167E3,2.3723984E3,0E0,4.443457E1,0E0,0E0,0E0,0E0,0E0,0E0,0E0,0E0,0E0,0E0,0E0,0E0,0E0,0E0,0E0,0E0,0E0,0E0,0E0,0E0,0E0,0E0,0E0,0E0,0E0,0E0,0E0,0E0,0E0,0E0,0E0,0E0,0E0,0E0],"parents":[2147483647,0,0,1,1,2,2,3,3,4,4,5,5,6,6,7,7,8,8,9,9,10,10,11,11,12,12,13,13,14,14,17,17,19,19,20,20,21,21,22,22,23,23,24,24,25,25,26,26,27,27,28,28,29,29,30,30,31,31,32,32,34,34,36,36,38,38,39,39,40,40,43,43,44,44,45,45,46,46,49,49,50,50,52,52,53,53,54,54,56,56],"right_children":[2,4,6,8,10,12,14,16,18,20,22,24,26,28,30,-1,-1,32,-1,34,36,38,40,42,44,46,48,50,52,54,56,58,60,-1,62,-1,64,-1,66,68,70,-1,-1,72,74,76,78,-1,-1,80,82,-1,84,86,88,-1,90,-1,-1,-1,-1,-1,-1,-1,-1,-1,-1,-1,-1,-1,-1,-1,-1,-1,-1,-1,-1,-1,-1,-1,-1,-1,-1,-1,-1,-1,-1,-1,-1,-1,-1],"split_conditions":[7.025E0,5.64E4,8.9E0,-8.576048E0,7.1083336E1,2.9285715E0,2.5237722E1,1.14E1,9E1,7.89E4,8.59E4,5.3166668E1,3E-1,2.99E1,2.18E1,2.2217071E-1,-2.3630205E-1,2.5920834E1,-2.0778285E-1,5.3557145E4,1.19E1,2.0501495E1,1.2791667E1,-9.9E0,-6E-1,2.3333333E-1,4.1E4,2.52375E1,2.2041666E1,2.7714285E1,2.58E1,5.27E4,2.3154167E2,3.1361812E-1,7.6E0,5.4606784E-2,2.695E1,2.4672297E-1,2.56E1,2.0616667E2,2.0264955E0,-1.8866392E0,2.6844838E-1,1.22E1,-2.8333333E-1,-9E-1,9.8589166E2,2.7009493E-1,1.3902207E-2,4.179029E-1,1.65E1,-9.2366564E-1,1.899E1,1.12E5,7.4041664E1,-3.8310345E-2,3.54E4,2.382165E-1,4.022956E-2,-3.38098E-1,2.1591464E-1,-3.5143304E-1,-1.6224131E-1,2.181304E-1,3.1196594E-1,-1.8666077E0,2.6365587E-1,-1.7714704E0,3.7954956E-1,1.7284013E-1,3.6942872E-1,2.1184528E-1,1.1247235E-2,-1.3089111E0,9.982337E-2,-4.2495313E-1,2.3898025E-1,-1.2340103E0,-2.352315E0,-2.3039665E-2,1.6384654E-1,3.2264084E-1,-1.9673201E0,-1.914069E-1,2.0748797E-1,1.1870291E-1,-1.2800436E0,-1.2619466E0,-2.2146032E0,1.8413956E-1,3.167049E-1],"split_indices":[5,43,53,33,4,52,61,55,27,73,11,27,7,53,16,0,0,23,0,70,20,57,9,2,0,37,44,37,6,50,19,11,6,0,0,0,10,0,38,6,15,0,0,55,3,21,8,0,0,81,0,0,66,44,4,0,69,0,0,0,0,0,0,0,0,0,0,0,0,0,0,0,0,0,0,0,0,0,0,0,0,0,0,0,0,0,0,0,0,0,0],"split_type":[0,0,0,0,0,0,0,0,0,0,0,0,0,0,0,0,0,0,0,0,0,0,0,0,0,0,0,0,0,0,0,0,0,0,0,0,0,0,0,0,0,0,0,0,0,0,0,0,0,0,0,0,0,0,0,0,0,0,0,0,0,0,0,0,0,0,0,0,0,0,0,0,0,0,0,0,0,0,0,0,0,0,0,0,0,0,0,0,0,0,0],"sum_hessian":[5.0795E3,5.073E2,4.5722E3,2.134E2,2.939E2,6.018E2,3.9704E3,2.14E1,1.92E2,7.92E1,2.147E2,5.056E2,9.62E1,3.765E3,2.054E2,7.6E0,1.38E1,1.867E2,5.3E0,1.47E1,6.45E1,1.46E2,6.87E1,2.32E1,4.824E2,7.77E1,1.85E1,2.7341E3,1.0309E3,9.44E1,1.11E2,1.714E2,1.53E1,4.2E0,1.05E1,7.8E0,5.67E1,1.5E1,1.31E2,2.58E1,4.29E1,1.51E1,8.1E0,4.064E2,7.6E1,1.16E1,6.61E1,1.09E1,7.6E0,2.7098E3,2.43E1,4.3E0,1.0266E3,4.6E1,4.84E1,4.9E0,1.061E2,1.518E2,1.96E1,5.3E0,1E1,5.5E0,5E0,2.6E1,3.07E1,1.24E2,7E0,1.77E1,8.1E0,1.84E1,2.45E1,2.707E2,1.357E2,3.28E1,4.32E1,5.3E0,6.3E0,1.35E1,5.26E1,1.4816E3,1.2282E3,5.4E0,1.89E1,2.53E1,1.0013E3,3.87E1,7.3E0,1.44E1,3.4E1,1.21E1,9.4E1],"tree_param":{"num_deleted":"0","num_feature":"82","num_nodes":"91","size_leaf_vector":"1"}},{"base_weights":[1.13734394E-1,-4.692489E0,7.924278E-1,1.2923297E0,-2.4858387E1,-3.9283211E0,1.6854234E0,-1.1207323E0,1.8827277E0,4.325428E0,-3.2921864E1,3.658318E0,-1.0513283E1,3.247989E-2,3.369757E0,2.6045344E0,-1.4427489E1,2.5364438E-1,-1.4925157E-2,-5.021631E0,-3.9090263E1,-2.5388217E0,4.374487E0,1.0473369E0,-2.1208542E1,1.4431535E0,-2.600958E1,4.307534E0,-5.527159E-1,-1.3951283E0,3.582353E0,-1.9636652E0,4.6292114E0,-4.2660236E-2,-8.629004E-1,-2.488959E0,-3.490619E1,2.313677E0,-1.408815E1,4.766164E0,-1.510428E0,-1.8113354E0,3.9426377E0,1.1818497E0,-2.909436E1,2.5028985E0,-3.472897E0,-5.244357E1,-1.7301235E0,4.5042825E0,3.2729108E-2,-1.26995735E1,3.003515E0,1.2265126E-1,-2.7349183E-1,-2.286587E-1,1.9393389E-1,-1.9281318E-2,3.824632E-1,4.245472E-2,-2.6259681E-2,-1.8587464E0,-1.1977953E0,-2.513144E-1,1.9834286E-1,-1.0594282E0,-2.7932167E-1,1.2781885E-1,2.522371E-1,-2.6287317E-1,2.5563183E-1,-3.5209015E-1,2.4307577E-1,