{"learner":{"attributes":{"best_iteration":"2","best_score":"3.6642493644062175","scikit_learn":"{\"_estimator_type\": \"regressor\"}"},"feature_names":["air_temp_c_min","air_temp_c_mean","air_temp_c_max","dew_point_c_mean","rh_pct_mean","wind_ms_mean","shortwave_w_m2_mean","precip_mm_sum","pressure_hpa_mean","cloud_pct_mean","water_temp_c","streamflow_cfs","water_site_id","wet_bulb_c","heat_index_c","water_thermal_stress","heat_dose_7d","heat_dose_14d","air_temp_c_max_lag1","air_temp_c_max_lag3","air_temp_c_max_lag7","air_temp_c_max_lag14","air_temp_c_mean_lag1","air_temp_c_mean_lag3","air_temp_c_mean_lag7","air_temp_c_mean_lag14","rh_pct_mean_lag1","rh_pct_mean_lag3","rh_pct_mean_lag7","rh_pct_mean_lag14","wet_bulb_c_lag1","wet_bulb_c_lag3","wet_bulb_c_lag7","wet_bulb_c_lag14","heat_index_c_lag1","heat_index_c_lag3","heat_index_c_lag7","heat_index_c_lag14","water_temp_c_lag1","water_temp_c_lag3","water_temp_c_lag7","water_temp_c_lag14","streamflow_cfs_lag1","streamflow_cfs_lag3","streamflow_cfs_lag7","streamflow_cfs_lag14","water_thermal_stress_lag1","water_thermal_stress_lag3","water_thermal_stress_lag7","water_thermal_stress_lag14","air_temp_c_max_roll7_mean","air_temp_c_max_roll7_max","air_temp_c_max_roll14_mean","air_temp_c_max_roll14_max","air_temp_c_max_roll30_mean","air_temp_c_max_roll30_max","wet_bulb_c_roll7_mean","wet_bulb_c_roll7_max","wet_bulb_c_roll14_mean","wet_bulb_c_roll14_max","wet_bulb_c_roll30_mean","wet_bulb_c_roll30_max","water_temp_c_roll7_mean","water_temp_c_roll7_max","water_temp_c_roll14_mean","water_temp_c_roll14_max","water_temp_c_roll30_mean","water_temp_c_roll30_max","streamflow_cfs_roll7_mean","streamflow_cfs_roll7_max","streamflow_cfs_roll14_mean","streamflow_cfs_roll14_max","streamflow_cfs_roll30_mean","streamflow_cfs_roll30_max","water_thermal_stress_roll7_mean","water_thermal_stress_roll7_max","water_thermal_stress_roll14_mean","water_thermal_stress_roll14_max","water_thermal_stress_roll30_mean","water_thermal_stress_roll30_max","doy_sin","doy_cos"],"feature_types":["float","float","float","float","float","float","float","float","float","float","float","float","c","float","float","float","float","float","float","float","float","float","float","float","float","float","float","float","float","float","float","float","float","float","float","float","float","float","float","float","float","float","float","float","float","float","float","float","float","float","float","float","float","float","float","float","float","float","float","float","float","float","float","float","float","float","float","float","float","float","float","float","float","float","float","float","float","float","float","float","float","float"],"gradient_booster":{"model":{"cats":{"enc":[{"offsets":[],"values":[]},{"offsets":[],"values":[]},{"offsets":[],"values":[]},{"offsets":[],"values":[]},{"offsets":[],"values":[]},{"offsets":[],"values":[]},{"offsets":[],"values":[]},{"offsets":[],"values":[]},{"offsets":[],"values":[]},{"offsets":[],"values":[]},{"offsets":[],"values":[]},{"offsets":[],"values":[]},{"offsets":[0,8],"values":[48,53,52,52,48,55,48,48]},{"offsets":[],"values":[]},{"offsets":[],"values":[]},{"offsets":[],"values":[]},{"offsets":[],"values":[]},{"offsets":[],"values":[]},{"offsets":[],"values":[]},{"offsets":[],"values":[]},{"offsets":[],"values":[]},{"offsets":[],"values":[]},{"offsets":[],"values":[]},{"offsets":[],"values":[]},{"offsets":[],"values":[]},{"offsets":[],"values":[]},{"offsets":[],"values":[]},{"offsets":[],"values":[]},{"offsets":[],"values":[]},{"offsets":[],"values":[]},{"offsets":[],"values":[]},{"offsets":[],"values":[]},{"offsets":[],"values":[]},{"offsets":[],"values":[]},{"offsets":[],"values":[]},{"offsets":[],"values":[]},{"offsets":[],"values":[]},{"offsets":[],"values":[]},{"offsets":[],"values":[]},{"offsets":[],"values":[]},{"offsets":[],"values":[]},{"offsets":[],"values":[]},{"offsets":[],"values":[]},{"offsets":[],"values":[]},{"offsets":[],"values":[]},{"offsets":[],"values":[]},{"offsets":[],"values":[]},{"offsets":[],"values":[]},{"offsets":[],"values":[]},{"offsets":[],"values":[]},{"offsets":[],"values":[]},{"offsets":[],"values":[]},{"offsets":[],"values":[]},{"offsets":[],"values":[]},{"offsets":[],"values":[]},{"offsets":[],"values":[]},{"offsets":[],"values":[]},{"offsets":[],"values":[]},{"offsets":[],"values":[]},{"offsets":[],"values":[]},{"offsets":[],"values":[]},{"offsets":[],"values":[]},{"offsets":[],"values":[]},{"offsets":[],"values":[]},{"offsets":[],"values":[]},{"offsets":[],"values":[]},{"offsets":[],"values":[]},{"offsets":[],"values":[]},{"offsets":[],"values":[]},{"offsets":[],"values":[]},{"offsets":[],"values":[]},{"offsets":[],"values":[]},{"offsets":[],"values":[]},{"offsets":[],"values":[]},{"offsets":[],"values":[]},{"offsets":[],"values":[]},{"offsets":[],"values":[]},{"offsets":[],"values":[]},{"offsets":[],"values":[]},{"offsets":[],"values":[]},{"offsets":[],"values":[]},{"offsets":[],"values":[]}],"feature_segments":[0,0,0,0,0,0,0,0,0,0,0,0,0,1,1,1,1,1,1,1,1,1,1,1,1,1,1,1,1,1,1,1,1,1,1,1,1,1,1,1,1,1,1,1,1,1,1,1,1,1,1,1,1,1,1,1,1,1,1,1,1,1,1,1,1,1,1,1,1,1,1,1,1,1,1,1,1,1,1,1,1,1,1],"sorted_idx":[0]},"gbtree_model_param":{"num_parallel_tree":"1","num_trees":"53"},"iteration_indptr":[0,1,2,3,4,5,6,7,8,9,10,11,12,13,14,15,16,17,18,19,20,21,22,23,24,25,26,27,28,29,30,31,32,33,34,35,36,37,38,39,40,41,42,43,44,45,46,47,48,49,50,51,52,53],"tree_info":[0,0,0,0,0,0,0,0,0,0,0,0,0,0,0,0,0,0,0,0,0,0,0,0,0,0,0,0,0,0,0,0,0,0,0,0,0,0,0,0,0,0,0,0,0,0,0,0,0,0,0,0,0],"trees":[{"base_weights":[-3.2298857E-1,-1.2372428E1,1.1246595E0,-1.443983E0,-4.5476227E0,-7.622178E-1,2.1884573E0,-5.6301266E1,2.455237E0,-3.4947687E-1,-3.0781572E0,-3.6916476E-1,2.4589684E0,1.2815046E-1,-3.8727493E0,-5.481323E-1,2.6737957E0,1.89431E0,-4.6624737E0,1.9850628E0,-2.9392511E1,2.6445704E0,2.4313381E-1,2.8786764E0,-5.972136E-1,-7.0120163E0,2.2753584E0,-1.0826559E1,-1.0566745E0,-2.2302327E0,2.8466318E0,-8.841448E-1,-1.7275475E0,-1.9288437E0,2.6829696E0,-1.4254777E1,1.9544201E0,1.4467931E-1,6.748403E-2,-1.2405157E0,-5.7238776E-2,-1.19087934E-1,1.1947086E-1,-3.8879222E-1,-1.1812795E0,-4.1959006E-1,2.4856124E-2,-6.4013726E-1,1.4082469E-1,1.4562078E-1,1.6377378E-2,1.3519171E-1,-6.362197E-1,1.1462432E-1,1.4136003E-1,-1.0564214E-1,-1.7799205E0,1.3628806E-1,-4.681881E-1],"categories":[],"categories_nodes":[],"categories_segments":[],"categories_sizes":[],"default_left":[0,0,0,0,0,0,0,0,0,1,0,1,0,0,0,0,1,0,1,0,0,0,0,0,0,0,0,1,0,0,0,0,0,0,0,0,0,0,0,0,0,0,0,0,0,0,0,0,0,0,0,0,0,0,0,0,0,0,0],"id":0,"left_children":[1,3,5,7,-1,9,11,13,15,17,-1,19,21,-1,-1,-1,23,25,27,29,31,33,35,37,-1,39,41,43,45,47,49,-1,-1,51,53,55,57,-1,-1,-1,-1,-1,-1,-1,-1,-1,-1,-1,-1,-1,-1,-1,-1,-1,-1,-1,-1,-1,-1],"loss_changes":[7.394929E4,3.903457E5,7.59893E3,8.574125E4,0E0,3.4240734E4,1.6756367E3,3.3320812E4,1.1278628E3,1.3142094E4,0E0,1.5937673E4,8.996953E2,0E0,0E0,0E0,1.1407219E3,3.047925E3,1.0317194E4,7.904473E2,4.4609668E2,3.599004E2,4.2530156E3,4.4179688E0,0E0,3.8249502E3,4.6118164E2,6.5088086E3,3.3583965E3,2.0209236E3,2.8824951E1,0E0,0E0,9.0461865E2,1.0635449E2,4.615455E3,1.362987E3,0E0,0E0,0E0,0E0,0E0,0E0,0E0,0E0,0E0,0E0,0E0,0E0,0E0,0E0,0E0,0E0,0E0,0E0,0E0,0E0,0E0,0E0],"parents":[2147483647,0,0,1,1,2,2,3,3,5,5,6,6,7,7,8,8,9,9,11,11,12,12,16,16,17,17,18,18,19,19,20,20,21,21,22,22,23,23,25,25,26,26,27,27,28,28,29,29,30,30,33,33,34,34,35,35,36,36],"right_children":[2,4,6,8,-1,10,12,14,16,18,-1,20,22,-1,-1,-1,24,26,28,30,32,34,36,38,-1,40,42,44,46,48,50,-1,-1,52,54,56,58,-1,-1,-1,-1,-1,-1,-1,-1,-1,-1,-1,-1,-1,-1,-1,-1,-1,-1,-1,-1,-1,-1],"split_conditions":[4.715492E0,4.106782E0,7.77E3,2.58E3,-4.5476227E0,7.21E3,3.1E0,2.54E3,2.5E3,8.6E0,-3.0781572E0,9.398399E-1,8.6833336E1,1.2815046E-1,-3.8727493E0,-5.481323E-1,4.6224353E-1,-9.9716926E-1,2.4731522E0,5.85E1,9.84825E2,1.6041666E1,-9.6206754E-1,1.94E4,-5.972136E-1,4.7375E1,9.708542E2,2.4375043E0,-9.962103E-1,2E-1,1.14875E1,-8.841448E-1,-1.7275475E0,1.8208334E1,2.02E1,2.2495832E1,9.933901E-1,1.4467931E-1,6.748403E-2,-1.2405157E0,-5.7238776E-2,-1.19087934E-1,1.1947086E-1,-3.8879222E-1,-1.1812795E0,-4.1959006E-1,2.4856124E-2,-6.4013726E-1,1.4082469E-1,1.4562078E-1,1.6377378E-2,1.3519171E-1,-6.362197E-1,1.1462432E-1,1.4136003E-1,-1.0564214E-1,-1.7799205E0,1.3628806E-1,-4.681881E-1],"split_indices":[61,57,73,43,0,43,41,11,11,10,0,15,29,0,0,0,79,81,79,27,8,6,80,11,0,29,8,79,80,63,1,0,0,5,10,25,80,0,0,0,0,0,0,0,0,0,0,0,0,0,0,0,0,0,0,0,0,0,0],"split_type":[0,0,0,0,0,0,0,0,0,0,0,0,0,0,0,0,0,0,0,0,0,0,0,0,0,0,0,0,0,0,0,0,0,0,0,0,0,0,0,0,0,0,0,0,0,0,0,0,0,0,0,0,0,0,0,0,0,0,0],"sum_hessian":[4.2376E3,4.537E2,3.7839E3,3.992E2,5.45E1,1.3643E3,2.4196E3,2.56E1,3.736E2,1.3561E3,8.2E0,2.314E2,2.1882E3,7E0,1.86E1,5.2E0,3.684E2,8.924E2,4.637E2,2.149E2,1.65E1,2.0189E3,1.693E2,3.641E2,4.3E0,3.59E1,8.565E2,1.704E2,2.933E2,3.62E1,1.787E2,6.4E0,1.01E1,1.64E1,2.0025E3,1.71E1,1.522E2,3.597E2,4.4E0,8.1E0,2.78E1,2E1,8.365E2,1.389E2,3.15E1,5.05E1,2.428E2,1.12E1,2.5E1,1.74E2,4.7E0,1.2E1,4.4E0,5.447E2,1.4578E3,1.16E1,5.5E0,1.432E2,9E0],"tree_param":{"num_deleted":"0","num_feature":"82","num_nodes":"59","size_leaf_vector":"1"}},{"base_weights":[-1.8445443E-1,-4.0406914E1,1.4825924E-1,-3.6889915E0,1.2322239E-1,3.8158497E-1,-3.4694233E1,-2.6728516E0,1.8495088E0,-3.9037347E0,1.3603912E-1,-4.6415752E-1,-1.9352734E1,2.26853E0,8.851813E-1,1.4564431E0,-4.536801E0,-7.562341E1,2.012623E0,2.5609431E0,-1.04152314E-1,-1.532427E0,1.2672433E0,-5.002196E-1,1.0160901E-1,-6.443848E-1,-2.5053581E-2,-4.264587E0,-2.1834486E0,-6.1753005E-1,1.3447918E-1,-9.387993E-2,1.3005611E-1,4.528399E-2,-1.0020412E0,-7.4987614E-1,7.4456014E-2],"categories":[],"categories_nodes":[],"categories_segments":[],"categories_sizes":[],"default_left":[0,0,0,0,0,0,0,0,1,0,0,1,0,0,0,0,0,0,0,0,1,0,0,0,0,0,0,0,0,0,0,0,0,0,0,0,0],"id":1,"left_children":[1,3,5,-1,-1,7,9,11,13,-1,-1,15,17,19,21,23,25,27,29,31,33,-1,35,-1,-1,-1,-1,-1,-1,-1,-1,-1,-1,-1,-1,-1,-1],"loss_changes":[5.676679E4,4.9971664E4,3.421955E4,0E0,0E0,1.8749416E4,4.5658688E4,4.9998652E4,1.1391758E3,0E0,0E0,9.390566E3,1.9094817E5,1.3657422E3,1.036504E4,5.4046475E3,1.2958682E4,9.776344E3,1.1611249E3,3.173662E2,4.384931E3,0E0,3.0818535E3,0E0,0E0,0E0,0E0,0E0,0E0,0E0,0E0,0E0,0E0,0E0,0E0,0E0,0E0],"parents":[2147483647,0,0,1,1,2,2,5,5,6,6,7,7,8,8,11,11,12,12,13,13,14,14,15,15,16,16,17,17,18,18,19,19,20,20,22,22],"right_children":[2,4,6,-1,-1,8,10,12,14,-1,-1,16,18,20,22,24,26,28,30,32,34,-1,36,-1,-1,-1,-1,-1,-1,-1,-1,-1,-1,-1,-1,-1,-1],"split_conditions":[-5.870616E0,2.58E3,3.0904167E1,-3.6889915E0,1.2322239E-1,5.11E3,-5.3968873E0,7.42E3,1.016793E0,-3.9037347E0,1.3603912E-1,8.1E0,7.77E3,8.6833336E1,1.6E0,-9.9399275E-1,2.04255E0,7.72E3,1.6041666E1,4.8E0,2.3904167E1,-1.532427E0,6.07E3,-5.002196E-1,1.0160901E-1,-6.443848E-1,-2.5053581E-2,-4.264587E0,-2.1834486E0,-6.1753005E-1,1.3447918E-1,-9.387993E-2,1.3005611E-1,4.528399E-2,-1.0020412E0,-7.4987614E-1,7.4456014E-2],"split_indices":[59,43,5,0,0,45,31,42,15,0,0,10,73,29,20,81,77,11,6,5,25,0,73,0,0,0,0,0,0,0,0,0,0,0,0,0,0],"split_type":[0,0,0,0,0,0,0,0,0,0,0,0,0,0,0,0,0,0,0,0,0,0,0,0,0,0,0,0,0,0,0,0,0,0,0,0,0],"sum_hessian":[4.2404E3,3.38E1,4.2066E3,1.86E1,1.52E1,4.1796E3,2.7E1,1.3564E3,2.8232E3,1.2E1,1.5E1,1.1987E3,1.577E2,1.9671E3,8.561E2,8.15E2,3.837E2,4.27E1,1.15E2,1.7512E3,2.159E2,9.3E0,8.468E2,3.82E1,7.768E2,1.243E2,2.594E2,3.15E1,1.12E1,4.4E0,1.106E2,1.53E1,1.7359E3,2.064E2,9.5E0,1.05E1,8.363E2],"tree_param":{"num_deleted":"0","num_feature":"82","num_nodes":"37","size_leaf_vector":"1"}},{"base_weights":[-1.3152447E-1,-4.2371136E1,1.8588006E-1,-3.5139527E0,1.13891326E-1,9.227638E-1,-1.4872861E1,-9.830689E-1,1.8097508E0,1.1859062E0,-3.8523636E1,-2.5746042E-1,-3.7172653E1,-2.10614E0,2.091376E0,1.3642286E-1,-4.358375E0,2.144782E0,-7.583007E1,1.8334442E0,-4.8330784E0,-4.0451875E0,1.20049715E-1,7.062656E-2,-1.3937201E1,2.1459649E0,-7.6105247E0,-1.0518728E1,1.3529429E-1,2.9175624E-1,1.312763E-1,-4.0640254E0,-2.5514586E0,-2.2540434E-1,1.0850687E-1,-5.9099686E-1,-6.016726E-2,7.4337475E-2,-1.4225034E0,-9.2711467E-1,5.450188E-2,3.878565E-2,1.1360776E-1,-1.2351272E0,1.0921606E-1,-8.7343675E-1,-8.857976E-2,-7.6852664E-2,1.0676835E-1],"categories":[],"categories_nodes":[],"categories_segments":[],"categories_sizes":[],"default_left":[0,0,0,0,0,1,0,1,0,1,0,1,0,1,0,0,0,0,0,0,0,0,0,0,0,0,0,0,0,0,0,0,0,0,0,0,0,0,0,0,0,0,0,0,0,0,0,0,0],"id":2,"left_children":[1,3,5,-1,-1,7,9,11,13,15,17,19,21,23,25,-1,27,29,31,33,35,-1,-1,37,39,41,43,45,-1,47,-1,-1,-1,-1,-1,-1,-1,-1,-1,-1,-1,-1,-1,-1,-1,-1,-1,-1,-1],"loss_changes":[5.716344E4,3.9784777E4,4.6977617E4,0E0,0E0,6.8240933E3,7.505664E4,3.3665574E4,3.0419932E3,1.0261987E3,1.2138641E5,1.2046289E4,4.3805336E4,4.7730996E3,1.3774971E3,0E0,1.168643E3,3.415454E1,1.4891562E3,1.8551931E3,1.0000612E4,0E0,0E0,6.403535E3,2.0132241E3,4.402881E2,2.498198E3,8.323081E2,0E0,3.430101E1,0E0,0E0,0E0,0E0,0E0,0E0,0E0,0E0,0E0,0E0,0E0,0E0,0E0,0E0,0E0,0E0,0E0,0E0,0E0],"parents":[2147483647,0,0,1,1,2,2,5,5,6,6,7,7,8,8,9,9,10,10,11,11,12,12,13,13,14,14,16,16,17,17,18,18,19,19,20,20,23,23,24,24,25,25,26,26,27,27,29,29],"right_children":[2,4,6,-1,-1,8,10,12,14,16,18,20,22,24,26,-1,28,30,32,34,36,-1,-1,38,40,42,44,46,-1,48,-1,-1,-1,-1,-1,-1,-1,-1,-1,-1,-1,-1,-1,-1,-1,-1,-1,-1,-1],"split_conditions":[-5.870616E0,2.58E3,2.3366667E1,-3.5139527E0,1.13891326E-1,5.01E3,8.75539E-1,4.98E3,-9.6206754E-1,1.32E1,3.8640523E-1,7.3E0,9.7894165E2,2.4574592E0,2.32E1,1.3642286E-1,6.375E1,6.2E0,1.3E0,-9.8411554E-1,2.04255E0,-4.0451875E0,1.20049715E-1,2.2166222E1,1.6494286E1,2.6866667E0,4.5333332E1,4.56E3,1.3529429E-1,7.1375E1,1.312763E-1,-4.0640254E0,-2.5514586E0,-2.2540434E-1,1.0850687E-1,-5.9099686E-1,-6.016726E-2,7.4337475E-2,-1.4225034E0,-9.2711467E-1,5.450188E-2,3.878565E-2,1.1360776E-1,-1.2351272E0,1.0921606E-1,-8.7343675E-1,-8.857976E-2,-7.6852664E-2,1.0676835E-1],"split_indices":[59,43,5,0,0,45,80,45,80,65,81,10,8,78,5,0,27,40,7,81,77,0,0,33,33,66,4,11,0,9,0,0,0,0,0,0,0,0,0,0,0,0,0,0,0,0,0,0,0],"split_type":[0,0,0,0,0,0,0,0,0,0,0,0,0,0,0,0,0,0,0,0,0,0,0,0,0,0,0,0,0,0,0,0,0,0,0,0,0,0,0,0,0,0,0,0,0,0,0,0,0],"sum_hessian":[4.2621E3,3.0800001E1,4.2313E3,1.86E1,1.22E1,4.0348E3,1.965E2,1.2814E3,2.7534E3,1.176E2,7.89E1,1.2572E3,2.42E1,1.843E2,2.5691E3,9.24E1,2.52E1,3.82E1,4.07E1,8.633E2,3.939E2,1.1E1,1.32E1,1.565E2,2.7800001E1,2.5555E3,1.36E1,1.3200001E1,1.2E1,8.2E0,3E1,3.15E1,9.2E0,4.29E1,8.204E2,1.339E2,2.6E2,1.5E2,6.5E0,2.11E1,6.7E0,2.161E2,2.3394E3,4.4E0,9.2E0,6.8E0,6.4E0,4.2E0,4E0],"tree_param":{"num_deleted":"0","num_feature":"82","num_nodes":"49","size_leaf_vector":"1"}},{"base_weights":[2.1710645E-1,4.3029654E-1,-3.901097E1,-3.0491732E1,6.265176E-1,1.3690752E-1,-3.875459E0,1.1209853E-1,-3.6976051E0,9.964509E-1,-1.0138843E1,-9.837441E-1,1.8303461E0,-3.9200417E1,1.4941113E0,-1.89424E-1,-6.0034565E1,2.2631688E0,8.6600745E-1,-3.4994705E0,7.4696404E-1,2.1877236E0,-3.1980342E-1,8.839022E-2,-1.9693395E-1,-4.050161E0,1.1485519E-1,1.1951488E-1,4.080949E-2,-1.416654E0,6.3054346E-2,-1.893469E-1,1.22120015E-1,-1.9209146E-2,1.1656978E-1],"categories":[],"categories_nodes":[],"categories_segments":[],"categories_sizes":[],"default_left":[0,0,0,1,0,0,0,0,0,0,0,0,1,0,1,1,0,0,0,0,0,0,0,0,0,0,0,0,0,0,0,0,0,0,0],"id":3,"left_children":[1,3,5,7,9,-1,-1,-1,-1,11,13,15,17,19,21,23,25,27,29,-1,31,33,-1,-1,-1,-1,-1,-1,-1,-1,-1,-1,-1,-1,-1],"loss_changes":[3.558562E4,2.5691521E4,3.7179355E4,3.814972E4,1.6757963E4,0E0,0E0,0E0,0E0,6.7168755E3,4.7321023E4,5.654229E4,1.1925625E3,4.9249867E4,5.656437E2,8.744497E3,2.1098246E4,3.612998E2,1.0281969E4,0E0,1.5068895E2,3.540799E1,0E0,0E0,0E0,0E0,0E0,0E0,0E0,0E0,0E0,0E0,0E0,0E0,0E0],"parents":[2147483647,0,0,1,1,2,2,3,3,4,4,9,9,10,10,11,11,12,12,13,13,14,14,15,15,16,16,17,17,18,18,20,20,21,21],"right_children":[2,4,6,8,10,-1,-1,-1,-1,12,14,16,18,20,22,24,26,28,30,-1,32,34,-1,-1,-1,-1,-1,-1,-1,-1,-1,-1,-1,-1,-1],"split_conditions":[3.0904167E1,-5.870616E0,9.7775415E2,-1E-1,2.39875E1,1.3690752E-1,-3.875459E0,1.1209853E-1,-3.6976051E0,4.89E3,2.4591667E1,4.87E3,9.834132E-1,4.98E3,1.6967033E0,3.0650225E-1,8.254167E0,8.825E1,3.2788196E-1,-3.4994705E0,6.9827974E-2,-9.5E0,-3.1980342E-1,8.839022E-2,-1.9693395E-1,-4.050161E0,1.1485519E-1,1.1951488E-1,4.080949E-2,-1.416654E0,6.3054346E-2,-1.893469E-1,1.22120015E-1,-1.9209146E-2,1.1656978E-1],"split_indices":[5,59,8,10,5,0,0,0,0,45,5,45,15,44,48,15,5,29,49,0,81,19,0,0,0,0,0,0,0,0,0,0,0,0,0],"split_type":[0,0,0,0,0,0,0,0,0,0,0,0,0,0,0,0,0,0,0,0,0,0,0,0,0,0,0,0,0,0,0,0,0,0,0],"sum_hessian":[4.2521E3,4.2301E3,2.2E1,2.57E1,4.2044E3,1.1E1,1.1E1,1.52E1,1.05E1,4.0656E3,1.388E2,1.2047E3,2.8609E3,3.9E1,9.98E1,1.1897E3,1.5E1,1.9737E3,8.872E2,2.16E1,1.74E1,9.24E1,7.4E0,7.82E2,4.077E2,1.1E1,4E0,1.8137E3,1.6E2,1.09E1,8.763E2,4.4E0,1.3E1,4.8E0,8.76E1],"tree_param":{"num_deleted":"0","num_feature":"82","num_nodes":"35","size_leaf_vector":"1"}},{"base_weights":[4.070546E-1,-3.3464375E1,7.032726E-1,-3.2504926E0,1.372138E-1,-1.3239264E0,1.7212044E0,2.4910413E-1,-2.2187962E1,1.8074002E0,-3.1296291E0,1.6524391E0,-3.2321618E0,-5.252185E1,-2.384827E0,1.1219262E0,2.16534E0,-1.3888671E1,1.2676797E0,-9.472203E0,2.0549037E0,-1.06290865E1,-2.1696039E-1,1.1104729E-1,-3.4592679E0,-1.5518655E1,2.78003E0,1.430972E0,-1.1560359E1,2.2533603E0,1.6674107E-1,-3.33536E-1,-9.2949885E-1,1.2743454E-1,-2.9608116E-1,-1.1160313E0,-6.5604605E-2,-1.0769569E-1,1.09125756E-1,2.2882791E-1,-8.819708E-1,5.4215252E-2,-5.6154835E-1,1.2678881E-1,-1.4078778E0,1.14045635E-1,1.6114104E-1,5.7649956E-4,1.14949144E-1,-2.0568936E-1,-1.031114E0,5.418247E-2,1.1535492E-1,1.0831193E-1,-7.982439E-1],"categories":[],"categories_nodes":[],"categories_segments":[],"categories_sizes":[],"default_left":[0,0,0,0,0,0,1,1,0,0,0,0,0,0,0,1,0,0,0,0,0,0,0,0,0,0,0,0,0,0,0,0,0,0,0,0,0,0,0,0,0,0,0,0,0,0,0,0,0,0,0,0,0,0,0],"id":4,"left_children":[1,3,5,-1,-1,7,9,11,13,15,17,19,21,23,25,27,29,31,33,35,37,39,41,-1,-1,43,45,47,49,51,53,-1,-1,-1,-1,-1,-1,-1,-1,-1,-1,-1,-1,-1,-1,-1,-1,-1,-1,-1,-1,-1,-1,-1,-1],"loss_changes":[4.2357156E4,4.1983625E4,8.635556E3,0E0,0E0,4.592366E4,1.170376E3,6.3661084E3,5.8804004E4,6.692637E2,2.3358372E3,4.1770635E3,8.34802E3,3.5456062E4,4.1403364E3,3.7054893E3,3.1581836E2,3.6124487E2,3.4387427E2,3.3886458E3,4.864734E2,1.1635794E4,3.8388608E3,0E0,0E0,3.9962383E3,2.4174194E0,1.1331278E3,1.43347E3,1.0570996E2,2.5150032E3,0E0,0E0,0E0,0E0,0E0,0E0,0E0,0E0,0E0,0E0,0E0,0E0,0E0,0E0,0E0,0E0,0E0,0E0,0E0,0E0,0E0,0E0,0E0,0E0],"parents":[2147483647,0,0,1,1,2,2,5,5,6,6,7,7,8,8,9,9,10,10,11,11,12,12,13,13,14,14,15,15,16,16,17,17,18,18,19,19,20,20,21,21,22,22,25,25,26,26,27,27,28,28,29,29,30,30],"right_children":[2,4,6,-1,-1,8,10,12,14,16,18,20,22,24,26,28,30,32,34,36,38,40,42,-1,-1,44,46,48,50,52,54,-1,-1,-1,-1,-1,-1,-1,-1,-1,-1,-1,-1,-1,-1,-1,-1,-1,-1,-1,-1,-1,-1,-1,-1],"split_conditions":[3.6E0,0E0,5.11E3,-3.2504926E0,1.372138E-1,8.806829E-1,3.1360588E0,1.025665E0,9.272376E-1,2.11E1,2.8E0,-9.9716926E-1,2.04255E0,3.42E3,5.79E3,2.5101671E0,9.0125E1,2.28E1,3.1470115E0,4.7375E1,-9.8091614E-1,1.95E1,1.014E2,1.1104729E-1,-3.4592679E0,5.11E3,2.018559E0,9E3,2.3745558E0,-2.6266668E0,9.933901E-1,-3.33536E-1,-9.2949885E-1,1.2743454E-1,-2.9608116E-1,-1.1160313E0,-6.5604605E-2,-1.0769569E-1,1.09125756E-1,2.2882791E-1,-8.819708E-1,5.4215252E-2,-5.6154835E-1,1.2678881E-1,-1.4078778E0,1.14045635E-1,1.6114104E-1,5.7649956E-4,1.14949144E-1,-2.0568936E-1,-1.031114E0,5.418247E-2,1.1535492E-1,1.0831193E-1,-7.982439E-1],"split_indices":[55,10,45,0,0,80,79,15,80,40,16,81,77,45,11,49,29,20,47,29,81,53,17,0,0,11,31,44,48,54,80,0,0,0,0,0,0,0,0,0,0,0,0,0,0,0,0,0,0,0,0,0,0,0,0],"split_type":[0,0,0,0,0,0,0,0,0,0,0,0,0,0,0,0,0,0,0,0,0,0,0,0,0,0,0,0,0,0,0,0,0,0,0,0,0,0,0,0,0,0,0,0,0,0,0,0,0,0,0,0,0,0,0],"sum_hessian":[4.2183E3,3.56E1,4.1827E3,1.86E1,1.7E1,1.3981E3,2.7846E3,1.301E3,9.71E1,2.7366E3,4.8E1,9.276E2,3.734E2,3.77E1,5.94E1,9.402E2,1.7964E3,1.33E1,3.47E1,3.16E1,8.96E2,1.074E2,2.66E2,9E0,2.87E1,1.62E1,4.32E1,9.187E2,2.15E1,1.7205E3,7.59E1,6.2E0,7.1000004E0,3E1,4.7E0,1.16E1,2E1,2.59E1,8.701E2,3.4E1,7.34E1,2.387E2,2.73E1,7E0,9.2E0,2.32E1,2E1,3.49E2,5.697E2,1.26E1,8.9E0,7.65E1,1.644E3,6.83E1,7.6E0],"tree_param":{"num_deleted":"0","num_feature":"82","num_nodes":"55","size_leaf_vector":"1"}},{"base_weights":[2.641614E-1,-3.5005527E1,5.473018E-1,-3.0962596E0,1.00483336E-1,-1.5822903E0,1.4849628E0,-2.2765787E-1,-5.3876602E1,-2.6259553E0,1.7794439E0,1.4635206E0,-4.102864E0,-3.6180813E0,-1.506375E0,1.8403515E0,-9.906877E0,-2.6491122E0,1.8644559E0,1.7375858E0,-7.6610346E0,-9.379522E0,-2.4591298E-1,1.1409012E-1,-2.3381431E-1,-2.3413245E-1,2.1295285E0,-7.6627517E0,-1.6119759E0,1.906714E0,-1.59803915E1,-3.3387488E-1,1.892235E0,9.297465E-2,-3.5413215E-1,-1.0691507E0,-1.8482525E-2,-1.2292856E-2,-7.034201E-1,-3.982158E-1,6.296574E-2,-3.8812615E-2,1.1326665E-1,-5.7205047E-2,-7.3795456E-1,1.1548209E-1,1.9559478E-2,9.304314E-2,-1.1927072E0,9.538912E-2,-2.8543E-1],"categories":[],"categories_nodes":[],"categories_segments":[],"categories_sizes":[],"default_left":[0,0,0,0,0,0,0,1,0,0,0,0,1,0,0,0,0,0,0,0,0,0,0,0,0,0,0,1,0,0,1,0,1,0,0,0,0,0,0,0,0,0,0,0,0,0,0,0,0,0,0],"id":5,"left_children":[1,3,5,-1,-1,7,9,11,13,15,17,19,21,-1,23,25,27,29,31,33,35,37,39,-1,-1,-1,41,43,-1,45,47,-1,49,-1,-1,-1,-1,-1,-1,-1,-1,-1,-1,-1,-1,-1,-1,-1,-1,-1,-1],"loss_changes":[4.2382934E4,3.3804004E4,8.407828E3,0E0,0E0,9.1179516E4,3.5433428E3,8.236097E3,3.1353102E4,6.3854185E3,1.0320908E3,2.2014436E3,7.7680146E3,0E0,1.2474813E2,2.40478E2,3.4917036E3,3.1765427E3,6.479717E2,9.2745483E2,2.563438E3,6.900199E3,2.5845684E3,0E0,0E0,0E0,4.8205017E1,3.1795796E3,0E0,2.3217056E1,1.9127412E3,0E0,3.2636816E2,0E0,0E0,0E0,0E0,0E0,0E0,0E0,0E0,0E0,0E0,0E0,0E0,0E0,0E0,0E0,0E0,0E0,0E0],"parents":[2147483647,0,0,1,1,2,2,5,5,6,6,7,7,8,8,9,9,10,10,11,11,12,12,14,14,15,15,16,16,17,17,18,18,19,19,20,20,21,21,22,22,26,26,27,27,29,29,30,30,32,32],"right_children":[2,4,6,-1,-1,8,10,12,14,16,18,20,22,-1,24,26,28,30,32,34,36,38,40,-1,-1,-1,42,44,-1,46,48,-1,50,-1,-1,-1,-1,-1,-1,-1,-1,-1,-1,-1,-1,-1,-1,-1,-1,-1,-1],"split_conditions":[-5.870616E0,2.7E3,4.89E3,-3.0962596E0,1.00483336E-1,4.87E3,-9.6206754E-1,7.3E0,4.715492E0,2.2395605E1,4.5333332E1,3.47E1,2.4731522E0,-3.6180813E0,1.3195833E1,1.4328571E1,2.130841E1,4.3875E1,4.005E3,2.39E1,6.1458332E1,1.94E1,5.7E1,1.1409012E-1,-2.3381431E-1,-2.3413245E-1,8.017895E0,2.4574592E0,-1.6119759E0,5.8708334E0,2E-1,-3.3387488E-1,2.5907408E1,9.297465E-2,-3.5413215E-1,-1.0691507E0,-1.8482525E-2,-1.2292856E-2,-7.034201E-1,-3.982158E-1,6.296574E-2,-3.8812615E-2,1.1326665E-1,-5.7205047E-2,-7.3795456E-1,1.1548209E-1,1.9559478E-2,9.304314E-2,-1.1927072E0,9.538912E-2,-2.8543E-1],"split_indices":[59,11,45,0,0,45,80,10,61,61,4,51,79,0,5,62,33,4,72,0,26,51,4,0,0,0,33,78,0,22,10,0,66,0,0,0,0,0,0,0,0,0,0,0,0,0,0,0,0,0,0],"split_type":[0,0,0,0,0,0,0,0,0,0,0,0,0,0,0,0,0,0,0,0,0,0,0,0,0,0,0,0,0,0,0,0,0,0,0,0,0,0,0,0,0,0,0,0,0,0,0,0,0,0,0],"sum_hessian":[4.2412E3,3.28E1,4.2084E3,1.86E1,1.42E1,1.2863E3,2.9221E3,1.2548E3,3.15E1,1.948E2,2.7273E3,8.74E2,3.808E2,2.3E1,8.5E0,1.212E2,7.36E1,5.08E1,2.6765E3,8.493E2,2.47E1,1.602E2,2.206E2,4E0,4.5E0,4.5E0,1.167E2,6.81E1,5.5E0,3.85E1,1.23E1,7.9E0,2.6686E3,8.385E2,1.08E1,7.9E0,1.68E1,5.47E1,1.055E2,3.53E1,1.853E2,5E0,1.117E2,3.61E1,3.2E1,3E1,8.5E0,4E0,8.3E0,2.6639E3,4.7E0],"tree_param":{"num_deleted":"0","num_feature":"82","num_nodes":"51","size_leaf_vector":"1"}},{"base_weights":[-1.7340338E-1,-9.656555E0,9.704543E-1,-1.0258617E0,-6.8121185E1,1.13007E0,-7.674609E0,-4.6241726E1,1.9525657E0,-3.6630177E0,7.599839E-2,-8.7657243E-1,1.5790715E0,-1.7354698E1,-5.072373E0,-2.9493454E0,1.5497367E-1,2.1580276E0,-5.221384E0,-5.299919E0,1.2161039E0,1.8144745E0,9.757335E-2,-1.0216994E0,-5.0676405E-1,-5.1464486E-1,-1.9032631E0,-2.6124808E-1,2.267031E0,9.5123485E-2,-5.902073E-1,-1.8134335E1,-1.9109713E0,1.643825E0,-6.3732424E0,1.8504195E0,-4.6410137E-1,-9.899071E0,1.2285051E0,-5.4228787E0,5.349919E-1,1.1535495E-1,-7.5238803E-3,-4.7200125E-2,-1.0439996E0,9.4702445E-2,-4.5518547E-1,9.865463E-2,-1.8090253E-1,1.1045232E-1,-1.543777E0,-2.6080358E-1,9.390134E-2,9.116592E-2,-1.4024048E0,-2.3428135E-1,8.896624E-2,-1.5316856E-1,-3.178633E-1,1.0904019E-1,-1.0907723E-1],"categories":[],"categories_nodes":[],"categories_segments":[],"categories_sizes":[],"default_left":[0,0,0,0,0,0,0,0,0,0,0,0,0,0,1,0,0,0,0,0,0,1,0,0,0,0,0,0,0,0,0,0,0,0,0,0,0,0,0,0,1,0,0,0,0,0,0,0,0,0,0,0,0,0,0,0,0,0,0,0,0],"id":6,"left_children":[1,3,5,7,9,11,13,15,17,-1,-1,19,21,23,25,-1,-1,27,29,31,33,35,37,-1,-1,-1,39,-1,41,-1,-1,43,45,47,49,51,-1,53,55,57,59,-1,-1,-1,-1,-1,-1,-1,-1,-1,-1,-1,-1,-1,-1,-1,-1,-1,-1,-1,-1],"loss_changes":[4.584388E4,2.2946825E5,5.212919E3,5.3609008E4,2.1048375E4,3.3386348E3,1.637477E3,1.565284E4,5.6223926E2,0E0,0E0,6.281516E3,1.0555215E3,1.0634863E2,8.969707E2,0E0,0E0,3.0486218E2,5.2422955E2,9.442941E3,1.5069397E3,1.0590107E3,4.7163887E3,0E0,0E0,0E0,3.0926862E2,0E0,3.516992E1,0E0,0E0,2.1231133E3,4.765679E3,7.6461584E2,5.283293E3,5.1788086E2,0E0,9.071737E3,1.2289675E3,1.2934296E1,1.03117485E2,0E0,0E0,0E0,0E0,0E0,0E0,0E0,0E0,0E0,0E0,0E0,0E0,0E0,0E0,0E0,0E0,0E0,0E0,0E0,0E0],"parents":[2147483647,0,0,1,1,2,2,3,3,4,4,5,5,6,6,7,7,8,8,11,11,12,12,13,13,14,14,17,17,18,18,19,19,20,20,21,21,22,22,26,26,28,28,31,31,32,32,33,33,34,34,35,35,37,37,38,38,39,39,40,40],"right_children":[2,4,6,8,10,12,14,16,18,-1,-1,20,22,24,26,-1,-1,28,30,32,34,36,38,-1,-1,-1,40,-1,42,-1,-1,44,46,48,50,52,-1,54,56,58,60,-1,-1,-1,-1,-1,-1,-1,-1,-1,-1,-1,-1,-1,-1,-1,-1,-1,-1,-1,-1],"split_conditions":[4.715492E0,4.106782E0,3.47E1,2.47E3,7.1791664E1,-8.517119E-1,4.9833332E1,-1.3E1,1.1237667E4,-3.6630177E0,7.599839E-2,2.0737944E0,9.3121004E-1,7.2083335E0,1.94E3,-2.9493454E0,1.5497367E-1,2.48E3,7.6E0,2.59E1,8.6625E1,1.014E2,3.6E0,-1.0216994E0,-5.0676405E-1,-5.1464486E-1,-9.890132E-1,-2.6124808E-1,4.5E0,9.5123485E-2,-5.902073E-1,7.409526E0,1.8591025E0,2.3590832E1,2.3704166E1,3.725E1,-4.6410137E-1,6.8E0,4.875E1,9.8205414E2,2.74E1,1.1535495E-1,-7.5238803E-3,-4.7200125E-2,-1.0439996E0,9.4702445E-2,-4.5518547E-1,9.865463E-2,-1.8090253E-1,1.1045232E-1,-1.543777E0,-2.6080358E-1,9.390134E-2,9.116592E-2,-1.4024048E0,-2.3428135E-1,8.896624E-2,-1.5316856E-1,-3.178633E-1,1.0904019E-1,-1.0907723E-1],"split_indices":[61,57,51,44,4,80,29,0,72,0,0,47,80,5,42,0,0,42,55,55,29,17,40,0,0,0,81,0,0,0,0,58,47,59,25,28,0,10,4,8,39,0,0,0,0,0,0,0,0,0,0,0,0,0,0,0,0,0,0,0,0],"split_type":[0,0,0,0,0,0,0,0,0,0,0,0,0,0,0,0,0,0,0,0,0,0,0,0,0,0,0,0,0,0,0,0,0,0,0,0,0,0,0,0,0,0,0,0,0,0,0,0,0,0,0,0,0,0,0,0,0,0,0,0,0],"sum_hessian":[4.2244E3,4.539E2,3.7705E3,3.964E2,5.75E1,3.703E3,6.75E1,2.36E1,3.728E2,5.35E1,4E0,6.769E2,3.0261E3,1.31E1,5.44E1,1.86E1,5E0,3.631E2,9.7E0,2.169E2,4.6E2,2.611E3,4.151E2,7.9E0,5.2E0,1.97E1,3.47E1,4.6E0,3.585E2,5E0,4.7E0,4.44E1,1.725E2,4.362E2,2.38E1,2.6034E3,7.6E0,4.14E1,3.737E2,1.37E1,2.1E1,3.527E2,5.8E0,6.3E0,3.81E1,1.133E2,5.92E1,4.111E2,2.51E1,1.83E1,5.5E0,9.4E0,2.594E3,2.57E1,1.57E1,3.12E1,3.425E2,5.1E0,8.6E0,1.32E1,7.8E0],"tree_param":{"num_deleted":"0","num_feature":"82","num_nodes":"61","size_leaf_vector":"1"}},{"base_weights":[-2.557737E-2,1.5582393E-1,-2.969208E1,-2.6697363E1,3.1775606E-1,-3.3756568E0,2.5442388E0,-3.1044137E0,1.1077466E-1,9.520779E-1,-3.6462672E0,1.6527665E-1,9.8345086E-2,1.107408E0,-7.2975183E0,1.3821547E0,-3.926831E1,-6.2716645E-1,1.7155083E0,-1.1913342E1,-2.1699243E0,1.5985035E0,-1.0620225E1,1.13190316E-1,-6.562946E1,7.519005E-2,-1.4793219E-1,8.784213E-2,-4.4723773E-1,-9.145039E-1,-4.157563E-1,3.8326573E-2,-3.926246E-1,-1.0061468E-1,1.0505861E-1,6.776763E-2,-1.0475391E0,-3.5723705E0,-2.1054034E0],"categories":[],"categories_nodes":[],"categories_segments":[],"categories_sizes":[],"default_left":[0,0,0,0,0,0,0,0,0,0,0,0,0,0,0,0,0,1,0,0,0,0,0,0,0,0,0,0,0,0,0,0,0,0,0,0,0,0,0],"id":7,"left_children":[1,3,5,7,9,-1,11,-1,-1,13,15,-1,-1,17,19,21,23,25,27,29,31,33,35,-1,37,-1,-1,-1,-1,-1,-1,-1,-1,-1,-1,-1,-1,-1,-1],"loss_changes":[2.302256E4,1.8498723E4,3.1871271E4,2.623049E4,1.0633882E4,0E0,9.119415E-2,0E0,0E0,4.679209E3,1.0455444E5,0E0,0E0,3.7759775E3,1.5717441E3,1.3470059E3,7.919562E4,4.62348E3,1.1834365E3,6.578701E2,5.600145E2,9.1900574E2,1.166568E3,0E0,3.0400938E3,0E0,0E0,0E0,0E0,0E0,0E0,0E0,0E0,0E0,0E0,0E0,0E0,0E0,0E0],"parents":[2147483647,0,0,1,1,2,2,3,3,4,4,6,6,9,9,10,10,13,13,14,14,15,15,16,16,17,17,18,18,19,19,20,20,21,21,22,22,24,24],"right_children":[2,4,6,8,10,-1,12,-1,-1,14,16,-1,-1,18,20,22,24,26,28,30,32,34,36,-1,38,-1,-1,-1,-1,-1,-1,-1,-1,-1,-1,-1,-1,-1,-1],"split_conditions":[3.0904167E1,3.6E0,-5.3968873E0,0E0,8.916402E-1,-3.3756568E0,6.4833336E1,-3.1044137E0,1.1077466E-1,3.47E1,3.8640523E-1,1.6527665E-1,9.8345086E-2,-7.4944234E-1,-9.504567E-1,9.28112E0,-3.777534E0,1.1367892E0,3.43E1,9.810833E2,1.049E2,3E0,1.3375E0,1.13190316E-1,-2.125E0,7.519005E-2,-1.4793219E-1,8.784213E-2,-4.4723773E-1,-9.145039E-1,-4.157563E-1,3.8326573E-2,-3.926246E-1,-1.0061468E-1,1.0505861E-1,6.776763E-2,-1.0475391E0,-3.5723705E0,-2.1054034E0],"split_indices":[5,55,31,10,80,0,6,0,0,51,81,0,0,80,81,60,60,46,2,8,17,41,3,0,3,0,0,0,0,0,0,0,0,0,0,0,0,0,0],"split_type":[0,0,0,0,0,0,0,0,0,0,0,0,0,0,0,0,0,0,0,0,0,0,0,0,0,0,0,0,0,0,0,0,0,0,0,0,0,0,0],"sum_hessian":[4.2762E3,4.2512E3,2.5E1,2.45E1,4.2267E3,1.1E1,1.4E1,1.05E1,1.4E1,3.6443E3,5.824E2,4E0,1E1,3.5778E3,6.65E1,5.112E2,7.12E1,9.287E2,2.6491E3,3.43E1,3.22E1,5.03E2,8.2E0,2.8E1,4.32E1,4.854E2,4.433E2,2.6397E3,9.4E0,1.09E1,2.34E1,2.18E1,1.04E1,6.11E1,4.419E2,4.2E0,4E0,3.3E1,1.02E1],"tree_param":{"num_deleted":"0","num_feature":"82","num_nodes":"39","size_leaf_vector":"1"}},{"base_weights":[2.3101994E-1,7.0086753E-1,-1.1593791E1,8.2870436E-1,-7.0093055E0,-3.7132603E1,1.2116219E0,1.6611972E-1,1.7077755E0,-9.357669E-1,-5.1214786E0,1.9787067E0,-3.1714075E0,-4.516305E-1,1.8315781E0,7.0014405E-1,-5.484658E0,-5.1412582E0,1.832962E0,-7.5914125E0,-1.3663863E-2,-3.6614623E-2,2.7423227E0,2.1185577E0,-1.8413603E-1,-1.1354984E0,1.5563563E0,-3.3794613E0,-1.4764386E0,1.09598696E-1,-1.0152661E0,-1.317317E0,1.8718468E0,-1.3987242E-1,-8.694396E0,-2.2564042E-1,1.3758044E0,9.7176105E-2,1.8599674E-1,-1.3549236E-2,2.2401416E0,7.956354E-2,-1.843045E-1,-1.953083E-2,9.454743E-2,-8.2140726E-1,4.4792842E-2,-5.989024E-1,1.0419058E-1,6.874715E-2,9.882728E-2,-3.1142256E-1,-5.275561E-1,1.0368514E-1,-2.7487962E-2,2.546463E-2,1.1604678E-1],"categories":[],"categories_nodes":[],"categories_segments":[],"categories_sizes":[],"default_left":[0,0,0,0,0,0,0,0,0,0,1,0,0,0,0,0,0,0,0,1,0,0,0,0,0,0,0,0,0,0,0,0,0,0,0,0,1,0,0,0,0,0,0,0,0,0,0,0,0,0,0,0,0,0,0,0,0],"id":8,"left_children":[1,3,5,7,9,11,13,15,17,-1,19,21,-1,-1,23,25,27,29,31,33,35,-1,37,39,-1,41,43,-1,45,-1,-1,47,49,-1,51,-1,53,-1,-1,-1,55,-1,-1,-1,-1,-1,-1,-1,-1,-1,-1,-1,-1,-1,-1,-1,-1],"loss_changes":[2.3624416E4,4.0363037E3,5.318818E4,2.3431821E3,1.3803606E3,5.5970508E4,7.1007043E2,6.9302583E3,1.4919658E3,0E0,7.429763E2,4.9207886E1,0E0,0E0,1.720646E2,3.299193E3,4.926277E4,3.5251191E3,2.1056494E2,1.8559839E2,1.324874E2,0E0,6.8267365E0,2.9456665E1,0E0,4.6510264E3,9.330171E2,0E0,6.6582217E3,0E0,0E0,7.9726636E2,8.460742E1,0E0,7.9881836E1,0E0,2.2910372E1,0E0,0E0,0E0,1.2046997E1,0E0,0E0,0E0,0E0,0E0,0E0,0E0,0E0,0E0,0E0,0E0,0E0,0E0,0E0,0E0,0E0],"parents":[2147483647,0,0,1,1,2,2,3,3,4,4,5,5,6,6,7,7,8,8,10,10,11,11,14,14,15,15,16,16,17,17,18,18,19,19,20,20,22,22,23,23,25,25,26,26,28,28,31,31,32,32,34,34,36,36,40,40],"right_children":[2,4,6,8,10,12,14,16,18,-1,20,22,-1,-1,24,26,28,30,32,34,36,-1,38,40,-1,42,44,-1,46,-1,-1,48,50,-1,52,-1,54,-1,-1,-1,56,-1,-1,-1,-1,-1,-1,-1,-1,-1,-1,-1,-1,-1,-1,-1,-1],"split_conditions":[2.39875E1,3.47E1,4.715492E0,9.61E3,1.8824047E1,2.7285714E0,1.475E1,8.916402E-1,4.5333332E1,-9.357669E-1,6.275E1,4.2666668E1,-3.1714075E0,-4.516305E-1,2.2273096E1,2.27E1,8.9645624E-1,4.3875E1,4.8E0,5.5208332E1,1.9338554E1,-3.6614623E-2,2.74875E1,3.2E0,-1.8413603E-1,7.679056E0,5.7166668E1,-3.3794613E0,5.1571426E0,1.09598696E-1,-1.0152661E0,5.5916668E1,6.0833332E1,-1.3987242E-1,3.03E1,-2.2564042E-1,9.27E1,9.7176105E-2,1.8599674E-1,-1.3549236E-2,4.3875E1,7.956354E-2,-1.843045E-1,-1.953083E-2,9.454743E-2,-8.2140726E-1,4.4792842E-2,-5.989024E-1,1.0419058E-1,6.874715E-2,9.882728E-2,-3.1142256E-1,-5.275561E-1,1.0368514E-1,-2.7487962E-2,2.546463E-2,1.1604678E-1],"split_indices":[5,51,61,71,58,50,6,80,4,0,26,9,0,0,61,39,80,4,5,28,58,0,5,67,0,58,26,0,62,0,0,26,26,0,21,0,17,0,0,0,4,0,0,0,0,0,0,0,0,0,0,0,0,0,0,0,0],"split_type":[0,0,0,0,0,0,0,0,0,0,0,0,0,0,0,0,0,0,0,0,0,0,0,0,0,0,0,0,0,0,0,0,0,0,0,0,0,0,0,0,0,0,0,0,0,0,0,0,0,0,0,0,0,0,0,0,0],"sum_hessian":[4.2497E3,4.0882E3,1.615E2,4.0224E3,6.58E1,5.33E1,1.082E2,2.2943E3,1.7281E3,7.9E0,5.79E1,2.18E1,3.15E1,5.4E0,1.028E2,2.097E3,1.973E2,3.03E1,1.6978E3,3.87E1,1.92E1,4.8E0,1.7E1,9.83E1,4.5E0,6.669E2,1.4301E3,1.1E1,1.863E2,2.1E1,9.3E0,2.03E1,1.6775E3,7.9E0,3.08E1,4E0,1.52E1,1.1E1,6E0,4.7E0,9.36E1,3.225E2,3.444E2,2.097E2,1.2204E3,2.47E1,1.616E2,4.3E0,1.6E1,2.944E2,1.3831E3,1.51E1,1.57E1,1.11E1,4.1E0,4.5E0,8.91E1],"tree_param":{"num_deleted":"0","num_feature":"82","num_nodes":"57","size_leaf_vector":"1"}},{"base_weights":[-1.1956296E-2,-6.1761966E0,7.030067E-1,-8.7894285E-3,-5.6125656E1,-9.3095064E-1,1.2996545E0,-4.0324375E1,1.7496455E0,6.706192E-2,-3.066068E0,-5.0193936E-1,-2.543681E1,-9.275808E0,1.3836691E0,-2.9663227E0,1.4085032E-1,1.9279412E0,-5.531971E0,-4.1296005E0,4.9518728E-1,1.5229902E0,-2.4962392E0,-8.872754E-1,5.514447E-1,-1.019122E0,1.5530751E0,-2.5752798E-1,2.0311477E0,-5.8167404E-1,1.0210114E-1,1.2530621E0,-8.032795E0,8.0513597E-1,-1.5289717E1,9.3990326E-2,4.4950724E-2,7.978412E-2,-5.312732E-2,-1.70291E1,2.566869E-2,6.9334054E-1,1.7400241E0,1.03449576E-1,1.5451786E-3,1.03312336E-1,-6.0627353E-1,-9.25299E-1,-2.1155655E-1,5.201147E-2,-4.9484465E-1,1.16622984E-1,-1.2078356E0,-1.480818E0,1.5617572E-2,4.5418665E-2,-7.9668677E-1,7.8278475E-2,-6.7296076E-1,8.795356E-2,-2.8206867E-1],"categories":[],"categories_nodes":[],"categories_segments":[],"categories_sizes":[],"default_left":[0,0,0,0,0,0,0,0,1,0,0,0,0,0,0,0,0,0,0,0,0,0,0,0,0,0,1,0,0,0,0,0,0,0,0,0,0,0,0,0,0,1,1,0,0,0,0,0,0,0,0,0,0,0,0,0,0,0,0,0,0],"id":9,"left_children":[1,3,5,7,9,11,13,15,17,-1,-1,19,21,23,25,-1,-1,27,29,31,33,35,-1,-1,37,39,41,-1,43,-1,-1,45,47,49,51,-1,-1,-1,-1,53,55,57,59,-1,-1,-1,-1,-1,-1,-1,-1,-1,-1,-1,-1,-1,-1,-1,-1,-1,-1],"loss_changes":[1.8713361E4,1.3594578E5,3.710498E3,2.7987951E4,1.45634375E4,1.0692914E4,2.4895107E3,1.3693428E4,5.018048E2,0E0,0E0,3.6257932E3,1.1629377E4,1.8492544E3,1.1276372E3,0E0,0E0,2.8076404E2,4.5353476E2,4.5502354E3,3.8612478E3,3.8062286E-1,0E0,0E0,2.0571854E1,3.058147E3,4.14208E2,0E0,2.7595581E1,0E0,0E0,1.0226782E3,4.914567E3,1.9538871E3,2.431432E3,0E0,0E0,0E0,0E0,2.4540015E3,2.4459656E3,5.74017E3,3.083047E2,0E0,0E0,0E0,0E0,0E0,0E0,0E0,0E0,0E0,0E0,0E0,0E0,0E0,0E0,0E0,0E0,0E0,0E0],"parents":[2147483647,0,0,1,1,2,2,3,3,4,4,5,5,6,6,7,7,8,8,11,11,12,12,13,13,14,14,17,17,18,18,19,19,20,20,21,21,24,24,25,25,26,26,28,28,31,31,32,32,33,33,34,34,39,39,40,40,41,41,42,42],"right_children":[2,4,6,8,10,12,14,16,18,-1,-1,20,22,24,26,-1,-1,28,30,32,34,36,-1,-1,38,40,42,-1,44,-1,-1,46,48,50,52,-1,-1,-1,-1,54,56,58,60,-1,-1,-1,-1,-1,-1,-1,-1,-1,-1,-1,-1,-1,-1,-1,-1,-1,-1],"split_conditions":[4.715492E0,4.106782E0,4.78E3,2.47E3,1.10291664E2,4.75E3,4.1006665E3,-1.39E1,4.5E0,6.706192E-2,-3.066068E0,5.6458332E1,3E0,1.43E1,-9.6206754E-1,-2.9663227E0,1.4085032E-1,2.5E3,-9.9E0,2.3E1,9.7627664E-1,7.3125E1,-2.4962392E0,-8.872754E-1,4.07E3,-2.541427E-1,4.6E0,-2.5752798E-1,4.5E0,-5.8167404E-1,1.0210114E-1,1.12E4,1.31E1,1.049E2,-1.6E0,9.3990326E-2,4.4950724E-2,7.978412E-2,-5.312732E-2,3.9E0,2.2379167E2,9E0,2.5907408E1,1.03449576E-1,1.5451786E-3,1.03312336E-1,-6.0627353E-1,-9.25299E-1,-2.1155655E-1,5.201147E-2,-4.9484465E-1,1.16622984E-1,-1.2078356E0,-1.480818E0,1.5617572E-2,4.5418665E-2,-7.9668677E-1,7.8278475E-2,-6.7296076E-1,8.795356E-2,-2.8206867E-1],"split_indices":[61,57,45,44,6,45,72,0,67,0,0,29,7,10,80,0,0,11,0,53,80,28,0,0,44,81,21,0,0,0,0,11,10,17,0,0,0,0,0,17,6,10,66,0,0,0,0,0,0,0,0,0,0,0,0,0,0,0,0,0,0],"split_type":[0,0,0,0,0,0,0,0,0,0,0,0,0,0,0,0,0,0,0,0,0,0,0,0,0,0,0,0,0,0,0,0,0,0,0,0,0,0,0,0,0,0,0,0,0,0,0,0,0,0,0,0,0,0,0,0,0,0,0,0,0],"sum_hessian":[4.2441E3,4.403E2,3.8038E3,3.928E2,4.75E1,1.0173E3,2.7865E3,1.55E1,3.773E2,4E0,4.35E1,1.0008E3,1.65E1,2.11E1,2.7654E3,1.05E1,5E0,3.69E2,8.3E0,2.151E2,7.857E2,8.3E0,8.2E0,1.09E1,1.02E1,1.818E2,2.5836E3,4.6E0,3.644E2,4.3E0,4E0,9.07E1,1.244E2,7.715E2,1.42E1,4E0,4.3E0,6.2E0,4E0,1.02E1,1.716E2,4.623E2,2.1213E3,3.576E2,6.8E0,8.63E1,4.4E0,3.21E1,9.23E1,7.558E2,1.57E1,5E0,9.2E0,5.5E0,4.7E0,1.635E2,8.1E0,4.363E2,2.6E1,2.1166E3,4.7E0],"tree_param":{"num_deleted":"0","num_feature":"82","num_nodes":"61","size_leaf_vector":"1"}},{"base_weights":[-1.829078E-2,1.4056121E-1,-2.6564903E1,-2.241845E1,2.910548E-1,-2.7009647E0,2.932944E0,1.7509754E0,-2.8309038E0,8.5747623E-1,-3.0145283E0,7.7007614E-2,1.80546E-1,5.0603002E-2,9.559256E-2,9.6448785E-1,-9.069795E0,1.6888075E-1,-3.6670925E1,-2.8124595E-1,1.3842231E0,-2.5441664E-1,-1.0014315E1,1.1931458E0,-1.7335571E1,2.4135985E0,-3.0398605E0,-1.451974E-1,4.777163E-2,7.530976E-2,-7.112049E-2,-2.6495042E-1,-5.3136724E-1,-4.8148766E-1,8.221187E-2,-2.1039107E-1,-2.3849936E0,8.490126E-2,1.4548771E-1],"categories":[],"categories_nodes":[],"categories_segments":[],"categories_sizes":[],"default_left":[0,0,0,1,0,0,0,0,0,1,0,0,0,0,0,0,1,0,0,0,0,0,0,0,0,0,0,0,0,0,0,0,0,0,0,0,0,0,0],"id":10,"left_children":[1,3,5,7,9,-1,11,13,-1,15,17,-1,-1,-1,-1,19,21,23,25,27,29,-1,31,33,35,37,-1,-1,-1,-1,-1,-1,-1,-1,-1,-1,-1,-1,-1],"loss_changes":[1.7723492E4,1.4190779E4,2.0404574E4,2.299555E4,7.7752847E3,0E0,6.714264E0,1.0971832E-1,0E0,3.774507E3,6.5095008E4,0E0,0E0,0E0,0E0,1.8345942E3,9.1569336E1,9.989317E3,4.965236E4,2.8728943E3,9.0041895E2,0E0,2.9247803E1,2.5848042E3,1.2076627E4,2.5149002E0,0E0,0E0,0E0,0E0,0E0,0E0,0E0,0E0,0E0,0E0,0E0,0E0,0E0],"parents":[2147483647,0,0,1,1,2,2,3,3,4,4,6,6,7,7,9,9,10,10,15,15,16,16,17,17,18,18,19,19,20,20,22,22,23,23,24,24,25,25],"right_children":[2,4,6,8,10,-1,12,14,-1,16,18,-1,-1,-1,-1,20,22,24,26,28,30,-1,32,34,36,38,-1,-1,-1,-1,-1,-1,-1,-1,-1,-1,-1,-1,-1],"split_conditions":[3.0904167E1,-5.870616E0,5.7541668E1,-1E-1,8.806829E-1,-2.7009647E0,4.07E3,1.0391666E1,-2.8309038E0,1.014E2,4.3346855E-1,7.7007614E-2,1.80546E-1,5.0603002E-2,9.559256E-2,-7.4944234E-1,3.5965755E0,9.0125E1,2.9433334E0,2.0737944E0,3.11E1,-2.5441664E-1,1.81E3,2.81E3,2.3366667E1,-5.9E0,-3.0398605E0,-1.451974E-1,4.777163E-2,7.530976E-2,-7.112049E-2,-2.6495042E-1,-5.3136724E-1,-4.8148766E-1,8.221187E-2,-2.1039107E-1,-2.3849936E0,8.490126E-2,1.4548771E-1],"split_indices":[5,59,4,10,80,0,44,5,0,17,81,0,0,0,0,80,48,29,54,47,18,0,44,45,5,0,0,0,0,0,0,0,0,0,0,0,0,0,0],"split_type":[0,0,0,0,0,0,0,0,0,0,0,0,0,0,0,0,0,0,0,0,0,0,0,0,0,0,0,0,0,0,0,0,0,0,0,0,0,0,0],"sum_hessian":[4.201E3,4.177E3,2.4E1,2.67E1,4.1503E3,1.2E1,1.2E1,1.62E1,1.05E1,3.5438E3,6.065E2,5E0,7E0,4.2E0,1.2E1,3.5069E3,3.6899998E1,5.55E2,5.15E1,8.839E2,2.623E3,8.3E0,2.8599998E1,5.252E2,2.98E1,2E1,3.15E1,2.828E2,6.011E2,2.5142E3,1.088E2,4.4E0,2.4199999E1,2.02E1,5.05E2,2.16E1,8.2E0,1E1,1E1],"tree_param":{"num_deleted":"0","num_feature":"82","num_nodes":"39","size_leaf_vector":"1"}},{"base_weights":[1.5094128E-1,3.0317396E-1,-2.5449064E1,-1.6601454E0,1.1638488E0,-2.8112605E0,2.748278E0,-4.735215E-1,-1.6541878E1,-2.0315685E0,1.4062637E0,7.379882E-2,1.6455574E-1,1.1074367E0,-3.2775562E0,-6.445874E0,-4.394137E1,1.6465681E0,-8.226088E0,-1.1584731E0,1.4810019E0,-4.403224E0,1.574767E0,-7.078508E0,-1.7354262E-1,-2.0037599E0,-1.4221973E0,-2.7788515E0,8.966739E-2,-2.2552185E-1,1.9024613E0,-6.4532366E0,-1.1908858E0,-8.710949E0,9.483454E-2,1.5272434E0,-8.595789E-1,-4.970925E-1,9.4223134E-2,-1.2050048E-1,8.138475E-2,1.740966E-3,-7.477457E-1,7.371542E-2,-4.1609737E-1,-7.8514254E-1,1.372651E-1,1.0116656E-1,-4.4942237E-2,-2.7750194E-2,-5.734985E-1,9.617996E-2,-8.6862373E-1,-8.558003E-2,7.8025006E-2,-6.582098E-1,9.823597E-2],"categories":[],"categories_nodes":[],"categories_segments":[],"categories_sizes":[],"default_left":[0,0,0,0,0,0,0,1,0,0,0,0,0,0,0,0,0,0,0,0,0,0,0,0,0,0,0,0,0,0,0,1,0,0,0,0,1,0,0,0,0,0,0,0,0,0,0,0,0,0,0,0,0,0,0,0,0],"id":11,"left_children":[1,3,5,7,9,-1,11,13,15,17,19,-1,-1,21,23,25,27,29,31,33,35,37,39,41,43,-1,45,-1,-1,-1,47,49,-1,51,-1,53,55,-1,-1,-1,-1,-1,-1,-1,-1,-1,-1,-1,-1,-1,-1,-1,-1,-1,-1,-1,-1],"loss_changes":[1.648139E4,7.1042446E3,2.184966E4,2.2620436E4,2.2668293E3,0E0,4.811531E0,5.26922E3,2.5885514E4,4.7185E3,5.225581E2,0E0,0E0,1.9649342E3,5.0543022E3,1.18196875E4,1.3563152E4,2.1403082E2,1.9774692E3,1.804761E3,2.8712207E2,2.0977964E3,1.5189441E2,1.0791408E4,3.19321E3,0E0,3.744918E3,0E0,0E0,0E0,4.444757E1,2.0826785E3,0E0,2.1059246E3,0E0,2.816377E2,1.8260128E3,0E0,0E0,0E0,0E0,0E0,0E0,0E0,0E0,0E0,0E0,0E0,0E0,0E0,0E0,0E0,0E0,0E0,0E0,0E0,0E0],"parents":[2147483647,0,0,1,1,2,2,3,3,4,4,6,6,7,7,8,8,9,9,10,10,13,13,14,14,15,15,16,16,17,17,18,18,19,19,20,20,21,21,22,22,23,23,24,24,26,26,30,30,31,31,33,33,35,35,36,36],"right_children":[2,4,6,8,10,-1,12,14,16,18,20,-1,-1,22,24,26,28,30,32,34,36,38,40,42,44,-1,46,-1,-1,-1,48,50,-1,52,-1,54,56,-1,-1,-1,-1,-1,-1,-1,-1,-1,-1,-1,-1,-1,-1,-1,-1,-1,-1,-1,-1],"split_conditions":[3.0904167E1,4.94E3,-5.3968873E0,8.638671E-1,-9.6206754E-1,-2.8112605E0,4.07E3,3.0650225E-1,4.75E3,2.2395605E1,2E-1,7.379882E-2,1.6455574E-1,-9.8091614E-1,1.9843233E0,-1.3E1,6E-1,1.16E1,2.130841E1,6.5291664E1,3.11E1,1.6272526E1,-1.44E1,1.5135715E1,1.014E2,-2.0037599E0,5.4625E1,-2.7788515E0,8.966739E-2,-2.2552185E-1,2.4372971E-1,2.4303942E0,-1.1908858E0,1.08E4,9.483454E-2,4.2125E1,2.0683332E1,-4.970925E-1,9.4223134E-2,-1.2050048E-1,8.138475E-2,1.740966E-3,-7.477457E-1,7.371542E-2,-4.1609737E-1,-7.8514254E-1,1.372651E-1,1.0116656E-1,-4.4942237E-2,-2.7750194E-2,-5.734985E-1,9.617996E-2,-8.6862373E-1,-8.558003E-2,7.8025006E-2,-6.582098E-1,9.823597E-2],"split_indices":[5,45,31,80,80,0,44,15,45,61,63,0,0,81,75,0,0,10,33,27,18,60,18,52,17,0,27,0,0,0,81,78,0,45,0,29,23,0,0,0,0,0,0,0,0,0,0,0,0,0,0,0,0,0,0,0,0],"split_type":[0,0,0,0,0,0,0,0,0,0,0,0,0,0,0,0,0,0,0,0,0,0,0,0,0,0,0,0,0,0,0,0,0,0,0,0,0,0,0,0,0,0,0,0,0,0,0,0,0,0,0,0,0,0,0,0,0],"sum_hessian":[4.2261E3,4.2021E3,2.4E1,1.2804E3,2.9217E3,1.1E1,1.3E1,1.1868E3,9.36E1,2.055E2,2.7162E3,5E0,8E0,7.593E2,4.275E2,6.93E1,2.43E1,1.294E2,7.61E1,7.65E1,2.6397E3,5.87E1,7.006E2,1.916E2,2.359E2,8.1E0,6.12E1,1.92E1,5.1E0,4.5E0,1.249E2,6.96E1,6.5E0,2.15E1,5.5E1,2.5889E3,5.08E1,3.09E1,2.78E1,8.6E0,6.92E2,1.012E2,9.04E1,1.969E2,3.9E1,1.32E1,4.8E1,1.2E2,4.9E0,3.25E1,3.71E1,1E1,1.15E1,2.58E1,2.5631E3,8.8E0,4.2E1],"tree_param":{"num_deleted":"0","num_feature":"82","num_nodes":"57","size_leaf_vector":"1"}},{"base_weights":[-3.5094082E-1,-6.8803344E0,4.37974E-1,-1.4973941E-1,-5.3991898E1,-1.400572E0,9.440062E-1,-3.926227E1,1.409114E0,-2.951229E0,-1.6608438E0,4.4619018E-1,-5.09101E0,1.1025771E0,-2.775353E0,-2.705382E0,1.3672645E-1,-3.2679066E-1,1.5973604E0,1.0803258E0,-8.156642E0,-1.0482835E1,-1.0558704E0,-8.964829E-1,1.2876035E0,4.447602E-1,-2.9448166E1,1.7609006E0,-3.5056472E-1,1.5045793E0,-5.886123E0,-2.2528557E-1,-9.0311165E0,7.153043E-1,-1.4356451E1,-1.3138382E1,1.5123436E0,-5.2830796E0,9.1658545E-1,1.3179064E0,-4.150177E-1,-1.0385004E1,1.4403892E0,7.779465E-2,-2.1548655E0,8.978605E-2,-5.316227E-3,9.9483036E-2,-1.4040183E-1,1.2013669E-1,-8.708749E-1,-2.3720382E-1,-4.7968116E-1,1.4635834E-1,-5.176795E-1,1.4571775E-1,-7.891823E-1,-8.871693E-1,-3.6284378E-1,9.725055E-3,1.111977E-1,-5.3536123E-1,1.0568519E-1,7.277671E-2,-4.3632904E-1,9.005357E-3,7.540512E-2,1.0664765E-1,-1.0026278E0,8.4627144E-2,-1.6872273E-1],"categories":[],"categories_nodes":[],"categories_segments":[],"categories_sizes":[],"default_left":[0,0,0,0,0,0,0,0,0,0,0,0,0,0,0,0,0,0,1,0,1,0,0,0,1,0,0,0,0,0,0,0,0,0,0,0,0,0,0,0,0,0,0,0,0,0,0,0,0,0,0,0,0,0,0,0,0,0,0,0,0,0,0,0,0,0,0,0,0,0,0],"id":12,"left_children":[1,3,5,7,9,11,13,15,17,-1,-1,19,21,23,25,-1,-1,-1,27,29,31,33,35,37,39,41,43,45,-1,47,49,-1,51,53,55,57,59,61,63,65,-1,67,69,-1,-1,-1,-1,-1,-1,-1,-1,-1,-1,-1,-1,-1,-1,-1,-1,-1,-1,-1,-1,-1,-1,-1,-1,-1,-1,-1,-1],"loss_changes":[2.1980848E4,1.458528E5,3.543774E3,2.4657004E4,4.05125E3,5.6058623E3,1.764385E3,9.811555E3,5.922299E2,0E0,0E0,3.0032603E3,5.9568115E3,1.0608572E3,1.052597E4,0E0,0E0,0E0,5.4845984E2,1.5223882E3,7.999072E1,5.0984277E3,4.9226846E3,1.9398558E3,7.729468E2,1.203182E3,5.6530137E3,2.4539795E1,0E0,1.0170542E3,2.8710747E3,0E0,2.5625977E1,7.9172394E2,2.195373E3,6.241841E2,1.2260553E2,2.8832754E3,9.118126E2,5.656919E2,0E0,1.1803406E3,1.2930481E2,0E0,0E0,0E0,0E0,0E0,0E0,0E0,0E0,0E0,0E0,0E0,0E0,0E0,0E0,0E0,0E0,0E0,0E0,0E0,0E0,0E0,0E0,0E0,0E0,0E0,0E0,0E0,0E0],"parents":[2147483647,0,0,1,1,2,2,3,3,4,4,5,5,6,6,7,7,8,8,11,11,12,12,13,13,14,14,18,18,19,19,20,20,21,21,22,22,23,23,24,24,25,25,26,26,27,27,29,29,30,30,32,32,33,33,34,34,35,35,36,36,37,37,38,38,39,39,41,41,42,42],"right_children":[2,4,6,8,10,12,14,16,18,-1,-1,20,22,24,26,-1,-1,-1,28,30,32,34,36,38,40,42,44,46,-1,48,50,-1,52,54,56,58,60,62,64,66,-1,68,70,-1,-1,-1,-1,-1,-1,-1,-1,-1,-1,-1,-1,-1,-1,-1,-1,-1,-1,-1,-1,-1,-1,-1,-1,-1,-1,-1,-1],"split_conditions":[4.715492E0,4.106782E0,4.4396665E3,2.47E3,6.6125E1,4.98E3,2.32E1,-1.39E1,2.5E3,-2.951229E0,-1.6608438E0,1.014E2,2.0409405E0,-9.3507487E-1,9.0541664E1,-2.705382E0,1.3672645E-1,-3.2679066E-1,4.5E0,9.9833336E1,2.7E1,1.94E1,2.85E3,-1.7011768E-1,3.0518527E0,3.2125E1,1.39E1,4.5E0,-3.5056472E-1,4.51E3,1.3279166E1,-2.2528557E-1,1.81E3,9.8541664E1,6.1833334E0,9.8198334E2,9.8E0,6.14E3,8.85E1,5.7E0,-4.150177E-1,3.0833334E1,2.0795834E1,7.779465E-2,-2.1548655E0,8.978605E-2,-5.316227E-3,9.9483036E-2,-1.4040183E-1,1.2013669E-1,-8.708749E-1,-2.3720382E-1,-4.7968116E-1,1.4635834E-1,-5.176795E-1,1.4571775E-1,-7.891823E-1,-8.871693E-1,-3.6284378E-1,9.725055E-3,1.111977E-1,-5.3536123E-1,1.0568519E-1,7.277671E-2,-4.3632904E-1,9.005357E-3,7.540512E-2,1.0664765E-1,-1.0026278E0,8.4627144E-2,-1.6872273E-1],"split_indices":[61,57,72,44,4,73,5,0,11,0,0,17,47,80,29,0,0,0,67,9,40,51,69,81,78,9,18,0,0,11,24,0,44,9,5,8,0,11,26,39,0,9,24,0,0,0,0,0,0,0,0,0,0,0,0,0,0,0,0,0,0,0,0,0,0,0,0,0,0,0,0],"split_type":[0,0,0,0,0,0,0,0,0,0,0,0,0,0,0,0,0,0,0,0,0,0,0,0,0,0,0,0,0,0,0,0,0,0,0,0,0,0,0,0,0,0,0,0,0,0,0,0,0,0,0,0,0,0,0,0,0,0,0,0,0,0,0,0,0,0,0,0,0,0,0],"sum_hessian":[4.2656E3,4.59E2,3.8066E3,4.025E2,5.65E1,8.212E2,2.9854E3,1.45E1,3.88E2,4.4E1,1.25E1,5.479E2,2.733E2,2.864E3,1.214E2,1.05E1,4E0,8.2E0,3.798E2,5.111E2,3.68E1,1.163E2,1.57E2,2.423E2,2.6217E3,1.092E2,1.22E1,3.735E2,6.3E0,4.825E2,2.86E1,8.3E0,2.85E1,3.01E1,8.62E1,2.68E1,1.302E2,7.03E1,1.72E2,2.6143E3,7.4E0,8.4E0,1.008E2,4E0,8.2E0,3.667E2,6.8E0,4.342E2,4.83E1,1.71E1,1.15E1,4.4E0,2.4099998E1,2.57E1,4.4E0,6.5E0,7.97E1,1.39E1,1.29E1,4.61E1,8.41E1,4.03E1,3E1,1.637E2,8.3E0,3.747E2,2.2396E3,4E0,4.4E0,9.64E1,4.4E0],"tree_param":{"num_deleted":"0","num_feature":"82","num_nodes":"71","size_leaf_vector":"1"}},{"base_weights":[-3.0344268E-3,-2.9049908E1,2.1680887E-1,1.485273E0,-2.406614E0,-1.7184359E0,1.1731387E0,4.0002573E-2,8.580742E-2,-3.0939364E-1,-1.2758595E1,1.2390665E0,-2.3030057E0,1.0109662E0,-2.7018788E0,-3.9497547E1,1.0907391E0,1.3630489E0,2.5229803E-1,-7.5164455E-1,8.728442E-3,-4.719842E0,1.4704535E0,7.725713E-1,-5.682827E0,-5.0220917E1,9.756165E-2,-5.925905E-1,1.7773561E0,-1.1805391E0,1.404533E0,1.1336936E0,-4.7807226E0,-5.562136E0,1.9189463E0,-5.268274E-1,1.0793549E-1,-2.4567746E-1,7.833775E-2,-3.3738622E-1,1.3233887E-1,-4.8505354E-1,4.336827E-2,-2.7238164E0,-1.6694307E0,-2.0726243E-2,9.364018E-2,7.963461E-2,-7.972765E-1,7.224878E-2,-3.0720994E-2,9.418202E-2,-5.155021E-2,-8.238577E-1,1.0617886E-1,-6.036024E-1,1.4256427E-1,1.9169347E-2,1.0733688E-1],"categories":[],"categories_nodes":[],"categories_segments":[],"categories_sizes":[],"default_left":[0,1,0,0,0,0,1,0,0,1,0,0,0,0,0,0,0,0,1,0,0,0,0,0,0,0,0,0,0,1,0,0,0,0,0,0,0,0,0,0,0,0,0,0,0,0,0,0,0,0,0,0,0,0,0,0,0,0,0],"id":13,"left_children":[1,3,5,7,-1,9,11,-1,-1,13,15,17,19,21,23,25,27,29,31,-1,33,35,37,39,41,43,-1,-1,45,47,49,51,53,55,57,-1,-1,-1,-1,-1,-1,-1,-1,-1,-1,-1,-1,-1,-1,-1,-1,-1,-1,-1,-1,-1,-1,-1,-1],"loss_changes":[2.7033389E4,1.8600834E4,7.778053E3,7.152424E-1,0E0,2.1618963E4,6.474287E2,0E0,0E0,3.8999172E3,5.829389E4,3.3743018E2,1.5509926E3,2.1022043E3,4.5511816E3,2.396607E4,9.5060046E2,2.6044238E2,1.3779435E3,0E0,4.9592877E2,2.3953687E3,4.610431E2,2.8875168E3,6.2305254E3,1.2396406E3,0E0,0E0,2.1739136E1,1.6591709E3,1.9796191E2,4.3068423E2,3.7739785E3,6.861914E2,1.1314575E1,0E0,0E0,0E0,0E0,0E0,0E0,0E0,0E0,0E0,0E0,0E0,0E0,0E0,0E0,0E0,0E0,0E0,0E0,0E0,0E0,0E0,0E0,0E0,0E0],"parents":[2147483647,0,0,1,1,2,2,3,3,5,5,6,6,9,9,10,10,11,11,12,12,13,13,14,14,15,15,16,16,17,17,18,18,20,20,21,21,22,22,23,23,24,24,25,25,28,28,29,29,30,30,31,31,32,32,33,33,34,34],"right_children":[2,4,6,8,-1,10,12,-1,-1,14,16,18,20,22,24,26,28,30,32,-1,34,36,38,40,42,44,-1,-1,46,48,50,52,54,56,58,-1,-1,-1,-1,-1,-1,-1,-1,-1,-1,-1,-1,-1,-1,-1,-1,-1,-1,-1,-1,-1,-1,-1,-1],"split_conditions":[-5.870616E0,-1E-1,5.11E3,-1.81125E1,-2.406614E0,7.43E3,3.1360588E0,4.0002573E-2,8.580742E-2,2.6E0,7.77E3,8.5666664E1,1.825E1,-9.8091614E-1,3.91E3,7.74E3,4.7875E1,4.5333332E1,2.0979166E1,-7.5164455E-1,1.5978141E1,1.6715944E1,-1.1458444E1,-8.832167E-1,1.4825784E1,-2.8E0,9.756165E-2,-5.925905E-1,4.4583335E0,9.3E0,9.9679584E2,9.907292E2,1.383471E1,9.8329584E2,2.45E1,-5.268274E-1,1.0793549E-1,-2.4567746E-1,7.833775E-2,-3.3738622E-1,1.3233887E-1,-4.8505354E-1,4.336827E-2,-2.7238164E0,-1.6694307E0,-2.0726243E-2,9.364018E-2,7.963461E-2,-7.972765E-1,7.224878E-2,-3.0720994E-2,9.418202E-2,-5.155021E-2,-8.238577E-1,1.0617886E-1,-6.036024E-1,1.4256427E-1,1.9169347E-2,1.0733688E-1],"split_indices":[59,39,45,24,0,11,79,0,0,10,11,29,25,81,69,69,29,4,25,0,13,60,57,81,57,0,0,0,9,10,8,8,32,8,2,0,0,0,0,0,0,0,0,0,0,0,0,0,0,0,0,0,0,0,0,0,0,0,0],"split_type":[0,0,0,0,0,0,0,0,0,0,0,0,0,0,0,0,0,0,0,0,0,0,0,0,0,0,0,0,0,0,0,0,0,0,0,0,0,0,0,0,0,0,0,0,0,0,0,0,0,0,0,0,0,0,0,0,0,0,0],"sum_hessian":[4.2314E3,3.0800001E1,4.2006E3,1.22E1,1.86E1,1.389E3,2.8116E3,4.2E0,8E0,1.2327E3,1.563E2,2.7599E3,5.17E1,7.947E2,4.38E2,5.27E1,1.036E2,2.4515E3,3.084E2,7.1000004E0,4.46E1,5.83E1,7.364E2,2.026E2,2.354E2,4.17E1,1.1E1,4.4E0,9.92E1,3.89E1,2.4126E3,2.631E2,4.53E1,1.09E1,3.37E1,3.13E1,2.7E1,1.02E1,7.262E2,3.99E1,1.627E2,1.456E2,8.98E1,3.15E1,1.02E1,4E0,9.52E1,3.35E1,5.4E0,2.3655E3,4.71E1,1.955E2,6.76E1,1.63E1,2.9E1,5.9E0,5E0,4.7E0,2.9E1],"tree_param":{"num_deleted":"0","num_feature":"82","num_nodes":"59","size_leaf_vector":"1"}},{"base_weights":[-4.151188E-3,-2.5943459E1,2.0310426E-1,1.4303102E0,-2.2924225E0,3.3420673E-1,-2.1009525E1,8.1391215E-2,3.6871616E-2,-9.625085E-1,1.0942224E0,2.9631238E0,-2.2605054E0,-6.321037E-2,-2.7635118E1,-7.6463895E0,1.172263E0,2.2555077E-1,8.0098E-2,9.5662045E-1,-2.3564281E0,-4.5038383E1,1.330814E0,2.184416E0,-1.0387764E0,-3.1791828E0,1.2420815E0,-3.1431174E-1,6.1248172E-2,-2.2999294E-1,4.2846654E-2,-2.4983702E0,-1.5777572E0,8.957098E-2,-2.0464325E-2,1.49931E-1,1.3605486E-2,8.068419E-2,-6.78547E-1,-1.5817253E-2,6.70603E-2],"categories":[],"categories_nodes":[],"categories_segments":[],"categories_sizes":[],"default_left":[0,0,0,0,0,0,0,0,0,0,0,0,0,1,0,1,0,0,0,0,1,0,0,0,0,0,0,0,0,0,0,0,0,0,0,0,0,0,0,0,0],"id":14,"left_children":[1,3,5,7,-1,9,11,-1,-1,13,15,17,-1,19,21,23,25,-1,-1,27,29,31,33,35,-1,37,39,-1,-1,-1,-1,-1,-1,-1,-1,-1,-1,-1,-1,-1,-1],"loss_changes":[2.2923963E4,1.848234E4,1.1771605E4,8.797569E-1,0E0,4.1454766E3,1.5217916E4,0E0,0E0,3.728546E4,1.8178152E3,2.2270622E1,0E0,3.5215212E3,2.5617902E4,3.091434E3,8.0272974E2,0E0,0E0,2.0334827E3,3.3452917E3,5.3002734E2,1.6763203E1,2.160495E1,0E0,2.1038027E3,4.002754E2,0E0,0E0,0E0,0E0,0E0,0E0,0E0,0E0,0E0,0E0,0E0,0E0,0E0,0E0],"parents":[2147483647,0,0,1,1,2,2,3,3,5,5,6,6,9,9,10,10,11,11,13,13,14,14,15,15,16,16,19,19,20,20,21,21,22,22,23,23,25,25,26,26],"right_children":[2,4,6,8,-1,10,12,-1,-1,14,16,18,-1,20,22,24,26,-1,-1,28,30,32,34,36,-1,38,40,-1,-1,-1,-1,-1,-1,-1,-1,-1,-1,-1,-1,-1,-1],"split_conditions":[-5.870616E0,9.951875E2,3.0904167E1,7.7791664E1,-2.2924225E0,7.77E3,9.770875E2,8.1391215E-2,3.6871616E-2,7.37E3,2.81E3,7.2583336E1,-2.2605054E0,8.6E0,1.16E1,7.3E0,4.5333332E1,2.2555077E-1,8.0098E-2,-9.9716926E-1,2.5974822E0,6E-1,6.564106E-1,2.15E1,-1.0387764E0,4.3875E1,-9.3507487E-1,-3.1431174E-1,6.1248172E-2,-2.2999294E-1,4.2846654E-2,-2.4983702E0,-1.5777572E0,8.957098E-2,-2.0464325E-2,1.49931E-1,1.3605486E-2,8.068419E-2,-6.78547E-1,-1.5817253E-2,6.70603E-2],"split_indices":[59,8,5,26,0,73,8,0,0,71,45,26,0,10,19,10,4,0,0,81,77,2,80,2,0,4,80,0,0,0,0,0,0,0,0,0,0,0,0,0,0],"split_type":[0,0,0,0,0,0,0,0,0,0,0,0,0,0,0,0,0,0,0,0,0,0,0,0,0,0,0,0,0,0,0,0,0,0,0,0,0,0,0,0,0],"sum_hessian":[4.2621E3,3.28E1,4.2293E3,1.42E1,1.86E1,4.2043E3,2.5E1,1E1,4.2E0,1.5535E3,2.6508E3,1.3E1,1.2E1,1.5038E3,4.97E1,2.26E1,2.6282E3,5E0,8E0,1.0413E3,4.625E2,3.07E1,1.9E1,1.34E1,9.2E0,4.08E1,2.5874E3,3.64E1,1.0049E3,2.721E2,1.904E2,2.05E1,1.02E1,1.5E1,4E0,9E0,4.4E0,2.85E1,1.23E1,1.546E2,2.4328E3],"tree_param":{"num_deleted":"0","num_feature":"82","num_nodes":"41","size_leaf_vector":"1"}},{"base_weights":[-4.724558E-2,-1.6217262E1,1.4841275E-1,-2.1836495E0,1.0521929E0,4.5184484E-1,-6.634079E0,1.5111908E0,-6.2110126E-2,-6.881921E-1,9.8773974E-1,8.7825483E-1,-1.8994236E1,8.132611E-2,3.552286E-2,-2.369315E-1,-1.879177E1,1.036511E0,-7.373077E-1,-3.1787019E0,2.2076216E0,-2.1795433E0,1.27044E0,9.64577E-1,-2.4848163E0,-2.573675E0,1.5534035E0,-2.445608E0,1.0931846E0,8.656906E-2,-9.760072E0,2.9440768E0,7.8765854E-2,-3.9757516E-2,1.77584E0,-2.3679648E-1,6.7623965E-2,-8.1644577E-1,-9.785946E-2,4.4009548E-2,8.375549E-2,7.868246E-2,-7.4547976E-1,-6.4459525E-2,5.7997257E-2,-1.5957154E-1,-6.5281504E-1,9.563359E-2,2.0619284E-1,1.448684E-1,7.511889E-2],"categories":[],"categories_nodes":[],"categories_segments":[],"categories_sizes":[],"default_left":[0,0,0,0,0,0,0,0,0,0,1,0,0,0,0,1,0,0,0,1,0,0,0,0,0,0,0,1,0,0,0,1,0,0,0,0,0,0,0,0,0,0,0,0,0,0,0,0,0,0,0],"id":15,"left_children":[1,3,5,-1,7,9,11,13,-1,15,17,19,21,-1,-1,23,25,27,-1,29,31,-1,33,35,37,-1,39,41,43,-1,45,47,-1,-1,49,-1,-1,-1,-1,-1,-1,-1,-1,-1,-1,-1,-1,-1,-1,-1,-1],"loss_changes":[1.3416912E4,2.4085129E4,8.626742E3,0E0,3.5682438E1,2.4516492E3,1.6683908E4,1.3563347E0,0E0,1.0480197E4,2.1097202E3,6.142898E2,3.3899637E4,0E0,0E0,3.3871055E3,2.0825324E4,5.3982446E2,0E0,9.281835E2,3.5129883E1,0E0,4.1290936E1,1.8138723E3,3.1586575E3,0E0,1.8066025E-1,2.2226755E3,4.2758667E2,0E0,2.2248303E2,3.871701E1,0E0,0E0,5.1546097E0,0E0,0E0,0E0,0E0,0E0,0E0,0E0,0E0,0E0,0E0,0E0,0E0,0E0,0E0,0E0,0E0],"parents":[2147483647,0,0,1,1,2,2,4,4,5,5,6,6,7,7,9,9,10,10,11,11,12,12,15,15,16,16,17,17,19,19,20,20,22,22,23,23,24,24,26,26,27,27,28,28,30,30,31,31,34,34],"right_children":[2,4,6,-1,8,10,12,14,-1,16,18,20,22,-1,-1,24,26,28,-1,30,32,-1,34,36,38,-1,40,42,44,-1,46,48,-1,-1,50,-1,-1,-1,-1,-1,-1,-1,-1,-1,-1,-1,-1,-1,-1,-1,-1],"split_conditions":[-1.2058435E1,0E0,2.3366667E1,-2.1836495E0,8.04E3,5.01E3,8.75539E-1,8.0291664E1,-6.2110126E-2,4.98E3,3.2698038E0,6.375E1,7.77E3,8.132611E-2,3.552286E-2,3.0650225E-1,9.7894165E2,-9.975591E-1,-7.373077E-1,8.271428E0,5.67E3,-2.1795433E0,8.7E0,-9.8091614E-1,4.3083332E1,-2.573675E0,-7.195389E-1,2.3745558E0,2E-1,8.656906E-2,2.4266666E1,1.5E0,7.8765854E-2,-3.9757516E-2,8.9929616E-1,-2.3679648E-1,6.7623965E-2,-8.1644577E-1,-9.785946E-2,4.4009548E-2,8.375549E-2,7.868246E-2,-7.4547976E-1,-6.4459525E-2,5.7997257E-2,-1.5957154E-1,-6.5281504E-1,9.563359E-2,2.0619284E-1,1.448684E-1,7.511889E-2],"split_indices":[60,10,5,0,71,45,80,27,0,45,79,27,73,0,0,15,8,80,0,62,42,0,39,81,28,0,81,48,63,0,5,10,0,0,80,0,0,0,0,0,0,0,0,0,0,0,0,0,0,0,0],"split_type":[0,0,0,0,0,0,0,0,0,0,0,0,0,0,0,0,0,0,0,0,0,0,0,0,0,0,0,0,0,0,0,0,0,0,0,0,0,0,0,0,0,0,0,0,0,0,0,0,0,0,0],"sum_hessian":[4.239E3,4.97E1,4.1893E3,1.86E1,3.11E1,4.0108E3,1.785E2,2.62E1,4.9E0,1.2824E3,2.7284E3,1.116E2,6.69E1,2.2E1,4.2E0,1.2522E3,3.02E1,2.7209E3,7.5E0,2.72E1,8.44E1,2.97E1,3.72E1,8.164E2,4.358E2,1.1E1,1.92E1,4.29E1,2.678E3,1.6E1,1.1200001E1,3.73E1,4.71E1,7.2E0,3E1,5.13E1,7.651E2,1.49E1,4.209E2,4.2E0,1.5E1,3.31E1,9.8E0,7.25E1,2.6055E3,4.4E0,6.8E0,2.13E1,1.6E1,4E0,2.6E1],"tree_param":{"num_deleted":"0","num_feature":"82","num_nodes":"51","size_leaf_vector":"1"}},{"base_weights":[-8.704354E-2,3.4248337E-1,-8.755789E0,-1.3008477E1,4.1257E-1,8.8219744E-1,-2.2739319E1,7.435655E-2,-1.6143494E0,5.210929E-1,-5.4622564E0,1.3449193E0,-4.5634326E-1,-9.128333E-1,-2.1800883E0,-1.21013835E-1,1.1677065E0,-8.155978E0,2.5154455E-2,1.756053E0,-3.456214E0,-7.383541E-1,1.8445138E0,3.197652E-1,-5.2034345E0,1.3463823E0,-5.288445E-1,-7.011452E-1,-5.425317E0,7.996711E-2,-2.7574701E0,-5.6572672E-2,1.9034618E0,-4.0510988E-1,1.1263459E-1,2.9899259E0,6.9719724E-2,5.31467E-2,-7.341203E-2,-2.4740407E0,-7.767786E-2,-3.2017898E-2,6.9665276E-2,1.8068725E-2,-8.64213E-1,-8.21554E-2,-3.0678463E-1,-7.825802E-2,-1.7468354E-1,1.3036261E-1,7.08259E-2,2.0127304E-1,6.782028E-2],"categories":[],"categories_nodes":[],"categories_segments":[],"categories_sizes":[],"default_left":[0,0,0,0,0,0,0,0,0,0,1,1,0,0,0,0,1,0,0,0,0,0,0,1,0,0,0,0,1,0,0,0,0,0,0,0,0,0,0,0,0,0,0,0,0,0,0,0,0,0,0,0,0],"id":16,"left_children":[1,3,5,7,9,11,13,-1,-1,15,17,19,-1,21,-1,23,25,27,29,31,33,-1,35,37,39,41,43,-1,45,-1,47,-1,49,-1,-1,51,-1,-1,-1,-1,-1,-1,-1,-1,-1,-1,-1,-1,-1,-1,-1,-1,-1],"loss_changes":[1.5766266E4,3.7806387E3,2.69612E4,5.944489E3,2.5623027E3,5.6480237E2,3.711707E4,0E0,0E0,1.6370887E3,1.077781E3,2.3287125E2,0E0,1.5896578E3,0E0,4.435293E3,5.962163E2,7.073281E2,1.1391949E2,4.748477E1,2.675725E2,0E0,1.3875885E1,2.4227495E3,2.5457035E4,1.6660718E2,2.8089602E3,0E0,8.3956055E1,0E0,2.7829666E0,0E0,3.1160034E1,0E0,0E0,9.763947E0,0E0,0E0,0E0,0E0,0E0,0E0,0E0,0E0,0E0,0E0,0E0,0E0,0E0,0E0,0E0,0E0,0E0],"parents":[2147483647,0,0,1,1,2,2,3,3,4,4,5,5,6,6,9,9,10,10,11,11,13,13,15,15,16,16,17,17,18,18,19,19,20,20,22,22,23,23,24,24,25,25,26,26,28,28,30,30,32,32,35,35],"right_children":[2,4,6,8,10,12,14,-1,-1,16,18,20,-1,22,-1,24,26,28,30,32,34,-1,36,38,40,42,44,-1,46,-1,48,-1,50,-1,-1,52,-1,-1,-1,-1,-1,-1,-1,-1,-1,-1,-1,-1,-1,-1,-1,-1,-1],"split_conditions":[2.32E1,3.6E0,8.75539E-1,1.6095833E2,3.47E1,3.59E1,3.8640523E-1,7.435655E-2,-1.6143494E0,1.01E4,6.2583332E1,2.3304136E0,-4.5634326E-1,4.5333332E1,-2.1800883E0,8.9929616E-1,8.6833336E1,3.1E1,-3.413465E-1,-1.222956E1,9.5125E0,-7.383541E-1,7.45E3,1.1367892E0,-5.4015555E0,-9.660959E0,2.3704166E1,-7.011452E-1,5.5208332E1,7.996711E-2,6.4583336E1,-5.6572672E-2,5.12E3,-4.0510988E-1,1.1263459E-1,9.487719E-1,6.9719724E-2,5.31467E-2,-7.341203E-2,-2.4740407E0,-7.767786E-2,-3.2017898E-2,6.9665276E-2,1.8068725E-2,-8.64213E-1,-8.21554E-2,-3.0678463E-1,-7.825802E-2,-1.7468354E-1,1.3036261E-1,7.08259E-2,2.0127304E-1,6.782028E-2],"split_indices":[5,55,80,6,51,7,81,0,0,73,26,79,0,4,0,80,29,20,80,60,23,0,42,15,30,60,25,0,28,0,4,0,43,0,0,80,0,0,0,0,0,0,0,0,0,0,0,0,0,0,0,0,0],"split_type":[0,0,0,0,0,0,0,0,0,0,0,0,0,0,0,0,0,0,0,0,0,0,0,0,0,0,0,0,0,0,0,0,0,0,0,0,0,0,0,0,0,0,0,0,0,0,0,0,0,0,0,0,0],"sum_hessian":[4.2325E3,4.0336E3,1.989E2,2.01E1,4.0135E3,1.183E2,8.06E1,1.2E1,8.1E0,3.9416E3,7.19E1,1.139E2,4.4E0,3.99E1,4.07E1,1.9781E3,1.9635E3,4.79E1,2.4E1,1.055E2,8.4E0,5.9E0,3.4E1,1.8211E3,1.57E2,1.7766E3,1.869E2,1.39E1,3.4E1,1.56E1,8.4E0,4.8E0,1.007E2,4.4E0,4E0,8E0,2.6E1,1.2867E3,5.344E2,1.1E1,1.46E2,4.07E1,1.7359E3,1.784E2,8.5E0,5.9E0,2.81E1,4.4E0,4E0,3.94E1,6.13E1,4E0,4E0],"tree_param":{"num_deleted":"0","num_feature":"82","num_nodes":"53","size_leaf_vector":"1"}},{"base_weights":[-1.4362699E-1,-2.235922E1,4.1187726E-2,1.5418738E0,-2.0486715E0,3.7237284E-1,-8.172743E0,4.685731E-2,1.1013903E-1,4.7854683E-1,-5.7363462E0,-2.6422302E1,5.073711E-1,-3.5592932E-1,8.9629984E-1,-6.8740135E-1,-3.990658E0,1.7906561E0,-2.18328E0,9.689149E-1,-4.3446276E-1,8.710246E-1,-2.1140056E0,-5.470676E-1,1.1765124E0,-1.6946318E0,-7.1860666E0,8.549658E-2,3.6236787E0,1.5938349E0,-4.1814036E0,-1.4054474E-1,6.257712E-2,3.2390251E-3,-3.6276588E-1,5.497983E-2,-1.1654476E0,5.983567E-2,-3.2176864E-1,-2.0219167E-1,1.5651478E-2,-3.9672837E-1,-1.576197E-1,5.7593316E-2,-6.0812112E-2,2.829621E-1,6.617146E-2,-3.5960935E-2,8.606019E-2,-4.8276725E-1,1.3596484E-1],"categories":[],"categories_nodes":[],"categories_segments":[],"categories_sizes":[],"default_left":[0,1,0,0,0,0,0,0,0,0,0,0,0,0,0,0,1,0,0,1,0,0,0,0,1,0,0,0,0,0,0,0,0,0,0,0,0,0,0,0,0,0,0,0,0,0,0,0,0,0,0],"id":17,"left_children":[1,3,5,7,-1,9,11,-1,-1,13,15,17,19,21,23,-1,25,27,-1,29,-1,31,33,35,37,39,41,43,45,47,49,-1,-1,-1,-1,-1,-1,-1,-1,-1,-1,-1,-1,-1,-1,-1,-1,-1,-1,-1,-1],"loss_changes":[1.731782E4,1.5545693E4,1.138464E4,4.410305E0,0E0,2.6118162E3,2.5707225E4,0E0,0E0,1.3790167E3,9.073662E2,2.5521328E4,4.7915033E2,2.8494006E3,1.0666914E3,0E0,4.126197E2,6.470257E1,0E0,3.494387E2,0E0,1.0938037E3,6.0819375E3,1.6112552E4,3.4715967E2,1.6633987E2,4.714612E1,1.7780941E1,3.933345E1,2.943219E1,4.7198932E2,0E0,0E0,0E0,0E0,0E0,0E0,0E0,0E0,0E0,0E0,0E0,0E0,0E0,0E0,0E0,0E0,0E0,0E0,0E0,0E0],"parents":[2147483647,0,0,1,1,2,2,3,3,5,5,6,6,9,9,10,10,11,11,12,12,13,13,14,14,16,16,17,17,19,19,21,21,22,22,23,23,24,24,25,25,26,26,27,27,28,28,29,29,30,30],"right_children":[2,4,6,8,-1,10,12,-1,-1,14,16,18,20,22,24,-1,26,28,-1,30,-1,32,34,36,38,40,42,44,46,48,50,-1,-1,-1,-1,-1,-1,-1,-1,-1,-1,-1,-1,-1,-1,-1,-1,-1,-1,-1,-1],"split_conditions":[-5.870616E0,-1E-1,2.39875E1,-7.2E0,-2.0486715E0,3.47E1,4.715492E0,4.685731E-2,1.1013903E-1,2.04E1,2.2851585E1,1.9857143E0,3.59E1,2E1,9.7904584E2,-6.8740135E-1,1.049E2,-3.7533333E0,-2.18328E0,2.3304136E0,-4.3446276E-1,5.0416668E1,1.8915527E-1,9.78875E2,1.014E2,6.1416668E1,2.79E1,-9.041667E0,5.74E3,9.655625E2,6.375E1,-1.4054474E-1,6.257712E-2,3.2390251E-3,-3.6276588E-1,5.497983E-2,-1.1654476E0,5.983567E-2,-3.2176864E-1,-2.0219167E-1,1.5651478E-2,-3.9672837E-1,-1.576197E-1,5.7593316E-2,-6.0812112E-2,2.829621E-1,6.617146E-2,-3.5960935E-2,8.606019E-2,-4.8276725E-1,1.3596484E-1],"split_indices":[59,39,5,20,0,51,61,0,0,10,57,50,7,51,8,0,17,54,0,79,0,29,81,8,17,4,10,3,43,8,27,0,0,0,0,0,0,0,0,0,0,0,0,0,0,0,0,0,0,0,0],"split_type":[0,0,0,0,0,0,0,0,0,0,0,0,0,0,0,0,0,0,0,0,0,0,0,0,0,0,0,0,0,0,0,0,0,0,0,0,0,0,0,0,0,0,0,0,0,0,0,0,0,0,0],"sum_hessian":[4.2167E3,3.38E1,4.1829E3,1.52E1,1.86E1,4.0217E3,1.612E2,9.2E0,6E0,3.9539E3,6.78E1,5.13E1,1.099E2,1.3191E3,2.6348E3,1.09E1,5.69E1,1.98E1,3.15E1,1.055E2,4.4E0,7.772E2,5.419E2,4.282E2,2.2066E3,3.4E1,2.29E1,1.08E1,9E0,9.47E1,1.08E1,7.22E1,7.05E2,3.813E2,1.606E2,4.002E2,2.8E1,2.2016E3,5E0,1.52E1,1.88E1,1.85E1,4.4E0,6E0,4.8E0,4E0,5E0,4.7E0,9E1,5.8E0,5E0],"tree_param":{"num_deleted":"0","num_feature":"82","num_nodes":"51","size_leaf_vector":"1"}},{"base_weights":[-3.20935E-1,-6.1302934E0,3.7337723E-1,-8.5778594E-1,-4.289455E1,-1.3397429E0,6.801654E-1,-3.355979E1,1.0868214E0,-2.3905175E0,-1.1665595E0,-8.348297E-1,-1.3770096E1,1.1430491E0,-1.6940935E-1,-2.177534E0,-1.0645391E0,-5.7298627E0,1.2711558E0,6.990308E-1,-3.990641E0,-1.7225001E0,3.006084E-1,-2.9990366E0,1.1889876E0,-2.3309326E1,7.2691016E-2,-5.278894E-1,7.01368E-2,1.4280151E0,-4.988101E0,-7.8463125E0,9.6642274E-1,-1.8387414E0,-1.4179821E1,1.8282903E0,-1.391593E-1,-7.2366303E-1,8.224205E-1,1.2125158E0,-2.8414073E0,-6.775967E-1,-1.4665278E0,6.325021E-1,-4.2695227E0,7.316773E-2,-3.191707E-2,9.930588E-2,-5.313201E-1,9.7831674E-2,-9.349434E-1,-4.404849E-1,6.0125668E-2,-2.373964E-1,8.280486E-2,-1.0710436E0,7.627644E-2,5.7048034E-2,1.1307194E-1,8.155473E-2,-2.9055709E-2,6.2705025E-2,3.594198E-3,-4.3508324E-1,7.347212E-2,-2.2023919E-1,4.7189377E-2,1.7637984E-1,-4.2881212E-1],"categories":[],"categories_nodes":[],"categories_segments":[],"categories_sizes":[],"default_left":[0,0,1,0,0,0,1,0,0,0,0,1,0,0,0,0,0,0,1,0,0,0,0,0,0,0,0,0,0,0,0,0,0,0,0,0,0,0,0,1,0,0,0,0,0,0,0,0,0,0,0,0,0,0,0,0,0,0,0,0,0,0,0,0,0,0,0,0,0],"id":18,"left_children":[1,3,5,7,9,11,13,15,17,-1,-1,19,21,23,25,-1,-1,27,29,31,33,-1,35,37,39,41,43,-1,-1,45,47,49,51,53,55,57,-1,-1,59,61,63,-1,-1,65,67,-1,-1,-1,-1,-1,-1,-1,-1,-1,-1,-1,-1,-1,-1,-1,-1,-1,-1,-1,-1,-1,-1,-1,-1],"loss_changes":[1.7327014E4,8.885815E4,2.0178193E3,2.5607041E4,4.4142734E3,3.6488125E3,1.2803942E3,1.843043E3,4.8540054E2,0E0,0E0,2.7207725E3,6.615622E3,4.0456445E2,6.438602E3,0E0,0E0,3.660533E2,3.716739E2,8.728955E2,4.0039426E3,0E0,7.339881E1,1.0379523E3,2.011604E2,3.0165674E2,2.7692158E3,0E0,0E0,2.744165E1,3.868067E2,1.2706763E3,8.60187E2,1.5624186E3,3.6604497E3,4.8625946E-1,0E0,0E0,2.1945393E1,9.82666E1,3.2604395E2,0E0,0E0,1.5863035E3,4.3990127E3,0E0,0E0,0E0,0E0,0E0,0E0,0E0,0E0,0E0,0E0,0E0,0E0,0E0,0E0,0E0,0E0,0E0,0E0,0E0,0E0,0E0,0E0,0E0,0E0],"parents":[2147483647,0,0,1,1,2,2,3,3,4,4,5,5,6,6,7,7,8,8,11,11,12,12,13,13,14,14,17,17,18,18,19,19,20,20,22,22,23,23,24,24,25,25,26,26,29,29,30,30,31,31,32,32,33,33,34,34,35,35,38,38,39,39,40,40,43,43,44,44],"right_children":[2,4,6,8,10,12,14,16,18,-1,-1,20,22,24,26,-1,-1,28,30,32,34,-1,36,38,40,42,44,-1,-1,46,48,50,52,54,56,58,-1,-1,60,62,64,-1,-1,66,68,-1,-1,-1,-1,-1,-1,-1,-1,-1,-1,-1,-1,-1,-1,-1,-1,-1,-1,-1,-1,-1,-1,-1,-1],"split_conditions":[4.715492E0,4.106782E0,5.75E1,2.47E3,6.6125E1,5.7333332E1,9.3E0,-1.39E1,-2.4744812E-2,-2.3905175E0,-1.1665595E0,1.0754675E1,2.5E0,4.5333332E1,3.2788196E-1,-2.177534E0,-1.0645391E0,-1E-1,4.6224353E-1,-2.5096126E-2,7.8E1,-1.7225001E0,1.21E4,6E0,3.59E1,4.8E0,3.5846832E-1,-5.278894E-1,7.01368E-2,6.2581625E0,7.875E1,-2E-1,4.2125E1,2.84E3,3.9E0,5.5E0,-1.391593E-1,-7.2366303E-1,1.58E1,9.1625E1,6.0833332E1,-6.775967E-1,-1.4665278E0,-9.962103E-1,2.44E1,7.316773E-2,-3.191707E-2,9.930588E-2,-5.313201E-1,9.7831674E-2,-9.349434E-1,-4.404849E-1,6.0125668E-2,-2.373964E-1,8.280486E-2,-1.0710436E0,7.627644E-2,5.7048034E-2,1.1307194E-1,8.155473E-2,-2.9055709E-2,6.2705025E-2,3.594198E-3,-4.3508324E-1,7.347212E-2,-2.2023919E-1,4.7189377E-2,1.7637984E-1,-4.2881212E-1],"split_indices":[61,59,26,44,4,26,10,0,76,0,0,60,19,4,49,0,0,39,79,49,29,0,44,51,7,0,81,0,0,13,26,0,29,11,17,0,0,0,19,28,26,0,0,80,55,0,0,0,0,0,0,0,0,0,0,0,0,0,0,0,0,0,0,0,0,0,0,0,0],"split_type":[0,0,0,0,0,0,0,0,0,0,0,0,0,0,0,0,0,0,0,0,0,0,0,0,0,0,0,0,0,0,0,0,0,0,0,0,0,0,0,0,0,0,0,0,0,0,0,0,0,0,0,0,0,0,0,0,0,0,0,0,0,0,0,0,0,0,0,0,0],"sum_hessian":[4.2942E3,4.576E2,3.8366E3,4.011E2,5.65E1,5.822E2,3.2544E3,2.16E1,3.795E2,4.4E1,1.25E1,5.605E2,2.17E1,2.1064E3,1.148E3,1.05E1,1.11E1,9.2E0,3.703E2,3.777E2,1.828E2,8.2E0,1.35E1,2.24E1,2.084E3,1.09E1,1.1371E3,5.2E0,4E0,3.62E2,8.3E0,1.06E1,3.671E2,1.519E2,3.09E1,9.3E0,4.2E0,4.9E0,1.75E1,2.0726E3,1.14E1,5.4E0,5.5E0,1.008E3,1.291E2,3.562E2,5.8E0,4E0,4.3E0,6E0,4.6E0,7.8E0,3.593E2,8.27E1,6.92E1,2.09E1,1E1,5E0,4.3E0,1.1E1,6.5E0,1.9996E3,7.3E1,4.4E0,7E0,5.79E1,9.501E2,4.6E1,8.31E1],"tree_param":{"num_deleted":"0","num_feature":"82","num_nodes":"69","size_leaf_vector":"1"}},{"base_weights":[-2.9416853E-1,-5.986154E0,3.6121157E-1,-7.0769346E-1,-4.0811684E1,4.4533095E-1,-4.813644E0,-3.2025253E1,1.266351E0,-1.112552E0,-2.2736478E0,6.227558E-1,-1.5554519E0,-1.2880265E1,-2.8736877E0,-2.0781248E0,-1.015711E0,-2.3320745E-1,1.3565131E0,-2.4757157E-1,9.160348E-1,-6.539445E-1,-1.4921925E1,-4.3067947E-1,-8.05246E-1,-4.8959117E0,3.9911747E-2,1.3890123E0,-1.3263978E-2,3.231306E-1,-7.1578703E0,9.46885E-1,-5.6774807E0,2.3970295E-1,-1.1565842E1,7.415699E-2,-1.6457363E0,-9.873582E-3,-5.77132E0,-1.4810889E0,8.2012385E-2,7.060145E-2,-1.785337E-3,3.5032254E-2,-3.0697024E-1,2.8166924E-2,-7.0174056E-1,4.8331235E-2,-3.664191E-1,-5.5281186E-1,8.168138E-2,-1.7220196E-1,3.3799365E-2,-8.0029804E-1,1.3600649E-1,-2.105716E-1,-4.0599725E-1,-2.1563051E-3,-1.3213477E-1],"categories":[],"categories_nodes":[],"categories_segments":[],"categories_sizes":[],"default_left":[0,0,0,0,0,0,0,0,0,0,0,0,1,0,1,0,0,0,0,0,0,1,0,0,0,0,0,0,0,0,0,1,0,0,0,0,0,0,1,0,0,0,0,0,0,0,0,0,0,0,0,0,0,0,0,0,0,0,0],"id":19,"left_children":[1,3,5,7,9,11,13,15,17,-1,-1,19,21,23,25,-1,-1,-1,27,29,31,33,35,-1,-1,37,39,41,-1,43,45,47,49,51,53,-1,-1,-1,55,57,-1,-1,-1,-1,-1,-1,-1,-1,-1,-1,-1,-1,-1,-1,-1,-1,-1,-1,-1],"loss_changes":[1.5788528E4,8.030272E4,1.6544766E3,2.3563924E4,3.9628594E3,1.3272062E3,9.144387E2,1.6799062E3,1.9823322E2,0E0,0E0,8.763425E2,3.660664E3,1.950232E1,2.9656055E2,0E0,0E0,0E0,1.9042542E1,3.4171824E3,5.2763477E2,2.7955703E3,5.7161396E3,0E0,0E0,1.21018005E2,5.500617E1,1.1445679E1,0E0,1.9580138E3,3.5177036E3,4.2467383E2,4.938903E2,4.293503E2,1.4199998E3,0E0,0E0,0E0,5.739325E1,1.9262053E1,0E0,0E0,0E0,0E0,0E0,0E0,0E0,0E0,0E0,0E0,0E0,0E0,0E0,0E0,0E0,0E0,0E0,0E0,0E0],"parents":[2147483647,0,0,1,1,2,2,3,3,4,4,5,5,6,6,7,7,8,8,11,11,12,12,13,13,14,14,18,18,19,19,20,20,21,21,22,22,25,25,26,26,27,27,29,29,30,30,31,31,32,32,33,33,34,34,38,38,39,39],"right_children":[2,4,6,8,10,12,14,16,18,-1,-1,20,22,24,26,-1,-1,-1,28,30,32,34,36,-1,-1,38,40,42,-1,44,46,48,50,52,54,-1,-1,-1,56,58,-1,-1,-1,-1,-1,-1,-1,-1,-1,-1,-1,-1,-1,-1,-1,-1,-1,-1,-1],"split_conditions":[4.715492E0,4.106782E0,3.47E1,2.47E3,4E0,2.06875E1,4.8583332E1,-1.39E1,2.5E3,-1.112552E0,-2.2736478E0,1.49E1,9.0541664E1,2.1E1,6.2583332E1,-2.0781248E0,-1.015711E0,-2.3320745E-1,4.5E0,1.3783334E1,2.9220833E1,1.97E1,1.8225E2,-4.3067947E-1,-8.05246E-1,5.2666668E1,2.3396149E1,3.9966667E0,-1.3263978E-2,1.0015335E1,3.38313E-1,1.014E2,1.9716667E1,2.9842856E3,9.920834E0,7.415699E-2,-1.6457363E0,-9.873582E-3,3.03E1,2.5483334E1,8.2012385E-2,7.060145E-2,-1.785337E-3,3.5032254E-2,-3.0697024E-1,2.8166924E-2,-7.0174056E-1,4.8331235E-2,-3.664191E-1,-5.5281186E-1,8.168138E-2,-1.7220196E-1,3.3799365E-2,-8.0029804E-1,1.3600649E-1,-2.105716E-1,-4.0599725E-1,-2.1563051E-3,-1.3213477E-1],"split_indices":[61,57,51,44,20,5,29,0,11,0,0,38,29,0,26,0,0,0,0,22,1,41,6,0,0,28,57,54,0,56,81,17,3,68,3,0,0,0,21,1,0,0,0,0,0,0,0,0,0,0,0,0,0,0,0,0,0,0,0],"split_type":[0,0,0,0,0,0,0,0,0,0,0,0,0,0,0,0,0,0,0,0,0,0,0,0,0,0,0,0,0,0,0,0,0,0,0,0,0,0,0,0,0,0,0,0,0,0,0,0,0,0,0,0,0,0,0,0,0,0,0],"sum_hessian":[4.2308E3,4.36E2,3.7948E3,3.795E2,5.65E1,3.735E3,5.98E1,2.16E1,3.579E2,1.25E1,4.4E1,3.4314E3,3.036E2,1.05E1,4.93E1,1.05E1,1.11E1,4.6E0,3.533E2,8.649E2,2.5665E3,2.854E2,1.82E1,6.1E0,4.4E0,2.87E1,2.06E1,3.465E2,6.8E0,7.998E2,6.51E1,2.5554E3,1.11E1,2.647E2,2.07E1,1E1,8.2E0,4.7E0,2.4E1,1.06E1,1E1,3.41E2,5.5E0,7.565E2,4.33E1,3.11E1,3.4E1,2.5502E3,5.2E0,6.1000004E0,5E0,2.73E1,2.374E2,1.5700001E1,5E0,1.61E1,7.8999996E0,5.2E0,5.4E0],"tree_param":{"num_deleted":"0","num_feature":"82","num_nodes":"59","size_leaf_vector":"1"}},{"base_weights":[-4.8133135E-2,-1.8279736E1,1.1003069E-1,-1.7944883E0,1.9111714E0,4.7631034E-1,-6.902608E0,5.688569E-2,1.8473092E-1,5.663075E-1,-5.056056E0,-2.0455414E1,-1.6658725E0,-1.0074776E0,7.3888034E-1,-6.777777E-1,-3.6251767E0,1.2516755E0,-1.8863007E0,2.0718333E-1,-1.98834E1,1.0082345E0,-3.850852E0,1.0008864E0,7.094866E-2,-1.04512155E-1,-5.7426076E0,-6.0124196E-2,1.8417869E0,-7.2459435E0,8.9793295E-1,5.8134653E-2,-1.5723938E0,-5.750968E-1,6.492188E-2,-1.039595E0,-1.1052457E-1,5.1317394E-2,-2.1517669E-1,-2.5861344E-1,3.8439065E-2,-9.859472E-2,6.84352E-2,-4.241695E-1,-2.2687832E-1,6.0314752E-2,1.8806E-1,3.7339453E-2,-8.5025597E-1,6.7276336E-2,-1.6195135E-1],"categories":[],"categories_nodes":[],"categories_segments":[],"categories_sizes":[],"default_left":[0,0,0,0,0,0,0,0,0,0,0,0,0,0,1,0,1,0,0,0,0,0,0,1,0,1,0,0,0,0,1,0,0,0,0,0,0,0,0,0,0,0,0,0,0,0,0,0,0,0,0],"id":20,"left_children":[1,3,5,-1,7,9,11,-1,-1,13,15,17,19,21,23,-1,25,27,-1,29,31,33,35,37,39,41,43,-1,45,47,49,-1,-1,-1,-1,-1,-1,-1,-1,-1,-1,-1,-1,-1,-1,-1,-1,-1,-1,-1,-1],"loss_changes":[1.2271068E4,1.3082179E4,1.084067E4,0E0,2.0626152E1,1.9997802E3,1.4834653E4,0E0,0E0,1.0728289E3,7.328595E2,2.1903568E4,5.1975557E3,2.242004E3,6.2256946E2,0E0,4.198485E2,4.1027203E1,0E0,7.2211237E2,3.4926602E3,8.474056E2,4.4614854E3,3.4954443E2,3.6756704E3,6.3772423E1,7.776306E1,0E0,2.2297852E1,9.409288E2,2.415581E2,0E0,0E0,0E0,0E0,0E0,0E0,0E0,0E0,0E0,0E0,0E0,0E0,0E0,0E0,0E0,0E0,0E0,0E0,0E0,0E0],"parents":[2147483647,0,0,1,1,2,2,4,4,5,5,6,6,9,9,10,10,11,11,12,12,13,13,14,14,16,16,17,17,19,19,20,20,21,21,22,22,23,23,24,24,25,25,26,26,28,28,29,29,30,30],"right_children":[2,4,6,-1,8,10,12,-1,-1,14,16,18,20,22,24,-1,26,28,-1,30,32,34,36,38,40,42,44,-1,46,48,50,-1,-1,-1,-1,-1,-1,-1,-1,-1,-1,-1,-1,-1,-1,-1,-1,-1,-1,-1,-1],"split_conditions":[3.6E0,0E0,2.32E1,-1.7944883E0,-5.071429E0,3.47E1,4.715492E0,5.688569E-2,1.8473092E-1,5.5125E1,1.8824047E1,2.7285714E0,9.0541664E1,2.14E1,1.9490423E0,-6.777777E-1,3.5778513E0,-1.4676819E1,-1.8863007E0,4.5333332E1,1.3E1,-1.4945833E1,6E0,2.7979166E1,2.53E1,2.412776E1,3.1E1,-6.0124196E-2,5.3E0,4.3875E1,1.6967033E0,5.8134653E-2,-1.5723938E0,-5.750968E-1,6.492188E-2,-1.039595E0,-1.1052457E-1,5.1317394E-2,-2.1517669E-1,-2.5861344E-1,3.8439065E-2,-9.859472E-2,6.84352E-2,-4.241695E-1,-2.2687832E-1,6.0314752E-2,1.8806E-1,3.7339453E-2,-8.5025597E-1,6.7276336E-2,-1.6195135E-1],"split_indices":[55,10,5,0,50,51,61,0,0,27,58,50,29,51,79,0,15,33,0,4,2,24,22,24,55,57,20,0,18,4,48,0,0,0,0,0,0,0,0,0,0,0,0,0,0,0,0,0,0,0,0],"split_type":[0,0,0,0,0,0,0,0,0,0,0,0,0,0,0,0,0,0,0,0,0,0,0,0,0,0,0,0,0,0,0,0,0,0,0,0,0,0,0,0,0,0,0,0,0,0,0,0,0,0,0],"sum_hessian":[4.2538E3,3.56E1,4.2182E3,1.86E1,1.7E1,4.0097E3,2.085E2,1.3E1,4E0,3.9464E3,6.33E1,5.73E1,1.512E2,3.895E2,3.5569E3,7.9E0,5.54E1,2.58E1,3.15E1,1.38E2,1.32E1,2.283E2,1.612E2,2.5544E3,1.0025E3,2.12E1,3.42E1,4.8E0,2.1E1,1.09E1,1.271E2,5E0,8.2E0,4.3E0,2.24E2,1.32E1,1.48E2,2.543E3,1.14E1,1.17E2,8.855E2,9.2E0,1.2E1,8.6E0,2.56E1,1.7E1,4E0,6.5E0,4.4E0,1.153E2,1.18E1],"tree_param":{"num_deleted":"0","num_feature":"82","num_nodes":"51","size_leaf_vector":"1"}},{"base_weights":[-1.9126286E-1,-2.1211895E1,-3.5923153E-2,1.3717693E0,-1.7093419E0,-4.1603384E0,4.477583E-1,3.198566E-2,1.14899375E-1,9.610501E-1,-3.737387E1,5.085574E-1,-5.6052885E0,-3.0794248E-1,1.1345502E0,-1.9344734E1,-2.1176364E0,-2.795858E-1,7.968651E-1,-3.418877E-1,-3.5653641E0,1.3120362E0,-4.4432464E0,-1.4460546E0,2.3172799E-1,8.5313827E-1,-3.5613384E0,8.3996606E-1,-2.3441207E0,-2.2872956E-1,-1.3576908E-1,6.3164346E-2,2.2666231E-1,5.304113E-2,-5.2115566E-1,5.836388E-2,-1.59597E-1,-5.399647E-1,-3.0576585E-2,6.1152846E-2,2.7898336E-2,3.5039503E-2,-5.246536E-1],"categories":[],"categories_nodes":[],"categories_segments":[],"categories_sizes":[],"default_left":[0,1,0,0,0,0,1,0,0,0,0,0,0,0,0,0,0,0,1,0,0,0,0,0,0,0,0,0,0,0,0,0,0,0,0,0,0,0,0,0,0,0,0],"id":21,"left_children":[1,3,5,7,-1,9,11,-1,-1,13,15,17,19,-1,21,23,-1,25,27,-1,29,31,33,-1,-1,35,37,39,41,-1,-1,-1,-1,-1,-1,-1,-1,-1,-1,-1,-1,-1,-1],"loss_changes":[1.3710069E4,9.071965E3,8.318813E3,6.8020782E0,0E0,7.448843E4,1.3764471E3,0E0,0E0,4.7664978E2,4.431922E3,8.40102E2,6.9147095E1,0E0,3.7410245E2,3.4637334E3,0E0,3.6857876E3,3.6837402E2,0E0,1.3892212E0,5.1008606E1,3.9614618E2,0E0,0E0,9.406263E2,5.4249814E3,2.8782617E2,9.229467E2,0E0,0E0,0E0,0E0,0E0,0E0,0E0,0E0,0E0,0E0,0E0,0E0,0E0,0E0],"parents":[2147483647,0,0,1,1,2,2,3,3,5,5,6,6,9,9,10,10,11,11,12,12,14,14,15,15,17,17,18,18,20,20,21,21,22,22,25,25,26,26,27,27,28,28],"right_children":[2,4,6,8,-1,10,12,-1,-1,14,16,18,20,-1,22,24,-1,26,28,-1,30,32,34,-1,-1,36,38,40,42,-1,-1,-1,-1,-1,-1,-1,-1,-1,-1,-1,-1,-1,-1],"split_conditions":[-5.870616E0,-1E-1,4.715492E0,-9.2E0,-1.7093419E0,4.106782E0,3.2057144E1,3.198566E-2,1.14899375E-1,-2E-1,3E0,1.7454256E0,2.87E1,-3.0794248E-1,1.1521667E4,-2.8E0,-2.1176364E0,9.979167E0,2.5907408E1,-3.418877E-1,1.81E3,2.86375E1,7.6E0,-1.4460546E0,2.3172799E-1,7.1E0,5.03E3,5.9957144E3,7.9E1,-2.2872956E-1,-1.3576908E-1,6.3164346E-2,2.2666231E-1,5.304113E-2,-5.2115566E-1,5.836388E-2,-1.59597E-1,-5.399647E-1,-3.0576585E-2,6.1152846E-2,2.7898336E-2,3.5039503E-2,-5.246536E-1],"split_indices":[59,39,61,20,0,57,52,0,0,64,20,15,38,0,72,0,0,22,66,0,11,5,55,0,0,0,69,68,26,0,0,0,0,0,0,0,0,0,0,0,0,0,0],"split_type":[0,0,0,0,0,0,0,0,0,0,0,0,0,0,0,0,0,0,0,0,0,0,0,0,0,0,0,0,0,0,0,0,0,0,0,0,0,0,0,0,0,0,0],"sum_hessian":[4.1979E3,2.9800001E1,4.1681E3,1.12E1,1.86E1,4.367E2,3.7314E3,7.2E0,4E0,3.792E2,5.75E1,3.6952E3,3.62E1,8.2E0,3.71E2,1.35E1,4.4E1,9.897E2,2.7055E3,2.1099998E1,1.51E1,3.603E2,1.07E1,9.5E0,4E0,7.363E2,2.534E2,2.6696E3,3.59E1,4.9E0,1.02E1,3.563E2,4E0,6E0,4.7E0,6.839E2,5.24E1,7.26E1,1.808E2,1.1305E3,1.5391E3,2.68E1,9.1E0],"tree_param":{"num_deleted":"0","num_feature":"82","num_nodes":"43","size_leaf_vector":"1"}},{"base_weights":[-2.2688754E-1,-1.8828873E1,-8.242603E-2,1.7462076E0,-1.6282351E0,-1.4731741E0,5.823434E-1,5.1274985E-2,1.419191E-1,-4.8605105E-1,-1.2021523E1,6.209613E-1,-4.945386E-1,-3.4126234E0,2.5440648E-1,-3.305621E1,1.0693301E-1,7.203297E-1,-1.1349052E0,-2.3888605E0,-1.5035628E0,-1.7256832E0,9.97273E-1,7.413764E-1,-2.0763707E0,1.305462E0,-5.576021E0,3.040276E-1,1.1119978E0,4.6633494E-1,-8.279721E0,9.30348E-2,-2.451202E-1,3.9322764E-2,-4.5583662E-1,5.744734E-2,-2.3103885E-1,-1.7860483E-2,9.007729E-2,-8.507138E-3,7.19767E-2,5.2197333E-2,-4.869949E-1,2.8410465E-2,-4.2946386E-1,-3.801861E-2,5.7480425E-2,-4.4012305E-1,5.8280922E-2,-9.566932E-1,-1.1385436E-1],"categories":[],"categories_nodes":[],"categories_segments":[],"categories_sizes":[],"default_left":[0,0,0,0,0,0,1,0,0,0,0,0,0,0,0,0,0,0,1,0,0,0,1,0,0,0,0,0,0,0,0,0,0,0,0,0,0,0,0,0,0,0,0,0,0,0,0,0,0,0,0],"id":22,"left_children":[1,3,5,7,-1,9,11,-1,-1,13,15,17,-1,19,21,23,25,27,29,31,-1,33,35,37,-1,39,41,43,45,47,49,-1,-1,-1,-1,-1,-1,-1,-1,-1,-1,-1,-1,-1,-1,-1,-1,-1,-1,-1,-1],"loss_changes":[1.1368291E4,9.27014E3,3.8833154E3,8.109188E0,0E0,1.4138525E4,1.1555896E3,0E0,0E0,2.6948857E3,2.964828E4,4.9502527E2,0E0,6.781216E3,1.4625138E3,1.2198805E4,5.160749E2,4.3687024E2,1.7439713E3,2.603645E3,0E0,5.0444883E3,6.2121454E2,1.1708059E1,0E0,1.2609756E1,3.7402228E2,3.0619832E3,9.813965E1,8.217461E2,1.7742113E3,0E0,0E0,0E0,0E0,0E0,0E0,0E0,0E0,0E0,0E0,0E0,0E0,0E0,0E0,0E0,0E0,0E0,0E0,0E0,0E0],"parents":[2147483647,0,0,1,1,2,2,3,3,5,5,6,6,9,9,10,10,11,11,13,13,14,14,15,15,16,16,17,17,18,18,19,19,21,21,22,22,23,23,25,25,26,26,27,27,28,28,29,29,30,30],"right_children":[2,4,6,8,-1,10,12,-1,-1,14,16,18,-1,20,22,24,26,28,30,32,-1,34,36,38,-1,40,42,44,46,48,50,-1,-1,-1,-1,-1,-1,-1,-1,-1,-1,-1,-1,-1,-1,-1,-1,-1,-1,-1,-1],"split_conditions":[3.6E0,9.932708E2,5.01E3,-9.813297E0,-1.6282351E0,4.87E3,3.2698038E0,5.1274985E-2,1.419191E-1,5.75E1,4.715492E0,9.9449585E2,-4.945386E-1,2.3366667E1,2.04255E0,1.4120833E2,1.11E1,8.3E3,7.9359883E-1,-1.65E0,-1.5035628E0,1.95E1,3.7009635E0,-9E0,-2.0763707E0,7.5416665E0,1.3708333E1,8.1857144E3,4.9375E1,1.1129885E-2,5.91E3,9.30348E-2,-2.451202E-1,3.9322764E-2,-4.5583662E-1,5.744734E-2,-2.3103885E-1,-1.7860483E-2,9.007729E-2,-8.507138E-3,7.19767E-2,5.2197333E-2,-4.869949E-1,2.8410465E-2,-4.2946386E-1,-3.801861E-2,5.7480425E-2,-4.4012305E-1,5.8280922E-2,-9.566932E-1,-1.1385436E-1],"split_indices":[55,8,45,30,0,45,79,0,0,26,61,8,0,5,77,6,7,68,46,3,0,53,76,0,0,9,5,68,26,77,45,0,0,0,0,0,0,0,0,0,0,0,0,0,0,0,0,0,0,0,0],"split_type":[0,0,0,0,0,0,0,0,0,0,0,0,0,0,0,0,0,0,0,0,0,0,0,0,0,0,0,0,0,0,0,0,0,0,0,0,0,0,0,0,0,0,0,0,0,0,0,0,0,0,0],"sum_hessian":[4.23E3,3.16E1,4.1984E3,1.3E1,1.86E1,1.3574E3,2.841E3,9E0,4E0,1.2422E3,1.152E2,2.8315E3,9.5E0,2.501E2,9.921E2,4.15E1,7.37E1,2.6804E3,1.511E2,2.419E2,8.2E0,2.703E2,7.218E2,8.5E0,3.3E1,6.15E1,1.22E1,1.3002E3,1.3802E3,1.242E2,2.69E1,9E1,1.519E2,2.024E2,6.79E1,7.036E2,1.8199999E1,4.5E0,4E0,5.1E0,5.64E1,5E0,7.2000003E0,1.2636E3,3.66E1,2.68E1,1.3534E3,7.9E0,1.163E2,8.8E0,1.81E1],"tree_param":{"num_deleted":"0","num_feature":"82","num_nodes":"51","size_leaf_vector":"1"}},{"base_weights":[-1.5738885E-1,1.4171423E-1,-5.803845E0,-1.4963007E1,2.3718613E-1,1.095051E0,-1.5335379E1,-1.748964E0,1.380336E0,-5.1806134E-1,6.813857E-1,1.539392E0,-3.3206604E0,-1.6124657E0,-8.062172E-1,1.05347194E-1,4.0316887E-2,-1.9453134E-1,-1.7354113E0,-7.5853276E0,7.486871E-1,1.2473189E0,2.9464076E0,-3.9833608E-1,1.2491595E-1,-6.6465497E-1,1.1838447E0,7.4965256E-1,-2.250949E0,2.2106853E0,-8.895077E-1,-3.9230126E-1,7.736899E-1,1.1475408E0,1.4248674E-1,4.076727E0,6.1876383E-2,-4.9518008E-2,1.4712582E0,-1.5844257E-1,4.5342226E-2,-7.797093E-1,-8.89512E-2,1.6757458E-1,1.6123807E-2,-6.1703254E-2,4.1818228E-2,5.11746E-2,7.998847E-2,2.4540035E-1,1.2829958E-1,1.1167919E-1,5.0209414E-2],"categories":[],"categories_nodes":[],"categories_segments":[],"categories_sizes":[],"default_left":[0,0,0,0,1,1,0,0,0,1,0,1,0,0,0,0,0,1,0,1,0,0,0,0,0,0,0,0,0,0,0,0,0,0,0,0,0,0,0,0,0,0,0,0,0,0,0,0,0,0,0,0,0],"id":23,"left_children":[1,3,5,7,9,11,13,-1,15,17,19,21,23,-1,25,-1,-1,27,-1,29,31,33,35,-1,-1,-1,37,39,41,43,-1,-1,45,47,-1,49,-1,-1,51,-1,-1,-1,-1,-1,-1,-1,-1,-1,-1,-1,-1,-1,-1],"loss_changes":[7.2145034E3,5.854631E3,1.4147984E4,8.39017E3,1.3533129E3,2.5154924E2,2.2164795E4,0E0,4.557165E0,1.6520303E4,1.4187251E3,4.3502136E1,3.3892035E2,0E0,1.2482805E3,0E0,0E0,2.8774453E3,0E0,2.0986404E3,5.476421E2,1.2206772E1,3.1654953E1,0E0,0E0,0E0,2.8765018E1,6.28563E2,2.9085508E3,2.3475754E1,0E0,0E0,3.1735693E2,3.5685806E0,0E0,1.2203674E0,0E0,0E0,1.1643379E1,0E0,0E0,0E0,0E0,0E0,0E0,0E0,0E0,0E0,0E0,0E0,0E0,0E0,0E0],"parents":[2147483647,0,0,1,1,2,2,3,3,4,4,5,5,6,6,8,8,9,9,10,10,11,11,12,12,14,14,17,17,19,19,20,20,21,21,22,22,26,26,27,27,28,28,29,29,32,32,33,33,35,35,38,38],"right_children":[2,4,6,8,10,12,14,-1,16,18,20,22,24,-1,26,-1,-1,28,-1,30,32,34,36,-1,-1,-1,38,40,42,44,-1,-1,46,48,-1,50,-1,-1,52,-1,-1,-1,-1,-1,-1,-1,-1,-1,-1,-1,-1,-1,-1],"split_conditions":[2.32E1,3.6E0,8.75539E-1,8.825E0,7.77E3,1.6967033E0,7.77E3,-1.748964E0,4.34E3,7.71E3,2.81E3,1.116504E0,1.66E1,-1.6124657E0,4.5333332E1,1.05347194E-1,4.0316887E-2,9E0,-1.7354113E0,7.3E0,3.725E1,3.0904167E1,6.19E3,-3.9833608E-1,1.2491595E-1,-6.6465497E-1,-2.7595487E0,-9.957283E-1,4.2958332E1,6.8E0,-8.895077E-1,-3.9230126E-1,2E-1,8.5375E1,1.4248674E-1,9.802375E2,6.1876383E-2,-4.9518008E-2,5.8916668E1,-1.5844257E-1,4.5342226E-2,-7.797093E-1,-8.89512E-2,1.6757458E-1,1.6123807E-2,-6.1703254E-2,4.1818228E-2,5.11746E-2,7.998847E-2,2.4540035E-1,1.2829958E-1,1.1167919E-1,5.0209414E-2],"split_indices":[5,55,80,5,73,48,73,0,42,42,45,75,18,0,4,0,0,10,0,10,28,5,42,0,0,0,31,81,29,10,0,0,63,27,0,8,0,0,28,0,0,0,0,0,0,0,0,0,0,0,0,0,0],"split_type":[0,0,0,0,0,0,0,0,0,0,0,0,0,0,0,0,0,0,0,0,0,0,0,0,0,0,0,0,0,0,0,0,0,0,0,0,0,0,0,0,0,0,0,0,0,0,0,0,0,0,0,0,0],"sum_hessian":[4.2703E3,4.0564E3,2.139E2,2.45E1,4.0319E3,1.246E2,8.93E1,1.05E1,1.4E1,1.4931E3,2.5388E3,1.138E2,1.08E1,4.07E1,4.86E1,5E0,9E0,1.4801E3,1.3E1,1.96E1,2.5192E3,9.58E1,1.8E1,5.8E0,5E0,5.9E0,4.27E1,1.0148E3,4.653E2,1.04E1,9.2E0,6.4E0,2.5128E3,9.18E1,4E0,1E1,8E0,4.7E0,3.8E1,3.84E1,9.764E2,1.48E1,4.505E2,6E0,4.4E0,7.55E1,2.4373E3,7.46E1,1.72E1,5E0,5E0,1.3E1,2.5E1],"tree_param":{"num_deleted":"0","num_feature":"82","num_nodes":"53","size_leaf_vector":"1"}},{"base_weights":[-3.5759082E-1,-1.8007183E1,-2.2508766E-1,1.3518019E0,-1.5063066E0,6.48258E-2,-5.734433E0,1.2784417E-1,5.499314E-1,-8.6741483E-1,6.3055485E-1,8.1579095E-1,-1.5561666E1,1.2487455E-2,3.7606735E-2,-2.5829497E-1,-1.7946793E0,-7.3572574E0,6.951568E-1,-3.2032993E-1,1.1858603E0,-1.5337757E0,-9.174664E-1,1.1731635E0,-1.3642472E0,2.2417686E0,-8.493924E-1,-5.3349223E0,7.17737E-1,1.4643017E0,-1.9615698E0,-5.021254E-1,1.4146265E0,4.4066492E-2,1.8707384E-1,-4.7870073E-1,-2.2014914E-2,1.493873E-1,3.7452318E-2,8.5852586E-2,-5.4382896E-1,-5.7133056E-2,3.8871937E-2,-6.629953E-2,7.999822E-2,-3.1408617E-1,1.1267485E-1,1.132459E-1,4.475546E-2],"categories":[],"categories_nodes":[],"categories_segments":[],"categories_sizes":[],"default_left":[0,1,0,0,0,1,0,0,0,1,0,0,0,0,0,0,0,0,0,0,1,0,0,1,0,0,0,0,0,0,0,0,0,0,0,0,0,0,0,0,0,0,0,0,0,0,0,0,0],"id":24,"left_children":[1,3,5,7,-1,9,11,-1,13,15,17,19,21,-1,-1,23,-1,25,27,-1,29,-1,31,33,35,37,-1,39,41,43,45,-1,47,-1,-1,-1,-1,-1,-1,-1,-1,-1,-1,-1,-1,-1,-1,-1,-1],"loss_changes":[9.980245E3,7.501341E3,6.770246E3,1.1349302E1,0E0,2.1246853E3,1.3652818E4,0E0,3.7057495E-1,3.2452137E4,1.2988495E3,3.4998108E2,1.8740656E4,0E0,0E0,2.3707466E3,0E0,1.9054576E3,3.425824E2,0E0,1.1040349E2,0E0,9.5267395E2,4.859895E2,6.403177E3,1.0010952E1,0E0,3.8602408E2,2.762837E2,4.5009933E1,2.0353708E2,0E0,1.3875328E1,0E0,0E0,0E0,0E0,0E0,0E0,0E0,0E0,0E0,0E0,0E0,0E0,0E0,0E0,0E0,0E0],"parents":[2147483647,0,0,1,1,2,2,3,3,5,5,6,6,8,8,9,9,10,10,11,11,12,12,15,15,17,17,18,18,20,20,22,22,23,23,24,24,25,25,27,27,28,28,29,29,30,30,32,32],"right_children":[2,4,6,8,-1,10,12,-1,14,16,18,20,22,-1,-1,24,-1,26,28,-1,30,-1,32,34,36,38,-1,40,42,44,46,-1,48,-1,-1,-1,-1,-1,-1,-1,-1,-1,-1,-1,-1,-1,-1,-1,-1],"split_conditions":[-5.870616E0,-1E-1,2.32E1,-8.5E0,-1.5063066E0,7.77E3,8.75539E-1,1.2784417E-1,1.1616667E1,7.6E3,4.244E3,1.475E1,7.77E3,1.2487455E-2,3.7606735E-2,2.08E1,-1.7946793E0,5.62E3,3.725E1,-3.2032993E-1,1.6967033E0,-1.5337757E0,1.6E0,5.8E0,1.61E1,2.29E1,-8.493924E-1,9.888458E2,2E-1,-1.2139993E1,2E-1,-5.021254E-1,5.8916668E1,4.4066492E-2,1.8707384E-1,-4.7870073E-1,-2.2014914E-2,1.493873E-1,3.7452318E-2,8.5852586E-2,-5.4382896E-1,-5.7133056E-2,3.8871937E-2,-6.629953E-2,7.999822E-2,-3.1408617E-1,1.1267485E-1,1.132459E-1,4.475546E-2],"split_indices":[59,39,5,21,0,73,80,0,5,42,72,6,73,0,0,53,0,70,28,0,48,0,21,10,41,10,0,8,63,58,7,0,28,0,0,0,0,0,0,0,0,0,0,0,0,0,0,0,0],"split_type":[0,0,0,0,0,0,0,0,0,0,0,0,0,0,0,0,0,0,0,0,0,0,0,0,0,0,0,0,0,0,0,0,0,0,0,0,0,0,0,0,0,0,0,0,0,0,0,0,0],"sum_hessian":[4.2683E3,3.0800001E1,4.2375E3,1.22E1,1.86E1,4.0266E3,2.109E2,4E0,8.2E0,1.5205E3,2.5061E3,1.271E2,8.38E1,4.2E0,4E0,1.4955E3,2.5E1,1.92E1,2.4869E3,5.4E0,1.217E2,4.07E1,4.31E1,6.518E2,8.437E2,1E1,9.2E0,8.4E0,2.4785E3,1.123E2,9.4E0,8.1E0,3.5E1,5.865E2,6.53E1,8.44E1,7.593E2,6E0,4E0,4E0,4.4E0,7.65E1,2.402E3,4.8E0,1.075E2,4.4E0,5E0,1.2E1,2.3E1],"tree_param":{"num_deleted":"0","num_feature":"82","num_nodes":"49","size_leaf_vector":"1"}},{"base_weights":[3.2964293E-2,-1.6088621E1,1.6214933E-1,1.2276033E0,-1.434834E0,-2.0209734E0,3.9527026E-1,1.23438716E-1,5.639016E-1,8.298611E-1,-3.098944E1,4.8522374E-1,-4.173675E0,3.70739E-2,1.0820696E-2,9.7760946E-1,-4.447721E0,-3.5471996E1,2.172525E-1,7.643074E-1,-3.04206E-1,-6.3747185E-1,-2.9503021E0,-2.0039292E-1,1.0671146E0,-5.074519E-1,6.6486426E-2,-1.9402726E0,-1.239593E0,7.9181373E-1,-4.3438163E-1,4.0028962E-1,-3.5749202E0,-4.132837E0,6.650355E-2,1.3702917E-1,5.128898E-2,9.10491E-2,3.376153E-2,-3.5906813E-1,3.0030916E-2,-4.8823762E-1,-4.999363E-2,-2.9433352E-1,-1.2812176E-1],"categories":[],"categories_nodes":[],"categories_segments":[],"categories_sizes":[],"default_left":[0,1,0,0,0,0,0,0,0,1,0,0,0,0,0,0,0,0,0,0,1,0,1,0,0,0,0,0,0,1,0,0,0,1,0,0,0,0,0,0,0,0,0,0,0],"id":25,"left_children":[1,3,5,7,-1,9,11,-1,13,15,17,19,21,-1,-1,23,25,27,-1,29,31,-1,33,-1,35,-1,-1,-1,-1,37,-1,39,41,43,-1,-1,-1,-1,-1,-1,-1,-1,-1,-1,-1],"loss_changes":[8.855195E3,7.414578E3,2.1473706E3,1.112912E1,0E0,3.364579E4,1.568605E3,0E0,5.306368E-1,2.9410486E2,5.9353203E3,8.2399756E2,7.3559827E2,0E0,0E0,1.6594406E2,3.5276782E2,1.949961E2,0E0,7.251478E2,2.2533293E3,0E0,3.385561E2,0E0,2.1862762E1,0E0,0E0,0E0,0E0,3.2939746E2,0E0,1.2269652E3,2.752485E3,1.2758453E2,0E0,0E0,0E0,0E0,0E0,0E0,0E0,0E0,0E0,0E0,0E0],"parents":[2147483647,0,0,1,1,2,2,3,3,5,5,6,6,8,8,9,9,10,10,11,11,12,12,15,15,16,16,17,17,19,19,20,20,22,22,24,24,29,29,31,31,32,32,33,33],"right_children":[2,4,6,8,-1,10,12,-1,14,16,18,20,22,-1,-1,24,26,28,-1,30,32,-1,34,-1,36,-1,-1,-1,-1,38,-1,40,42,44,-1,-1,-1,-1,-1,-1,-1,-1,-1,-1,-1],"split_conditions":[-5.870616E0,-1E-1,4.715492E0,-7.3E0,-1.434834E0,4.106782E0,3.47E1,1.23438716E-1,-7.5E0,2.4366099E-1,-2.8E0,1.61625E1,2.7406666E1,3.70739E-2,1.0820696E-2,-2.6590547E-2,1.4878939E-1,-5.9E0,2.172525E-1,3.43E1,1.6718215E0,-6.3747185E-1,2.16E3,-2.0039292E-1,2.55E3,-5.074519E-1,6.6486426E-2,-1.9402726E0,-1.239593E0,4.62E3,-4.3438163E-1,1.6208334E1,1.5220695E1,1.94E3,6.650355E-2,1.3702917E-1,5.128898E-2,9.10491E-2,3.376153E-2,-3.5906813E-1,3.0030916E-2,-4.8823762E-1,-4.999363E-2,-2.9433352E-1,-1.2812176E-1],"split_indices":[59,39,61,21,0,57,51,0,52,49,0,5,54,0,0,76,15,0,0,2,78,0,42,0,42,0,0,0,0,73,0,5,59,42,0,0,0,0,0,0,0,0,0,0,0],"split_type":[0,0,0,0,0,0,0,0,0,0,0,0,0,0,0,0,0,0,0,0,0,0,0,0,0,0,0,0,0,0,0,0,0,0,0,0,0,0,0,0,0,0,0,0,0],"sum_hessian":[4.2496E3,3.28E1,4.2168E3,1.42E1,1.86E1,4.061E2,3.8107E3,4E0,1.02E1,3.706E2,3.55E1,3.738E3,7.27E1,6E0,4.2E0,3.613E2,9.3E0,3.15E1,4E0,2.7617E3,9.763E2,7.9E0,6.48E1,5.6E0,3.557E2,4.3E0,5E0,2.2E1,9.5E0,2.7546E3,7.1000004E0,8.04E2,1.723E2,5.08E1,1.4E1,7E0,3.487E2,2.788E2,2.4758E3,1.98E1,7.842E2,4.98E1,1.225E2,2.27E1,2.81E1],"tree_param":{"num_deleted":"0","num_feature":"82","num_nodes":"45","size_leaf_vector":"1"}},{"base_weights":[-1.7137699E-1,-4.1361904E0,3.057838E-1,-1.6085576E-1,-3.08939E1,3.6622605E-1,-5.130016E0,-2.0124878E1,7.08027E-1,-3.3544025E1,2.0856233E-1,-4.8856464E-1,6.0779023E-1,-7.4331826E-1,-2.3152773E0,-1.5348505E0,1.7462604E-1,8.5332555E-1,-5.164424E0,-1.1835163E0,-1.7551234E0,1.2316245E0,-1.9879072E0,6.439908E-1,-4.9059224E-1,-4.57156E0,1.9085844E0,-4.593741E0,1.020049E0,4.1529465E-2,-4.9228382E-1,1.6912259E0,-3.3354821E0,1.4089312E-1,-5.7222157E0,-8.502607E-1,7.512243E-1,-3.289828E-1,-2.165937E0,6.087881E-2,1.18671075E-1,-4.874824E-1,7.498264E-2,1.7344834E-1,4.914362E-2,4.1529126E-2,1.6258237E-1,-2.5625488E-1,5.0648267E-4,2.6431462E-2,-3.7200755E-1,-4.325582E-1,1.2619436E-1,-7.4078315E-1,-2.5436615E-3,-4.708677E-3,4.398214E-2,-1.6409232E-1,-6.1040404E-3],"categories":[],"categories_nodes":[],"categories_segments":[],"categories_sizes":[],"default_left":[0,0,0,0,0,1,0,0,0,0,0,1,1,0,0,0,0,0,0,0,0,1,1,0,0,0,0,0,0,0,0,1,1,0,0,0,0,0,0,0,0,0,0,0,0,0,0,0,0,0,0,0,0,0,0,0,0,0,0],"id":26,"left_children":[1,3,5,7,9,11,13,15,17,19,-1,21,23,-1,25,-1,-1,27,29,-1,-1,31,33,35,-1,37,39,41,43,-1,-1,45,47,49,51,53,55,-1,57,-1,-1,-1,-1,-1,-1,-1,-1,-1,-1,-1,-1,-1,-1,-1,-1,-1,-1,-1,-1],"loss_changes":[7.96578E3,4.8106566E4,1.2367738E3,6.8626064E3,5.5761562E3,7.680563E2,1.1001586E3,4.227033E3,3.280479E2,7.7382812E0,0E0,2.116838E3,1.0999631E3,0E0,3.2608173E2,0E0,0E0,3.4161084E2,2.691745E2,0E0,0E0,8.0831726E2,3.4859097E3,4.6376233E2,0E0,9.202478E1,1.0610161E0,3.6649118E2,2.9438599E1,0E0,0E0,4.6478583E2,2.1140558E2,8.275655E2,3.8668984E3,2.165017E3,2.9291455E2,0E0,2.5828075E1,0E0,0E0,0E0,0E0,0E0,0E0,0E0,0E0,0E0,0E0,0E0,0E0,0E0,0E0,0E0,0E0,0E0,0E0,0E0,0E0],"parents":[2147483647,0,0,1,1,2,2,3,3,4,4,5,5,6,6,7,7,8,8,9,9,11,11,12,12,14,14,17,17,18,18,21,21,22,22,23,23,25,25,26,26,27,27,28,28,31,31,32,32,33,33,34,34,35,35,36,36,38,38],"right_children":[2,4,6,8,10,12,14,16,18,20,-1,22,24,-1,26,-1,-1,28,30,-1,-1,32,34,36,-1,38,40,42,44,-1,-1,46,48,50,52,54,56,-1,58,-1,-1,-1,-1,-1,-1,-1,-1,-1,-1,-1,-1,-1,-1,-1,-1,-1,-1,-1,-1],"split_conditions":[4.715492E0,4.106782E0,3.32E1,2.47E3,7.1791664E1,4.5993335E3,2.2775E1,-1.39E1,1.1521667E4,4E-1,2.0856233E-1,4.65E3,3.0518527E0,-7.4331826E-1,2.29E3,-1.5348505E0,1.7462604E-1,-2E-1,-8.25E0,-1.1835163E0,-1.7551234E0,3.66E1,8.368899E-1,-9.6206754E-1,-4.9059224E-1,3.9353812E0,3E2,-1E-1,4.2125E1,4.1529465E-2,-4.9228382E-1,4E0,2.73E1,3.3775E2,2.59E1,-2.541427E-1,5.7E0,-3.289828E-1,9.083333E0,6.087881E-2,1.18671075E-1,-4.874824E-1,7.498264E-2,1.7344834E-1,4.914362E-2,4.1529126E-2,1.6258237E-1,-2.5625488E-1,5.0648267E-4,2.6431462E-2,-3.7200755E-1,-4.325582E-1,1.2619436E-1,-7.4078315E-1,-2.5436615E-3,-4.708677E-3,4.398214E-2,-1.6409232E-1,-6.1040404E-3],"split_indices":[61,57,2,44,4,72,23,0,72,2,0,73,78,0,44,0,0,64,24,0,0,55,15,80,0,48,6,39,28,0,0,10,41,6,53,81,39,0,5,0,0,0,0,0,0,0,0,0,0,0,0,0,0,0,0,0,0,0,0],"split_type":[0,0,0,0,0,0,0,0,0,0,0,0,0,0,0,0,0,0,0,0,0,0,0,0,0,0,0,0,0,0,0,0,0,0,0,0,0,0,0,0,0,0,0,0,0,0,0,0,0,0,0,0,0,0,0,0,0,0,0],"sum_hessian":[4.2089E3,4.513E2,3.7576E3,3.938E2,5.75E1,3.7172E3,4.04E1,1.55E1,3.783E2,5.35E1,4E0,8.188E2,2.8984E3,8.1E0,3.23E1,1.05E1,5E0,3.7E2,8.3E0,9.5E0,4.4E1,3.814E2,4.374E2,2.8893E3,9.1E0,2.1E1,1.13E1,1.02E1,3.598E2,4E0,4.3E0,3.471E2,3.43E1,2.792E2,1.582E2,1.93E2,2.6963E3,1.05E1,1.05E1,6E0,5.3E0,5.2E0,5E0,4E0,3.558E2,2.247E2,1.224E2,2.2E1,1.23E1,2.665E2,1.27E1,1.167E2,4.15E1,9.5E0,1.835E2,3.556E2,2.3407E3,6.4E0,4.1E0],"tree_param":{"num_deleted":"0","num_feature":"82","num_nodes":"59","size_leaf_vector":"1"}},{"base_weights":[-1.9480895E-1,-1.3469258E1,-8.1091516E-2,1.560594E0,-1.3292489E0,-1.2791836E0,6.512595E-1,9.054489E-1,1.5414406E-1,-4.2937285E-1,-1.6161374E0,-6.9041675E-1,7.7338856E-1,6.396927E-2,3.1396788E-2,-2.977467E-1,-1.3692516E1,-2.4354956E-1,-1.0013403E0,8.754931E-1,-3.2737684E-1,5.3121465E-1,-2.1252296E0,2.0884164E-1,-1.1299762E0,9.795933E-1,-7.327935E0,-8.004913E-1,9.195055E-1,3.9299902E-1,-1.2620469E1,3.301589E-2,-2.7215642E-1,5.9033442E-2,-2.0474637E-1,5.4708738E-2,-5.772392E-2,-6.586063E-1,5.541875E-2,-4.903936E-1,5.366028E-2,-4.8020344E-2,4.801125E-2,-3.4671387E-1,5.445221E-2,-1.2148393E0,1.0661443E-1],"categories":[],"categories_nodes":[],"categories_segments":[],"categories_sizes":[],"default_left":[0,0,0,0,0,0,1,0,0,0,0,1,1,0,0,1,0,0,0,0,0,0,0,0,0,0,1,0,0,0,0,0,0,0,0,0,0,0,0,0,0,0,0,0,0,0,0],"id":27,"left_children":[1,3,5,7,-1,9,11,13,-1,15,-1,17,19,-1,-1,21,23,25,-1,27,29,31,33,-1,-1,35,37,39,41,43,45,-1,-1,-1,-1,-1,-1,-1,-1,-1,-1,-1,-1,-1,-1,-1,-1],"loss_changes":[6.5045576E3,7.2563467E3,3.751031E3,1.5160351E1,0E0,4.2771074E4,4.352976E2,6.494398E-1,0E0,2.7535515E3,0E0,1.9125156E3,2.7367175E2,0E0,0E0,2.3721187E3,2.5614124E3,1.8953287E3,0E0,1.6494946E2,1.8398499E3,8.3467664E2,3.1864126E3,0E0,0E0,4.691603E1,1.6021692E3,9.8095917E2,1.6701086E2,1.0107443E3,2.0327738E3,0E0,0E0,0E0,0E0,0E0,0E0,0E0,0E0,0E0,0E0,0E0,0E0,0E0,0E0,0E0,0E0],"parents":[2147483647,0,0,1,1,2,2,3,3,5,5,6,6,7,7,9,9,11,11,12,12,15,15,16,16,17,17,19,19,20,20,21,21,22,22,25,25,26,26,27,27,28,28,29,29,30,30],"right_children":[2,4,6,8,-1,10,12,14,-1,16,-1,18,20,-1,-1,22,24,26,-1,28,30,32,34,-1,-1,36,38,40,42,44,46,-1,-1,-1,-1,-1,-1,-1,-1,-1,-1,-1,-1,-1,-1,-1,-1],"split_conditions":[3.6E0,9.932708E2,7.77E3,-5.071429E0,-1.3292489E0,7.59E3,5.4625E1,7.5458336E1,1.5414406E-1,7.31E3,-1.6161374E0,3.21E1,8.6833336E1,6.396927E-2,3.1396788E-2,1.016793E0,2.25875E1,5.4041668E1,-1.0013403E0,1.8333334E0,2.3704166E1,3.32E1,3.98E3,2.0884164E-1,-1.1299762E0,2.2408333E1,6.1666668E1,4.97E3,-9.660959E0,1.107403E-2,1.9258333E1,3.301589E-2,-2.7215642E-1,5.9033442E-2,-2.0474637E-1,5.4708738E-2,-5.772392E-2,-6.586063E-1,5.541875E-2,-4.903936E-1,5.366028E-2,-4.8020344E-2,4.801125E-2,-3.4671387E-1,5.445221E-2,-1.2148393E0,1.0661443E-1],"split_indices":[55,8,73,50,0,69,27,26,0,42,0,16,29,0,0,15,5,27,0,9,25,2,71,0,0,5,26,42,60,75,1,0,0,0,0,0,0,0,0,0,0,0,0,0,0,0,0],"split_type":[0,0,0,0,0,0,0,0,0,0,0,0,0,0,0,0,0,0,0,0,0,0,0,0,0,0,0,0,0,0,0,0,0,0,0,0,0,0,0,0,0,0,0,0,0,0,0],"sum_hessian":[4.3087E3,3.56E1,4.2731E3,1.7E1,1.86E1,1.6208E3,2.6523E3,1.3E1,4E0,1.5786E3,4.22E1,2.209E2,2.4314E3,4E0,9E0,1.5641E3,1.45E1,2.169E2,4E0,2.2252E3,2.062E2,1.0765E3,4.876E2,5E0,9.5E0,1.857E2,3.12E1,5.65E1,2.1687E3,1.957E2,1.05E1,1.0546E3,2.19E1,1.822E2,3.054E2,1.767E2,9E0,1.81E1,1.31E1,9E0,4.75E1,4.55E1,2.1232E3,1.62E1,1.795E2,5.5E0,5E0],"tree_param":{"num_deleted":"0","num_feature":"82","num_nodes":"47","size_leaf_vector":"1"}},{"base_weights":[-9.746957E-2,8.157845E-2,-4.6954894E0,-8.157751E0,1.22529075E-1,-1.5094131E1,9.571833E-1,6.390644E-1,-9.5274144E-1,-5.524397E-1,4.994457E-1,1.3050236E0,-1.3571757E0,1.2532862E0,-1.8863589E-1,5.5238283E-3,4.513817E-2,-2.998572E-1,-1.50720215E1,-7.720369E0,5.602279E-1,5.1835227E-1,2.1582857E-1,1.0600352E0,2.4501748E0,-2.0450952E0,3.8432702E-1,-1.507255E0,5.802205E-2,6.687152E-2,-7.125663E-1,-2.6619952E0,6.532491E-1,-6.939706E-2,1.1769867E0,1.9034336E0,7.435092E-1,1.5894671E-1,5.350666E-2,2.9697742E-3,-2.960598E-1,3.218022E-2,-1.346584E-1,3.060014E-2,-4.0309778E-1,-4.779981E-3,4.4790443E-2,3.9308645E-2,9.397713E-2,6.2276304E-2,1.6053079E-1,-5.2268635E-3,4.042111E-2],"categories":[],"categories_nodes":[],"categories_segments":[],"categories_sizes":[],"default_left":[0,0,0,0,1,0,1,0,0,1,0,0,0,1,0,0,0,1,0,0,0,0,0,0,0,1,0,0,0,0,0,1,0,0,0,0,0,0,0,0,0,0,0,0,0,0,0,0,0,0,0,0,0],"id":28,"left_children":[1,3,5,7,9,11,13,15,-1,17,19,21,-1,23,-1,-1,-1,25,27,29,31,33,-1,35,37,39,41,-1,-1,-1,-1,43,45,-1,47,49,51,-1,-1,-1,-1,-1,-1,-1,-1,-1,-1,-1,-1,-1,-1,-1,-1],"loss_changes":[3.507827E3,1.3849365E3,9.401634E3,1.9581267E3,1.0388667E3,1.1160284E4,1.5094438E2,1.6008005E0,0E0,5.361975E3,1.3133743E3,5.6516113E1,0E0,2.0301407E1,0E0,0E0,0E0,1.7194026E3,6.1518096E3,1.1607727E3,7.8158997E2,2.7749039E1,0E0,2.1810074E1,9.672455E0,3.308103E3,8.274259E2,0E0,0E0,0E0,0E0,1.2990706E3,4.595636E2,0E0,2.915451E0,1.5867218E1,3.6572113E0,0E0,0E0,0E0,0E0,0E0,0E0,0E0,0E0,0E0,0E0,0E0,0E0,0E0,0E0,0E0,0E0],"parents":[2147483647,0,0,1,1,2,2,3,3,4,4,5,5,6,6,7,7,9,9,10,10,11,11,13,13,17,17,18,18,19,19,20,20,21,21,23,23,24,24,25,25,26,26,31,31,32,32,34,34,35,35,36,36],"right_children":[2,4,6,8,10,12,14,16,-1,18,20,22,-1,24,-1,-1,-1,26,28,30,32,34,-1,36,38,40,42,-1,-1,-1,-1,44,46,-1,48,50,52,-1,-1,-1,-1,-1,-1,-1,-1,-1,-1,-1,-1,-1,-1,-1,-1],"split_conditions":[2.39875E1,-5.870616E0,4.715492E0,1.6658333E2,6.625E1,2.7285714E0,1.6967033E0,-1.222956E1,-9.5274144E-1,6.6083336E1,4.5333332E1,2.86375E1,-1.3571757E0,1.5630851E0,-1.8863589E-1,5.5238283E-3,4.513817E-2,4.4396665E3,4.715492E0,7.5291664E1,-9.962103E-1,7.45E1,2.1582857E-1,5.8916668E1,7.31E3,5.02E3,8.6833336E1,-1.507255E0,5.802205E-2,6.687152E-2,-7.125663E-1,2.39E1,2.04255E0,-6.939706E-2,-7E-1,5.5666668E1,5.1458332E1,1.5894671E-1,5.350666E-2,2.9697742E-3,-2.960598E-1,3.218022E-2,-1.346584E-1,3.060014E-2,-4.0309778E-1,-4.779981E-3,4.4790443E-2,3.9308645E-2,9.397713E-2,6.2276304E-2,1.6053079E-1,-5.2268635E-3,4.042111E-2],"split_indices":[5,59,61,6,26,50,48,60,0,26,4,5,0,77,0,0,0,72,61,29,80,29,0,28,42,73,29,0,0,0,0,67,79,0,19,28,4,0,0,0,0,0,0,0,0,0,0,0,0,0,0,0,0],"split_type":[0,0,0,0,0,0,0,0,0,0,0,0,0,0,0,0,0,0,0,0,0,0,0,0,0,0,0,0,0,0,0,0,0,0,0,0,0,0,0,0,0,0,0,0,0,0,0,0,0,0,0,0,0],"sum_hessian":[4.2594E3,4.1007E3,1.587E2,1.9300001E1,4.0814E3,5.53E1,1.034E2,1.12E1,8.1E0,1.4623E3,2.6191E3,2.38E1,3.15E1,9.8E1,5.4E0,4.2E0,7E0,1.4383E3,2.4E1,1.83E1,2.6008E3,1.98E1,4E0,8.6E1,1.2E1,4.045E2,1.0338E3,1.2E1,1.2E1,8E0,1.03E1,7.22E1,2.5286E3,4.8E0,1.5E1,2.21E1,6.39E1,7E0,5E0,2.628E2,1.417E2,9.542E2,7.96E1,4.55E1,2.67E1,6.188E2,1.9098E3,1.1E1,4E0,1.6E1,6.1E0,4.5E0,5.94E1],"tree_param":{"num_deleted":"0","num_feature":"82","num_nodes":"53","size_leaf_vector":"1"}},{"base_weights":[8.693632E-2,-1.4444187E1,2.004426E-1,1.3012701E0,-1.2476996E0,-4.2243627E-1,5.392763E-1,1.2100617E-1,3.0585824E-2,4.263816E-2,-6.1701465E0,6.8529147E-1,-4.0808317E-1,-1.3635235E0,6.20728E-1,-2.381136E1,-1.1080235E0,-3.4279412E-1,8.0532795E-1,-1.1098247E1,3.6777335E-1,1.0171444E0,-7.4456673E0,9.18679E-1,-3.008126E0,-1.5978988E0,-7.403058E-1,1.5134548E0,-8.170167E0,7.365246E-1,-1.1825187E0,-1.2517484E0,8.4745234E-1,-2.3524911E0,-1.7171968E1,-7.9214895E-1,6.586672E-1,-3.674291E-1,6.545113E-2,7.066005E-3,-5.381567E-1,1.4356554E-1,2.8130254E-2,1.1108126E-1,-2.0323446E-1,4.933506E-2,1.5160234E-1,-7.8760684E-1,9.733231E-2,-4.3072572E-1,4.9451016E-2,3.8646635E-2,-7.506432E-1,6.413774E-2,3.693798E-2,1.0710261E-1,-3.532565E-1,-9.9409276E-1,-5.3602046E-1,4.521228E-2,-6.556896E-1],"categories":[],"categories_nodes":[],"categories_segments":[],"categories_sizes":[],"default_left":[0,1,0,0,0,0,1,0,0,0,0,0,0,0,1,0,0,1,0,0,0,0,0,0,0,0,0,1,0,0,0,0,0,0,0,0,0,0,0,0,0,0,0,0,0,0,0,0,0,0,0,0,0,0,0,0,0,0,0,0,0],"id":29,"left_children":[1,3,5,7,-1,9,11,-1,-1,13,15,17,19,21,23,25,27,29,31,33,35,37,39,41,43,-1,-1,45,47,49,-1,51,53,55,57,-1,59,-1,-1,-1,-1,-1,-1,-1,-1,-1,-1,-1,-1,-1,-1,-1,-1,-1,-1,-1,-1,-1,-1,-1,-1],"loss_changes":[6.9373584E3,5.4271743E3,8.8088605E2,9.320702E0,0E0,3.9316106E3,3.741825E2,0E0,0E0,1.1076742E3,9.805765E3,2.893463E2,3.0032039E3,5.7559604E3,1.0467903E3,1.3242021E3,1.6156132E3,6.1958076E3,1.8284167E2,1.2610254E3,1.6047821E3,7.084546E2,2.8154795E3,6.1934015E2,4.1515912E2,0E0,0E0,4.82034E1,1.8409103E3,5.6503064E2,0E0,1.1957333E3,9.634448E1,2.5236287E2,3.6865723E1,0E0,1.1384751E3,0E0,0E0,0E0,0E0,0E0,0E0,0E0,0E0,0E0,0E0,0E0,0E0,0E0,0E0,0E0,0E0,0E0,0E0,0E0,0E0,0E0,0E0,0E0,0E0],"parents":[2147483647,0,0,1,1,2,2,3,3,5,5,6,6,9,9,10,10,11,11,12,12,13,13,14,14,15,15,16,16,17,17,18,18,19,19,20,20,21,21,22,22,23,23,24,24,27,27,28,28,29,29,31,31,32,32,33,33,34,34,36,36],"right_children":[2,4,6,8,-1,10,12,-1,-1,14,16,18,20,22,24,26,28,30,32,34,36,38,40,42,44,-1,-1,46,48,50,-1,52,54,56,58,-1,60,-1,-1,-1,-1,-1,-1,-1,-1,-1,-1,-1,-1,-1,-1,-1,-1,-1,-1,-1,-1,-1,-1,-1,-1],"split_conditions":[-5.870616E0,-1E-1,5.5126665E3,-8.5E0,-1.2476996E0,7.4E3,2.3359494E0,1.2100617E-1,3.0585824E-2,2.4645944E0,7.73E3,3.2788196E-1,1.95E1,1.56214285E1,2.62E1,-8.583333E0,8.03E3,9.3E0,-9.660959E0,2.49E1,5.075E1,9.708542E2,3.99E3,2.63E1,2.8416666E1,-1.5978988E0,-7.403058E-1,3.3E0,7.4E0,4.8E0,-1.1825187E0,2.7285714E0,6.6156665E3,8.0875E1,2.07E1,-7.9214895E-1,2.08625E1,-3.674291E-1,6.545113E-2,7.066005E-3,-5.381567E-1,1.4356554E-1,2.8130254E-2,1.1108126E-1,-2.0323446E-1,4.933506E-2,1.5160234E-1,-7.8760684E-1,9.733231E-2,-4.3072572E-1,4.9451016E-2,3.8646635E-2,-7.506432E-1,6.413774E-2,3.693798E-2,1.0710261E-1,-3.532565E-1,-9.9409276E-1,-5.3602046E-1,4.521228E-2,-6.556896E-1],"split_indices":[59,