{"learner":{"attributes":{"best_iteration":"5","best_score":"6.726262860814533","scikit_learn":"{\"_estimator_type\": \"regressor\"}"},"feature_names":["air_temp_c_min","air_temp_c_mean","air_temp_c_max","dew_point_c_mean","rh_pct_mean","wind_ms_mean","shortwave_w_m2_mean","precip_mm_sum","pressure_hpa_mean","cloud_pct_mean","water_temp_c","streamflow_cfs","water_site_id","wet_bulb_c","heat_index_c","water_thermal_stress","heat_dose_7d","heat_dose_14d","air_temp_c_max_lag1","air_temp_c_max_lag3","air_temp_c_max_lag7","air_temp_c_max_lag14","air_temp_c_mean_lag1","air_temp_c_mean_lag3","air_temp_c_mean_lag7","air_temp_c_mean_lag14","rh_pct_mean_lag1","rh_pct_mean_lag3","rh_pct_mean_lag7","rh_pct_mean_lag14","wet_bulb_c_lag1","wet_bulb_c_lag3","wet_bulb_c_lag7","wet_bulb_c_lag14","heat_index_c_lag1","heat_index_c_lag3","heat_index_c_lag7","heat_index_c_lag14","water_temp_c_lag1","water_temp_c_lag3","water_temp_c_lag7","water_temp_c_lag14","streamflow_cfs_lag1","streamflow_cfs_lag3","streamflow_cfs_lag7","streamflow_cfs_lag14","water_thermal_stress_lag1","water_thermal_stress_lag3","water_thermal_stress_lag7","water_thermal_stress_lag14","air_temp_c_max_roll7_mean","air_temp_c_max_roll7_max","air_temp_c_max_roll14_mean","air_temp_c_max_roll14_max","air_temp_c_max_roll30_mean","air_temp_c_max_roll30_max","wet_bulb_c_roll7_mean","wet_bulb_c_roll7_max","wet_bulb_c_roll14_mean","wet_bulb_c_roll14_max","wet_bulb_c_roll30_mean","wet_bulb_c_roll30_max","water_temp_c_roll7_mean","water_temp_c_roll7_max","water_temp_c_roll14_mean","water_temp_c_roll14_max","water_temp_c_roll30_mean","water_temp_c_roll30_max","streamflow_cfs_roll7_mean","streamflow_cfs_roll7_max","streamflow_cfs_roll14_mean","streamflow_cfs_roll14_max","streamflow_cfs_roll30_mean","streamflow_cfs_roll30_max","water_thermal_stress_roll7_mean","water_thermal_stress_roll7_max","water_thermal_stress_roll14_mean","water_thermal_stress_roll14_max","water_thermal_stress_roll30_mean","water_thermal_stress_roll30_max","doy_sin","doy_cos"],"feature_types":["float","float","float","float","float","float","float","float","float","float","float","float","c","float","float","float","float","float","float","float","float","float","float","float","float","float","float","float","float","float","float","float","float","float","float","float","float","float","float","float","float","float","float","float","float","float","float","float","float","float","float","float","float","float","float","float","float","float","float","float","float","float","float","float","float","float","float","float","float","float","float","float","float","float","float","float","float","float","float","float","float","float"],"gradient_booster":{"model":{"cats":{"enc":[{"offsets":[],"values":[]},{"offsets":[],"values":[]},{"offsets":[],"values":[]},{"offsets":[],"values":[]},{"offsets":[],"values":[]},{"offsets":[],"values":[]},{"offsets":[],"values":[]},{"offsets":[],"values":[]},{"offsets":[],"values":[]},{"offsets":[],"values":[]},{"offsets":[],"values":[]},{"offsets":[],"values":[]},{"offsets":[0,8],"values":[48,53,52,52,48,55,48,48]},{"offsets":[],"values":[]},{"offsets":[],"values":[]},{"offsets":[],"values":[]},{"offsets":[],"values":[]},{"offsets":[],"values":[]},{"offsets":[],"values":[]},{"offsets":[],"values":[]},{"offsets":[],"values":[]},{"offsets":[],"values":[]},{"offsets":[],"values":[]},{"offsets":[],"values":[]},{"offsets":[],"values":[]},{"offsets":[],"values":[]},{"offsets":[],"values":[]},{"offsets":[],"values":[]},{"offsets":[],"values":[]},{"offsets":[],"values":[]},{"offsets":[],"values":[]},{"offsets":[],"values":[]},{"offsets":[],"values":[]},{"offsets":[],"values":[]},{"offsets":[],"values":[]},{"offsets":[],"values":[]},{"offsets":[],"values":[]},{"offsets":[],"values":[]},{"offsets":[],"values":[]},{"offsets":[],"values":[]},{"offsets":[],"values":[]},{"offsets":[],"values":[]},{"offsets":[],"values":[]},{"offsets":[],"values":[]},{"offsets":[],"values":[]},{"offsets":[],"values":[]},{"offsets":[],"values":[]},{"offsets":[],"values":[]},{"offsets":[],"values":[]},{"offsets":[],"values":[]},{"offsets":[],"values":[]},{"offsets":[],"values":[]},{"offsets":[],"values":[]},{"offsets":[],"values":[]},{"offsets":[],"values":[]},{"offsets":[],"values":[]},{"offsets":[],"values":[]},{"offsets":[],"values":[]},{"offsets":[],"values":[]},{"offsets":[],"values":[]},{"offsets":[],"values":[]},{"offsets":[],"values":[]},{"offsets":[],"values":[]},{"offsets":[],"values":[]},{"offsets":[],"values":[]},{"offsets":[],"values":[]},{"offsets":[],"values":[]},{"offsets":[],"values":[]},{"offsets":[],"values":[]},{"offsets":[],"values":[]},{"offsets":[],"values":[]},{"offsets":[],"values":[]},{"offsets":[],"values":[]},{"offsets":[],"values":[]},{"offsets":[],"values":[]},{"offsets":[],"values":[]},{"offsets":[],"values":[]},{"offsets":[],"values":[]},{"offsets":[],"values":[]},{"offsets":[],"values":[]},{"offsets":[],"values":[]},{"offsets":[],"values":[]}],"feature_segments":[0,0,0,0,0,0,0,0,0,0,0,0,0,1,1,1,1,1,1,1,1,1,1,1,1,1,1,1,1,1,1,1,1,1,1,1,1,1,1,1,1,1,1,1,1,1,1,1,1,1,1,1,1,1,1,1,1,1,1,1,1,1,1,1,1,1,1,1,1,1,1,1,1,1,1,1,1,1,1,1,1,1,1],"sorted_idx":[0]},"gbtree_model_param":{"num_parallel_tree":"1","num_trees":"56"},"iteration_indptr":[0,1,2,3,4,5,6,7,8,9,10,11,12,13,14,15,16,17,18,19,20,21,22,23,24,25,26,27,28,29,30,31,32,33,34,35,36,37,38,39,40,41,42,43,44,45,46,47,48,49,50,51,52,53,54,55,56],"tree_info":[0,0,0,0,0,0,0,0,0,0,0,0,0,0,0,0,0,0,0,0,0,0,0,0,0,0,0,0,0,0,0,0,0,0,0,0,0,0,0,0,0,0,0,0,0,0,0,0,0,0,0,0,0,0,0,0],"trees":[{"base_weights":[1.00807644E-1,1.4116204E0,-8.522162E0,1.6482414E0,-1.2347447E1,-2.010467E-3,-3.9792767E1,-1.0526772E0,2.7548501E0,-8.939599E0,-1.1162808E0,1.619867E0,-7.5350194E0,-6.562571E1,1.6330065E-1,-6.47854E0,1.6171113E0,2.8115225E0,-2.1872306E0,-1.2969519E0,-1.0875666E1,-7.8174415E0,2.2316597E0,-2.3539856E1,3.564462E-1,-1.9591608E1,-4.3798003E0,-4.9239388E0,-2.277731E0,-1.1803514E1,2.0132391E0,2.885646E0,6.956597E-1,-5.7136625E-1,1.5581332E-1,-1.4095779E-1,2.0645637E-2,-6.243615E-1,-6.7116137E0,2.1145456E0,-1.1839191E0,2.5529203E0,-6.1733665E0,-3.0407501E1,1.8756362E-2,1.613357E-1,-1.2953041E0,-3.0113745E0,2.0405126E0,-5.8438945E-1,7.263654E-2,-1.4420117E0,1.485159E-1,1.2376844E-1,-3.2284555E-1,3.9259098E-3,1.4698371E-1,9.0173945E-2,-7.7915806E-1,-3.9183125E-1,-2.1546976E-1,1.5168242E-1,-1.651947E-2,1.3605627E-1,-3.609578E-1,1.367582E-1,-1.0665195E0,-8.199037E-1,-1.6867704E0,-6.651947E-2,1.5493277E-1],"categories":[],"categories_nodes":[],"categories_segments":[],"categories_sizes":[],"default_left":[0,1,0,0,0,0,0,0,0,0,0,0,0,0,0,0,0,0,0,0,0,0,0,0,0,0,0,0,0,0,0,0,0,0,0,0,0,0,0,0,0,0,0,0,0,0,0,0,0,0,0,0,0,0,0,0,0,0,0,0,0,0,0,0,0,0,0,0,0,0,0],"id":0,"left_children":[1,3,5,7,9,11,13,15,17,19,-1,21,23,25,-1,27,29,31,33,35,37,39,41,43,45,47,-1,49,-1,51,53,55,57,-1,-1,-1,-1,-1,59,61,-1,63,65,67,-1,-1,-1,-1,69,-1,-1,-1,-1,-1,-1,-1,-1,-1,-1,-1,-1,-1,-1,-1,-1,-1,-1,-1,-1,-1,-1],"loss_changes":[4.912512E4,1.2302746E4,1.5279769E5,1.1090671E4,1.9732793E3,5.530903E3,1.3680906E5,1.563932E4,7.432676E2,7.153701E2,0E0,2.1681401E3,1.013778E4,7.595809E4,0E0,2.1401883E4,3.8722202E3,4.0613867E2,1.5253568E3,3.005473E1,1.7924805E2,3.657521E3,9.624524E2,4.363758E3,4.2069043E3,2.3065848E4,0E0,1.4832422E4,0E0,5.3461455E3,2.771656E3,3.8105078E2,1.6403425E3,0E0,0E0,0E0,0E0,0E0,1.631958E0,3.4709488E1,0E0,5.7587646E2,1.8406959E3,4.072168E2,0E0,0E0,0E0,0E0,6.832654E1,0E0,0E0,0E0,0E0,0E0,0E0,0E0,0E0,0E0,0E0,0E0,0E0,0E0,0E0,0E0,0E0,0E0,0E0,0E0,0E0,0E0,0E0],"parents":[2147483647,0,0,1,1,2,2,3,3,4,4,5,5,6,6,7,7,8,8,9,9,11,11,12,12,13,13,15,15,16,16,17,17,18,18,19,19,20,20,21,21,22,22,23,23,24,24,25,25,27,27,29,29,30,30,31,31,32,32,38,38,39,39,41,41,42,42,43,43,48,48],"right_children":[2,4,6,8,10,12,14,16,18,20,-1,22,24,26,-1,28,30,32,34,36,38,40,42,44,46,48,-1,50,-1,52,54,56,58,-1,-1,-1,-1,-1,60,62,-1,64,66,68,-1,-1,-1,-1,70,-1,-1,-1,-1,-1,-1,-1,-1,-1,-1,-1,-1,-1,-1,-1,-1,-1,-1,-1,-1,-1,-1],"split_conditions":[9.1812146E-1,3.5775378E0,2.7281126E-1,-6.9135123E-1,2.3485716E1,7.9833336E1,1E4,1.9858366E0,2.74875E1,2.5154167E1,-1.1162808E0,4.106388E0,3.6E0,4.81E0,1.6330065E-1,8.8E0,4.725E1,8.88701E-1,6.2875E1,2.9054166E2,3.49E1,2.8375E0,1.808E1,8.233334E0,1.41125E1,-4.8E0,-4.3798003E0,6.17E3,-2.277731E0,1.79E1,2.1675E1,3.3389654E-2,3.1983334E2,-5.7136625E-1,1.5581332E-1,-1.4095779E-1,2.0645637E-2,-6.243615E-1,7.1583333E0,-3.375E-1,-1.1839191E0,9.35E1,6.8E0,1.02375E2,1.8756362E-2,1.613357E-1,-1.2953041E0,-3.0113745E0,-1.4E0,-5.8438945E-1,7.263654E-2,-1.4420117E0,1.485159E-1,1.2376844E-1,-3.2284555E-1,3.9259098E-3,1.4698371E-1,9.0173945E-2,-7.7915806E-1,-3.9183125E-1,-2.1546976E-1,1.5168242E-1,-1.651947E-2,1.3605627E-1,-3.609578E-1,1.367582E-1,-1.0665195E0,-8.199037E-1,-1.6867704E0,-6.651947E-2,1.5493277E-1],"split_indices":[80,15,81,80,13,27,73,46,1,1,0,61,41,54,0,16,27,80,29,6,51,24,54,23,25,0,0,73,0,51,5,79,6,0,0,0,0,0,5,24,0,26,0,6,0,0,0,0,0,0,0,0,0,0,0,0,0,0,0,0,0,0,0,0,0,0,0,0,0,0,0],"split_type":[0,0,0,0,0,0,0,0,0,0,0,0,0,0,0,0,0,0,0,0,0,0,0,0,0,0,0,0,0,0,0,0,0,0,0,0,0,0,0,0,0,0,0,0,0,0,0,0,0,0,0,0,0,0,0,0,0,0,0,0,0,0,0,0,0,0,0,0,0,0,0],"sum_hessian":[4.3441E3,3.7716E3,5.725E2,3.7087E3,6.29E1,4.507E2,1.218E2,1.0779E3,2.6308E3,4.83E1,1.46E1,3.715E2,7.92E1,7.58E1,4.6E1,3.55E2,7.229E2,2.6014E3,2.94E1,1.01E1,3.82E1,2.19E1,3.496E2,2.55E1,5.37E1,2.51E1,5.07E1,3.425E2,1.25E1,1.99E1,7.03E2,2.513E3,8.84E1,1.03E1,1.91E1,5E0,5.1E0,2.61E1,1.21E1,1.4E1,7.9E0,3.374E2,1.22E1,1.96E1,5.9E0,4.92E1,4.5E0,8.1E0,1.7E1,1.658E2,1.767E2,8.799999E0,1.11E1,6.673E2,3.57E1,4.75E1,2.4655E3,8.36E1,4.8E0,6.7E0,5.4E0,1E1,4E0,3.324E2,5E0,8.2E0,4E0,4.9E0,1.47E1,4E0,1.3E1],"tree_param":{"num_deleted":"0","num_feature":"82","num_nodes":"71","size_leaf_vector":"1"}},{"base_weights":[-2.2101663E-1,-2.9717781E1,-2.53666E-3,1.5239385E-1,-3.8920255E0,-6.9720383E0,7.394811E-1,-4.1736385E1,-2.118275E0,-2.6267752E1,9.412319E-1,-3.737049E0,-4.047711E0,-2.3302429E0,-7.248516E-1,-3.4961445E0,-1.4140762E0,1.1277976E0,-1.1813347E1,2.8910092E-1,-1.0714704E0,-7.4332795E0,2.2238286E0,1.5190123E-1,-6.649532E-1,2.551663E0,-6.607931E-3,-9.157168E0,-1.044366E0,1.4331457E-1,-3.1850597E-1,-3.838609E-2,-6.366629E-1,1.2640038E-1,-4.150191E-1,-1.2712906E-1,1.380273E-1,1.2242402E-1,-3.0946657E-1,-1.3915828E-1,-5.249095E-1],"categories":[],"categories_nodes":[],"categories_segments":[],"categories_sizes":[],"default_left":[0,0,0,0,0,0,0,0,0,0,1,0,0,0,0,0,0,0,0,1,0,0,0,0,0,0,0,0,0,0,0,0,0,0,0,0,0,0,0,0,0],"id":1,"left_children":[1,3,5,-1,-1,7,9,11,13,15,17,19,-1,-1,21,-1,23,25,27,29,-1,31,33,-1,-1,35,37,39,-1,-1,-1,-1,-1,-1,-1,-1,-1,-1,-1,-1,-1],"loss_changes":[2.8048113E4,5.0693977E4,2.2352734E4,0E0,0E0,7.008968E4,2.1309646E4,7.555127E4,2.2654062E4,3.136585E4,9.242233E3,1.9223386E3,0E0,0E0,7.056591E3,0E0,1.0722095E3,6.175728E3,1.1584482E3,4.1127017E2,0E0,3.8373706E3,8.1489185E2,0E0,0E0,1.8110938E3,3.2331525E4,3.5628174E2,0E0,0E0,0E0,0E0,0E0,0E0,0E0,0E0,0E0,0E0,0E0,0E0,0E0],"parents":[2147483647,0,0,1,1,2,2,5,5,6,6,7,7,8,8,9,9,10,10,11,11,14,14,16,16,17,17,18,18,19,19,21,21,22,22,25,25,26,26,27,27],"right_children":[2,4,6,-1,-1,8,10,12,14,16,18,20,-1,-1,22,-1,24,26,28,30,-1,32,34,-1,-1,36,38,40,-1,-1,-1,-1,-1,-1,-1,-1,-1,-1,-1,-1,-1],"split_conditions":[3.975E1,8.7E0,1.1125E1,1.5239385E-1,-3.8920255E0,5.4791668E1,3.9666668E1,7.11E3,0E0,-6.2625E0,3.5775378E0,1.7245832E1,-4.047711E0,-2.3302429E0,2.0766692E0,-3.4961445E0,5.6291668E1,-1.6587819E-1,2.3485716E1,1.15E1,-1.0714704E0,8.4125E0,2.74875E1,1.5190123E-1,-6.649532E-1,4.5222454E0,7.7541666E0,1.8614735E1,-1.044366E0,1.4331457E-1,-3.1850597E-1,-3.838609E-2,-6.366629E-1,1.2640038E-1,-4.150191E-1,-1.2712906E-1,1.380273E-1,1.2242402E-1,-3.0946657E-1,-1.3915828E-1,-5.249095E-1],"split_indices":[27,0,9,0,0,27,26,11,67,25,15,5,0,0,47,0,4,81,13,10,0,23,22,0,0,56,1,13,0,0,0,0,0,0,0,0,0,0,0,0,0],"split_type":[0,0,0,0,0,0,0,0,0,0,0,0,0,0,0,0,0,0,0,0,0,0,0,0,0,0,0,0,0,0,0,0,0,0,0,0,0,0,0,0,0],"sum_hessian":[4.3513E3,3.1E1,4.3203E3,1.9E1,1.2E1,4.149E2,3.9054E3,4.99E1,3.65E2,2.8E1,3.8774E3,2.59E1,2.4E1,1.01E1,3.549E2,9.5E0,1.85E1,3.8224E3,5.5E1,2.19E1,4E0,1.079E2,2.47E2,1.4E1,4.5E0,1.6944E3,2.128E3,4.41E1,1.09E1,1.62E1,5.7E0,4.83E1,5.96E1,2.408E2,6.2E0,6.63E1,1.6281E3,1.5236E3,6.044E2,8.2E0,3.59E1],"tree_param":{"num_deleted":"0","num_feature":"82","num_nodes":"41","size_leaf_vector":"1"}},{"base_weights":[-1.5951495E-1,1.057252E0,-8.293013E0,-6.1911597E0,1.594561E0,-5.371706E-1,-3.6930458E1,-2.400993E0,-4.346371E1,1.8277805E0,-1.0456507E1,6.615739E-1,-4.262287E1,-5.762326E0,-6.7196945E1,-1.3295212E0,-2.3630966E1,-2.604856E0,-1.308376E0,-4.6105996E-1,2.5701249E0,-8.438532E0,-1.1262032E0,9.8110795E-1,-1.2597634E0,-1.2371136E0,-2.4793963E0,-2.7736433E0,2.881603E0,1.4674988E-1,-7.922963E1,-9.360667E0,1.0387022E0,-3.6359164E-1,-1.7548087E0,-6.3398576E0,1.3954452E0,-4.632928E0,2.648382E0,-3.6458528E0,-1.0678217E1,2.0198407E0,-7.0919003E0,-7.372635E-2,1.6336489E-1,-4.1998487E0,-2.5565355E0,-9.00227E-2,-9.5271E-1,1.1264145E-1,-7.3003477E-1,1.1924044E-1,-7.0018303E-1,-6.1817807E-1,9.074946E-2,1.4599986E-1,-7.928418E-1,1.3424037E-1,-8.003764E-2,7.053522E-3,-2.9913938E-1,-5.854979E-1,-3.4852132E-1,1.3435066E-1,-1.5679292E-1,-1.0335402E0,1.279602E-1],"categories":[],"categories_nodes":[],"categories_segments":[],"categories_sizes":[],"default_left":[0,0,0,0,1,0,0,0,0,0,0,0,0,0,0,0,0,0,0,0,0,0,0,0,0,0,0,0,0,0,0,0,0,0,0,0,0,0,1,0,0,0,0,0,0,0,0,0,0,0,0,0,0,0,0,0,0,0,0,0,0,0,0,0,0,0,0],"id":2,"left_children":[1,3,5,7,9,11,13,15,17,19,21,23,25,27,29,31,33,-1,-1,35,37,39,-1,41,-1,-1,-1,-1,43,-1,45,47,49,-1,-1,51,53,55,57,59,61,63,65,-1,-1,-1,-1,-1,-1,-1,-1,-1,-1,-1,-1,-1,-1,-1,-1,-1,-1,-1,-1,-1,-1,-1,-1],"loss_changes":[4.347055E4,1.4891275E4,1.269368E5,3.717658E4,1.00193125E4,2.2771059E4,1.1451278E5,5.441588E3,2.2653477E3,5.9334473E3,1.458561E3,3.6542783E3,3.2982422E2,2.6414174E4,5.229972E4,4.386121E3,1.9017358E3,0E0,0E0,9.350155E3,1.4984414E3,6.008208E2,0E0,3.6612646E3,0E0,0E0,0E0,0E0,9.386499E1,0E0,2.7647188E3,3.813166E3,3.4241865E3,0E0,0E0,1.3780662E4,3.7820728E3,2.4792969E3,4.0807812E2,1.822648E2,7.177783E1,1.3365103E3,6.5792627E3,0E0,0E0,0E0,0E0,0E0,0E0,0E0,0E0,0E0,0E0,0E0,0E0,0E0,0E0,0E0,0E0,0E0,0E0,0E0,0E0,0E0,0E0,0E0,0E0],"parents":[2147483647,0,0,1,1,2,2,3,3,4,4,5,5,6,6,7,7,8,8,9,9,10,10,11,11,12,12,13,13,14,14,15,15,16,16,19,19,20,20,21,21,23,23,28,28,30,30,31,31,32,32,35,35,36,36,37,37,38,38,39,39,40,40,41,41,42,42],"right_children":[2,4,6,8,10,12,14,16,18,20,22,24,26,28,30,32,34,-1,-1,36,38,40,-1,42,-1,-1,-1,-1,44,-1,46,48,50,-1,-1,52,54,56,58,60,62,64,66,-1,-1,-1,-1,-1,-1,-1,-1,-1,-1,-1,-1,-1,-1,-1,-1,-1,-1,-1,-1,-1,-1,-1,-1],"split_conditions":[9.1812146E-1,-9.819472E-1,2.7281126E-1,2.05E4,3.2564712E0,2.6E1,4.81E0,9.9291664E1,1.1841666E1,-6.9135123E-1,2.3470644E1,9.3541664E1,9.675E0,-1E-1,9.8E0,1.68E1,1.9733334E1,-2.604856E0,-1.308376E0,1.65E1,4.0041668E1,2.5870832E1,-1.1262032E0,8.3416664E1,-1.2597634E0,-1.2371136E0,-2.4793963E0,-2.7736433E0,5.1625E1,1.4674988E-1,1E-1,1.838993E0,1.8342398E1,-3.6359164E-1,-1.7548087E0,1.5600892E0,4.725E1,8.7E0,3.49E1,4.42E1,6.2291668E1,9.9041664E1,3.1708334E1,-7.372635E-2,1.6336489E-1,-4.1998487E0,-2.5565355E0,-9.00227E-2,-9.5271E-1,1.1264145E-1,-7.3003477E-1,1.1924044E-1,-7.0018303E-1,-6.1817807E-1,9.074946E-2,1.4599986E-1,-7.928418E-1,1.3424037E-1,-8.003764E-2,7.053522E-3,-2.9913938E-1,-5.854979E-1,-3.4852132E-1,1.3435066E-1,-1.5679292E-1,-1.0335402E0,1.279602E-1],"split_indices":[80,80,81,45,15,55,54,9,5,80,30,4,1,10,10,38,1,0,0,65,4,1,0,27,0,0,0,0,4,0,7,15,60,0,0,77,27,19,51,16,4,9,9,0,0,0,0,0,0,0,0,0,0,0,0,0,0,0,0,0,0,0,0,0,0,0,0],"split_type":[0,0,0,0,0,0,0,0,0,0,0,0,0,0,0,0,0,0,0,0,0,0,0,0,0,0,0,0,0,0,0,0,0,0,0,0,0,0,0,0,0,0,0,0,0,0,0,0,0,0,0,0,0,0,0,0,0,0,0,0,0,0,0,0,0,0,0],"sum_hessian":[4.3906E3,3.82E3,5.706E2,2.629E2,3.5571E3,4.498E2,1.208E2,2.396E2,2.33E1,3.4904E3,6.67E1,4.383E2,1.15E1,6.01E1,6.07E1,2.291E2,1.05E1,1.4200001E1,9.1E0,8.549E2,2.6355E3,5.86E1,8.1E0,4.339E2,4.4E0,4.5E0,7E0,8.1E0,5.2E1,9E0,5.17E1,5.15E1,1.776E2,5E0,5.5E0,2.046E2,6.503E2,2.77E1,2.6078E3,1.95E1,3.91E1,3.851E2,4.88E1,4E0,4.8E1,4.25E1,9.2E0,2.96E1,2.19E1,1.656E2,1.2E1,9.6E1,1.086E2,1.84E1,6.319E2,1.7E1,1.07E1,2.586E3,2.18E1,7.8E0,1.17E1,2.89E1,1.02E1,3.414E2,4.37E1,1.98E1,2.9E1],"tree_param":{"num_deleted":"0","num_feature":"82","num_nodes":"67","size_leaf_vector":"1"}},{"base_weights":[-3.8847692E-2,1.265887E0,-8.520449E0,1.472632E0,-1.0672838E1,-9.605661E-1,-3.571779E1,-3.3107848E0,1.9953995E0,-7.768459E0,-9.676723E-1,-1.3635972E-1,-2.3709228E0,-4.5080266E0,-7.042987E1,-1.8995703E0,-1.7686514E0,1.8366368E-1,2.4060068E0,-3.3068754E-2,-8.902136E0,1.5875254E0,-8.323083E0,-2.6502008E0,2.9223325E0,1.3887583E-1,-8.0114624E1,-5.433717E-1,-1.3452755E1,-9.677653E0,1.3744686E0,2.46242E0,-3.374968E0,-5.144638E-1,-2.8604683E-1,2.4097095E0,-5.9955263E0,-2.3061241E1,-1.2485691E0,-7.077744E-2,1.6287296E-1,-4.176086E0,-2.7370706E0,1.2027053E-1,-2.8886113E-1,-1.0834125E0,1.2875281E-1,1.5414444E-1,-1.0314921E0,-2.9575515E-1,1.2768519E-1,-2.2185393E-1,1.2452479E-1,-3.9470804E-1,1.4659348E-1,1.3772206E-1,-1.2529916E-1,-7.510744E-1,1.6492419E-1,-1.4223007E0,-1.7574472E-2,6.2970065E-2,-1.1865045E0],"categories":[],"categories_nodes":[],"categories_segments":[],"categories_sizes":[],"default_left":[0,1,0,0,0,0,0,0,0,0,0,0,0,0,0,0,0,0,1,0,0,0,0,0,0,0,0,1,0,0,0,0,0,0,0,0,0,0,0,0,0,0,0,0,0,0,0,0,0,0,0,0,0,0,0,0,0,0,0,0,0,0,0],"id":3,"left_children":[1,3,5,7,9,11,13,15,17,19,-1,21,-1,23,25,27,-1,29,31,-1,33,35,37,-1,39,-1,41,43,45,47,49,51,53,-1,-1,55,57,59,61,-1,-1,-1,-1,-1,-1,-1,-1,-1,-1,-1,-1,-1,-1,-1,-1,-1,-1,-1,-1,-1,-1,-1,-1],"loss_changes":[4.8590465E4,9.408729E3,1.20329016E5,9.362904E3,1.485898E3,1.757288E4,1.375937E5,1.6628838E4,2.5092217E3,3.9938647E2,0E0,6.393687E3,0E0,2.469423E4,4.290403E4,5.5471426E3,0E0,7.3455713E3,9.0521094E2,0E0,1.322085E2,2.348082E3,8.1873135E3,0E0,9.183545E1,0E0,2.7E1,4.9263755E3,4.954158E3,9.4831455E3,4.8117397E3,5.3875E2,7.926936E2,0E0,0E0,5.803533E2,3.1449917E3,3.1083135E3,3.091482E3,0E0,0E0,0E0,0E0,0E0,0E0,0E0,0E0,0E0,0E0,0E0,0E0,0E0,0E0,0E0,0E0,0E0,0E0,0E0,0E0,0E0,0E0,0E0,0E0],"parents":[2147483647,0,0,1,1,2,2,3,3,4,4,5,5,6,6,7,7,8,8,9,9,11,11,13,13,14,14,15,15,17,17,18,18,20,20,21,21,22,22,24,24,26,26,27,27,28,28,29,29,30,30,31,31,32,32,35,35,36,36,37,37,38,38],"right_children":[2,4,6,8,10,12,14,16,18,20,-1,22,-1,24,26,28,-1,30,32,-1,34,36,38,-1,40,-1,42,44,46,48,50,52,54,-1,-1,56,58,60,62,-1,-1,-1,-1,-1,-1,-1,-1,-1,-1,-1,-1,-1,-1,-1,-1,-1,-1,-1,-1,-1,-1,-1,-1],"split_conditions":[9.1812146E-1,3.5775378E0,2.7281126E-1,-9.6206754E-1,2.3485716E1,1.1E0,5.17E0,2.05E4,-7.379428E-1,1.84E1,-9.676723E-1,7.9833336E1,-2.3709228E0,3.16E3,9.3E0,9.6291664E1,-1.7686514E0,1.71E1,3.47E1,-3.3068754E-2,2.1223137E1,9.9375E1,3.9686465E-1,-2.6502008E0,-1.1458333E1,1.3887583E-1,1.16E1,2.2856271E0,5.3E0,1.4321428E1,5.7375E1,3.6916668E1,2.338714E1,-5.144638E-1,-2.8604683E-1,2.67E4,6.5639153E0,8.233334E0,2.16E1,-7.077744E-2,1.6287296E-1,-4.176086E0,-2.7370706E0,1.2027053E-1,-2.8886113E-1,-1.0834125E0,1.2875281E-1,1.5414444E-1,-1.0314921E0,-2.9575515E-1,1.2768519E-1,-2.2185393E-1,1.2452479E-1,-3.9470804E-1,1.4659348E-1,1.3772206E-1,-1.2529916E-1,-7.510744E-1,1.6492419E-1,-1.4223007E0,-1.7574472E-2,6.2970065E-2,-1.1865045E0],"split_indices":[80,15,81,80,13,17,54,45,80,0,0,27,0,11,10,9,0,67,51,0,58,9,49,0,3,0,0,49,17,52,28,29,57,0,0,43,57,23,21,0,0,0,0,0,0,0,0,0,0,0,0,0,0,0,0,0,0,0,0,0,0,0,0],"split_type":[0,0,0,0,0,0,0,0,0,0,0,0,0,0,0,0,0,0,0,0,0,0,0,0,0,0,0,0,0,0,0,0,0,0,0,0,0,0,0,0,0,0,0,0,0,0,0,0,0,0,0,0,0,0,0,0,0,0,0,0,0,0,0],"sum_hessian":[4.3889E3,3.8045E3,5.844E2,3.7406E3,6.39E1,4.581E2,1.263E2,3.68E2,3.3726E3,4.93E1,1.46E1,4.511E2,7E0,6.71E1,5.92E1,3.535E2,1.45E1,6.234E2,2.7492E3,7E0,4.23E1,3.733E2,7.78E1,8.1E0,5.9E1,7E0,5.22E1,3.173E2,3.62E1,6.64E1,5.57E2,2.7232E3,2.6E1,2.79E1,1.44E1,3.374E2,3.59E1,2.45E1,5.33E1,4E0,5.5E1,4.4E1,8.2E0,2.033E2,1.14E2,2.37E1,1.25E1,3.1E1,3.54E1,7.7E1,4.8E2,1.04E1,2.7128E3,1.5E1,1.1E1,3.157E2,2.17E1,1.79E1,1.8E1,1.96E1,4.9E0,4.88E1,4.5E0],"tree_param":{"num_deleted":"0","num_feature":"82","num_nodes":"63","size_leaf_vector":"1"}},{"base_weights":[1.516317E-1,1.1358638E0,-7.0849047E0,-1.5005807E0,1.9059718E0,2.2193074E-2,-3.755852E1,-6.076629E0,8.273742E-1,2.123706E0,-8.726069E0,8.920553E-1,-2.2671947E0,2.6811433E0,-6.389065E1,-4.435783E0,-1.9847668E0,-6.9003506E0,1.5763941E0,-4.5431395E0,2.1893237E0,-4.4456534E0,-1.2380139E1,-1.0526837E1,1.7785462E0,1.5900226E-1,-7.235893E-2,-3.7138078E0,1.4336209E-1,-1.7370634E1,-2.1597388E0,1.7615658E0,-2.8062963E1,1.9819925E0,-1.18236065E1,-7.730789E-1,1.4031212E-1,9.8597383E-1,2.4302444E0,-5.0077164E-1,-6.7807326E0,-2.3736873E-1,-1.3373239E1,-1.1960058E0,1.4273524E-1,-6.025549E0,2.353392E0,-1.0231236E0,-3.824641E-2,3.3487212E-2,-3.7318602E-1,1.423113E-1,-2.433636E-1,-9.458251E-1,-1.8216892E0,-5.1526215E-2,1.3151425E-1,1.3894384E-1,-1.6347302E0,9.2097774E-2,-3.8275838E-1,-3.159552E-1,1.2319787E-1,6.8870604E-2,-9.145235E-2,-4.0669426E-1,-1.5074687E-1,-7.3027086E-1,-4.5159084E-1,9.488241E-2,-9.91136E-1,1.2517934E-1,-3.4889615E-1],"categories":[],"categories_nodes":[],"categories_segments":[],"categories_sizes":[],"default_left":[0,0,0,0,1,0,0,0,0,0,0,0,0,0,0,0,0,0,0,0,1,0,0,1,0,0,0,0,0,0,0,0,0,0,0,0,0,1,0,0,0,0,0,0,0,0,0,0,0,0,0,0,0,0,0,0,0,0,0,0,0,0,0,0,0,0,0,0,0,0,0,0,0],"id":4,"left_children":[1,3,5,7,9,11,13,15,17,19,21,23,-1,25,27,29,-1,31,33,35,37,39,41,43,45,-1,-1,-1,-1,47,49,51,53,55,57,-1,-1,59,61,63,65,-1,67,-1,-1,69,71,-1,-1,-1,-1,-1,-1,-1,-1,-1,-1,-1,-1,-1,-1,-1,-1,-1,-1,-1,-1,-1,-1,-1,-1,-1,-1],"loss_changes":[3.1047602E4,7.7935034E3,1.13033414E5,9.2516875E3,6.8941973E3,1.6780334E4,1.0475342E5,1.5975682E4,3.3460498E3,1.2835293E3,8.8029004E2,4.2419316E3,0E0,8.698715E1,4.1603844E4,8.214598E3,0E0,9.416514E3,2.8827983E3,2.3463855E3,8.3359375E2,2.646623E2,1.7680127E2,5.4808115E3,1.7548066E3,0E0,0E0,0E0,0E0,2.1304502E3,3.5993008E3,2.813227E2,4.5159473E2,1.0016659E3,4.845241E3,0E0,0E0,3.5844675E3,7.240498E2,3.2206818E1,6.8218506E1,0E0,1.51953125E1,0E0,0E0,2.9782627E3,5.24958E2,0E0,0E0,0E0,0E0,0E0,0E0,0E0,0E0,0E0,0E0,0E0,0E0,0E0,0E0,0E0,0E0,0E0,0E0,0E0,0E0,0E0,0E0,0E0,0E0,0E0,0E0],"parents":[2147483647,0,0,1,1,2,2,3,3,4,4,5,5,6,6,7,7,8,8,9,9,10,10,11,11,13,13,14,14,15,15,17,17,18,18,19,19,20,20,21,21,22,22,23,23,24,24,29,29,30,30,31,31,32,32,33,33,34,34,37,37,38,38,39,39,40,40,42,42,45,45,46,46],"right_children":[2,4,6,8,10,12,14,16,18,20,22,24,-1,26,28,30,-1,32,34,36,38,40,42,44,46,-1,-1,-1,-1,48,50,52,54,56,58,-1,-1,60,62,64,66,-1,68,-1,-1,70,72,-1,-1,-1,-1,-1,-1,-1,-1,-1,-1,-1,-1,-1,-1,-1,-1,-1,-1,-1,-1,-1,-1,-1,-1,-1,-1],"split_conditions":[9.248026E-1,-7.944973E-1,2.7281126E-1,1.9631637E0,3.2564712E0,8E-1,4.81E0,8.8E0,3.0534248E0,4.0041668E1,3.16E1,5.53E3,-2.2671947E0,4.45E0,1E4,5.5708332E1,-1.9847668E0,8.066039E0,9.0583336E1,2.7E0,4.156E3,2.87E1,4.8208332E1,5.4E0,4.106388E0,1.5900226E-1,-7.235893E-2,-3.7138078E0,1.4336209E-1,1.8029703E1,1.76E1,8.2833336E1,9.1E0,2.46E1,2.27E1,-7.730789E-1,1.4031212E-1,4.337857E3,3.9666668E1,2.1132812E1,2.06E3,-2.3736873E-1,3.15E1,-1.1960058E0,1.4273524E-1,2.8375E0,9.4416664E1,-1.0231236E0,-3.824641E-2,3.3487212E-2,-3.7318602E-1,1.423113E-1,-2.433636E-1,-9.458251E-1,-1.8216892E0,-5.1526215E-2,1.3151425E-1,1.3894384E-1,-1.6347302E0,9.2097774E-2,-3.8275838E-1,-3.159552E-1,1.2319787E-1,6.8870604E-2,-9.145235E-2,-4.0669426E-1,-1.5074687E-1,-7.3027086E-1,-4.5159084E-1,9.488241E-2,-9.91136E-1,1.2517934E-1,-3.4889615E-1],"split_indices":[80,80,81,15,15,17,54,16,31,4,2,11,0,54,73,29,0,58,4,40,72,41,27,10,61,0,0,0,0,61,2,26,0,67,2,0,0,70,26,31,44,0,21,0,0,24,26,0,0,0,0,0,0,0,0,0,0,0,0,0,0,0,0,0,0,0,0,0,0,0,0,0,0],"split_type":[0,0,0,0,0,0,0,0,0,0,0,0,0,0,0,0,0,0,0,0,0,0,0,0,0,0,0,0,0,0,0,0,0,0,0,0,0,0,0,0,0,0,0,0,0,0,0,0,0,0,0,0,0,0,0,0,0,0,0,0,0,0,0,0,0,0,0,0,0,0,0,0,0],"sum_hessian":[4.357E3,3.8361E3,5.209E2,8.67E2,2.9691E3,4.232E2,9.77E1,2.918E2,5.752E2,2.9103E3,5.88E1,4.162E2,7E0,3.9E1,5.87E1,2.793E2,1.25E1,5.01E1,5.251E2,2.77E1,2.8826E3,2.81E1,3.07E1,2.92E1,3.87E2,3.5E1,4E0,5.07E1,8E0,4.08E1,2.385E2,3.62E1,1.39E1,5.105E2,1.46E1,1.07E1,1.7E1,4.817E2,2.4009E3,1.09E1,1.72E1,4.2E0,2.65E1,1.42E1,1.5E1,2.59E1,3.611E2,3.42E1,6.6E0,1.561E2,8.24E1,3.16E1,4.6E0,8.2E0,5.7E0,9.03E1,4.202E2,9.1E0,5.5E0,4.39E2,4.27E1,8.5E0,2.3924E3,4.5E0,6.4E0,1.18E1,5.4E0,1.88E1,7.7E0,1.7E1,8.9E0,3.561E2,5E0],"tree_param":{"num_deleted":"0","num_feature":"82","num_nodes":"73","size_leaf_vector":"1"}},{"base_weights":[-1.0897465E-2,1.0201075E0,-7.062153E0,-5.448664E0,1.4239975E0,-2.7804144E1,5.6677572E-2,-1.4013767E0,-3.868535E1,1.60613E0,-9.968989E0,-5.0329404E0,-5.431127E1,9.0597457E-1,-2.168005E0,-1.833427E-1,-2.3470932E1,-2.3574603E0,-1.1058716E0,-3.1939077E-1,2.0459106E0,-7.195061E0,-9.5423424E-1,-3.975971E1,3.0220037E0,1.4092481E-1,-6.845749E1,1.2157525E0,-8.032932E-1,1.9344596E0,-5.3644977E0,-4.292086E-1,-1.5655687E0,-1.326427E1,6.032066E-1,-5.1574826E0,2.1101203E0,-8.838482E0,-3.4272141E0,-9.3069565E-1,-2.536351E0,2.0131357E-1,1.4033197E-1,-3.632118E0,-2.1949363E0,-4.17902E0,1.6913928E0,-2.432019E-1,1.23466924E-1,-6.356716E-1,8.816151E-3,1.3343212E-1,-1.0037922E0,-5.6213635E-1,5.6529462E-2,1.3922094E-1,-9.2722905E-1,-9.5436996E-4,1.0982274E-1,-4.8640686E-1,-2.993333E-1,-2.4505353E-2,-2.6092893E-1,1.0402931E-1,-9.46585E-1,-3.956533E-1,9.761626E-2],"categories":[],"categories_nodes":[],"categories_segments":[],"categories_sizes":[],"default_left":[0,0,0,0,1,0,0,0,0,0,0,0,0,0,0,1,0,0,0,0,0,0,0,0,0,0,0,0,0,0,0,0,0,0,0,0,0,0,0,0,0,0,0,0,0,0,0,0,0,0,0,0,0,0,0,0,0,0,0,0,0,0,0,0,0,0,0],"id":5,"left_children":[1,3,5,7,9,11,13,15,17,19,21,23,25,27,-1,29,31,-1,-1,33,35,37,-1,39,41,-1,43,45,-1,47,49,-1,-1,51,53,55,57,59,61,-1,-1,-1,-1,-1,-1,63,65,-1,-1,-1,-1,-1,-1,-1,-1,-1,-1,-1,-1,-1,-1,-1,-1,-1,-1,-1,-1],"loss_changes":[3.1760586E4,9.965961E3,8.229178E4,3.0104818E4,7.461848E3,8.567918E4,1.5375071E4,5.3961836E3,2.3647305E3,2.992166E3,1.2938872E3,2.1854566E4,5.3289703E4,2.1693245E3,0E0,2.110545E3,9.5676514E2,0E0,0E0,7.8628535E3,1.3411133E3,2.4835571E2,0E0,2.4648887E3,2.54187E0,0E0,2.2273438E3,1.0398715E3,0E0,5.0873947E2,2.274369E3,0E0,0E0,4.807111E3,3.854201E3,2.7840344E3,5.2418066E2,1.9650879E1,7.7942215E1,0E0,0E0,0E0,0E0,0E0,0E0,3.0775713E3,9.4421533E2,0E0,0E0,0E0,0E0,0E0,0E0,0E0,0E0,0E0,0E0,0E0,0E0,0E0,0E0,0E0,0E0,0E0,0E0,0E0,0E0],"parents":[2147483647,0,0,1,1,2,2,3,3,4,4,5,5,6,6,7,7,8,8,9,9,10,10,11,11,12,12,13,13,15,15,16,16,19,19,20,20,21,21,23,23,24,24,26,26,27,27,29,29,30,30,33,33,34,34,35,35,36,36,37,37,38,38,45,45,46,46],"right_children":[2,4,6,8,10,12,14,16,18,20,22,24,26,28,-1,30,32,-1,-1,34,36,38,-1,40,42,-1,44,46,-1,48,50,-1,-1,52,54,56,58,60,62,-1,-1,-1,-1,-1,-1,64,66,-1,-1,-1,-1,-1,-1,-1,-1,-1,-1,-1,-1,-1,-1,-1,-1,-1,-1,-1,-1],"split_conditions":[9.206588E-1,-9.8542374E-1,6.4213335E3,2.05E4,3.5775378E0,8.01E3,2.56E1,9.9291664E1,1.1841666E1,-7.7313834E-1,3E1,-4.8E0,9.102144E0,9.4416664E1,-2.168005E0,2.893042E0,1.44E1,-2.3574603E0,-1.1058716E0,1.65E1,4.0041668E1,1.99E3,-9.5423424E-1,-6.4E0,5.4E0,1.4092481E-1,1.2633333E1,4.106388E0,-8.032932E-1,1.8466667E1,6.5791664E1,-4.292086E-1,-1.5655687E0,8.8E0,4.725E1,8.125E1,4.5416665E0,2.1093197E1,3.9353812E0,-9.3069565E-1,-2.536351E0,2.0131357E-1,1.4033197E-1,-3.632118E0,-2.1949363E0,2.8375E0,5.48E3,-2.432019E-1,1.23466924E-1,-6.356716E-1,8.816151E-3,1.3343212E-1,-1.0037922E0,-5.6213635E-1,5.6529462E-2,1.3922094E-1,-9.2722905E-1,-9.5436996E-4,1.0982274E-1,-4.8640686E-1,-2.993333E-1,-2.4505353E-2,-2.6092893E-1,1.0402931E-1,-9.46585E-1,-3.956533E-1,9.761626E-2],"split_indices":[80,80,72,45,15,42,21,9,5,80,10,0,57,4,0,79,0,0,0,67,4,44,0,0,10,0,22,61,0,66,29,0,0,10,27,29,9,58,48,0,0,0,0,0,0,24,11,0,0,0,0,0,0,0,0,0,0,0,0,0,0,0,0,0,0,0,0],"split_type":[0,0,0,0,0,0,0,0,0,0,0,0,0,0,0,0,0,0,0,0,0,0,0,0,0,0,0,0,0,0,0,0,0,0,0,0,0,0,0,0,0,0,0,0,0,0,0,0,0,0,0,0,0,0,0,0,0,0,0,0,0,0,0,0,0,0,0],"sum_hessian":[4.3668E3,3.8105E3,5.563E2,2.232E2,3.5873E3,1.414E2,4.149E2,1.999E2,2.33E1,3.5317E3,5.56E1,7.67E1,6.47E1,4.079E2,7E0,1.904E2,9.5E0,1.4200001E1,9.1E0,6.567E2,2.875E3,4.4E1,1.16E1,1.3700001E1,6.3E1,1.3E1,5.17E1,4.015E2,6.4E0,1.356E2,5.48E1,4E0,5.5E0,4.28E1,6.139E2,2.47E1,2.8503E3,2.97E1,1.43E1,5.6E0,8.1E0,8E0,5.5E1,4.25E1,9.2E0,3.19E1,3.696E2,9.3E0,1.263E2,2.3E1,3.18E1,1.3E1,2.98E1,2.53E1,5.886E2,1.6E1,8.7E0,1.111E2,2.7392E3,2.08E1,8.9E0,5.9E0,8.4E0,2.3E1,8.9E0,9E0,3.606E2],"tree_param":{"num_deleted":"0","num_feature":"82","num_nodes":"67","size_leaf_vector":"1"}},{"base_weights":[-2.469711E-1,8.056064E-1,-8.280429E0,-4.7312756E0,1.2116206E0,-9.504665E-2,-3.9239944E1,-1.4222194E0,-3.8825943E1,1.3963655E0,-8.860139E0,-7.336316E0,8.783567E-1,2.924275E0,-5.9274918E1,-6.4655036E-1,-1.2768444E0,-2.247342E0,-1.2167721E0,-2.7180994E-1,1.9390049E0,-4.331983E0,-1.3582632E1,2.5145752E0,-2.0939007E1,1.2215649E0,-7.685563E-1,2.1665566E-1,1.3013558E-1,-3.4107442E0,1.3530831E-1,-8.187537E0,8.358761E-1,-5.34254E0,1.2501193E0,-4.7126746E0,2.0106583E0,-7.856915E-1,-6.109534E0,-4.967981E-1,-9.103093E-1,1.4021389E-1,3.96612E-2,-1.2469603E0,-4.3662816E-1,1.7671043E0,-6.7442603E0,-2.8955026E-2,-7.942347E-1,-5.7233447E-1,7.213267E-2,1.3197896E-1,-5.668242E-1,-1.23915315E-1,1.1582823E-1,1.4033668E-1,-6.5752375E-1,-4.9453374E-2,1.0433036E-1,3.892776E-2,-9.689125E-2,-3.5001367E-1,-1.3596518E-1,1.0317061E-1,-2.6806495E-1,-8.1098205E-1,7.822611E-2],"categories":[],"categories_nodes":[],"categories_segments":[],"categories_sizes":[],"default_left":[0,0,0,0,1,0,0,0,0,0,0,0,0,0,0,0,0,0,0,0,0,0,0,0,0,0,0,0,0,0,0,0,0,0,0,0,0,0,0,0,0,0,0,0,0,0,0,0,0,0,0,0,0,0,0,0,0,0,0,0,0,0,0,0,0,0,0],"id":6,"left_children":[1,3,5,7,9,11,13,15,17,19,21,23,25,27,29,31,-1,-1,-1,33,35,37,39,41,43,45,-1,-1,-1,-1,-1,47,49,51,53,55,57,59,61,-1,-1,-1,-1,-1,-1,63,65,-1,-1,-1,-1,-1,-1,-1,-1,-1,-1,-1,-1,-1,-1,-1,-1,-1,-1,-1,-1],"loss_changes":[3.6897797E4,8.679395E3,1.280978E5,2.9707008E4,6.7025444E3,2.8315532E3,8.946436E4,4.5007476E3,9.7278516E2,3.197395E3,1.3289946E3,6.4309863E3,1.9941343E3,4.5782776E0,3.9914188E4,2.633899E3,0E0,0E0,0E0,6.702973E3,1.2796064E3,2.1330823E2,3.4683984E2,1.1987946E1,7.6366406E2,1.5233425E3,0E0,0E0,0E0,0E0,0E0,2.257202E3,1.4869475E3,9.622721E3,2.6626128E3,1.8578462E3,6.028877E2,2.4396908E1,5.0117798E1,0E0,0E0,0E0,0E0,0E0,0E0,7.0027374E2,1.7967759E3,0E0,0E0,0E0,0E0,0E0,0E0,0E0,0E0,0E0,0E0,0E0,0E0,0E0,0E0,0E0,0E0,0E0,0E0,0E0,0E0],"parents":[2147483647,0,0,1,1,2,2,3,3,4,4,5,5,6,6,7,7,8,8,9,9,10,10,11,11,12,12,13,13,14,14,15,15,19,19,20,20,21,21,22,22,23,23,24,24,25,25,31,31,32,32,33,33,34,34,35,35,36,36,37,37,38,38,45,45,46,46],"right_children":[2,4,6,8,10,12,14,16,18,20,22,24,26,28,30,32,-1,-1,-1,34,36,38,40,42,44,46,-1,-1,-1,-1,-1,48,50,52,54,56,58,60,62,-1,-1,-1,-1,-1,-1,64,66,-1,-1,-1,-1,-1,-1,-1,-1,-1,-1,-1,-1,-1,-1,-1,-1,-1,-1,-1,-1],"split_conditions":[9.335419E-1,-9.819472E-1,2.7281126E-1,2.05E4,3.5775378E0,6.3E0,4.81E0,9.1083336E1,1.1841666E1,-6.788205E-1,2.26E1,2.8375E0,9.4416664E1,4.9166665E0,1E4,1.9733948E1,-1.2768444E0,-2.247342E0,-1.2167721E0,1.65E1,4.0041668E1,2.5154167E1,3E1,1.31E4,1.4545834E1,8.7875E1,-7.685563E-1,2.1665566E-1,1.3013558E-1,-3.4107442E0,1.3530831E-1,1.983E1,1.5E1,6.4398317E0,6.1583332E1,3.8242922E0,4.9E0,2.1132812E1,6.1375E1,-4.967981E-1,-9.103093E-1,1.4021389E-1,3.96612E-2,-1.2469603E0,-4.3662816E-1,1.808E1,4.5222454E0,-2.8955026E-2,-7.942347E-1,-5.7233447E-1,7.213267E-2,1.3197896E-1,-5.668242E-1,-1.23915315E-1,1.1582823E-1,1.4033668E-1,-6.5752375E-1,-4.9453374E-2,1.0433036E-1,3.892776E-2,-9.689125E-2,-3.5001367E-1,-1.3596518E-1,1.0317061E-1,-2.6806495E-1,-8.1098205E-1,7.822611E-2],"split_indices":[80,80,81,45,15,50,54,4,5,80,0,36,4,9,73,61,0,0,0,65,4,1,10,45,5,27,0,0,0,0,0,54,40,58,26,57,55,31,28,0,0,0,0,0,0,54,56,0,0,0,0,0,0,0,0,0,0,0,0,0,0,0,0,0,0,0,0],"split_type":[0,0,0,0,0,0,0,0,0,0,0,0,0,0,0,0,0,0,0,0,0,0,0,0,0,0,0,0,0,0,0,0,0,0,0,0,0,0,0,0,0,0,0,0,0,0,0,0,0,0,0,0,0,0,0,0,0,0,0,0,0,0,0,0,0,0,0],"sum_hessian":[4.3618E3,3.8573E3,5.045E2,2.628E2,3.5945E3,3.998E2,1.047E2,2.405E2,2.23E1,3.5306E3,6.39E1,4.66E1,3.532E2,3.4E1,7.07E1,2.34E2,6.5E0,1.4200001E1,8.1E0,8.667E2,2.6639E3,3.36E1,3.03E1,2.75E1,1.91E1,3.468E2,6.4E0,4E0,3E1,6.17E1,9E0,3.77E1,1.963E2,1.995E2,6.672E2,2.77E1,2.6362E3,1.17E1,2.19E1,1.87E1,1.16E1,2.3E1,4.5E0,1.36E1,5.5E0,3.253E2,2.15E1,1.95E1,1.82E1,8.4E0,1.879E2,8.58E1,1.137E2,1.481E2,5.191E2,1.5E1,1.27E1,6.48E1,2.5714E3,5.1E0,6.6E0,1.65E1,5.4E0,3.13E2,1.23E1,9.6E0,1.19E1],"tree_param":{"num_deleted":"0","num_feature":"82","num_nodes":"67","size_leaf_vector":"1"}},{"base_weights":[-2.4360274E-1,7.7889544E-1,-7.610186E0,-5.5232944E0,1.1737227E0,-2.9779094E-1,-3.437123E1,-1.1654027E0,-2.5300798E1,1.3681524E0,-8.827808E0,4.942266E-1,-2.0777192E0,-5.398323E0,-6.3552578E1,-1.1384688E1,1.1299174E0,-7.796477E0,-2.0685375E0,-2.4646519E-1,1.9517282E0,-6.5753465E0,-8.1160873E-1,1.6696038E0,-7.8452787E0,-2.4281127E0,2.409326E0,-2.0475454E0,-3.44604E0,-2.398427E1,-1.265563E0,-1.321708E1,2.1048493E0,-7.4414444E-1,1.4551608E-1,1.4597242E0,-3.7304642E0,-1.9041998E0,2.0445335E0,-1.3908241E0,-7.848756E0,2.1249716E0,-3.78313E0,-1.9529896E1,8.09402E-2,2.7608256E0,-6.8831794E-2,-1.3412083E0,-7.432542E-1,1.9500433E-1,-3.8974178E-1,-8.8082707E-1,-3.6740083E-1,-2.1618533E-1,1.3511604E-1,-4.6519384E-1,9.0019815E-2,-6.264393E-1,7.65868E-2,-1.0029888E0,1.1639734E-1,1.04380205E-1,-1.3071875E-1,-1.20762706E-1,2.4441784E-2,-4.4209558E-1,-2.4270146E-1,1.2042816E-1,-1.321088E-1,-8.6519665E-1,1.3480063E-1,-1.266095E0,-2.5630517E-2,1.5291247E-1,-7.044268E-1,2.0798957E-1,1.266975E-1],"categories":[],"categories_nodes":[],"categories_segments":[],"categories_sizes":[],"default_left":[0,0,0,1,1,0,0,0,0,0,0,0,0,0,0,0,0,0,0,0,0,0,0,0,0,0,0,0,0,0,0,0,0,0,0,0,0,0,1,0,0,0,0,0,0,0,0,0,0,0,0,0,0,0,0,0,0,0,0,0,0,0,0,0,0,0,0,0,0,0,0,0,0,0,0,0,0],"id":7,"left_children":[1,3,5,7,9,11,13,15,17,19,21,23,-1,25,27,29,31,33,-1,35,37,39,-1,41,43,-1,45,-1,-1,47,49,51,53,-1,-1,55,57,59,61,63,65,67,69,71,73,75,-1,-1,-1,-1,-1,-1,-1,-1,-1,-1,-1,-1,-1,-1,-1,-1,-1,-1,-1,-1,-1,-1,-1,-1,-1,-1,-1,-1,-1,-1,-1],"loss_changes":[3.329124E4,9.664232E3,1.0540652E5,1.9707617E4,7.116265E3,1.3878405E4,9.739308E4,4.4391113E3,1.1294877E4,3.3779814E3,1.057396E3,4.1015396E3,0E0,2.0034225E4,4.1541406E3,4.3937837E3,2.1958584E3,1.6366428E3,0E0,5.6674507E3,9.4611426E2,3.5351538E2,0E0,9.1781E2,4.789768E3,0E0,7.166962E1,0E0,0E0,7.910156E-2,7.1507764E2,1.287605E2,5.724523E2,0E0,0E0,2.3639065E3,1.452915E4,4.841331E3,5.2147754E2,2.4480179E1,8.824463E1,4.6439526E2,2.5521033E3,2.2891177E3,1.38463E3,4.3766785E0,0E0,0E0,0E0,0E0,0E0,0E0,0E0,0E0,0E0,0E0,0E0,0E0,0E0,0E0,0E0,0E0,0E0,0E0,0E0,0E0,0E0,0E0,0E0,0E0,0E0,0E0,0E0,0E0,0E0,0E0,0E0],"parents":[2147483647,0,0,1,1,2,2,3,3,4,4,5,5,6,6,7,7,8,8,9,9,10,10,11,11,13,13,14,14,15,15,16,16,17,17,19,19,20,20,21,21,23,23,24,24,26,26,29,29,30,30,31,31,32,32,35,35,36,36,37,37,38,38,39,39,40,40,41,41,42,42,43,43,44,44,45,45],"right_children":[2,4,6,8,10,12,14,16,18,20,22,24,-1,26,28,30,32,34,-1,36,38,40,-1,42,44,-1,46,-1,-1,48,50,52,54,-1,-1,56,58,60,62,64,66,68,70,72,74,76,-1,-1,-1,-1,-1,-1,-1,-1,-1,-1,-1,-1,-1,-1,-1,-1,-1,-1,-1,-1,-1,-1,-1,-1,-1,-1,-1,-1,-1,-1,-1],"split_conditions":[9.206588E-1,-9.8542374E-1,2.9343396E-1,2.17E1,3.5775378E0,8E-1,4.81E0,8.9916664E1,7.11E3,1.66E1,2.3485716E1,8.3625E1,-2.0777192E0,3.16E3,8.2625E0,6.4833336E1,1.21E1,9.866542E2,-2.0685375E0,6.4398317E0,4.725E1,3.04E1,-8.1160873E-1,8.4125E1,3.6E0,-2.4281127E0,1.59E1,-2.0475454E0,-3.44604E0,7.8708336E1,7.8916664E1,3E0,1.38E1,-7.4414444E-1,1.4551608E-1,4.9E0,5.05E3,-9.5785236E-1,3.47E1,2.7904166E2,3.49E1,2.53E4,1.1E0,7.119558E0,2.11E4,4.9166665E0,-6.8831794E-2,-1.3412083E0,-7.432542E-1,1.9500433E-1,-3.8974178E-1,-8.8082707E-1,-3.6740083E-1,-2.1618533E-1,1.3511604E-1,-4.6519384E-1,9.0019815E-2,-6.264393E-1,7.65868E-2,-1.0029888E0,1.1639734E-1,1.04380205E-1,-1.3071875E-1,-1.20762706E-1,2.4441784E-2,-4.4209558E-1,-2.4270146E-1,1.2042816E-1,-1.321088E-1,-8.6519665E-1,1.3480063E-1,-1.266095E0,-2.5630517E-2,1.5291247E-1,-7.044268E-1,2.0798957E-1,1.266975E-1],"split_indices":[80,80,81,40,15,17,54,6,11,39,13,27,0,11,1,28,19,8,0,58,27,2,0,26,41,0,19,0,0,6,27,0,2,0,0,55,71,80,51,6,51,42,21,31,11,9,0,0,0,0,0,0,0,0,0,0,0,0,0,0,0,0,0,0,0,0,0,0,0,0,0,0,0,0,0,0,0],"split_type":[0,0,0,0,0,0,0,0,0,0,0,0,0,0,0,0,0,0,0,0,0,0,0,0,0,0,0,0,0,0,0,0,0,0,0,0,0,0,0,0,0,0,0,0,0,0,0,0,0,0,0,0,0,0,0,0,0,0,0,0,0,0,0,0,0,0,0,0,0,0,0,0,0,0,0,0,0],"sum_hessian":[4.418E3,3.8803E3,5.377E2,2.28E2,3.6523E3,4.231E2,1.146E2,1.877E2,4.03E1,3.5835E3,6.88E1,4.161E2,7E0,5.81E1,5.65E1,3.37E1,1.54E2,2E1,2.03E1,9.515E2,2.632E3,5.42E1,1.46E1,3.654E2,5.07E1,8.1E0,5E1,1.25E1,4.4E1,1.44E1,1.93E1,9E0,1.45E2,1.18E1,8.2E0,6.391E2,3.124E2,6.14E1,2.5706E3,1.11E1,4.31E1,3.378E2,2.76E1,1.99E1,3.08E1,4.6E1,4E0,9.5E0,4.9E0,1.1E1,8.3E0,4E0,5E0,1.18E1,1.332E2,1.88E1,6.203E2,1.164E2,1.96E2,1.09E1,5.05E1,2.5476E3,2.3E1,7E0,4.1E0,3.09E1,1.22E1,3.193E2,1.85E1,8.4E0,1.92E1,1.5E1,4.9E0,2.61E1,4.7E0,4E0,4.2E1],"tree_param":{"num_deleted":"0","num_feature":"82","num_nodes":"77","size_leaf_vector":"1"}},{"base_weights":[-6.110096E-2,7.5019956E-1,-5.6398616E0,-5.5024495E0,1.1626998E0,-2.8128622E1,-1.6841234E0,-1.5059496E0,-2.7124828E1,1.2982192E0,-7.90179E0,-5.7369442E1,-6.4142084E0,-7.690598E-1,-1.78022E0,1.4983315E0,-8.398637E0,-9.947941E0,-1.9699665E0,-3.1526068E-1,1.8537896E0,-5.5074987E0,-1.0616631E1,-3.272522E0,-1.9676119E0,-2.3200483E0,1.3086729E-1,9.1485746E-2,-1.6231383E0,-6.882693E-1,2.3345976E0,-2.2126496E0,-2.022339E1,-7.0984405E-1,1.4594682E-1,-5.325193E0,1.2952204E0,-4.99378E0,1.8866242E0,-6.694825E0,-2.1906614E0,-6.400137E-1,-3.3632514E-1,8.3662605E-1,-7.857113E0,-1.451593E-1,1.4747982E-1,2.5197422E-2,-7.612107E-1,-4.3605E-1,-1.2444848E0,9.2722185E-2,-5.9509414E-1,8.569739E-2,-2.691452E-1,-7.309917E-1,1.3648286E-1,-2.6419893E-1,9.571605E-2,-2.1427338E-1,-3.9120573E-1,-2.8001443E-2,-1.7731126E-1,-5.1360065E-1,6.971442E-2,-1.0107027E0,-3.378682E-2],"categories":[],"categories_nodes":[],"categories_segments":[],"categories_sizes":[],"default_left":[0,0,0,1,1,0,0,0,0,0,0,0,0,0,0,0,0,0,0,0,0,0,0,0,0,0,0,0,0,0,0,1,0,0,0,0,0,0,0,1,0,0,0,0,0,0,0,0,0,0,0,0,0,0,0,0,0,0,0,0,0,0,0,0,0,0,0],"id":8,"left_children":[1,3,5,7,9,11,13,15,17,19,21,23,25,27,-1,29,31,33,-1,35,37,39,41,-1,-1,-1,-1,43,-1,-1,45,47,49,-1,-1,51,53,55,57,59,61,-1,-1,63,65,-1,-1,-1,-1,-1,-1,-1,-1,-1,-1,-1,-1,-1,-1,-1,-1,-1,-1,-1,-1,-1,-1],"loss_changes":[1.993832E4,9.926075E3,4.9707766E4,2.0542928E4,4.4433584E3,5.2713617E4,1.4769011E4,4.197584E3,7.4301367E3,3.1886372E3,2.879851E2,2.5930625E3,1.7853549E4,1.2690777E4,0E0,1.8395942E3,4.4538403E3,9.599055E2,0E0,7.363665E3,6.042744E2,1.0505426E2,1.169209E2,0E0,0E0,0E0,0E0,2.6949421E3,0E0,0E0,4.437514E2,1.4745807E3,9.1008496E2,0E0,0E0,1.05045205E4,1.9409199E3,9.989734E2,5.331953E2,2.6056946E1,1.9013062E1,0E0,0E0,2.5907676E3,3.4471948E3,0E0,0E0,0E0,0E0,0E0,0E0,0E0,0E0,0E0,0E0,0E0,0E0,0E0,0E0,0E0,0E0,0E0,0E0,0E0,0E0,0E0,0E0],"parents":[2147483647,0,0,1,1,2,2,3,3,4,4,5,5,6,6,7,7,8,8,9,9,10,10,11,11,12,12,13,13,15,15,16,16,17,17,19,19,20,20,21,21,22,22,27,27,30,30,31,31,32,32,35,35,36,36,37,37,38,38,39,39,40,40,43,43,44,44],"right_children":[2,4,6,8,10,12,14,16,18,20,22,24,26,28,-1,30,32,34,-1,36,38,40,42,-1,-1,-1,-1,44,-1,-1,46,48,50,-1,-1,52,54,56,58,60,62,-1,-1,64,66,-1,-1,-1,-1,-1,-1,-1,-1,-1,-1,-1,-1,-1,-1,-1,-1,-1,-1,-1,-1,-1,-1],"split_conditions":[9.1812146E-1,-9.8542374E-1,2.5E0,2.17E1,3.5775378E0,5.4875E1,1.7198364E1,7.8291664E1,7.11E3,-6.788205E-1,2.26E1,1.9683333E2,3.16E3,1.6135088E1,-1.78022E0,4.8083332E1,-9.9039733E-1,9.866542E2,-1.9699665E0,1.65E1,3.6916668E1,2.06E3,2.4683332E1,-3.272522E0,-1.9676119E0,-2.3200483E0,1.3086729E-1,8.8041664E1,-1.6231383E0,-6.882693E-1,7.1509485E0,2.1213333E1,6.1458332E1,-7.0984405E-1,1.4594682E-1,1.4778571E1,2.21875E1,-1.4E0,3.6916668E1,3.6179018E0,2.83E1,-6.400137E-1,-3.3632514E-1,2.4E0,1.6E0,-1.451593E-1,1.4747982E-1,2.5197422E-2,-7.612107E-1,-4.3605E-1,-1.2444848E0,9.2722185E-2,-5.9509414E-1,8.569739E-2,-2.691452E-1,-7.309917E-1,1.3648286E-1,-2.6419893E-1,9.571605E-2,-2.1427338E-1,-3.9120573E-1,-2.8001443E-2,-1.7731126E-1,-5.1360065E-1,6.971442E-2,-1.0107027E0,-3.378682E-2],"split_indices":[80,80,20,40,15,26,61,27,11,80,0,6,11,13,0,4,80,8,0,65,4,44,25,0,0,0,0,27,0,0,30,66,6,0,0,52,5,20,29,49,10,0,0,2,21,0,0,0,0,0,0,0,0,0,0,0,0,0,0,0,0,0,0,0,0,0,0],"split_type":[0,0,0,0,0,0,0,0,0,0,0,0,0,0,0,0,0,0,0,0,0,0,0,0,0,0,0,0,0,0,0,0,0,0,0,0,0,0,0,0,0,0,0,0,0,0,0,0,0,0,0,0,0,0,0,0,0,0,0,0,0,0,0,0,0,0,0],"sum_hessian":[4.4033E3,3.845E3,5.583E2,2.372E2,3.6078E3,8.26E1,4.757E2,2.011E2,3.61E1,3.5555E3,5.23E1,3.45E1,4.81E1,4.642E2,1.15E1,1.406E2,6.05E1,1.58E1,2.03E1,9.108E2,2.6447E3,2.94E1,2.29E1,2.2E1,1.25E1,8.1E0,4E1,4.529E2,1.13E1,6.5E0,1.341E2,4.05E1,2E1,1.18E1,4E0,2.21E2,6.898E2,1.19E1,2.6328E3,2.09E1,8.5E0,1.32E1,9.7E0,4.149E2,3.8E1,1.37E1,1.204E2,3.43E1,6.2E0,6.6E0,1.34E1,1.06E2,1.15E2,6.498E2,4E1,4.9E0,7E0,9.4E0,2.6234E3,8.2E0,1.27E1,4.5E0,4E0,1.9E1,3.959E2,1.33E1,2.47E1],"tree_param":{"num_deleted":"0","num_feature":"82","num_nodes":"67","size_leaf_vector":"1"}},{"base_weights":[-2.0463644E-1,7.5878155E-1,-7.1866355E0,-4.8508105E0,1.0819409E0,-3.618866E-1,-3.4102062E1,-1.3260012E0,-3.179077E1,1.2531407E0,-7.039773E0,3.613614E-1,-1.9089342E0,-5.3484833E1,2.8575165E0,-2.1606952E-1,-1.9973417E1,-8.89304E-1,-1.9716123E0,-3.368784E-1,1.7391819E0,-5.5015955E0,-7.399151E-1,-8.988623E0,1.1607488E0,1.4406077E0,-3.025792E0,1.213714E-1,1.9868216E-1,7.3274124E-1,-1.2285838E1,-3.6051553E-1,-1.3359178E0,-5.2005134E0,1.0886979E0,1.814877E0,-9.584125E-1,-1.7481176E0,-7.307623E0,1.3234721E-1,-2.0030495E1,1.5838631E0,-5.758455E0,1.897084E-1,-6.0053714E-2,-3.9741534E-1,1.0660484E-1,-3.2899663E-1,-7.6230973E-1,-6.2398994E-1,1.1399733E-1,-2.0384279E-1,8.993134E-2,9.324937E-2,-1.1564578E-1,5.698345E-2,-6.5433353E-1,-1.8527061E-1,7.208311E-2,-6.4167045E-2,-3.9866197E-1,-1.1576357E0,-6.851501E-1,-2.0139442E-1,1.02368824E-1,-5.945841E-1,1.5486233E-1],"categories":[],"categories_nodes":[],"categories_segments":[],"categories_sizes":[],"default_left":[0,0,0,0,1,0,0,0,0,0,0,0,0,0,0,0,0,0,0,0,0,0,0,1,0,0,0,0,0,0,0,0,0,0,0,0,0,0,1,0,0,0,0,0,0,0,0,0,0,0,0,0,0,0,0,0,0,0,0,0,0,0,0,0,0,0,0],"id":9,"left_children":[1,3,5,7,9,11,13,15,17,19,21,23,-1,25,27,29,31,-1,-1,33,35,37,-1,39,41,43,-1,-1,-1,45,47,-1,-1,49,51,53,55,57,59,-1,61,63,65,-1,-1,-1,-1,-1,-1,-1,-1,-1,-1,-1,-1,-1,-1,-1,-1,-1,-1,-1,-1,-1,-1,-1,-1],"loss_changes":[2.9540535E4,7.0013574E3,9.780313E4,1.9937057E4,5.083771E3,1.1659819E4,7.730686E4,3.8681602E3,1.8991562E3,2.763707E3,8.196023E2,3.1406536E3,0E0,2.7390172E4,8.59552E0,2.0428646E3,7.112593E2,0E0,0E0,5.815226E3,5.6092676E2,4.2514136E2,0E0,4.305656E3,1.1412289E3,6.0513306E1,0E0,0E0,0E0,2.0286339E3,1.1927075E2,0E0,0E0,1.0379855E4,2.3865962E3,5.553701E2,1.9335485E3,1.4456839E2,1.6339453E2,0E0,2.0562988E1,9.581764E2,1.258897E3,0E0,0E0,0E0,0E0,0E0,0E0,0E0,0E0,0E0,0E0,0E0,0E0,0E0,0E0,0E0,0E0,0E0,0E0,0E0,0E0,0E0,0E0,0E0,0E0],"parents":[2147483647,0,0,1,1,2,2,3,3,4,4,5,5,6,6,7,7,8,8,9,9,10,10,11,11,13,13,14,14,15,15,16,16,19,19,20,20,21,21,23,23,24,24,25,25,29,29,30,30,33,33,34,34,35,35,36,36,37,37,38,38,40,40,41,41,42,42],"right_children":[2,4,6,8,10,12,14,16,18,20,22,24,-1,26,28,30,32,-1,-1,34,36,38,-1,40,42,44,-1,-1,-1,46,48,-1,-1,50,52,54,56,58,60,-1,62,64,66,-1,-1,-1,-1,-1,-1,-1,-1,-1,-1,-1,-1,-1,-1,-1,-1,-1,-1,-1,-1,-1,-1,-1,-1],"split_conditions":[9.248026E-1,-9.8787266E-1,2.7281126E-1,2.05E4,8.2E1,8E-1,1E4,9.9291664E1,1.65E4,-7.036774E-1,3.235849E1,3.6E0,-1.9089342E0,4.81E0,4.81E0,1.8410978E1,1.44E1,-8.89304E-1,-1.9716123E0,1.65E1,9.98425E2,3.04E1,-7.399151E-1,7.3E0,8.7875E1,4.6E0,-3.025792E0,1.213714E-1,1.9868216E-1,1.93E1,9.8E0,-3.6051553E-1,-1.3359178E0,6.17E3,5.6708332E1,2.74875E1,2.0441597E0,2.815E2,2.69E1,1.3234721E-1,2.4E0,4.7708332E1,9.999205E0,1.897084E-1,-6.0053714E-2,-3.9741534E-1,1.0660484E-1,-3.2899663E-1,-7.6230973E-1,-6.2398994E-1,1.1399733E-1,-2.0384279E-1,8.993134E-2,9.324937E-2,-1.1564578E-1,5.698345E-2,-6.5433353E-1,-1.8527061E-1,7.208311E-2,-6.4167045E-2,-3.9866197E-1,-1.1576357E0,-6.851501E-1,-2.0139442E-1,1.02368824E-1,-5.945841E-1,1.5486233E-1],"split_indices":[80,80,81,45,17,17,73,9,11,80,14,2,0,54,54,60,0,0,0,65,8,2,0,40,27,10,0,0,0,66,16,0,0,73,27,1,31,6,39,0,2,27,61,0,0,0,0,0,0,0,0,0,0,0,0,0,0,0,0,0,0,0,0,0,0,0,0],"split_type":[0,0,0,0,0,0,0,0,0,0,0,0,0,0,0,0,0,0,0,0,0,0,0,0,0,0,0,0,0,0,0,0,0,0,0,0,0,0,0,0,0,0,0,0,0,0,0,0,0,0,0,0,0,0,0,0,0,0,0,0,0,0,0,0,0,0,0],"sum_hessian":[4.3898E3,3.8583E3,5.315E2,2.094E2,3.6489E3,4.248E2,1.067E2,1.861E2,2.33E1,3.5744E3,7.45E1,4.178E2,7E0,6.97E1,3.7E1,1.766E2,9.5E0,9.4E0,1.39E1,8.369E2,2.7375E3,6.36E1,1.09E1,3.21E1,3.857E2,8E0,6.17E1,2.9E1,8E0,1.646E2,1.2E1,4E0,5.5E0,1.891E2,6.478E2,2.6631E3,7.44E1,2.13E1,4.23E1,1.6E1,1.61E1,3.642E2,2.15E1,4E0,4E0,2.22E1,1.424E2,5.2E0,6.8E0,9.55E1,9.36E1,7.77E1,5.701E2,2.6317E3,3.14E1,6.42E1,1.02E1,1.31E1,8.2E0,4.5E0,3.78E1,9E0,7.1E0,2.72E1,3.37E2,1.25E1,9E0],"tree_param":{"num_deleted":"0","num_feature":"82","num_nodes":"67","size_leaf_vector":"1"}},{"base_weights":[-2.8837237E-1,6.8706197E-1,-6.695568E0,-1.507168E0,1.4253901E0,-1.0312994E0,-2.8346935E1,-5.2397275E0,4.223626E-1,1.534141E0,-5.173274E0,-3.9858544E-1,-1.8254184E0,-4.660583E0,-5.3133457E1,-3.633868E0,-1.8844175E0,1.0945591E0,-8.535089E0,-3.6790228E0,1.589776E0,1.9038898E-1,-6.356046E0,3.0464214E-1,-9.598411E0,-2.2209435E0,2.1257317E0,1.8113767E-1,-5.853578E1,-7.8400154E0,6.5563947E-1,1.4558091E0,-8.73749E0,-1.5066894E1,2.0215979E0,-7.489199E-1,1.2750469E-1,-8.018092E-2,1.7005085E0,2.7331505E-2,-9.080499E-3,-4.6297118E-1,-4.7344394E0,1.2582005E0,-6.697948E0,-1.4972692E0,-4.24544E0,-6.4679034E-2,2.4251482E0,-3.0513487E0,-1.9994013E0,3.6803614E-2,-5.670863E-1,8.989792E-2,-6.069789E-1,-2.3964189E-1,8.6470604E-2,-1.7256535E0,1.599474E-1,-1.0080516E0,1.2931268E-1,1.154925E-1,4.6863664E-2,-2.8403214E-1,8.1144765E-2,8.7152936E-2,-1.301565E-1,-6.373427E-2,-2.743372E-1,-4.344537E-1,7.808331E-2,1.5195613E-1,-5.872467E-1,-5.288536E-1,1.5716685E-1,1.8205757E-1,1.1201268E-1],"categories":[],"categories_nodes":[],"categories_segments":[],"categories_sizes":[],"default_left":[0,0,0,0,1,0,0,0,0,0,0,0,0,0,0,0,0,0,0,0,0,0,0,0,0,0,0,0,0,0,0,0,0,0,0,0,0,0,0,0,0,0,0,0,0,0,1,0,0,0,0,0,0,0,0,0,0,0,0,0,0,0,0,0,0,0,0,0,0,0,0,0,0,0,0,0,0],"id":10,"left_children":[1,3,5,7,9,11,13,15,17,19,21,23,-1,25,27,29,-1,31,33,35,37,39,41,43,45,-1,47,-1,49,51,53,55,57,59,61,-1,-1,63,65,-1,-1,-1,67,69,71,-1,73,-1,75,-1,-1,-1,-1,-1,-1,-1,-1,-1,-1,-1,-1,-1,-1,-1,-1,-1,-1,-1,-1,-1,-1,-1,-1,-1,-1,-1,-1],"loss_changes":[2.7222473E4,6.126793E3,7.054959E4,6.8607617E3,2.0381978E3,1.0248141E4,6.979366E4,1.6777277E4,3.79485E3,8.133345E2,2.936682E2,2.915525E3,0E0,1.6849764E4,1.8057094E4,5.60547E3,0E0,2.093026E3,3.064444E3,2.1286345E3,5.0966113E2,1.3317218E0,1.3412927E2,2.8075847E3,3.3582048E3,0E0,5.8422287E1,0E0,1.7828125E1,4.717205E3,2.281494E3,9.7560803E2,6.5406787E3,2.507164E3,3.3673325E0,0E0,0E0,1.6526187E3,4.7773975E2,0E0,0E0,0E0,6.1459473E1,1.1298678E3,2.5124941E3,0E0,1.2729972E3,0E0,3.0845032E0,0E0,0E0,0E0,0E0,0E0,0E0,0E0,0E0,0E0,0E0,0E0,0E0,0E0,0E0,0E0,0E0,0E0,0E0,0E0,0E0,0E0,0E0,0E0,0E0,0E0,0E0,0E0,0E0],"parents":[2147483647,0,0,1,1,2,2,3,3,4,4,5,5,6,6,7,7,8,8,9,9,10,10,11,11,13,13,14,14,15,15,17,17,18,18,19,19,20,20,21,21,22,22,23,23,24,24,26,26,28,28,29,29,30,30,31,31,32,32,33,33,34,34,37,37,38,38,42,42,43,43,44,44,46,46,48,48],"right_children":[2,4,6,8,10,12,14,16,18,20,22,24,-1,26,28,30,-1,32,34,36,38,40,42,44,46,-1,48,-1,50,52,54,56,58,60,62,-1,-1,64,66,-1,-1,-1,68,70,72,-1,74,-1,76,-1,-1,-1,-1,-1,-1,-1,-1,-1,-1,-1,-1,-1,-1,-1,-1,-1,-1,-1,-1,-1,-1,-1,-1,-1,-1,-1,-1],"split_conditions":[9.1812146E-1,-7.5086427E-1,2.7281126E-1,1.975696E0,3.5775378E0,1.1E0,5.17E0,8.8E0,9.7125E1,4.0041668E1,1.84E1,8.7875E1,-1.8254184E0,3.16E3,8.2625E0,4.4583335E3,-1.8844175E0,2.21875E1,-9.5785236E-1,4E0,9.458333E0,1.8E1,9.02E1,9.9375E1,4.5916668E1,-2.2209435E0,5.1625E1,1.8113767E-1,1.16E1,3.6256667E3,2.36E1,2.5444007E0,2.2629168E1,9.834708E2,9.859875E2,-7.489199E-1,1.2750469E-1,1E1,3.28E1,2.7331505E-2,-9.080499E-3,-4.6297118E-1,5.2291668E1,-2.8791666E0,6.5041664E1,-1.4972692E0,6.035714E0,-6.4679034E-2,2.77E3,-3.0513487E0,-1.9994013E0,3.6803614E-2,-5.670863E-1,8.989792E-2,-6.069789E-1,-2.3964189E-1,8.6470604E-2,-1.7256535E0,1.599474E-1,-1.0080516E0,1.2931268E-1,1.154925E-1,4.6863664E-2,-2.8403214E-1,8.1144765E-2,8.7152936E-2,-1.301565E-1,-6.373427E-2,-2.743372E-1,-4.344537E-1,7.808331E-2,1.5195613E-1,-5.872467E-1,-5.288536E-1,1.5716685E-1,1.8205757E-1,1.1201268E-1],"split_indices":[80,80,81,15,15,17,54,16,9,4,0,27,0,11,1,72,0,5,80,67,9,0,17,9,4,0,4,0,0,72,67,79,5,8,8,0,0,41,2,0,0,0,29,23,29,0,64,0,44,0,0,0,0,0,0,0,0,0,0,0,0,0,0,0,0,0,0,0,0,0,0,0,0,0,0,0,0],"split_type":[0,0,0,0,0,0,0,0,0,0,0,0,0,0,0,0,0,0,0,0,0,0,0,0,0,0,0,0,0,0,0,0,0,0,0,0,0,0,0,0,0,0,0,0,0,0,0,0,0,0,0,0,0,0,0,0,0,0,0,0,0,0,0,0,0,0,0,0,0,0,0,0,0,0,0,0,0],"sum_hessian":[4.354E3,3.7795E3,5.745E2,9.513E2,2.8282E3,4.562E2,1.183E2,3.236E2,6.277E2,2.7831E3,4.51E1,4.492E2,7E0,6.11E1,5.72E1,3.094E2,1.4200001E1,5.847E2,4.3E1,2.87E1,2.7544E3,8.3E0,3.68E1,4.182E2,3.1E1,8.1E0,5.3E1,5E0,5.22E1,1.558E2,1.536E2,5.648E2,1.99E1,2.63E1,1.67E1,9.7E0,1.9E1,1.713E2,2.5831E3,4E0,4.3E0,1.15E1,2.53E1,3.688E2,4.94E1,5.5E0,2.55E1,4E0,4.9E1,4.4E1,8.2E0,4.54E1,1.104E2,1.418E2,1.18E1,2.3E1,5.418E2,5.7E0,1.42E1,2.03E1,6E0,1.23E1,4.4E0,3.94E1,1.319E2,2.5584E3,2.47E1,5E0,2.03E1,1.01E1,3.587E2,1.7E1,3.24E1,1.35E1,1.2E1,4E0,4.5E1],"tree_param":{"num_deleted":"0","num_feature":"82","num_nodes":"77","size_leaf_vector":"1"}},{"base_weights":[5.75412E-2,8.662962E-1,-5.3595524E0,9.893237E-1,-7.6976633E0,-6.8033296E-1,-2.5850357E1,-8.272197E-1,1.4739801E0,-5.617331E0,-7.1756256E-1,1.8720149E-1,-1.584876E0,-4.2118015E1,2.592628E0,-1.170139E1,-3.5465002E-1,1.5361987E0,-4.0096817E0,-7.0412045E0,-1.8153572E0,8.665098E-1,-8.347775E0,-5.3042538E1,2.7157397E0,1.1059387E-1,2.159055E-1,-2.2016846E1,-2.543982E0,-1.2000725E1,6.0739227E-2,-3.249709E-1,1.7122821E0,-7.1118355E0,1.0439681E0,-1.7605028E-1,-4.068171E-1,-9.121567E-3,-1.5828095E-1,-1.0176496E1,1.3920395E0,-1.7924797E1,1.503983E-1,-1.6998192E0,-2.8341613E0,8.9400224E-2,1.8273596E-1,-5.3316766E-1,-1.2968929E0,-3.7393555E-1,2.3271704E-1,1.0336272E-1,-8.1731045E-1,5.089363E-2,-1.3424288E-1,-2.872369E-1,8.582958E-2,8.785715E-2,-4.278686E-2,-4.077365E-1,-2.0401977E-1,-5.883191E-2,1.1425044E-1,1.1586292E-1,-1.08263E0,9.301303E-2,-1.9625615E-1,-1.1966333E0,1.3011764E-1],"categories":[],"categories_nodes":[],"categories_segments":[],"categories_sizes":[],"default_left":[0,1,0,0,0,0,0,0,1,0,0,0,0,0,0,0,0,0,0,0,0,0,0,0,0,0,0,0,0,0,1,0,1,0,0,0,0,0,0,0,0,0,0,0,0,0,0,0,0,0,0,0,0,0,0,0,0,0,0,0,0,0,0,0,0,0,0,0,0],"id":11,"left_children":[1,3,5,7,9,11,13,15,17,19,-1,21,-1,23,25,27,29,31,33,35,37,39,41,43,45,-1,-1,47,49,51,53,55,57,59,61,-1,-1,-1,-1,63,65,67,-1,-1,-1,-1,-1,-1,-1,-1,-1,-1,-1,-1,-1,-1,-1,-1,-1,-1,-1,-1,-1,-1,-1,-1,-1,-1,-1],"loss_changes":[1.8980945E4,3.9792754E3,5.394422E4,3.2737515E3,6.599136E2,1.2362307E4,4.8507695E4,4.0221025E3,1.0074053E3,2.1675134E2,0E0,2.6029448E3,0E0,3.276389E4,1.6071045E1,3.023478E3,3.6381614E3,9.517334E2,5.2790753E2,8.8932495E1,2.7865402E1,2.4260706E3,3.6536802E3,1.7896719E3,5.661087E0,0E0,0E0,4.0007617E2,6.8840906E2,1.6171147E3,1.913218E3,2.7948699E3,3.0698975E2,3.216797E1,3.9892776E1,0E0,0E0,0E0,0E0,2.7743875E3,9.971696E2,2.2944531E3,0E0,0E0,0E0,0E0,0E0,0E0,0E0,0E0,0E0,0E0,0E0,0E0,0E0,0E0,0E0,0E0,0E0,0E0,0E0,0E0,0E0,0E0,0E0,0E0,0E0,0E0,0E0],"parents":[2147483647,0,0,1,1,2,2,3,3,4,4,5,5,6,6,7,7,8,8,9,9,11,11,13,13,14,14,15,15,16,16,17,17,18,18,19,19,20,20,21,21,22,22,23,23,24,24,27,27,28,28,29,29,30,30,31,31,32,32,33,33,34,34,39,39,40,40,41,41],"right_children":[2,4,6,8,10,12,14,16,18,20,-1,22,-1,24,26,28,30,32,34,36,38,40,42,44,46,-1,-1,48,50,52,54,56,58,60,62,-1,-1,-1,-1,64,66,68,-1,-1,-1,-1,-1,-1,-1,-1,-1,-1,-1,-1,-1,-1,-1,-1,-1,-1,-1,-1,-1,-1,-1,-1,-1,-1,-1],"split_conditions":[9.1812146E-1,3.6014626E0,2.9343396E-1,-8.1491596E-1,3.12E1,2.6E1,4.7333332E1,4.725E1,3.47E1,1.9657142E3,-7.1756256E-1,8.7875E1,-1.584876E0,9.93E3,4.7166667E0,1.1345193E0,1.71E1,1.2666667E1,2.338714E1,5.3541668E1,2.8008333E1,2.4E0,1.21E1,3.5E0,9.487719E-1,1.1059387E-1,2.159055E-1,1.0425E1,1.44E1,8.8E0,1.96E1,1.21E1,2.65625E1,8.83E1,2.17E3,-1.7605028E-1,-4.068171E-1,-9.121567E-3,-1.5828095E-1,5.3E0,9.9375E1,7.65E1,1.503983E-1,-1.6998192E0,-2.8341613E0,8.9400224E-2,1.8273596E-1,-5.3316766E-1,-1.2968929E0,-3.7393555E-1,2.3271704E-1,1.0336272E-1,-8.1731045E-1,5.089363E-2,-1.3424288E-1,-2.872369E-1,8.582958E-2,8.785715E-2,-4.278686E-2,-4.077365E-1,-2.0401977E-1,-5.883191E-2,1.1425044E-1,1.1586292E-1,-1.08263E0,9.301303E-2,-1.9625615E-1,-1.1966333E0,1.3011764E-1],"split_indices":[80,15,81,80,39,55,9,27,51,68,0,27,0,69,54,31,67,9,57,27,23,2,20,10,80,0,0,1,10,10,41,40,23,17,11,0,0,0,0,18,9,29,0,0,0,0,0,0,0,0,0,0,0,0,0,0,0,0,0,0,0,0,0,0,0,0,0,0,0],"split_type":[0,0,0,0,0,0,0,0,0,0,0,0,0,0,0,0,0,0,0,0,0,0,0,0,0,0,0,0,0,0,0,0,0,0,0,0,0,0,0,0,0,0,0,0,0,0,0,0,0,0,0,0,0,0,0,0,0,0,0,0,0,0,0,0,0,0,0,0,0],"sum_hessian":[4.3304E3,3.7686E3,5.618E2,3.7161E3,5.25E1,4.582E2,1.036E2,7.825E2,2.9336E3,4.14E1,1.11E1,4.467E2,1.15E1,6.56E1,3.8E1,3.16E1,7.509E2,2.9014E3,3.22E1,2.95E1,1.19E1,4.146E2,3.21E1,5.26E1,1.3E1,3.3E1,5E0,1.42E1,1.74E1,2.49E1,7.26E2,2.507E2,2.6507E3,1.97E1,1.25E1,8E0,2.15E1,5.9E0,6E0,1.8E1,3.966E2,1.71E1,1.5E1,1.01E1,4.25E1,8E0,5E0,4.6E0,9.6E0,1.03E1,7.1E0,6E0,1.89E1,5.388E2,1.872E2,6.81E1,1.826E2,2.6055E3,4.52E1,1.34E1,6.3E0,4.5E0,8E0,9E0,9E0,3.651E2,3.15E1,1.31E1,4E0],"tree_param":{"num_deleted":"0","num_feature":"82","num_nodes":"69","size_leaf_vector":"1"}},{"base_weights":[-1.414393E-1,7.452758E-1,-6.3240237E0,-9.912456E-1,1.2885267E0,-5.8781904E-1,-2.81689E1,-2.3519008E-1,-7.0448523E0,1.4606884E0,-6.0247083E0,3.049084E-2,-1.676218E0,2.1956959E0,-4.5323566E1,-9.622167E0,2.693194E-1,-3.9315076E0,-1.7792538E0,1.5157725E0,-1.9238235E0,-2.7216115E0,-8.283593E0,-6.5604553E0,1.2017277E0,2.497646E0,-1.6139349E-3,-2.6627343E0,4.0041385E0,-7.7227485E-1,1.2831974E0,-6.926924E-1,4.699002E-1,-9.0474933E-1,-1.1234105E1,-5.589557E0,1.5392077E0,1.9418247E0,-9.580563E-1,-2.5386685E-1,-2.9532006E-1,-9.069991E0,-1.9050315E-1,1.7614577E0,-1.5360988E1,1.5525373E0,-6.1303077E0,2.1389687E-1,1.0761093E-1,9.583329E-2,2.4615856E-1,-2.2241112E-2,9.995672E-2,-1.1024368E-1,6.7775734E-2,-3.9713892E-1,9.646556E-2,-1.0454872E0,-1.9854623E-1,1.1085304E-1,-5.8914024E-1,4.51279E-2,8.6196534E-2,3.1026546E-2,1.0472824E-1,5.1955845E-2,-8.1310146E-2,-3.006629E-1,-5.103547E-1,1.128305E-1,-7.482932E-2,-1.234302E0,-2.86608E-1,-2.836356E-1,9.4085954E-2,4.996188E-2,-6.136403E-1],"categories":[],"categories_nodes":[],"categories_segments":[],"categories_sizes":[],"default_left":[0,0,0,0,1,0,0,0,0,0,0,0,0,0,0,0,0,0,0,0,0,0,0,0,0,0,0,0,1,0,0,0,0,0,0,0,0,0,0,0,0,0,0,0,0,0,0,0,0,0,0,0,0,0,0,0,0,0,0,0,0,0,0,0,0,0,0,0,0,0,0,0,0,0,0,0,0],"id":12,"left_children":[1,3,5,7,9,11,13,15,17,19,21,23,-1,25,27,29,31,33,-1,35,37,39,41,43,45,47,-1,-1,49,-1,51,-1,53,55,57,59,61,63,-1,-1,65,67,-1,69,71,73,75,-1,-1,-1,-1,-1,-1,-1,-1,-1,-1,-1,-1,-1,-1,-1,-1,-1,-1,-1,-1,-1,-1,-1,-1,-1,-1,-1,-1,-1,-1],"loss_changes":[2.3898844E4,3.5980513E3,6.850114E4,4.159169E3,3.6658633E3,8.841465E3,5.932522E4,3.8348157E3,8.825623E3,5.32124E2,4.7736328E2,3.3049082E3,0E0,2.8335571E1,2.8655203E4,2.6425986E3,2.1846777E3,2.0255406E3,0E0,4.7379785E2,3.095678E3,1.6254047E2,1.0369922E2,4.7581855E3,9.444932E2,1.3546524E1,0E0,0E0,1.1666946E1,0E0,1.9817703E1,0E0,1.8011587E3,1.3357623E3,1.8073906E3,4.8059732E2,3.2600586E2,6.449936E0,0E0,0E0,2.8684702E1,5.228125E1,0E0,5.8388268E1,2.6868599E3,8.376515E2,7.479895E2,0E0,0E0,0E0,0E0,0E0,0E0,0E0,0E0,0E0,0E0,0E0,0E0,0E0,0E0,0E0,0E0,0E0,0E0,0E0,0E0,0E0,0E0,0E0,0E0,0E0,0E0,0E0,0E0,0E0,0E0],"parents":[2147483647,0,0,1,1,2,2,3,3,4,4,5,5,6,6,7,7,8,8,9,9,10,10,11,11,13,13,14,14,15,15,16,16,17,17,19,19,20,20,21,21,22,22,23,23,24,24,25,25,28,28,30,30,32,32,33,33,34,34,35,35,36,36,37,37,40,40,41,41,43,43,44,44,45,45,46,46],"right_children":[2,4,6,8,10,12,14,16,18,20,22,24,-1,26,28,30,32,34,-1,36,38,40,42,44,46,48,-1,-1,50,-1,52,-1,54,56,58,60,62,64,-1,-1,66,68,-1,70,72,74,76,-1,-1,-1,-1,-1,-1,-1,-1,-1,-1,-1,-1,-1,-1,-1,-1,-1,-1,-1,-1,-1,-1,-1,-1,-1,-1,-1,-1,-1,-1],"split_conditions":[9.248026E-1,-7.7313834E-1,2.7281126E-1,8.4625E1,3.2564712E0,8E-1,-2.5249386E0,1.65E1,3.02E1,9.1116863E-1,2.66125E1,3.6E0,-1.676218E0,-2.990561E0,8.0285713E3,3.7958332E1,4.2166668E1,9.975E1,-1.7792538E0,3.6916668E1,2.6E1,7.5625E0,6.2291668E1,6.677931E-1,2.2464285E4,4.9166665E0,-1.6139349E-3,-2.6627343E0,2.6E0,-7.7227485E-1,9.8024164E2,-6.926924E-1,6.1583332E1,8.5791664E1,9.9875E1,7.0541664E1,1.6501476E0,4.925E1,-9.580563E-1,-2.5386685E-1,3.18E1,1.85E3,-1.9050315E-1,7.65E1,5.0833332E1,5.2785716E0,1.3383333E1,2.1389687E-1,1.0761093E-1,9.583329E-2,2.4615856E-1,-2.2241112E-2,9.995672E-2,-1.1024368E-1,6.7775734E-2,-3.9713892E-1,9.646556E-2,-1.0454872E0,-1.9854623E-1,1.1085304E-1,-5.8914024E-1,4.51279E-2,8.6196534E-2,3.1026546E-2,1.0472824E-1,5.1955845E-2,-8.1310146E-2,-3.006629E-1,-5.103547E-1,1.128305E-1,-7.482932E-2,-1.234302E0,-2.86608E-1,-2.836356E-1,9.4085954E-2,4.996188E-2,-6.136403E-1],"split_indices":[80,80,81,4,15,17,60,67,51,80,14,41,0,60,70,9,28,9,0,29,55,5,4,48,70,9,0,0,41,0,8,0,26,4,9,26,47,29,0,0,19,11,0,28,4,52,5,0,0,0,0,0,0,0,0,0,0,0,0,0,0,0,0,0,0,0,0,0,0,0,0,0,0,0,0,0,0],"split_type":[0,0,0,0,0,0,0,0,0,0,0,0,0,0,0,0,0,0,0,0,0,0,0,0,0,0,0,0,0,0,0,0,0,0,0,0,0,0,0,0,0,0,0,0,0,0,0,0,0,0,0,0,0,0,0,0,0,0,0,0,0,0,0,0,0,0,0,0,0,0,0,0,0,0,0,0,0],"sum_hessian":[4.3575E3,3.8117E3,5.458E2,9.081E2,2.9036E3,4.331E2,1.127E2,8.082E2,9.99E1,2.8376E3,6.6E1,4.261E2,7E0,4.1E1,7.17E1,4.03E1,7.679E2,9.11E1,8.8E0,2.7927E3,4.49E1,2.77E1,3.83E1,6.36E1,3.625E2,3.6E1,5E0,6.17E1,1E1,2.6E1,1.43E1,9.8E0,7.581E2,6.52E1,2.59E1,8.4E0,2.7843E3,3.74E1,7.5E0,1.35E1,1.42E1,3.1699999E1,6.6000004E0,3.31E1,3.05E1,3.467E2,1.58E1,4E0,3.2E1,4E0,6E0,4.3E0,1E1,1.882E2,5.699E2,1.82E1,4.7E1,1.03E1,1.56E1,4E0,4.4E0,6.275E2,2.1568E3,4.4E0,3.3E1,7.2E0,7E0,1.0299999E1,2.14E1,2.9E1,4.1E0,1.47E1,1.58E1,1.44E1,3.323E2,7.7E0,8.1E0],"tree_param":{"num_deleted":"0","num_feature":"82","num_nodes":"77","size_leaf_vector":"1"}},{"base_weights":[-2.576846E-1,-1.4909606E1,-1.2820983E-1,-2.0986345E0,-4.5610957E0,-1.4439908E1,-5.1747896E-2,1.126764E-1,-8.010675E-1,-2.0511086E0,2.649327E0,1.3838613E0,-7.5438637E-1,1.8195604E-1,9.792866E-2,-8.292195E0,1.4978061E0,-4.7365475E1,-1.3647802E-1,1.250226E-1,-8.169241E-1,-1.4572902E0,1.6731781E0,-2.6587708E0,8.0760956E-2,8.765714E-1,-2.1807652E0,-4.9450526E-1,3.6490314E-2,-6.650496E-2,9.12916E-2,-4.7533774E-1,5.726511E-2,-6.974181E-2,-1.0534234E0],"categories":[],"categories_nodes":[],"categories_segments":[],"categories_sizes":[],"default_left":[0,0,0,0,0,0,1,0,0,0,0,0,0,0,0,0,0,0,0,0,0,0,0,0,0,0,1,0,0,0,0,0,0,0,0],"id":13,"left_children":[1,3,5,-1,7,9,11,-1,-1,-1,13,15,17,-1,-1,19,21,23,25,-1,-1,27,29,-1,-1,31,33,-1,-1,-1,-1,-1,-1,-1,-1],"loss_changes":[8.3164795E3,1.0562961E4,4.756722E3,0E0,2.293117E3,1.060233E4,4.364137E3,0E0,0E0,0E0,3.128067E0,1.5798948E3,8.36529E4,0E0,0E0,1.4910939E3,7.3108496E2,1.0899742E4,5.940815E3,0E0,0E0,1.469778E3,6.111277E2,0E0,0E0,5.3632793E3,1.4080205E4,0E0,0E0,0E0,0E0,0E0,0E0,0E0,0E0],"parents":[2147483647,0,0,1,1,2,2,4,4,5,5,6,6,10,10,11,11,12,12,15,15,16,16,17,17,18,18,21,21,22,22,25,25,26,26],"right_children":[2,4,6,-1,8,10,12,-1,-1,-1,14,16,18,-1,-1,20,22,24,26,-1,-1,28,30,-1,-1,32,34,-1,-1,-1,-1,-1,-1,-1,-1],"split_conditions":[3.9666668E1,-6.2625E0,-1.1470724E-2,-2.0986345E0,1E-1,3.16E3,1.74E1,1.126764E-1,-8.010675E-1,-2.0511086E0,3.91E3,4.0041668E1,1.77E1,1.8195604E-1,9.792866E-2,-3.170623E0,1.2546124E-1,7.275E1,-1.6587819E-1,1.250226E-1,-8.169241E-1,4.106388E0,4.9E0,-2.6587708E0,8.0760956E-2,1.68E1,2.17E1,-4.9450526E-1,3.6490314E-2,-6.650496E-2,9.12916E-2,-4.7533774E-1,5.726511E-2,-6.974181E-2,-1.0534234E0],"split_indices":[26,25,79,0,7,11,53,0,0,0,45,4,55,0,0,60,81,29,81,0,0,61,55,0,0,51,40,0,0,0,0,0,0,0,0],"split_type":[0,0,0,0,0,0,0,0,0,0,0,0,0,0,0,0,0,0,0,0,0,0,0,0,0,0,0,0,0,0,0,0,0,0,0],"sum_hessian":[4.3839E3,3.74E1,4.3465E3,9.5E0,2.79E1,2.21E1,4.3244E3,1.8E1,9.9E0,8.1E0,1.4E1,1.4207E3,2.9037E3,4E0,1E1,1.57E1,1.405E3,3.7E1,2.8667E3,7E0,8.7E0,7.83E1,1.3267E3,3.3E1,4E0,1.9172E3,9.495E2,1.54E1,6.29E1,6.38E1,1.2629E3,4.75E1,1.8697E3,9.126E2,3.69E1],"tree_param":{"num_deleted":"0","num_feature":"82","num_nodes":"35","size_leaf_vector":"1"}},{"base_weights":[3.1890515E-2,7.6222074E-1,-4.8889174E0,8.583309E-1,-6.540664E0,2.171064E-1,-2.418833E1,-1.3283092E0,1.1844648E0,-8.511077E0,-3.5923944E0,-1.2070766E1,6.470639E-1,-3.9377598E1,2.3557687E0,-1.8282871E1,-8.411025E-1,-2.7154535E-1,1.40842E0,-2.86545E-1,-5.042607E-1,-2.1087638E-1,-6.7969896E-2,-9.5953506E-1,1.0224571E-1,8.945245E-1,-9.3952554E-1,-1.3859173E1,-2.4858892E0,9.445835E-2,1.9802119E-1,-1.25689E0,-5.523375E-1,-8.355828E-2,-1.1244781E1,7.083167E-1,-1.1693533E1,-5.361077E0,1.460078E0,-6.188652E0,1.2812123E0,-1.959823E0,1.2180304E-1,1.1683854E-2,-6.548645E-1,-3.8412411E-3,-1.3395752E0,6.0818918E-2,-2.9853663E-1,-7.808656E-1,3.3005666E-2,1.3871689E-1,-6.9919354E-1,7.729618E-2,-6.839832E-3,1.01789355E-1,-9.446332E-1,8.5716784E-2,-2.398829E-1],"categories":[],"categories_nodes":[],"categories_segments":[],"categories_sizes":[],"default_left":[0,1,0,0,0,0,0,0,1,0,0,0,0,0,0,0,0,1,0,0,0,0,0,0,0,0,0,0,0,0,0,0,0,0,1,0,0,0,0,0,0,0,0,0,0,0,0,0,0,0,0,0,0,0,0,0,0,0,0],"id":14,"left_children":[1,3,5,7,9,11,13,15,17,19,21,23,25,27,29,31,33,35,37,-1,-1,-1,-1,-1,-1,39,-1,41,-1,-1,-1,-1,-1,43,45,47,49,51,53,55,57,-1,-1,-1,-1,-1,-1,-1,-1,-1,-1,-1,-1,-1,-1,-1,-1,-1,-1],"loss_changes":[1.5722712E4,2.6794326E3,5.572161E4,2.6836113E3,2.575664E2,2.3752407E3,4.77896E4,4.020642E3,1.0677437E3,6.9117676E1,2.441861E1,1.5668845E3,2.1038826E3,1.9180016E4,2.5462418E1,3.9691113E2,3.750534E3,4.901413E3,9.999585E2,0E0,0E0,0E0,0E0,0E0,0E0,1.1840461E3,0E0,9.632943E3,0E0,0E0,0E0,0E0,0E0,1.838967E3,5.606033E3,1.3768262E3,1.6874741E3,1.561051E3,3.862959E2,2.3788892E3,1.0824482E3,0E0,0E0,0E0,0E0,0E0,0E0,0E0,0E0,0E0,0E0,0E0,0E0,0E0,0E0,0E0,0E0,0E0,0E0],"parents":[2147483647,0,0,1,1,2,2,3,3,4,4,5,5,6,6,7,7,8,8,9,9,10,10,11,11,12,12,13,13,14,14,15,15,16,16,17,17,18,18,25,25,27,27,33,33,34,34,35,35,36,36,37,37,38,38,39,39,40,40],"right_children":[2,4,6,8,10,12,14,16,18,20,22,24,26,28,30,32,34,36,38,-1,-1,-1,-1,-1,-1,40,-1,42,-1,-1,-1,-1,-1,44,46,48,50,52,54,56,58,-1,-1,-1,-1,-1,-1,-1,-1,-1,-1,-1,-1,-1,-1,-1,-1,-1,-1],"split_conditions":[9.1812146E-1,3.6014626E0,2.7281126E-1,-9.2883945E-1,2.0897045E1,-1.6416667E0,1E4,1.1345193E0,3.8726667E3,1.7420834E1,1.91E3,5.53E3,1.7198364E1,5.93E3,4.45E0,3.3291668E1,2.01E4,5.02E3,4.0041668E1,-2.86545E-1,-5.042607E-1,-2.1087638E-1,-6.7969896E-2,-9.5953506E-1,1.0224571E-1,4.106388E0,-9.3952554E-1,8.9E0,-2.4858892E0,9.445835E-2,1.9802119E-1,-1.25689E0,-5.523375E-1,9.975E1,1.8E1,3.16E1,1.5562149E0,5.5291668E1,2.2429167E1,2.8375E0,2.67E4,-1.959823E0,1.2180304E-1,1.1683854E-2,-6.548645E-1,-3.8412411E-3,-1.3395752E0,6.0818918E-2,-2.9853663E-1,-7.808656E-1,3.3005666E-2,1.3871689E-1,-6.9919354E-1,7.729618E-2,-6.839832E-3,1.01789355E-1,-9.446332E-1,8.5716784E-2,-2.398829E-1],"split_indices":[80,15,81,80,58,14,73,31,72,3,43,11,61,44,54,6,45,71,4,0,0,0,0,0,0,61,0,5,0,0,0,0,0,9,10,2,46,26,5,24,43,0,0,0,0,0,0,0,0,0,0,0,0,0,0,0,0,0,0],"split_type":[0,0,0,0,0,0,0,0,0,0,0,0,0,0,0,0,0,0,0,0,0,0,0,0,0,0,0,0,0,0,0,0,0,0,0,0,0,0,0,0,0,0,0,0,0,0,0,0,0,0,0,0,0,0,0,0,0,0,0],"sum_hessian":[4.3729E3,3.8085E3,5.644E2,3.7599E3,4.86E1,4.471E2,1.173E2,4.876E2,3.2723E3,2.8E1,2.06E1,1.42E1,4.329E2,7.43E1,4.3E1,1.26E1,4.75E2,4.362E2,2.8361E3,1.1799999E1,1.62E1,1.54E1,5.2E0,9.2E0,5E0,4.284E2,4.5E0,2.21E1,5.22E1,3.5E1,8E0,5.2E0,7.4E0,4.437E2,3.13E1,4.026E2,3.36E1,2.07E1,2.8154E3,2.14E1,4.07E2,8.1E0,1.4E1,4.341E2,9.6E0,1.88E1,1.25E1,3.749E2,2.77E1,2.53E1,8.3E0,1.1E1,9.7E0,2.6718E3,1.436E2,1.35E1,7.9E0,3.806E2,2.64E1],"tree_param":{"num_deleted":"0","num_feature":"82","num_nodes":"59","size_leaf_vector":"1"}},{"base_weights":[-1.7637566E-1,6.6443986E-1,-5.720247E0,7.849721E-1,-6.369016E0,-1.037001E0,-2.4127031E1,-4.4732484E-1,1.3003956E0,-4.7742596E0,-1.2814768E1,-2.9201922E-1,-1.3827094E0,-4.3084326E0,-4.1813152E1,-6.218571E0,1.7470631E-1,-3.4223552E0,1.3501555E0,-3.544185E-1,-3.279405E0,-4.447925E-1,-8.0148745E-1,1.3192617E0,-4.1843386E0,-1.8726002E0,2.0647948E0,-2.3879964E0,1.962966E-1,1.5479662E0,-1.5355565E1,-1.0569138E1,5.210289E-1,2.5755365E0,-5.922366E-1,-1.1904278E0,1.4418302E0,2.950554E-2,-4.2684793E0,1.5974901E0,-4.4810796E0,-3.4446603E-1,-1.610118E1,3.0780563E0,1.6415395E0,-2.0757218E-1,1.03690885E-1,-8.1334794E-1,-4.3557864E-1,-1.0830945E0,-5.8942407E-2,1.2351223E-1,-7.044026E-3,1.7790197E-1,9.3482845E-2,6.90839E-2,-4.047268E-1,7.405545E-2,-2.5722107E-2,-2.4228719E-1,-1.2282596E-1,9.449328E-2,-2.2268699E-1,4.669846E-2,-4.5377493E-1,5.9441067E-2,-5.6608665E-1,-9.405695E-1,1.1481178E-1,6.520935E-2,1.8607666E-1,1.30146025E-2,9.030306E-2],"categories":[],"categories_nodes":[],"categories_segments":[],"categories_sizes":[],"default_left":[0,1,0,0,0,0,0,0,0,0,0,0,0,0,0,0,0,0,0,0,0,0,0,0,1,0,0,0,0,0,0,0,0,0,0,0,1,0,0,0,0,0,0,0,0,0,0,0,0,0,0,0,0,0,0,0,0,0,0,0,0,0,0,0,0,0,0,0,0,0,0,0,0],"id":15,"left_children":[1,3,5,7,9,11,13,15,17,19,21,23,-1,25,27,29,31,33,35,-1,37,-1,-1,39,41,-1,43,-1,-1,45,47,49,51,53,-1,55,57,-1,59,61,63,65,67,69,71,-1,-1,-1,-1,-1,-1,-1,-1,-1,-1,-1,-1,-1,-1,-1,-1,-1,-1,-1,-1,-1,-1,-1,-1,-1,-1,-1,-1],"loss_changes":[2.0356285E4,3.2197834E3,4.955061E4,2.3691377E3,5.967009E2,9.103496E3,4.068979E4,3.951766E3,6.2258545E2,1.5974902E2,9.852661E0,2.815206E3,0E0,1.1927419E4,1.6915523E4,7.6238857E3,3.7055059E3,1.4298137E3,6.079502E2,0E0,1.3264496E2,0E0,0E0,5.1970764E2,6.0072056E3,0E0,1.5532944E1,0E0,0E0,1.8483546E2,1.5681445E2,3.2139688E3,1.244492E3,5.1376724E0,0E0,1.6307223E3,1.938374E2,0E0,1.6547058E1,5.459096E2,3.766854E2,1.7033225E3,1.6387422E3,9.985199E0,7.710724E0,0E0,0E0,0E0,0E0,0E0,0E0,0E0,0E0,0E0,0E0,0E0,0E0,0E0,0E0,0E0,0E0,0E0,0E0,0E0,0E0,0E0,0E0,0E0,0E0,0E0,0E0,0E0,0E0],"parents":[2147483647,0,0,1,1,2,2,3,3,4,4,5,5,6,6,7,7,8,8,9,9,10,10,11,11,13,13,14,14,15,15,16,16,17,17,18,18,20,20,23,23,24,24,26,26,29,29,30,30,31,31,32,32,33,33,35,35,36,36,38,38,39,39,40,40,41,41,42,42,43,43,44,44],"right_children":[2,4,6,8,10,12,14,16,18,20,22,24,-1,26,28,30,32,34,36,-1,38,-1,-1,40,42,-1,44,-1,-1,46,48,50,52,54,-1,56,58,-1,60,62,64,66,68,70,72,-1,-1,-1,-1,-1,-1,-1,-1,-1,-1,-1,-1,-1,-1,-1,-1,-1,-1,-1,-1,-1,-1,-1,-1,-1,-1,-1,-1],"split_conditions":[9.1812146E-1,3.5775378E0,2.9343396E-1,-6.788205E-1,2.3485716E1,1.7198364E1,-2.5249386E0,1.71E1,4.0041668E1,9.816458E2,3.66E1,6.9827974E-2,-1.3827094E0,3.16E3,5.56E3,6.4398317E0,4.725E1,8.7E0,2.6E3,-3.544185E-1,1.9363334E3,-4.447925E-1,-8.0148745E-1,2.5528572E4,6.8E0,-1.8726002E0,-6.2625E0,-2.3879964E0,1.962966E-1,-7.674926E-1,1.7516666E1,6.025E0,4.2E3,2.1E0,-5.922366E-1,2.8506667E3,2.65625E1,2.950554E-2,9.864667E2,9.051895E0,2.11E4,8.4125E1,1.16E1,-1.1270833E1,2.1208334E1,-2.0757218E-1,1.03690885E-1,-8.1334794E-1,-4.3557864E-1,-1.0830945E0,-5.8942407E-2,1.2351223E-1,-7.044026E-3,1.7790197E-1,9.3482845E-2,6.90839E-2,-4.047268E-1,7.405545E-2,-2.5722107E-2,-2.4228719E-1,-1.2282596E-1,9.449328E-2,-2.2268699E-1,4.669846E-2,-4.5377493E-1,5.9441067E-2,-5.6608665E-1,-9.405695E-1,1.1481178E-1,6.520935E-2,1.8607666E-1,1.30146025E-2,9.030306E-2],"split_indices":[80,15,81,80,13,61,60,67,4,8,2,81,0,11,45,58,27,19,69,0,72,0,0,68,40,0,25,0,0,57,5,23,69,10,0,72,23,0,8,60,45,26,2,25,9,0,0,0,0,0,0,0,0,0,0,0,0,0,0,0,0,0,0,0,0,0,0,0,0,0,0,0,0],"split_type":[0,0,0,0,0,0,0,0,0,0,0,0,0,0,0,0,0,0,0,0,0,0,0,0,0,0,0,0,0,0,0,0,0,0,0,0,0,0,0,0,0,0,0,0,0,0,0,0,0,0,0,0,0,0,0,0,0,0,0,0,0,0,0,0,0,0,0,0,0,0,0,0,0],"sum_hessian":[4.3652E3,3.7911E3,5.741E2,3.7281E3,6.3E1,4.585E2,1.156E2,1.0995E3,2.6286E3,5.19E1,1.11E1,4.47E2,1.15E1,5.51E1,6.05E1,1.061E2,9.934E2,2.67E1,2.6019E3,1.89E1,3.3E1,6.7E0,4.4E0,3.166E2,1.304E2,8.1E0,4.7E1,5.35E1,7E0,5.78E1,4.83E1,3.01E1,9.633E2,1.6E1,1.07E1,9.02E1,2.5117E3,6.8E0,2.62E1,3.028E2,1.38E1,9.94E1,3.1E1,1.2E1,3.5E1,4.3E0,5.35E1,4.12E1,7.1000004E0,1.32E1,1.69E1,2.435E2,7.198E2,5E0,1.1E1,6.63E1,2.39E1,2.4625E3,4.92E1,1.86E1,7.6E0,2.895E2,1.33E1,6.7E0,7.1E0,8.8E1,1.14E1,2.7E1,4E0,4E0,8E0,4E0,3.1E1],"tree_param":{"num_deleted":"0","num_feature":"82","num_nodes":"73","size_leaf_vector":"1"}},{"base_weights":[3.745827E-2,6.633693E-1,-4.3827887E0,7.6133204E-1,-7.864754E0,-2.4670393E1,-3.892943E-1,-6.490708E-1,1.2419657E0,-5.527068E0,-6.5609443E-1,-5.464994E0,-2.2228284E0,2.9640403E-1,-1.4884977E0,-8.153918E0,-1.1378308E-1,1.3055747E0,-3.5813026E0,-6.8321643E0,-2.0595188E0,-1.7892593E0,1.9397099E0,1.0721693E0,-5.4161863E0,9.902384E-2,-1.3929632E1,-9.915183E0,3.1363985E-1,-1.3989912E0,1.3698317E0,-6.1569705E0,-3.930089E-2,-2.0128107E-1,-3.6814132E-1,-1.4993793E-1,-4.4132177E-2,1.6807371E-1,1.6224282E0,-4.331256E0,1.495757E0,-1.91943E1,1.9165257E0,-7.49953E-1,-3.1320092E-1,-7.461839E-2,-8.545212E-1,3.2914627E-2,-3.4506476E-1,1.0049486E-1,-5.629155E-1,-2.0313743E-1,6.961447E-2,-3.4390724E-1,-1.21515684E-1,-1.4641534E-1,9.920069E-2,8.889713E-2,1.9797973E-2,1.16034284E-1,-7.9229695E-1,9.475934E-2,-1.455826E-1,-4.8909146E-1,-1.2429854E0,1.0971733E-1,1.08302724E-4],"categories":[],"categories_nodes":[],"categories_segments":[],"categories_sizes":[],"default_left":[0,1,0,0,0,0,0,0,1,0,0,0,0,1,0,0,0,0,0,0,0,0,0,0,0,0,0,0,0,1,0,1,0,0,0,0,0,0,0,0,0,0,0,0,0,0,0,0,0,0,0,0,0,0,0,0,0,0,0,0,0,0,0,0,0,0,0],"id":16,"left_children":[1,3,5,7,9,11,13,15,17,19,-1,21,-1,23,-1,25,27,29,31,33,35,-1,37,39,41,-1,43,45,47,49,51,53,55,-1,-1,-1,-1,-1,57,59,61,63,65,-1,-1,-1,-1,-1,-1,-1,-1,-1,-1,-1,-1,-1,-1,-1,-1,-1,-1,-1,-1,-1,-1,-1,-1],"loss_changes":[1.2018051E4,3.18483E3,4.3643125E4,2.5514915E3,4.5961133E2,3.3425164E4,9.09882E3,3.8435835E3,8.6578076E2,1.2938684E2,0E0,1.0419417E4,0E0,1.9641442E3,0E0,3.7561616E3,3.749639E3,4.8346387E2,3.354852E2,4.018799E0,8.517384E0,0E0,1.1688049E1,8.988911E2,5.391426E3,0E0,2.3969727E2,2.2347913E3,2.1378374E3,2.2005117E3,3.3593164E2,4.0529175E1,1.0225837E2,0E0,0E0,0E0,0E0,0E0,5.59021E0,2.2273901E3,6.433291E2,7.4334863E2,1.8875916E1,0E0,0E0,0E0,0E0,0E0,0E0,0E0,0E0,0E0,0E0,0E0,0E0,0E0,0E0,0E0,0E0,0E0,0E0,0E0,0E0,0E0,0E0,0E0,0E0],"parents":[2147483647,0,0,1,1,2,2,3,3,4,4,5,5,6,6,7,7,8,8,9,9,11,11,13,13,15,15,16,16,17,17,18,18,19,19,20,20,22,22,23,23,24,24,26,26,27,27,28,28,29,29,30,30,31,31,32,32,38,38,39,39,40,40,41,41,42,42],"right_children":[2,4,6,8,10,12,14,16,18,20,-1,22,-1,24,-1,26,28,30,32,34,36,-1,38,40,42,-1,44,46,48,50,52,54,56,-1,-1,-1,-1,-1,58,60,62,64,66,-1,-1,-1,-1,-1,-1,-1,-1,-1,-1,-1,-1,-1,-1,-1,-1,-1,-1,-1,-1,-1,-1,-1,-1],"split_conditions":[9.206588E-1,2.74E1,8.48E3,-7.5086427E-1,3E1,7.91E3,1.6302303E1,1.71E1,3.47E1,3.54E1,-6.5609443E-1,-4.8E0,-2.2228284E0,9.2570806E-1,-1.4884977E0,1.4321428E1,4.725E1,4.9E0,2.338714E1,1.9958334E1,5.3333332E1,-1.7892593E0,6.0571427E0,5.48E3,1.21E1,9.902384E-2,1.7516666E1,1.2558177E1,9.9666664E1,-2.2297367E-2,3.6916668E1,3.6179526E0,1.8E3,-2.0128107E-1,-3.6814132E-1,-1.4993793E-1,-4.4132177E-2,1.6807371E-1,7.6E3,5.0084057E0,8.8041664E1,1.6170834E1,1.56E1,-7.49953E-1,-3.1320092E-1,-7.461839E-2,-8.545212E-1,3.2914627E-2,-3.4506476E-1,1.0049486E-1,-5.629155E-1,-2.0313743E-1,6.961447E-2,-3.4390724E-1,-1.21515684E-1,-1.4641534E-1,9.920069E-2,8.889713E-2,1.9797973E-2,1.16034284E-1,-7.9229695E-1,9.475934E-2,-1.455826E-1,-4.8909146E-1,-1.2429854E0,1.0971733E-1,1.08302724E-4],"split_indices":[80,10,73,80,10,42,13,67,51,51,0,0,0,48,0,52,27,55,57,9,4,0,62,11,20,0,5,33,9,48,29,46,11,0,0,0,0,0,42,33,27,5,10,0,0,0,0,0,0,0,0,0,0,0,0,0,0,0,0,0,0,0,0,0,0,0,0],"split_type":[0,0,0,0,0,0,0,0,0,0,0,0,0,0,0,0,0,0,0,0,0,0,0,0,0,0,0,0,0,0,0,0,0,0,0,0,0,0,0,0,0,0,0,0,0,0,0,0,0,0,0,0,0,0,0,0,0,0,0,0,0,0,0,0,0,0,0],"sum_hessian":[4.3418E3,3.804E3,5.378E2,3.7617E3,4.23E1,8.76E1,4.502E2,9.56E2,2.8057E3,3.0699999E1,1.16E1,4.51E1,4.25E1,4.409E2,9.3E0,6.27E1,8.933E2,2.7699E3,3.58E1,2.16E1,9.1E0,8.1E0,3.7E1,3.889E2,5.2E1,2.3E1,3.97E1,3.64E1,8.569E2,6.38E1,2.7061E3,2.03E1,1.55E1,4.8E0,1.68E1,4.2E0,4.9E0,5E0,3.2E1,2.76E1,3.613E2,1.75E1,3.45E1,3.4E1,5.7E0,1.73E1,1.91E1,8.187E2,3.82E1,4.8E1,1.5799999E1,1.04E1,2.6957E3,1.63E1,4E0,6.2E0,9.3E0,2.8E1,4E0,1.8E1,9.6E0,3.318E2,2.95E1,7.6E0,9.9E0,3E1,4.5E0],"tree_param":{"num_deleted":"0","num_feature":"82","num_nodes":"67","size_leaf_vector":"1"}},{"base_weights":[-1.4142135E-1,-1.3589987E1,-2.1819355E-2,-5.697475E-1,-2.1039267E0,-2.813969E0,2.941317E-1,-4.450903E-1,1.603394E0,-8.963362E-1,-1.5045186E1,1.3273319E0,-4.284893E-1,9.252726E-2,2.5150472E-2,-4.9909015E0,6.581291E-1,-2.2597504E0,-7.243053E0,-5.225545E0,1.3904055E0,-2.8294664E1,-2.189187E-1,-7.953524E0,2.6060712E0,1.0384376E0,-9.15787E0,-1.7096274E0,-9.623698E-1,-6.494647E-1,8.692987E-2,1.4552147E0,-2.6307142E0,-2.0530143E0,9.7617656E-2,6.6865563E-1,-2.7257438E0,1.2019378E-1,-5.5022293E-1,1.3838708E-1,6.354373E-2,6.8974294E-2,-1.7530368E-1,-2.5054392E-1,-5.849109E-1,9.464278E-2,-4.405541E-1,5.0516855E-3,8.321051E-2,-4.6971402E-1,9.6501164E-2,-8.886742E-1,4.5588877E-2,-9.182761E-2,-9.716717E-1],"categories":[],"categories_nodes":[],"categories_segments":[],"categories_sizes":[],"default_left":[0,0,0,0,0,0,0,0,0,0,0,0,0,0,0,0,0,0,0,0,0,0,0,0,0,0,0,0,0,0,0,0,0,0,0,0,1,0,0,0,0,0,0,0,0,0,0,0,0,0,0,0,0,0,0],"id":17,"left_children":[1,3,5,7,-1,9,11,-1,13,15,17,19,21,-1,-1,23,25,-1,27,29,31,33,35,37,39,41,43,-1,45,-1,-1,47,49,-1,-1,51,53,-1,-1,-1,-1,-1,-1,-1,-1,-1,-1,-1,-1,-1,-1,-1,-1,-1,-1],"loss_changes":[6.9886895E3,1.4182555E4,3.801094E3,5.085872E2,0E0,1.0259796E4,2.890555E3,0E0,5.188282E0,2.420022E3,1.3621964E4,6.657986E2,1.3300089E4,0E0,0E0,2.3749556E3,1.040221E3,0E0,8.1424116E3,8.5522815E2,4.1529907E2,6.6442373E3,5.0358706E3,2.412234E3,2.9799805E0,4.1819434E2,5.0943665E1,0E0,9.1755383E2,0E0,0E0,4.3978247E2,8.016412E2,0E0,0E0,7.511588E3,8.756291E3,0E0,0E0,0E0,0E0,0E0,0E0,0E0,0E0,0E0,0E0,0E0,0E0,0E0,0E0,0E0,0E0,0E0,0E0],"parents":[2147483647,0,0,1,1,2,2,3,3,5,5,6,6,8,8,9,9,10,10,11,11,12,12,15,15,16,16,18,18,19,19,20,20,21,21,22,22,23,23,24,24,25,25,26,26,28,28,31,31,32,32,35,35,36,36],"right_children":[2,4,6,8,-1,10,12,-1,14,16,18,20,22,-1,-1,24,26,-1,28,30,32,34,36,38,40,42,44,-1,46,-1,-1,48,50,-1,-1,52,54,-1,-1,-1,-1,-1,-1,-1,-1,-1,-1,-1,-1,-1,-1,-1,-1,-1,-1],"split_conditions":[3.975E1,7.5041666E0,1.1583333E1,5.0833332E1,-2.1039267E0,7.4708336E1,7.7833333E0,-4.450903E-1,1.36E4,1.7E1,7.5083336E1,1.2666667E1,-7.639618E-1,9.252726E-2,2.5150472E-2,8.71E3,2.77E4,-2.2597504E0,-1.6666667E-1,3.1E3,1.0012E3,4E-1,-1.6587819E-1,1.18041664E2,1.4957143E1,3.14E1,2.9558334E2,-1.7096274E0,9.936125E2,-6.494647E-1,8.692987E-2,1.8915527E-1,9.4E0,-2.0530143E0,9.7617656E-2,1.1314285E1,2.17E1,1.2019378E-1,-5.5022293E-1,1.3838708E-1,6.354373E-2,6.8974294E-2,-1.7530368E-1,-2.5054392E-1,-5.849109E-1,9.464278E-2,-4.405541E-1,5.0516855E-3,8.321051E-2,-4.6971402E-1,9.6501164E-2,-8.886742E-1,4.5588877E-2,-9.182761E-2,-9.716717E-1],"split_indices":[27,3,9,28,0,4,14,0,45,41,4,9,30,0,0,42,43,0,66,45,8,3,81,6,62,2,6,0,8,0,0,81,55,0,0,50,40,0,0,0,0,0,0,0,0,0,0,0,0,0,0,0,0,0,0],"split_type":[0,0,0,0,0,0,0,0,0,0,0,0,0,0,0,0,0,0,0,0,0,0,0,0,0,0,0,0,0,0,0,0,0,0,0,0,0,0,0,0,0,0,0,0,0,0,0,0,0,0,0,0,0,0,0],"sum_hessian":[4.3441E3,3.73E1,4.3068E3,2.63E1,1.1E1,4.37E2,3.8698E3,4.8E0,2.15E1,3.787E2,5.83E1,1.5923E3,2.2775E3,1.7E1,4.5E0,1.036E2,2.751E2,1.1E1,4.73E1,1.44E1,1.5779E3,1.6E1,2.2615E3,7.45E1,2.91E1,2.657E2,9.4E0,8.1E0,3.92E1,6.3999996E0,8E0,1.5535E3,2.44E1,1.1E1,5E0,1.6707E3,5.908E2,1.7E1,5.75E1,2.5E1,4.1E0,2.478E2,1.79E1,4.7E0,4.7E0,2.93E1,9.9E0,2.079E2,1.3456E3,9.4E0,1.5E1,2.08E1,1.6499E3,5.62E2,2.8800001E1],"tree_param":{"num_deleted":"0","num_feature":"82","num_nodes":"55","size_leaf_vector":"1"}},{"base_weights":[-7.238832E-2,5.416371E-1,-4.1900463E0,1.1923085E0,-7.515602E-1,-8.0153054E-1,-1.9132357E1,1.2627212E0,-1.3204496E0,4.8472404E-1,-3.3089077E0,-1.1792174E-1,-1.2821323E0,-3.8565186E1,-3.1900253E0,-3.7217596E0,1.2852088E0,-5.5511703E0,1.0650934E0,1.0430865E0,-6.4014735E0,-1.6005998E0,-2.0823118E1,1.3984952E0,-3.3152294E0,1.0709603E-1,-2.1178806E0,-1.6335396E0,2.1328182E0,1.2905502E-1,-5.60146E-1,-3.770532E-1,1.3364754E0,-8.500943E0,9.636021E-2,-2.760953E-1,9.603254E-2,-7.535763E-1,1.1753232E0,-4.8314404E0,-6.279915E-1,-3.6207888E0,2.3571703E0,-7.6313334E0,-1.5125148E0,1.9970415E0,-1.3778589E0,1.4313975E-1,-1.3582042E1,1.5118991E0,3.0990036E0,7.172707E-2,-5.7951415E-1,6.838783E-2,-3.9145812E-2,-1.759854E-1,-5.0484747E-1,6.5032385E-2,-2.1898153E-1,7.435731E-3,-2.874614E-1,1.2705187E-1,-3.320338E-1,1.7254822E-1,1.8168768E-2,9.167133E-2,-6.3942593E-1,1.0602744E-1,5.0719436E-2,5.9194835E-3,-8.2568234E-1,-3.0380175E-1,8.4990524E-2,1.1764902E-1,-8.07271E-1,1.33008575E-2,8.37286E-2,1.9492142E-1,5.8582146E-2],"categories":[],"categories_nodes":[],"categories_segments":[],"categories_sizes":[],"default_left":[0,1,0,0,0,0,0,0,0,0,0,0,0,0,0,0,1,0,0,0,0,0,0,0,1,0,0,0,1,0,0,1,1,0,0,0,0,0,0,0,0,0,0,0,0,1,0,0,0,0,0,0,0,0,0,0,0,0,0,0,0,0,0,0,0,0,0,0,0,0,0,0,0,0,0,0,0,0,0],"id":18,"left_children":[1,3,5,7,9,11,13,15,17,19,21,23,-1,25,27,29,31,33,35,37,39,41,43,45,47,-1,-1,-1,49,-1,-1,51,53,55,-1,-1,-1,-1,57,59,-1,61,63,65,-1,67,69,71,73,75,77,-1,-1,-1,-1,-1,-1,-1,-1,-1,-1,-1,-1,-1,-1,-1,-1,-1,-1,-1,-1,-1,-1,-1,-1,-1,-1,-1,-1],"loss_changes":[1.1134834E4,3.225824E3,2.8920998E4,4.528562E2,4.0595283E3,7.925688E3,3.2592336E4,2.8288892E2,7.123922E2,3.336827E3,1.2485059E4,2.212621E3,0E0,7.423711E3,9.343742E3,5.6645667E2,2.1105273E2,5.7669464E2,2.6758698E2,1.726731E3,5.6875854E2,3.065193E3,4.382957E3,5.1723755E2,5.214287E3,0E0,0E0,0E0,2.591069E1,0E0,0E0,1.5340696E3,1.5998535E2,1.10743164E2,0E0,0E0,0E0,0E0,5.601271E2,2.4538855E2,0E0,4.7340073E3,2.8181403E2,8.434803E2,0E0,2.8809082E1,1.258858E3,1.083006E3,1.5493462E3,6.242676E0,2.4707245E1,0E0,0E0,0E0,0E0,0E0,0E0,0E0,0E0,0E0,0E0,0E0,0E0,0E0,0E0,0E0,0E0,0E0,0E0,0E0,0E0,0E0,0E0,0E0,0E0,0E0,0E0,0E0,0E0],"parents":[2147483647,0,0,1,1,2,2,3,3,4,4,5,5,6,6,7,7,8,8,9,9,10,10,11,11,13,13,14,14,15,15,16,16,17,17,18,18,19,19,20,20,21,21,22,22,23,23,24,24,28,28,31,31,32,32,33,33,38,38,39,39,41,41,42,42,43,43,45,45,46,46,47,47,48,48,49,49,50,50],"right_children":[2,4,6,8,10,12,14,16,18,20,22,24,-1,26,28,30,32,34,36,38,40,42,44,46,48,-1,-1,-1,50,-1,-1,52,54,56,-1,-1,-1,-1,58,60,-1,62,64,66,-1,68,70,72,74,76,78,-1,-1,-1,-1,-1,-1,-1,-1,-1,-1,-1,-1,-1,-1,-1,-1,-1,-1,-1,-1,-1,-1,-1,-1,-1,-1,-1,-1],"split_conditions":[9.1812146E-1,7.2E0,2.9343396E-1,3.14E1,-1.3185851E-1,2.6E1,5.7541668E1,3.6916668E1,6.2875E1,7.99E1,1.7691128E1,6.9827974E-2,-1.2821323E0,2.9291666E0,3.16E3,7.7375E1,4.9E0,-9.800709E-1,1.92E1,-1.8E0,2.3470644E1,2.84E1,2.65E1,9.4E0,6.1E0,1.0709603E-1,-2.1178806E0,-1.6335396E0,-1E-1,1.2905502E-1,-5.60146E-1,-2.199816E-2,1.1455758E0,1.612338E1,9.636021E-2,-2.760953E-1,9.603254E-2,-7.535763E-1,8.9583336E1,1.84E1,-6.279915E-1,3.656E3,7.5375E1,9E0,-1.5125148E0,7.88E0,9.051895E0,4.106388E0,8.9E0,2.1208334E1,1E4,7.172707E-2,-5.7951415E-1,6.838783E-2,-3.9145812E-2,-1.759854E-1,-5.0484747E-1,6.5032385E-2,-2.1898153E-1,7.435731E-3,-2.874614E-1,1.2705187E-1,-3.320338E-1,1.7254822E-1,1.8168768E-2,9.167133E-2,-6.3942593E-1,1.0602744E-1,5.0719436E-2,5.9194835E-3,-8.2568234E-1,-3.0380175E-1,8.4990524E-2,1.1764902E-1,-8.07271E-1,1.33008575E-2,8.37286E-2,1.9492142E-1,5.8582146E-2],"split_indices":[80,10,81,2,81,55,27,29,29,17,60,81,0,1,11,27,55,81,17,0,30,55,17,0,40,0,0,0,41,0,0,48,75,31,0,0,0,0,27,0,0,72,27,16,0,66,60,61,20,9,11,0,0,0,0,0,0,0,0,0,0,0,0,0,0,0,0,0,0,0,0,0,0,0,0,0,0,0,0],"split_type":[0,0,0,0,0,0,0,0,0,0,0,0,0,0,0,0,0,0,0,0,0,0,0,0,0,0,0,0,0,0,0,0,0,0,0,0,0,0,0,0,0,0,0,0,0,0,0,0,0,0,0,0,0,0,0,0,0,0,0,0,0,0,0,0,0,0,0,0,0,0,0,0,0,0,0,0,0,0,0],"sum_hessian":[4.4021E3,3.8316E3,5.705E2,2.5491E3,1.2825E3,4.659E2,1.046E2,2.4801E3,6.9E1,8.651E2,4.174E2,4.544E2,1.15E1,4.65E1,5.81E1,1.04E1,2.4697E3,2.44E1,4.46E1,8.01E2,6.41E1,3.813E2,3.61E1,3.086E2,1.458E2,4E0,4.25E1,8.1E0,5E1,6E0,4.4E0,7.37E1,2.396E3,1.74E1,7E0,4.5E0,4.01E1,5.6E0,7.954E2,5.25E1,1.16E1,2.525E2,1.288E2,1.58E1,2.03E1,2.541E2,5.45E1,1.098E2,3.6E1,3.2E1,1.8E1,6.42E1,9.5E0,2.3615E3,3.45E1,5E0,1.24E1,7.786E2,1.68E1,8.3E0,4.42E1,8.31E1,1.694E2,8.27E1,4.61E1,5.8E0,1E1,2.247E2,2.94E1,5.05E1,4E0,2.14E1,8.84E1,5E0,3.1E1,4E0,2.8E1,1.2E1,6E0],"tree_param":{"num_deleted":"0","num_feature":"82","num_nodes":"79","size_leaf_vector":"1"}},{"base_weights":[-3.3140528E-1,4.242348E-1,-5.366923E0,-3.5908892E0,6.714872E-1,-8.7692904E-1,-2.0443577E1,-9.5196605E-1,-2.7014498E1,7.5154984E-1,-7.931946E0,-1.8748206E-1,-1.223154E0,-3.07575E0,-3.516395E1,-2.4876136E-1,-9.451043E-1,-1.044854E0,-1.7012253E0,-2.765993E-1,1.1098819E0,-5.1896853E0,-5.99084E-1,-6.2152057E0,5.830783E-1,-1.5608382E0,1.8140421E0,-2.0106058E0,1.9560179E-1,1.1988677E0,-6.674777E0,8.4010196E-1,-3.5721998E0,-4.3459603E-1,1.1333461E0,-2.8637862E-1,-1.2010801E-1,1.4355152E0,-1.5721623E1,-1.0746844E1,1.0186812E0,1.8465279E-1,1.5852848E0,-2.774729E-1,1.1247426E-1,-7.730456E-1,-1.9310334E-1,5.443076E-2,-1.6851477E-1,-4.8589197E-1,4.573367E-2,6.1588377E-2,-4.7440317E-2,9.816707E-3,8.3271444E-2,-3.4618732E-1,-1.1942147E0,9.829926E-2,-7.962506E-1,6.7829244E-2,-2.4643365E-1,8.412133E-2,1.9697571E-2],"categories":[],"categories_nodes":[],"categories_segments":[],"categories_sizes":[],"default_left":[0,0,0,0,1,0,0,0,0,0,0,0,0,0,0,1,0,0,0,1,0,0,0,0,0,0,0,0,0,0,0,0,0,0,0,0,0,0,0,0,0,0,0,0,0,0,0,0,0,0,0,0,0,0,0,0,0,0,0,0,0,0,0],"id":19,"left_children":[1,3,5,7,9,11,13,15,17,19,21,23,-1,25,27,29,-1,-1,-1,31,33,35,-1,37,39,-1,41,-1,-1,43,45,47,49,-1,51,-1,-1,53,55,57,59,-1,61,-1,-1,-1,-1,-1,-1,-1,-1,-1,-1,-1,-1,-1,-1,-1,-1,-1,-1,-1,-1],"loss_changes":[1.6628012E4,3.775057E3,3.8581234E4,1.3610254E4,2.4723262E3,7.1569346E3,3.33323E4,2.5109836E3,2.4528125E2,1.3076407E3,3.0540796E2,1.9957465E3,0E0,8.464217E3,1.4103734E4,1.8015217E3,0E0,0E0,0E0,3.3810579E3,6.1509644E2,1.8477966E1,0E0,3.564566E3,1.8923014E3,0E0,1.692688E1,0E0,0E0,1.134107E3,8.200663E2,7.218762E2,6.4200073E3,0E0,5.393518E2,0E0,0E0,7.621853E0,1.4001807E3,9.660823E2,7.462311E2,0E0,5.007904E0,0E0,0E0,0E0,0E0,0E0,0E0,0E0,0E0,0E0,0E0,0E0,0E0,0E0,0E0,0E0,0E0,0E0,0E0,0E0,0E0],"parents":[2147483647,0,0,1,1,2,2,3,3,4,4,5,5,6,6,7,7,8,8,9,9,10,10,11,11,13,13,14,14,15,15,19,19,20,20,21,21,23,23,24,24,26,26,29,29,30,30,31,31,32,32,34,34,37,37,38,38,39,39,40,40,42,42],"right_children":[2,4,6,8,10,12,14,16,18,20,22,24,-1,26,28,30,-1,-1,-1,32,34,36,-1,38,40,-1,42,-1,-1,44,46,48,50,-1,52,-1,-1,54,56,58,60,-1,62,-1,-1,-1,-1,-1,-1,-1,-1,-1,-1,-1,-1,-1,-1,-1,-1,-1,-1,-1,-1],"split_conditions":[9.1812146E-1,-9.8542374E-1,2.7281126E-1,2.05E4,3.7508974E0,2.6E1,4.81E0,9.9291664E1,1.59E1,6.17E3,2.2802242E1,1.6E0,-1.223154E0,3.16E3,8.52E3,2.1213333E1,-9.451043E-1,-1.044854E0,-1.7012253E0,9.8E0,3.6916668E1,9.810917E2,-5.99084E-1,6.9916664E1,-1.6416667E0,-1.5608382E0,-1E-1,-2.0106058E0,1.9560179E-1,1.9733948E1,6.3958332E1,3.1825E2,2.4731522E0,-4.3459603E-1,2.2429167E1,-2.8637862E-1,-1.2010801E-1,3.6916668E1,4E-1,2.22E2,2.67E4,1.8465279E-1,1.7E1,-2.774729E-1,1.1247426E-1,-7.730456E-1,-1.9310334E-1,5.443076E-2,-1.6851477E-1,-4.8589197E-1,4.573367E-2,6.1588377E-2,-4.7440317E-2,9.816707E-3,8.3271444E-2,-3.4618732E-1,-1.1942147E0,9.829926E-2,-7.962506E-1,6.7829244E-2,-2.4643365E-1,8.412133E-2,1.9697571E-2],"split_indices":[80,80,81,45,15,55,54,9,0,73,30,21,0,11,43,66,0,0,0,40,29,8,0,26,1,0,40,0,0,61,28,6,79,0,5,0,0,29,21,6,43,0,19,0,0,0,0,0,0,0,0,0,0,0,0,0,0,0,0,0,0,0,0],"split_type":[0,0,0,0,0,0,0,0,0,0,0,0,0,0,0,0,0,0,0,0,0,0,0,0,0,0,0,0,0,0,0,0,0,0,0,0,0,0,0,0,0,0,0,0,0,0,0,0,0,0,0,0,0,0,0,0,0,0,0,0,0,0,0],"sum_hessian":[4.3684E3,3.7992E3,5.692E2,2.196E2,3.5796E3,4.394E2,1.298E2,1.983E2,2.13E1,3.5475E3,3.21E1,4.279E2,1.15E1,6.01E1,6.97E1,1.918E2,6.5E0,1.35E1,7.8E0,9.169E2,2.6306E3,2.05E1,1.16E1,4.77E1,3.802E2,8.1E0,5.2E1,6.17E1,8E0,1.572E2,3.46E1,6.854E2,2.315E2,5.4E0,2.6252E3,1.63E1,4.2E0,2.69E1,2.08E1,1.32E1,3.67E2,4E0,4.8E1,2.06E1,1.366E2,7.3E0,2.73E1,6.479E2,3.75E1,9.72E1,1.343E2,2.5071E3,1.181E2,4.5E0,2.24E1,1.09E1,9.9E0,4E0,9.2E0,3.48E2,1.9E1,4.4E1,4E0],"tree_param":{"num_deleted":"0","num_feature":"82","num_nodes":"63","size_leaf_vector":"1"}},{"base_weights":[-6.9799475E-2,-1.0340645E1,2.8465915E-2,-1.4996536E0,-3.5478194E0,-1.0828061E1,1.3047813E-1,2.124049E0,-1.2066389E1,-1.2654996E-1,-1.664575E0,-3.0548728E0,4.4246545E-1,6.707889E-2,1.18178345E-1,6.289619E-2,-9.0980923E-1,1.8424332E0,-4.0412542E-1,-2.0167186E0,-2.2604473E1,-2.5242925E-1,9.960816E-1,1.2263513E0,1.9383332E-1,-1.2991891E0,-1.3299317E0,-1.8488028E0,5.91876E-2,-4.149907E-3,-8.017438E0,-3.505926E-1,1.0281429E0,7.530256E-2,1.2028018E-2,-2.7129275E-1,3.6181357E-2,6.0995918E-2,-3.5891045E-2,-8.1556365E-2,-8.5028106E-1,-1.0883536E-1,5.484134E-2],"categories":[],"categories_nodes":[],"categories_segments":[],"categories_sizes":[],"default_left":[0,0,0,0,0,0,0,0,0,1,0,0,0,0,0,0,0,0,0,0,0,0,0,0,0,0,0,0,0,0,0,0,0,0,0,0,0,0,0,0,0,0,0],"id":20,"left_children":[1,3,5,-1,7,9,11,13,15,17,-1,19,21,-1,-1,-1,-1,23,-1,25,27,29,31,33,-1,-1,35,-1,-1,37,39,-1,41,-1,-1,-1,-1,-1,-1,-1,-1,-1,-1],"loss_changes":[4.409082E3,5.4203047E3,4.7945547E3,0E0,1.5669166E3,9.683615E3,4.263316E3,5.7740784E-1,1.076501E3,4.5821512E2,0E0,7.7215E3,1.503255E3,0E0,0E0,0E0,0E0,2.4697319E1,0E0,5.9652104E3,6.607759E3,3.341388E3,5.65553E2,5.014351E0,0E0,0E0,2.9932734E3,0E0,0E0,1.4689303E3,3.054713E3,0E0,4.7936865E2,0E0,0E0,0E0,0E0,0E0,0E0,0E0,0E0,0E0,0E0],"parents":[2147483647,0,0,1,1,2,2,4,4,5,5,6,6,7,7,8,8,9,9,11,11,12,12,17,17,19,19,20,20,21,21,22,22,23,23,26,26,29,29,30,30,32,32],"right_children":[2,4,6,-1,8,10,12,14,16,18,-1,20,22,-1,-1,-1,-1,24,-1,26,28,30,32,34,-1,-1,36,-1,-1,38,40,-1,42,-1,-1,-1,-1,-1,-1,-1,-1,-1,-1],"split_conditions":[3.9666668E1,-8.282041E0,3.975E1,-1.4996536E0,7.5958333E0,1.06E1,1.025E1,4.52E3,1.0020833E1,2.9E0,-1.664575E0,8.4625E1,6.9625E1,6.707889E-2,1.18178345E-1,6.289619E-2,-9.0980923E-1,1.4438992E1,-4.0412542E-1,0E0,5.1291668E1,6.9291664E1,4.0041668E1,8E-1,1.9383332E-1,-1.2991891E0,2.39E1,-1.8488028E0,5.91876E-2,8.7625E0,1.475E1,-3.505926E-1,9.7005414E2,7.530256E-2,1.2028018E-2,-2.7129275E-1,3.6181357E-2,6.0995918E-2,-3.5891045E-2,-8.1556365E-2,-8.5028106E-1,-1.0883536E-1,5.484134E-2],"split_indices":[26,33,27,0,37,7,9,43,5,10,0,26,28,0,0,0,0,61,0,67,27,28,4,19,0,0,67,0,0,1,3,0,8,0,0,0,0,0,0,0,0,0,0],"split_type":[0,0,0,0,0,0,0,0,0,0,0,0,0,0,0,0,0,0,0,0,0,0,0,0,0,0,0,0,0,0,0,0,0,0,0,0,0,0,0,0,0,0,0],"sum_hessian":[4.3673E3,4.04E1,4.3269E3,9.5E0,3.09E1,3.93E1,4.2876E3,1.9E1,1.19E1,2.73E1,1.2E1,3.817E2,3.9059E3,6E0,1.3E1,4E0,7.9E0,2.25E1,4.8E0,3.635E2,1.82E1,1.7322E3,2.1737E3,1.85E1,4E0,9.1E0,3.544E2,1.1E1,7.2E0,1.6795E3,5.27E1,7.8E0,2.1659E3,1.4E1,4.5E0,1.178E2,2.366E2,6.183E2,1.0612E3,3.15E1,2.12E1,4.48E1,2.1211E3],"tree_param":{"num_deleted":"0","num_feature":"82","num_nodes":"43","size_leaf_vector":"1"}},{"base_weights":[-1.2536036E-2,-3.2715375E0,3.427949E-1,-1.7515E1,-1.2972347E0,-1.0616152E1,4.546364E-1,-5.439716E-1,-3.2656616E1,-1.816904E1,-4.906335E-1,-1.6117725E-1,-1.5877485E0,5.3063536E-1,-4.663682E0,-7.663217E-1,2.9516287E0,6.5293096E-2,-1.9457619E0,-1.2784861E0,2.3532708E-1,-4.7532296E0,4.8640183E-1,-3.884096E-1,1.8069056E0,8.7268275E-1,-2.7766562E-1,-3.0065928E0,-6.888706E0,1.8366194E0,2.287877E-1,1.3560884E-1,-1.0567791E1,8.2791203E-1,-7.977187E0,1.20101E0,1.8436693E-1,-1.3908584E0,9.5051837E-1,9.9592906E-1,-2.9003596E0,-9.503324E-1,-4.7930074E0,-1.8551831E-1,-4.013004E-1,1.16609134E-1,5.9869744E-2,-7.339333E-1,-4.982576E-2,5.0353568E-2,-3.0637407E-1,-6.804916E-1,9.772819E-2,8.1744455E-3,7.614106E-2,4.5338105E-2,-6.04646E-1,-6.0155224E-3,5.680079E-2,-3.633857E-2,7.2851226E-2,-1.00146465E-1,-1.1039228E0,-3.204966E-4,-8.099382E-2,-1.4503953E-1,-2.817023E-1],"categories":[],"categories_nodes":[],"categories_segments":[],"categories_sizes":[],"default_left":[0,0,0,0,0,0,1,0,0,1,0,0,0,1,0,0,0,0,0,0,0,0,0,0,0,0,0,0,0,0,0,0,0,0,0,0,0,0,0,0,0,0,0,0,0,0,0,0,0,0,0,0,0,0,0,0,0,0,0,0,0,0,0,0,0,0,0],"id":21,"left_children":[1,3,5,7,9,11,13,15,17,19,21,23,-1,25,27,-1,29,-1,-1,-1,-1,31,33,-1,35,37,39,41,43,45,-1,-1,47,49,51,53,-1,55,57,59,61,63,65,-1,-1,-1,-1,-1,-1,-1,-1,-1,-1,-1,-1,-1,-1,-1,-1,-1,-1,-1,-1,-1,-1,-1,-1],"loss_changes":[4.990815E3,1.1892107E4,4.767885E3,1.3216129E4,5.0698975E3,8.68041E3,1.499219E3,1.3525795E3,5.8324023E3,2.998359E3,1.4899454E3,4.2275113E2,0E0,1.0487545E3,1.8723889E2,0E0,3.016858E1,0E0,0E0,0E0,0E0,2.9239795E3,8.4915656E2,0E0,2.1206749E1,4.708529E2,3.7720254E3,1.2070569E2,5.4443726E1,1.7373581E0,0E0,0E0,1.468729E3,3.5645636E2,6.643403E2,5.9279213E0,0E0,2.1994111E3,5.120215E2,6.0498755E2,6.3083613E3,1.0796776E1,1.230246E1,0E0,0E0,0E0,0E0,0E0,0E0,0E0,0E0,0E0,0E0,0E0,0E0,0E0,0E0,0E0,0E0,0E0,0E0,0E0,0E0,0E0,0E0,0E0,0E0],"parents":[2147483647,0,0,1,1,2,2,3,3,4,4,5,5,6,6,7,7,8,8,9,9,10,10,11,11,13,13,14,14,16,16,21,21,22,22,24,24,25,25,26,26,27,27,28,28,29,29,32,32,33,33,34,34,35,35,37,37,38,38,39,39,40,40,41,41,42,42],"right_children":[2,4,6,8,10,12,14,16,18,20,22,24,-1,26,28,-1,30,-1,-1,-1,-1,32,34,-1,36,38,40,42,44,46,-1,-1,48,50,52,54,-1,56,58,60,62,64,66,-1,-1,-1,-1,-1,-1,-1,-1,-1,-1,-1,-1,-1,-1,-1,-1,-1,-1,-1,-1,-1,-1,-1,-1],"split_conditions":[1.1125E1,5.4791668E1,3.975E1,6.2916665E0,3E-1,1.12E1,3.5775378E0,1.5E3,6.07E3,-2.3492416E-2,1.5078104E0,5.0833332E1,-1.5877485E0,9.826405E-1,1.97E3,-7.663217E-1,6.73E3,6.5293096E-2,-1.9457619E0,-1.2784861E0,2.3532708E-1,1.82E1,2.52E4,-3.884096E-1,-1.4125E0,4.725E1,-1.0196189E-1,2.6095833E1,2.5329167E2,1.8104167E2,2.287877E-1,1.3560884E-1,1.4825784E1,2.71625E1,6.6E0,5.590129E0,1.8436693E-1,2.0095833E1,8.358334E0,5.75E3,2.589E1,9.8512915E2,5.6541668E1,-1.8551831E-1,-4.013004E-1,1.16609134E-1,5.9869744E-2,-7.339333E-1,-4.982576E-2,5.0353568E-2,-3.0637407E-1,-6.804916E-1,9.772819E-2,8.1744455E-3,7.614106E-2,4.5338105E-2,-6.04646E-1,-6.0155224E-3,5.680079E-2,-3.633857E-2,7.2851226E-2,-1.00146465E-1,-1.1039228E0,-3.204966E-4,-8.099382E-2,-1.4503953E-1,-2.817023E-1],"split_indices":[9,27,27,9,67,7,46,11,11,15,48,28,0,48,11,0,42,0,0,0,0,55,11,0,23,27,81,1,6,6,0,0,61,22,0,61,0,25,5,45,54,8,27,0,0,0,0,0,0,0,0,0,0,0,0,0,0,0,0,0,0,0,0,0,0,0,0],"split_type":[0,0,0,0,0,0,0,0,0,0,0,0,0,0,0,0,0,0,0,0,0,0,0,0,0,0,0,0,0,0,0,0,0,0,0,0,0,0,0,0,0,0,0,0,0,0,0,0,0,0,0,0,0,0,0,0,0,0,0,0,0,0,0,0,0,0,0],"sum_hessian":[4.3078E3,4.227E2,3.8851E3,5.05E1,3.722E2,3.83E1,3.8468E3,2.43E1,2.62E1,1.6E1,3.562E2,2.63E1,1.2E1,3.7914E3,5.54E1,4E0,2.03E1,4.2E0,2.2E1,1.2E1,4E0,6.57E1,2.905E2,4.8E0,2.15E1,2.664E3,1.1274E3,3.31E1,2.23E1,1.33E1,7E0,2.9E1,3.67E1,2.801E2,1.04E1,1.75E1,4E0,8.8E1,2.576E3,7.593E2,3.681E2,1.61E1,1.7E1,7E0,1.53E1,6E0,7.3E0,2.53E1,1.14E1,2.739E2,6.2E0,6.4E0,4E0,4.5E0,1.3E1,7.32E1,1.4799999E1,3.804E2,2.1956E3,1.602E2,5.991E2,3.527E2,1.5400001E1,7.1E0,9E0,6.6000004E0,1.04E1],"tree_param":{"num_deleted":"0","num_feature":"82","num_nodes":"67","size_leaf_vector":"1"}},{"base_weights":[-2.2109887E-1,-1.1858051E1,-1.2590581E-1,-7.398734E-1,-1.6692095E0,-9.819027E0,-4.8957672E-2,-3.800834E-1,1.3390127E0,-1.4343817E0,-1.3317049E0,-4.4232768E-1,1.1866949E0,7.6715644E-3,8.422292E-2,-6.450226E-1,1.9162858E0,-1.1169639E0,-3.6718774E-1,1.2552133E0,-2.9649594E0,7.431068E-2,1.1878085E-1,5.412765E-1,-1.7193842E0,1.324188E0,-6.756903E-1,1.1882577E0,-5.525216E-1,-3.8136923E-1,3.7898406E-2,-6.218363E-2,-8.293929E-1,-2.5317881E-2,7.067377E-2,7.004339E-2,-5.829019E-1,3.17259E-2,6.998282E-2],"categories":[],"categories_nodes":[],"categories_segments":[],"categories_sizes":[],"default_left":[0,0,0,0,0,0,0,0,0,0,0,0,0,0,0,0,0,0,0,0,0,0,0,0,1,1,0,0,0,0,0,0,0,0,0,0,0,0,0],"id":22,"left_children":[1,3,5,7,-1,9,11,-1,13,-1,15,17,19,-1,-1,-1,21,-1,23,25,27,-1,-1,29,31,33,35,37,-1,-1,-1,-1,-1,-1,-1,-1,-1,-1,-1],"loss_changes":[4.8193555E3,8.423699E3,3.2198777E3,3.5681552E2,0E0,5.4066904E3,2.0831348E3,0E0,7.727852E0,0E0,9.4531287E2,5.340289E3,2.9811438E2,0E0,0E0,0E0,4.2023468E-1,0E0,3.981755E3,1.3658215E2,5.8736115E2,0E0,0E0,3.438144E3,9.19209E3,1.6154504E2,8.3276764E2,5.400219E-1,0E0,0E0,0E0,0E0,0E0,0E0,0E0,0E0,0E0,0E0,0E0],"parents":[2147483647,0,0,1,1,2,2,3,3,5,5,6,6,8,8,10,10,11,11,12,12,16,16,18,18,19,19,20,20,23,23,24,24,25,25,26,26,27,27],"right_children":[2,4,6,8,-1,10,12,-1,14,-1,16,18,20,-1,-1,-1,22,-1,24,26,28,-1,-1,30,32,34,36,38,-1,-1,-1,-1,-1,-1,-1,-1,-1,-1,-1],"split_conditions":[3.975E1,7.5041666E0,3.9666668E1,5.1875E1,-1.6692095E0,-6.2625E0,7.2696364E-1,-3.800834E-1,-5.3769584E0,-1.4343817E0,9.81875E2,-2.5031604E-2,1.57375E2,7.6715644E-3,8.422292E-2,-6.450226E-1,1.7245832E1,-1.1169639E0,-1.6587819E-1,9.997688E-1,7.697177E-1,7.431068E-2,1.1878085E-1,1.1314285E1,2.17E1,4.9E0,9.9414166E2,-9E-1,-5.525216E-1,-3.8136923E-1,3.7898406E-2,-6.218363E-2,-8.293929E-1,-2.5317881E-2,7.067377E-2,7.004339E-2,-5.829019E-1,3.17259E-2,6.998282E-2],"split_indices":[27,3,26,28,0,25,81,0,60,0,8,47,6,0,0,0,5,0,81,81,81,0,0,50,40,55,8,51,0,0,0,0,0,0,0,0,0,0,0],"split_type":[0,0,0,0,0,0,0,0,0,0,0,0,0,0,0,0,0,0,0,0,0,0,0,0,0,0,0,0,0,0,0,0,0,0,0,0,0,0,0],"sum_hessian":[4.3509E3,3.43E1,4.3166E3,2.33E1,1.1E1,3.3E1,4.2836E3,4.8E0,1.85E1,9.5E0,2.35E1,3.2497E3,1.0339E3,4.5E0,1.4E1,4.5E0,1.9E1,1.01E1,3.2396E3,1.0178E3,1.61E1,1.2E1,7E0,1.9381E3,1.3015E3,9.83E2,3.48E1,1.12E1,4.9E0,4.92E1,1.8889E3,1.2622E3,3.93E1,4.55E1,9.375E2,3E1,4.8E0,4.2E0,7E0],"tree_param":{"num_deleted":"0","num_feature":"82","num_nodes":"39","size_leaf_vector":"1"}},{"base_weights":[-2.8678927E-1,3.1077468E-1,-4.2573643E0,-3.07418E0,5.8601314E-1,-8.3320314E-1,-1.7226955E1,-1.3624293E0,-2.1600822E1,6.984045E-1,-4.8403254E0,-2.0912652E-1,-2.3003645E1,-2.2960246E0,-3.2598305E1,-7.535452E-1,-1.6037254E1,-1.3870339E0,-5.110974E-1,-2.7238888E-1,1.0026381E0,-3.7326424E0,-6.0432726E-1,3.148615E-1,-8.3087225E0,-6.9749516E-1,-1.317632E0,-1.3269409E0,1.831854E0,1.8560492E-1,-1.8381621E0,-6.259691E0,1.0486875E0,-2.4559784E-1,-1.1063954E0,-5.6998267E0,3.905421E-1,-2.6761925E0,1.0440482E0,-1.316566E0,-4.9352593E0,5.32908E-1,-6.9179064E-1,-1.6329353E1,1.5723425E-1,2.1599999E-1,1.5464023E0,-5.936718E-1,6.0079526E-2,1.0267717E-1,-1.8840846E-1,5.62315E-2,-6.005484E-1,-5.2578473E-1,3.941671E-2,1.0960026E-1,-5.7627577E-1,-1.5944394E-1,5.3444166E-2,6.496461E-2,-1.262306E-1,-3.161697E-1,-1.9156913E-1,-2.0996845E-1,5.181987E-2,-1.0336161E0,-3.7713706E-1,8.272866E-2,2.3869324E-2],"categories":[],"categories_nodes":[],"categories_segments":[],"categories_sizes":[],"default_left":[0,0,0,0,1,0,0,0,0,0,0,0,0,0,0,0,0,0,0,0,0,0,0,0,0,0,0,0,0,0,0,0,1,0,0,0,0,0,0,0,0,0,0,0,0,0,0,0,0,0,0,0,0,0,0,0,0,0,0,0,0,0,0,0,0,0,0,0,0],"id":23,"left_children":[1,3,5,7,9,11,13,15,17,19,21,23,25,27,29,31,33,-1,-1,35,37,39,-1,41,43,-1,-1,-1,45,-1,-1,47,49,-1,-1,51,53,55,57,59,61,63,-1,65,-1,-1,67,-1,-1,-1,-1,-1,-1,-1,-1,-1,-1,-1,-1,-1,-1,-1,-1,-1,-1,-1,-1,-1,-1],"loss_changes":[1.0451285E4,3.5692578E3,2.5574672E4,9.107084E3,2.1635522E3,6.316883E3,2.753504E4,2.3539739E3,1.4141475E3,1.0254258E3,5.327942E2,1.8929343E3,1.139502E1,6.2630425E3,9.089316E3,2.5399973E3,6.02792E2,0E0,0E0,2.9849814E3,4.0543164E2,1.7917102E2,0E0,1.3011255E3,2.5408528E3,0E0,0E0,0E0,3.167279E1,0E0,0E0,2.6572568E3,9.428738E2,0E0,0E0,3.9027383E3,3.2174153E3,1.3047477E3,2.782373E2,7.4697945E1,4.059021E1,9.9053156E2,0E0,4.584502E2,0E0,0E0,4.991951E0,0E0,0E0,0E0,0E0,0E0,0E0,0E0,0E0,0E0,0E0,0E0,0E0,0E0,0E0,0E0,0E0,0E0,0E0,0E0,0E0,0E0,0E0],"parents":[2147483647,0,0,1,1,2,2,3,3,4,4,5,5,6,6,7,7,8,8,9,9,10,10,11,11,12,12,13,13,14,14,15,15,16,16,19,19,20,20,21,21,23,23,24,24,28,28,31,31,32,32,35,35,36,36,37,37,38,38,39,39,40,40,41,41,43,43,46,46],"right_children":[2,4,6,8,10,12,14,16,18,20,22,24,26,28,30,32,34,-1,-1,36,38,40,-1,42,44,-1,-1,-1,46,-1,-1,48,50,-1,-1,52,54,56,58,60,62,64,-1,66,-1,-1,68,-1,-1,-1,-1,-1,-1,-1,-1,-1,-1,-1,-1,-1,-1,-1,-1,-1,-1,-1,-1,-1,-1],"split_conditions":[9.1812146E-1,-9.785481E-1,2.7281126E-1,2.05E4,3.0857143E1,2.6E1,4.81E0,9.9541664E1,1.1841666E1,-6.788205E-1,3.231641E1,8.7875E1,6E0,3.16E3,8.7625E0,1.712857E1,1.16E1,-1.3870339E0,-5.110974E-1,1.65E1,4.0041668E1,2.6333334E1,-6.0432726E-1,9.4416664E1,1.21E1,-6.9749516E-1,-1.317632E0,-1.3269409E0,2.59E3,1.8560492E-1,-1.8381621E0,2.84E1,2.126E1,-2.4559784E-1,-1.1063954E0,1.41285715E1,4.725E1,8.7E0,3.9666668E1,4.42E1,3.09E1,6.0142856E0,-6.9179064E-1,4.7E0,1.5723425E-1,2.1599999E-1,4.5866666E0,-5.936718E-1,6.0079526E-2,1.0267717E-1,-1.8840846E-1,5.62315E-2,-6.005484E-1,-5.2578473E-1,3.941671E-2,1.0960026E-1,-5.7627577E-1,-1.5944394E-1,5.3444166E-2,6.496461E-2,-1.262306E-1,-3.161697E-1,-1.9156913E-1,-2.0996845E-1,5.181987E-2,-1.0336161E0,-3.7713706E-1,8.272866E-2,2.3869324E-2],"split_indices":[80,80,81,45,52,55,54,9,5,80,34,27,0,11,1,62,0,0,0,67,4,1,0,4,20,0,0,0,45,0,0,55,66,0,0,52,27,19,26,16,21,50,0,0,0,0,54,0,0,0,0,0,0,0,0,0,0,0,0,0,0,0,0,0,0,0,0,0,0],"split_type":[0,0,0,0,0,0,0,0,0,0,0,0,0,0,0,0,0,0,0,0,0,0,0,0,0,0,0,0,0,0,0,0,0,0,0,0,0,0,0,0,0,0,0,0,0,0,0,0,0,0,0,0,0,0,0,0,0,0,0,0,0,0,0,0,0,0,0,0,0],"sum_hessian":[4.4033E3,3.8281E3,5.752E2,2.871E2,3.541E3,4.559E2,1.193E2,2.638E2,2.33E1,3.47E3,7.1E1,4.444E2,1.15E1,6.11E1,5.82E1,2.543E2,9.5E0,1.4200001E1,9.1E0,8.28E2,2.642E3,6.2899998E1,8.1E0,4.183E2,2.61E1,4.5E0,7E0,8.1E0,5.3E1,6E0,5.22E1,6.21E1,1.922E2,4E0,5.5E0,8.93E1,7.387E2,2.87E1,2.6133E3,2.16E1,4.13E1,4.129E2,5.4E0,1.51E1,1.1E1,4E0,4.9E1,3.51E1,2.7E1,1.595E2,3.27E1,4.33E1,4.6E1,2.51E1,7.136E2,1.9E1,9.7E0,1.45E1,2.5988E3,6.8E0,1.48E1,1.62E1,2.51E1,3.9E1,3.739E2,9.2E0,5.9E0,4.4E1,5E0],"tree_param":{"num_deleted":"0","num_feature":"82","num_nodes":"69","size_leaf_vector":"1"}},{"base_weights":[4.2659648E-2,4.9438223E-1,-3.1370194E0,-2.664736E0,7.2889435E-1,-4.9270853E-1,-1.4198637E1,-1.2518156E-1,-1.3194692E1,7.935138E-1,-4.0729895E0,1.4309533E-1,-2.2014673E1,-2.4691246E1,1.8283733E0,1.9869415E0,-3.6096783E0,-4.336995E0,-1.2650183E0,-1.5580689E-2,1.0372792E0,-1.1206167E-2,-4.7636356E0,-4.6446595E0,7.972183E-1,-6.689613E-1,-1.2599854E0,-8.298752E0,-1.6694216E0,1.5345107E0,1.848027E-1,-3.98821E0,2.5651684E0,-2.1539512E0,-7.835006E-1,-6.114759E-1,5.2127147E-1,7.4086434E-1,-2.787958E0,1.0600615E0,-3.4449184E-1,-6.309743E0,-3.0002396E0,-2.0616934E0,-1.1025299E0,-8.725596E0,1.0400132E0,-1.2678846E0,2.6035883E0,1.1796379E0,2.1262171E0,1.1353357E-1,-3.9964494E-1,2.1209191E-1,6.675332E-2,-4.4130993E-1,5.9938084E-2,1.736284E-1,-2.644235E-1,4.3664806E-2,-6.8858504E-1,-5.1052606E-1,8.496955E-2,5.676213E-2,-3.9864447E-2,-2.0879482E-1,-3.62894E-1,-1.7430262E-1,-7.2444916E-2,-4.7432342E-1,8.1676915E-2,-8.409812E-1,8.805359E-2,6.946329E-2,-2.406477E-1,8.5681535E-2,2.0203888E-1,4.1574202E-2,6.726332E-2,6.875753E-2,1.2867694E-1],"categories":[],"categories_nodes":[],"categories_segments":[],"categories_sizes":[],"default_left":[0,0,0,0,1,0,0,0,0,0,0,0,0,0,1,0,0,0,0,0,0,0,0,0,0,0,0,0,0,0,0,0,0,0,0,0,0,0,0,0,0,0,0,0,0,0,0,0,0,0,0,0,0,0,0,0,0,0,0,0,0,0,0,0,0,0,0,0,0,0,0,0,0,0,0,0,0,0,0,0,0],"id":24,"left_children":[1,3,5,7,9,11,13,15,17,19,21,23,25,27,29,31,33,35,-1,37,39,-1,41,43,45,-1,-1,47,-1,49,-1,51,53,55,-1,-1,57,59,61,63,-1,65,67,69,-1,71,73,-1,75,77,79,-1,-1,-1,-1,-1,-1,-1,-1,-1,-1,-1,-1,-1,-1,-1,-1,-1,-1,-1,-1,-1,-1,-1,-1,-1,-1,-1,-1,-1,-1],"loss_changes":[6.214408E3,2.8085103E3,1.5735547E4,7.0045938E3,1.0977355E3,5.9610537E3,1.7500688E4,1.5681616E3,5.3481973E3,6.866304E2,1.2386804E2,1.3312648E3,6.6503906E0,8.676219E3,1.7379715E1,4.68708E2,1.3777948E3,1.1797004E3,0E0,1.6944662E3,4.9045483E2,0E0,8.9579895E1,2.251941E3,8.733341E2,0E0,0E0,4.3622134E3,0E0,5.471092E0,0E0,3.214342E2,2.4513379E2,1.641363E3,0E0,0E0,3.595753E2,1.2320645E3,5.7862324E3,3.7352856E2,0E0,1.0762451E1,1.0399139E1,1.2665902E3,0E0,8.274867E2,7.53624E2,0E0,1.2261169E1,3.8070297E-1,8.2858276E-1,0E0,0E0,0E0,0E0,0E0,0E0,0E0,0E0,0E0,0E0,0E0,0E0,0E0,0E0,0E0,0E0,0E0,0E0,0E0,0E0,0E0,0E0,0E0,0E0,0E0,0E0,0E0,0E0,0E0,0E0],"parents":[2147483647,0,0,1,1,2,2,3,3,4,4,5,5,6,6,7,7,8,8,9,9,10,10,11,11,12,12,13,13,14,14,15,15,16,16,17,17,19,19,20,20,22,22,23,23,24,24,27,27,29,29,31,31,32,32,33,33,36,36,37,37,38,38,39,39,41,41,42,42,43,43,45,45,46,46,48,48,49,49,50,50],"right_children":[2,4,6,8,10,12,14,16,18,20,22,24,26,28,30,32,34,36,-1,38,40,-1,42,44,46,-1,-1,48,-1,50,-1,52,54,56,-1,-1,58,60,62,64,-1,66,68,70,-1,72,74,-1,76,78,80,-1,-1,-1,-1,-1,-1,-1,-1,-1,-1,-1,-1,-1,-1,-1,-1,-1,-1,-1,-1,-1,-1,-1,-1,-1,-1,-1,-1,-1,-1],"split_conditions":[9.1812146E-1,-9.819472E-1,2.7281126E-1,2.3535494E1,3.66E1,2.6E1,1E4,-9.9039733E-1,7.11E3,1.43E1,1.84E1,1.6E0,6E0,4.7166667E0,7.7E0,1.38E1,2.37E1,1.0175E2,-1.2650183E0,6.4398317E0,3.46E1,-1.1206167E-2,2.0897045E1,-3.4821377E0,3.9958332E1,-6.689613E-1,-1.2599854E0,-4.8E0,-1.6694216E0,-1.207577E0,1.848027E-1,1.01291664E2,2.0963333E1,3E-1,-7.835006E-1,-6.114759E-1,2.73E1,3.065E2,5.05E3,2.2429167E1,